svm_type nu_svr
kernel_type rbf
gamma 0.25
nr_class 2
total_sv 2782
rho -0.000240749
SV
0.1 1:-0.83308973 2:-0.80687371 3:-0.63158987 4:0.6415891 
-0.1 1:1.0016232 2:-0.80687371 3:-0.63158987 4:0.6415891 
0.1 1:-0.83308973 2:-1.7721358 3:-0.26628249 4:-1.0026811 
0.01113675861743519 1:-0.37441149 2:-1.7721358 3:-0.26628249 4:-1.0026811 
0.1 1:-0.37441149 2:-1.7721358 3:-0.26628249 4:-1.0026811 
0.1 1:2.3776579 2:-1.6515767 3:-0.44893618 4:2.0509636 
0.1 1:-0.83308973 2:-0.57818282 3:-0.81424356 4:0.77861162 
0.1 1:0.084266749 2:-0.57818282 3:-0.81424356 4:0.77861162 
0.1 1:1.0016232 2:-0.57818282 3:-0.81424356 4:0.77861162 
0.1 1:1.0016232 2:-0.57818282 3:-0.81424356 4:0.77861162 
-0.07575079658350864 1:-0.37441149 2:1.2520801 3:0.28167858 4:-1.0026811 
0.1 1:1.0016232 2:-0.1646381 3:-0.44893618 4:2.0509636 
-0.1 1:2.3776579 2:-0.1646381 3:-0.44893618 4:2.0509636 
-0.05225960222339201 1:-1.291768 2:-0.88550889 3:-1.3622046 4:-1.0026811 
-0.1 1:-0.37441149 2:-0.88550889 3:-1.3622046 4:-1.0026811 
-0.1 1:-0.37441149 2:-0.88550889 3:-1.3622046 4:-1.0026811 
0.1 1:-0.37441149 2:0.14392522 3:-1.3622046 4:-1.0026811 
0.04746455655684539 1:-0.37441149 2:0.14392522 3:-1.3622046 4:-1.0026811 
-0.05152461895948118 1:-1.291768 2:-0.48303489 3:2.8388302 4:-1.0026811 
0.09669519561681256 1:-0.83308973 2:-0.48303489 3:2.8388302 4:-1.0026811 
-0.03548385712446599 1:-0.83308973 2:0.022423823 3:-1.1795509 4:1.1348702 
-0.1 1:1.0016232 2:0.022423823 3:-1.1795509 4:1.1348702 
0.1 1:0.084266749 2:1.3826697 3:0.64698596 4:0.066094524 
0.1 1:-0.83308973 2:-0.25748482 3:-1.3622046 4:1.3723759 
0.1 1:-0.37441149 2:0.85809845 3:-0.083628797 4:-1.0026811 
-0.003152074301907897 1:-1.291768 2:-1.1837291 3:-0.99689725 4:-1.0026811 
0.1 1:-0.83308973 2:-1.1837291 3:-0.99689725 4:-1.0026811 
0.1 1:-0.37441149 2:-1.1837291 3:-0.99689725 4:-1.0026811 
0.1 1:-0.37441149 2:-1.1837291 3:-0.99689725 4:-1.0026811 
-0.1 1:1.0016232 2:-1.2444274 3:-1.1795509 4:1.1348702 
-0.1 1:0.084266749 2:1.1011917 3:0.099024893 4:0.25470199 
-0.1 1:1.0016232 2:1.1011917 3:0.099024893 4:0.25470199 
0.1 1:1.0016232 2:1.1011917 3:0.099024893 4:0.25470199 
0.1 1:-0.83308973 2:-1.2804408 3:-0.81424356 4:0.77861162 
0.1 1:1.0016232 2:-1.2804408 3:-0.81424356 4:0.77861162 
0.1 1:1.0016232 2:-1.2804408 3:-0.81424356 4:0.77861162 
0.1 1:-0.83308973 2:0.83555669 3:-0.26628249 4:0.42235307 
0.1 1:0.084266749 2:0.83555669 3:-0.26628249 4:0.42235307 
0.1 1:1.0016232 2:0.83555669 3:-0.26628249 4:0.42235307 
0.1 1:1.0016232 2:0.83555669 3:-0.26628249 4:0.42235307 
-0.1 1:1.0016232 2:-0.41208623 3:-0.26628249 4:0.42235307 
0.1 1:1.0016232 2:1.4401572 3:0.82963965 4:0.015200446 
0.08193876331339764 1:2.3776579 2:-1.7131819 3:2.2908692 4:0.47149218 
0.1 1:2.3776579 2:-1.2650287 3:-0.083628797 4:1.669258 
0.1 1:0.084266749 2:-1.4497252 3:-0.81424356 4:0.77861162 
0.1 1:1.0016232 2:-1.4497252 3:-0.81424356 4:0.77861162 
0.1 1:1.0016232 2:-1.4497252 3:-0.81424356 4:0.77861162 
0.1 1:0.084266749 2:1.024521 3:-0.99689725 4:0.94054732 
0.1 1:1.0016232 2:1.024521 3:-0.99689725 4:0.94054732 
0.1 1:1.0016232 2:1.024521 3:-0.99689725 4:0.94054732 
-0.1 1:2.3776579 2:1.4412396 3:2.6561766 4:0.37638423 
-0.1 1:-0.83308973 2:-0.29875597 3:-0.26628249 4:-1.0026811 
-0.1 1:-1.291768 2:-1.2466242 3:-0.99689725 4:-1.0026811 
-0.1 1:-0.37441149 2:-1.2466242 3:-0.99689725 4:-1.0026811 
0.1 1:-0.83308973 2:-0.37831146 3:-0.81424356 4:-1.0026811 
0.1 1:-0.37441149 2:-0.37831146 3:-0.81424356 4:-1.0026811 
-0.1 1:1.0016232 2:1.3305684 3:2.4735229 4:-0.29016402 
-0.1 1:1.0016232 2:1.3305684 3:2.4735229 4:-0.29016402 
-0.007678468897033331 1:0.084266749 2:-0.98580989 3:1.5602544 4:1.5623804 
0.002218556000934852 1:1.9189797 2:-0.98580989 3:1.5602544 4:1.5623804 
-0.1 1:-1.291768 2:-0.45569757 3:-0.44893618 4:-1.0026811 
-0.1 1:-0.83308973 2:-0.45569757 3:-0.44893618 4:-1.0026811 
-0.1 1:-0.37441149 2:-0.45569757 3:-0.44893618 4:-1.0026811 
-0.1 1:-0.37441149 2:-0.45569757 3:-0.44893618 4:-1.0026811 
0.1 1:-0.83308973 2:1.3583347 3:0.28167858 4:-1.0026811 
0.1 1:1.0016232 2:0.11001124 3:-0.44893618 4:0.52414123 
0.1 1:1.0016232 2:0.11001124 3:-0.44893618 4:0.52414123 
-0.1 1:-0.37441149 2:0.53974564 3:-0.083628797 4:1.669258 
0.1 1:1.0016232 2:0.53974564 3:-0.083628797 4:1.669258 
0.1 1:2.3776579 2:0.53974564 3:-0.083628797 4:1.669258 
0.1 1:2.3776579 2:0.53974564 3:-0.083628797 4:1.669258 
-0.1 1:-0.37441149 2:1.2504776 3:0.46433227 4:-1.0026811 
-0.1 1:1.0016232 2:0.71732289 3:1.5602544 4:-0.1476606 
-0.1 1:1.0016232 2:0.71732289 3:1.5602544 4:-0.1476606 
0.1 1:-0.83308973 2:-0.31242685 3:0.099024893 4:0.25470199 
-0.1 1:1.0016232 2:-0.31242685 3:0.099024893 4:0.25470199 
-0.1 1:1.0016232 2:1.5034248 3:2.4735229 4:-0.29016402 
-0.1 1:1.0016232 2:1.5034248 3:2.4735229 4:-0.29016402 
-0.1 1:-0.83308973 2:-0.22984945 3:-0.44893618 4:-1.0026811 
0.1 1:-0.37441149 2:-0.22984945 3:-0.44893618 4:-1.0026811 
-0.1 1:1.0016232 2:1.0867985 3:1.7429081 4:0.6415891 
-0.01925742799880165 1:2.3776579 2:1.0867985 3:1.7429081 4:0.6415891 
0.1 1:-1.291768 2:-0.67287021 3:-0.44893618 4:-1.0026811 
0.1 1:-0.83308973 2:-0.67287021 3:-0.44893618 4:-1.0026811 
0.1 1:-0.37441149 2:-0.67287021 3:-0.44893618 4:-1.0026811 
-0.1 1:-1.291768 2:-1.0210602 3:-0.81424356 4:-1.0026811 
-0.1 1:-0.37441149 2:1.038836 3:2.2908692 4:0.47149218 
-0.1 1:2.3776579 2:1.038836 3:2.2908692 4:0.47149218 
-0.1 1:2.3776579 2:1.038836 3:2.2908692 4:0.47149218 
0.1 1:-0.83308973 2:-0.05383887 3:-0.99689725 4:-1.0026811 
0.02019238610679428 1:-0.37441149 2:-0.05383887 3:-0.99689725 4:-1.0026811 
0.1 1:-0.37441149 2:-0.05383887 3:-0.99689725 4:-1.0026811 
0.1 1:-0.83308973 2:-1.3091428 3:-0.44893618 4:0.52414123 
0.1 1:-0.83308973 2:-0.5706172 3:0.099024893 4:-1.0026811 
0.1 1:-0.83308973 2:-1.2326817 3:-0.44893618 4:-1.0026811 
0.1 1:-0.37441149 2:-1.2326817 3:-0.44893618 4:-1.0026811 
0.1 1:-0.37441149 2:-1.2326817 3:-0.44893618 4:-1.0026811 
0.03924710289437359 1:-0.37441149 2:1.1244889 3:2.1082155 4:0.52414123 
0.1 1:1.0016232 2:1.1244889 3:2.1082155 4:0.52414123 
0.1 1:2.3776579 2:1.1244889 3:2.1082155 4:0.52414123 
0.1 1:2.3776579 2:1.1244889 3:2.1082155 4:0.52414123 
-0.1 1:1.0016232 2:0.56873569 3:-0.083628797 4:0.33328843 
0.02774464709955077 1:1.0016232 2:0.56873569 3:-0.083628797 4:0.33328843 
-0.1 1:-1.291768 2:-0.65096656 3:-0.81424356 4:-1.0026811 
-0.1 1:-0.83308973 2:-0.65096656 3:-0.81424356 4:-1.0026811 
-0.1 1:-0.37441149 2:-0.65096656 3:-0.81424356 4:-1.0026811 
-0.1 1:-0.37441149 2:-0.65096656 3:-0.81424356 4:-1.0026811 
-0.1 1:-1.291768 2:0.57396391 3:-0.083628797 4:-1.0026811 
-0.1 1:-0.83308973 2:0.57396391 3:-0.083628797 4:-1.0026811 
-0.1 1:-0.37441149 2:0.57396391 3:-0.083628797 4:-1.0026811 
-0.1 1:-0.37441149 2:0.57396391 3:-0.083628797 4:-1.0026811 
0.1 1:0.084266749 2:0.83496997 3:0.099024893 4:0.25470199 
0.1 1:1.0016232 2:0.83496997 3:0.099024893 4:0.25470199 
0.1 1:1.0016232 2:0.83496997 3:0.099024893 4:0.25470199 
-0.1 1:-1.291768 2:-0.60086244 3:-0.44893618 4:-1.0026811 
0.05427294383281082 1:0.084266749 2:1.420489 3:2.1082155 4:-0.23926994 
-0.07546201759829493 1:-0.83308973 2:-0.99944718 3:-0.083628797 4:0.33328843 
-0.1 1:-1.291768 2:-0.060032684 3:-0.99689725 4:-1.0026811 
-0.1 1:-0.83308973 2:-0.060032684 3:-0.99689725 4:-1.0026811 
-0.1 1:-0.37441149 2:-0.060032684 3:-0.99689725 4:-1.0026811 
-0.1 1:-0.37441149 2:-0.060032684 3:-0.99689725 4:-1.0026811 
0.1 1:-1.291768 2:0.008266168 3:-0.63158987 4:-1.0026811 
0.1 1:-0.83308973 2:0.008266168 3:-0.63158987 4:-1.0026811 
-0.1 1:-0.83308973 2:1.0242413 3:0.64698596 4:-1.0026811 
-0.1 1:1.0016232 2:-0.9806786 3:-0.26628249 4:0.42235307 
-0.1 1:1.0016232 2:0.23033965 3:1.7429081 4:-0.18054601 
-0.1 1:1.0016232 2:0.23033965 3:1.7429081 4:-0.18054601 
0.1 1:1.0016232 2:-0.41020471 3:-0.99689725 4:0.94054732 
-0.009118076276201663 1:-0.37441149 2:-0.82211275 3:-0.44893618 4:2.0509636 
0.1 1:2.3776579 2:-0.82211275 3:-0.44893618 4:2.0509636 
0.1 1:1.0016232 2:0.92570467 3:0.46433227 4:1.2473729 
-0.05874284898099118 1:1.0016232 2:-0.20851932 3:-0.99689725 4:2.8837758 
-0.1 1:2.3776579 2:-0.20851932 3:-0.99689725 4:2.8837758 
-0.1 1:1.0016232 2:0.074689782 3:-0.81424356 4:0.77861162 
-0.1 1:0.084266749 2:-1.8482937 3:0.28167858 4:0.18484737 
-0.04449271743813183 1:1.0016232 2:1.228954 3:2.1082155 4:0.52414123 
0.1 1:-1.291768 2:-0.80483779 3:-0.63158987 4:-1.0026811 
0.1 1:-0.83308973 2:-0.80483779 3:-0.63158987 4:-1.0026811 
-0.1 1:-1.291768 2:0.59111595 3:-0.99689725 4:-1.0026811 
-0.1 1:-0.37441149 2:0.59111595 3:-0.99689725 4:-1.0026811 
-0.1 1:-0.83308973 2:0.077371926 3:-1.3622046 4:1.3723759 
-0.1 1:0.084266749 2:0.077371926 3:-1.3622046 4:1.3723759 
-0.1 1:1.0016232 2:0.077371926 3:-1.3622046 4:1.3723759 
-0.1 1:1.0016232 2:0.077371926 3:-1.3622046 4:1.3723759 
0.1 1:-0.83308973 2:1.3701235 3:1.3776007 4:-0.11203475 
-0.1 1:0.084266749 2:1.3701235 3:1.3776007 4:-0.11203475 
0.1 1:-1.291768 2:-0.9816387 3:-0.63158987 4:-1.0026811 
0.1 1:-0.83308973 2:-0.9816387 3:-0.63158987 4:-1.0026811 
0.1 1:-0.37441149 2:-0.9816387 3:-0.63158987 4:-1.0026811 
0.1 1:-0.37441149 2:-0.9816387 3:-0.63158987 4:-1.0026811 
0.1 1:-0.37441149 2:-1.5607012 3:-0.63158987 4:-1.0026811 
0.1 1:-1.291768 2:-0.6182386 3:-1.1795509 4:-1.0026811 
0.1 1:-0.37441149 2:-0.6182386 3:-1.1795509 4:-1.0026811 
0.1 1:-0.37441149 2:-0.6182386 3:-1.1795509 4:-1.0026811 
0.1 1:-0.83308973 2:0.75856312 3:-0.26628249 4:0.42235307 
0.1 1:0.084266749 2:0.75856312 3:-0.26628249 4:0.42235307 
0.1 1:1.0016232 2:0.75856312 3:-0.26628249 4:0.42235307 
0.1 1:1.0016232 2:0.75856312 3:-0.26628249 4:0.42235307 
0.1 1:-0.37441149 2:-1.2167371 3:-0.99689725 4:-1.0026811 
0.1 1:-1.291768 2:0.57032068 3:0.099024893 4:-1.0026811 
0.1 1:-0.83308973 2:0.57032068 3:0.099024893 4:-1.0026811 
0.1 1:-0.37441149 2:0.57032068 3:0.099024893 4:-1.0026811 
0.1 1:-0.37441149 2:0.57032068 3:0.099024893 4:-1.0026811 
-0.1 1:-0.37441149 2:0.092253462 3:0.82963965 4:-1.0026811 
0.1 1:-0.83308973 2:0.53344602 3:0.099024893 4:0.25470199 
0.1 1:0.084266749 2:0.53344602 3:0.099024893 4:0.25470199 
0.1 1:1.0016232 2:0.53344602 3:0.099024893 4:0.25470199 
0.1 1:-1.291768 2:0.76287484 3:0.28167858 4:-1.0026811 
0.1 1:-0.83308973 2:0.76287484 3:0.28167858 4:-1.0026811 
0.1 1:-0.37441149 2:0.76287484 3:0.28167858 4:-1.0026811 
0.1 1:-0.37441149 2:0.76287484 3:0.28167858 4:-1.0026811 
0.1 1:0.084266749 2:1.3790963 3:1.3776007 4:-0.11203475 
-0.1 1:-0.83308973 2:0.45428767 3:0.28167858 4:-1.0026811 
0.1 1:-0.37441149 2:0.45428767 3:0.28167858 4:-1.0026811 
-0.1 1:-1.291768 2:0.24255197 3:-0.63158987 4:-1.0026811 
-0.1 1:-0.83308973 2:-0.86196137 3:-0.81424356 4:0.77861162 
0.1 1:0.084266749 2:-1.5320645 3:-0.81424356 4:0.77861162 
0.1 1:1.0016232 2:-1.5320645 3:-0.81424356 4:0.77861162 
-0.1 1:1.0016232 2:-1.4665603 3:-0.81424356 4:0.77861162 
0.1 1:-0.83308973 2:-0.29502645 3:-0.083628797 4:0.33328843 
-0.1 1:1.0016232 2:-0.29502645 3:-0.083628797 4:0.33328843 
-0.1 1:1.0016232 2:-0.29502645 3:-0.083628797 4:0.33328843 
0.1 1:-0.83308973 2:1.0536974 3:0.82963965 4:0.015200446 
0.1 1:1.0016232 2:1.0536974 3:0.82963965 4:0.015200446 
0.1 1:1.0016232 2:1.0536974 3:0.82963965 4:0.015200446 
-0.1 1:0.084266749 2:-1.72452 3:-0.81424356 4:0.77861162 
-0.1 1:1.0016232 2:-1.72452 3:-0.81424356 4:0.77861162 
-0.1 1:0.084266749 2:1.1560337 3:-0.81424356 4:0.77861162 
0.1 1:-0.37441149 2:-1.7041701 3:-0.81424356 4:-1.0026811 
-0.1 1:-0.83308973 2:0.68891857 3:-0.26628249 4:0.42235307 
-0.1 1:0.084266749 2:0.68891857 3:-0.26628249 4:0.42235307 
-0.1 1:1.0016232 2:0.68891857 3:-0.26628249 4:0.42235307 
-0.1 1:1.0016232 2:0.68891857 3:-0.26628249 4:0.42235307 
-0.1 1:-0.37441149 2:1.4852496 3:-0.44893618 4:-1.0026811 
-0.1 1:-0.37441149 2:1.4852496 3:-0.44893618 4:-1.0026811 
0.01746725257684972 1:0.084266749 2:-1.2332208 3:-0.81424356 4:0.77861162 
0.1 1:1.0016232 2:-1.2332208 3:-0.81424356 4:0.77861162 
0.1 1:1.0016232 2:-1.2332208 3:-0.81424356 4:0.77861162 
-0.1 1:0.084266749 2:0.16275671 3:-0.26628249 4:3.2724214 
-0.1 1:1.0016232 2:1.3828738 3:2.8388302 4:-0.33469634 
0.1 1:-1.291768 2:0.72241136 3:-0.44893618 4:-1.0026811 
0.1 1:-0.83308973 2:0.72241136 3:-0.44893618 4:-1.0026811 
0.1 1:-0.37441149 2:0.72241136 3:-0.44893618 4:-1.0026811 
0.1 1:-0.37441149 2:0.72241136 3:-0.44893618 4:-1.0026811 
-0.1 1:1.0016232 2:-0.66973019 3:-0.26628249 4:0.42235307 
-0.1 1:1.0016232 2:-0.66973019 3:-0.26628249 4:0.42235307 
-0.06319727808498928 1:-1.291768 2:-0.84187332 3:-0.63158987 4:-1.0026811 
0.02195854925788969 1:-0.83308973 2:-0.60193086 3:3.0214839 4:-0.3549383 
0.005883551316097935 1:0.084266749 2:-0.60193086 3:3.0214839 4:-0.3549383 
0.1 1:-1.291768 2:0.43001697 3:-0.083628797 4:-1.0026811 
-0.03791229716508695 1:-1.291768 2:1.0804742 3:3.0214839 4:-1.0026811 
-0.002290130308663174 1:-0.83308973 2:1.0804742 3:3.0214839 4:-1.0026811 
0.1 1:1.0016232 2:1.5292386 3:2.8388302 4:-0.33469634 
-0.1 1:-0.83308973 2:0.0008771005 3:0.099024893 4:0.25470199 
0.1 1:0.084266749 2:0.0008771005 3:0.099024893 4:0.25470199 
0.1 1:1.0016232 2:0.0008771005 3:0.099024893 4:0.25470199 
0.1 1:1.0016232 2:0.0008771005 3:0.099024893 4:0.25470199 
0.04753260338099691 1:1.0016232 2:1.0223229 3:-0.26628249 4:1.8473873 
0.1 1:2.3776579 2:1.0223229 3:-0.26628249 4:1.8473873 
0.1 1:2.3776579 2:1.0223229 3:-0.26628249 4:1.8473873 
0.1 1:-0.83308973 2:-0.17512025 3:-0.26628249 4:-1.0026811 
0.1 1:-0.37441149 2:-0.17512025 3:-0.26628249 4:-1.0026811 
0.1 1:-0.37441149 2:-0.17512025 3:-0.26628249 4:-1.0026811 
-0.04484296751590809 1:-0.83308973 2:-0.90485688 3:2.1082155 4:-1.0026811 
-0.02620561882208238 1:-0.37441149 2:-0.90485688 3:2.1082155 4:-1.0026811 
-0.1 1:-0.37441149 2:-0.90485688 3:2.1082155 4:-1.0026811 
-0.1 1:-0.83308973 2:1.2380688 3:-0.81424356 4:-1.0026811 
-0.1 1:-0.37441149 2:1.2380688 3:-0.81424356 4:-1.0026811 
-0.1 1:-0.37441149 2:1.2380688 3:-0.81424356 4:-1.0026811 
0.1 1:-1.291768 2:1.0538339 3:1.3776007 4:-1.0026811 
0.1 1:-0.83308973 2:1.0538339 3:1.3776007 4:-1.0026811 
0.1 1:-0.37441149 2:1.0538339 3:1.3776007 4:-1.0026811 
0.1 1:-0.37441149 2:1.0538339 3:1.3776007 4:-1.0026811 
0.1 1:-1.291768 2:-0.353911 3:-0.26628249 4:-1.0026811 
0.1 1:-0.37441149 2:-0.353911 3:-0.26628249 4:-1.0026811 
-0.1 1:0.084266749 2:1.1462119 3:-0.26628249 4:0.42235307 
-0.1 1:1.0016232 2:1.1462119 3:-0.26628249 4:0.42235307 
-0.1 1:1.0016232 2:1.1462119 3:-0.26628249 4:0.42235307 
-0.1 1:-0.37441149 2:0.88832014 3:0.46433227 4:1.2473729 
-0.1 1:2.3776579 2:0.88832014 3:0.46433227 4:1.2473729 
0.07841214980951097 1:0.084266749 2:-1.8501087 3:1.3776007 4:-0.11203475 
0.0454669844331336 1:1.0016232 2:-1.8501087 3:1.3776007 4:-0.11203475 
0.03411664781174817 1:-1.291768 2:0.42290567 3:-0.99689725 4:-1.0026811 
-0.1 1:-0.37441149 2:-1.0108531 3:0.28167858 4:-1.0026811 
-0.1 1:-0.83308973 2:-1.3782235 3:-0.63158987 4:0.6415891 
-0.1 1:0.084266749 2:-1.3782235 3:-0.63158987 4:0.6415891 
-0.1 1:1.0016232 2:-1.3782235 3:-0.63158987 4:0.6415891 
-0.1 1:1.0016232 2:-1.3782235 3:-0.63158987 4:0.6415891 
-0.00753018933945668 1:-0.37441149 2:-0.32426575 3:-0.99689725 4:-1.0026811 
-0.1 1:-0.37441149 2:-0.32426575 3:-0.99689725 4:-1.0026811 
-0.1 1:1.0016232 2:0.85871582 3:-0.63158987 4:0.6415891 
-0.1 1:-0.37441149 2:-1.0096753 3:-0.26628249 4:-1.0026811 
-0.1 1:-0.37441149 2:-1.0096753 3:-0.26628249 4:-1.0026811 
-0.1 1:-0.37441149 2:-1.0919752 3:-0.083628797 4:1.669258 
-0.1 1:-0.37441149 2:0.021490919 3:-0.26628249 4:-1.0026811 
-0.1 1:-0.37441149 2:0.021490919 3:-0.26628249 4:-1.0026811 
-0.1 1:1.0016232 2:-0.8078496 3:-1.1795509 4:1.1348702 
-0.1 1:1.0016232 2:-0.8078496 3:-1.1795509 4:1.1348702 
-0.1 1:0.084266749 2:0.13361928 3:0.099024893 4:0.25470199 
-0.1 1:1.0016232 2:0.13361928 3:0.099024893 4:0.25470199 
0.1 1:-0.83308973 2:-0.53520835 3:-0.083628797 4:-1.0026811 
0.1 1:-0.37441149 2:-0.53520835 3:-0.083628797 4:-1.0026811 
-0.1 1:1.0016232 2:0.14823059 3:0.099024893 4:0.25470199 
0.07852756865906391 1:-1.291768 2:1.5380792 3:-0.26628249 4:-1.0026811 
0.1 1:-0.83308973 2:1.5380792 3:-0.26628249 4:-1.0026811 
0.1 1:-0.37441149 2:1.5380792 3:-0.26628249 4:-1.0026811 
0.1 1:-0.37441149 2:1.5380792 3:-0.26628249 4:-1.0026811 
0.1 1:-0.37441149 2:-1.6259797 3:-0.26628249 4:-1.0026811 
-0.1 1:2.3776579 2:-0.96362156 3:0.28167858 4:1.3723759 
-0.1 1:1.0016232 2:1.3133292 3:1.0122933 4:-0.031066897 
-0.1 1:-0.83308973 2:-0.50297431 3:0.28167858 4:-1.0026811 
-0.1 1:-0.37441149 2:-0.50297431 3:0.28167858 4:-1.0026811 
-0.1 1:-0.37441149 2:-0.50297431 3:0.28167858 4:-1.0026811 
-0.1 1:0.084266749 2:-1.7690209 3:-0.63158987 4:0.6415891 
-0.1 1:1.0016232 2:-1.7690209 3:-0.63158987 4:0.6415891 
-0.1 1:1.0016232 2:-1.7690209 3:-0.63158987 4:0.6415891 
0.1 1:-0.83308973 2:-1.6309778 3:-1.1795509 4:-1.0026811 
0.1 1:-0.37441149 2:-1.6309778 3:-1.1795509 4:-1.0026811 
0.1 1:-0.37441149 2:-1.6309778 3:-1.1795509 4:-1.0026811 
-0.1 1:-0.37441149 2:0.91587862 3:0.099024893 4:1.5120851 
-0.1 1:1.0016232 2:0.91587862 3:0.099024893 4:1.5120851 
-0.1 1:2.3776579 2:0.91587862 3:0.099024893 4:1.5120851 
-0.1 1:2.3776579 2:0.91587862 3:0.099024893 4:1.5120851 
-0.07629791292263766 1:2.3776579 2:0.84024733 3:0.64698596 4:1.1348702 
-0.1 1:0.084266749 2:1.013341 3:0.46433227 4:0.12234587 
-0.1 1:1.0016232 2:1.013341 3:0.46433227 4:0.12234587 
0.1 1:0.084266749 2:-0.7339747 3:-0.81424356 4:0.77861162 
0.1 1:1.0016232 2:-0.7339747 3:-0.81424356 4:0.77861162 
0.1 1:1.0016232 2:-0.7339747 3:-0.81424356 4:0.77861162 
0.01134827319292712 1:-0.37441149 2:-0.40180591 3:-1.1795509 4:3.2724214 
-0.04316428967879978 1:1.0016232 2:-0.40180591 3:-1.1795509 4:3.2724214 
-0.1 1:2.3776579 2:-0.40180591 3:-1.1795509 4:3.2724214 
-0.1 1:2.3776579 2:-0.40180591 3:-1.1795509 4:3.2724214 
-0.09926434112850092 1:-0.83308973 2:1.3875424 3:-0.63158987 4:0.6415891 
-0.1 1:0.084266749 2:1.3875424 3:-0.63158987 4:0.6415891 
-0.1 1:1.0016232 2:1.3875424 3:-0.63158987 4:0.6415891 
-0.1 1:-0.83308973 2:-0.47950393 3:-0.63158987 4:0.6415891 
0.1 1:-1.291768 2:-0.087049607 3:-0.083628797 4:-1.0026811 
0.1 1:-0.83308973 2:-0.087049607 3:-0.083628797 4:-1.0026811 
0.1 1:-0.37441149 2:-0.087049607 3:-0.083628797 4:-1.0026811 
0.1 1:-0.37441149 2:-0.087049607 3:-0.083628797 4:-1.0026811 
-0.1 1:-0.37441149 2:0.33894244 3:-0.44893618 4:-1.0026811 
-0.1 1:-1.291768 2:-0.50393003 3:-0.44893618 4:-1.0026811 
-0.1 1:-0.83308973 2:-0.50393003 3:-0.44893618 4:-1.0026811 
-0.1 1:-0.37441149 2:-0.50393003 3:-0.44893618 4:-1.0026811 
0.1 1:-0.37441149 2:-0.78248489 3:0.46433227 4:1.2473729 
-0.05719418513202067 1:1.0016232 2:-0.78248489 3:0.46433227 4:1.2473729 
0.1 1:2.3776579 2:-0.78248489 3:0.46433227 4:1.2473729 
-0.1 1:-0.83308973 2:-0.18447932 3:-0.083628797 4:-1.0026811 
-0.1 1:-0.37441149 2:-0.18447932 3:-0.083628797 4:-1.0026811 
-0.1 1:-0.83308973 2:1.4087335 3:2.2908692 4:-0.26559447 
-0.08510797634827405 1:1.0016232 2:1.4087335 3:2.2908692 4:-0.26559447 
0.1 1:-1.291768 2:-1.785631 3:-0.99689725 4:-1.0026811 
0.1 1:-0.83308973 2:-1.785631 3:-0.99689725 4:-1.0026811 
0.1 1:-0.37441149 2:-1.785631 3:-0.99689725 4:-1.0026811 
0.1 1:0.084266749 2:0.039636755 3:-0.63158987 4:0.6415891 
-0.1 1:1.0016232 2:0.039636755 3:-0.63158987 4:0.6415891 
-0.1 1:1.0016232 2:-0.3343053 3:-0.63158987 4:2.2858593 
-0.1 1:2.3776579 2:-0.3343053 3:-0.63158987 4:2.2858593 
-0.1 1:2.3776579 2:-0.3343053 3:-0.63158987 4:2.2858593 
-0.1 1:-1.291768 2:0.55588492 3:0.28167858 4:-1.0026811 
-0.1 1:-0.83308973 2:0.55588492 3:0.28167858 4:-1.0026811 
-0.1 1:-0.37441149 2:0.55588492 3:0.28167858 4:-1.0026811 
-0.1 1:-0.37441149 2:0.55588492 3:0.28167858 4:-1.0026811 
-0.1 1:1.0016232 2:0.60884279 3:-0.44893618 4:0.52414123 
-0.1 1:1.0016232 2:0.60884279 3:-0.44893618 4:0.52414123 
-0.0133008911698484 1:2.3776579 2:1.284597 3:1.3776007 4:0.77861162 
0.1 1:1.0016232 2:-1.8272316 3:-0.63158987 4:0.6415891 
0.1 1:-0.83308973 2:0.80772994 3:-1.1795509 4:1.1348702 
0.1 1:0.084266749 2:0.80772994 3:-1.1795509 4:1.1348702 
0.1 1:1.0016232 2:0.80772994 3:-1.1795509 4:1.1348702 
0.1 1:1.0016232 2:0.80772994 3:-1.1795509 4:1.1348702 
-0.1 1:-0.83308973 2:0.62775345 3:0.28167858 4:-1.0026811 
0.1 1:-0.37441149 2:0.62775345 3:0.28167858 4:-1.0026811 
0.1 1:-0.83308973 2:1.5364313 3:1.7429081 4:-0.18054601 
0.1 1:-0.83308973 2:1.1298723 3:0.82963965 4:0.015200446 
0.1 1:0.084266749 2:1.1298723 3:0.82963965 4:0.015200446 
0.1 1:1.0016232 2:1.1298723 3:0.82963965 4:0.015200446 
0.1 1:1.0016232 2:1.1298723 3:0.82963965 4:0.015200446 
-0.1 1:-0.83308973 2:-0.19269618 3:-0.63158987 4:0.6415891 
0.1 1:-0.37441149 2:1.065661 3:0.099024893 4:-1.0026811 
-0.1 1:-0.83308973 2:0.84779682 3:-0.083628797 4:-1.0026811 
0.1 1:-0.37441149 2:0.84779682 3:-0.083628797 4:-1.0026811 
-0.1 1:-0.83308973 2:0.60365315 3:-0.81424356 4:-1.0026811 
-0.1 1:-0.37441149 2:0.60365315 3:-0.81424356 4:-1.0026811 
-0.1 1:-0.37441149 2:0.60365315 3:-0.81424356 4:-1.0026811 
0.1 1:0.084266749 2:0.98637732 3:-0.26628249 4:0.42235307 
-0.1 1:1.0016232 2:0.98637732 3:-0.26628249 4:0.42235307 
-0.1 1:1.0016232 2:0.98637732 3:-0.26628249 4:0.42235307 
-0.1 1:-1.291768 2:-1.3078696 3:1.3776007 4:-1.0026811 
-0.05693170589581296 1:-0.37441149 2:-1.3078696 3:1.3776007 4:-1.0026811 
-0.1 1:-0.37441149 2:-1.3078696 3:1.3776007 4:-1.0026811 
0.1 1:0.084266749 2:0.47612847 3:0.099024893 4:0.25470199 
0.1 1:1.0016232 2:0.47612847 3:0.099024893 4:0.25470199 
-0.1 1:-0.83308973 2:-1.1215629 3:-0.99689725 4:0.94054732 
-0.1 1:0.084266749 2:-1.1215629 3:-0.99689725 4:0.94054732 
-0.1 1:1.0016232 2:-1.1215629 3:-0.99689725 4:0.94054732 
-0.1 1:1.0016232 2:-1.1215629 3:-0.99689725 4:0.94054732 
-0.1 1:-0.83308973 2:-1.0095366 3:-1.1795509 4:1.1348702 
-0.1 1:0.084266749 2:-1.0095366 3:-1.1795509 4:1.1348702 
-0.1 1:1.0016232 2:-1.0095366 3:-1.1795509 4:1.1348702 
0.1 1:0.084266749 2:1.5636645 3:-0.63158987 4:0.6415891 
0.1 1:1.0016232 2:1.5636645 3:-0.63158987 4:0.6415891 
0.1 1:-0.83308973 2:1.0091184 3:-0.083628797 4:0.33328843 
0.1 1:1.0016232 2:1.0091184 3:-0.083628797 4:0.33328843 
-0.1 1:-0.83308973 2:1.2658475 3:-0.81424356 4:0.77861162 
0.1 1:0.084266749 2:1.2658475 3:-0.81424356 4:0.77861162 
0.1 1:1.0016232 2:1.2658475 3:-0.81424356 4:0.77861162 
0.1 1:1.0016232 2:1.2658475 3:-0.81424356 4:0.77861162 
-0.1 1:0.084266749 2:0.46115469 3:-0.083628797 4:0.33328843 
-0.1 1:1.0016232 2:0.46115469 3:-0.083628797 4:0.33328843 
-0.1 1:-0.83308973 2:-0.47790026 3:-0.44893618 4:0.52414123 
0.1 1:1.0016232 2:-0.47790026 3:-0.44893618 4:0.52414123 
0.1 1:1.0016232 2:-0.47790026 3:-0.44893618 4:0.52414123 
-0.09947554488365482 1:1.0016232 2:1.3458464 3:-0.63158987 4:0.6415891 
0.1 1:-0.83308973 2:0.84298211 3:0.46433227 4:-1.0026811 
0.1 1:-0.37441149 2:0.84298211 3:0.46433227 4:-1.0026811 
-0.1 1:-0.83308973 2:0.59200119 3:0.46433227 4:0.12234587 
0.1 1:1.0016232 2:0.59200119 3:0.46433227 4:0.12234587 
-0.1 1:0.084266749 2:0.70447653 3:0.46433227 4:0.12234587 
-0.1 1:1.0016232 2:0.70447653 3:0.46433227 4:0.12234587 
0.1 1:0.084266749 2:-0.83526692 3:-0.99689725 4:0.94054732 
0.1 1:1.0016232 2:-0.83526692 3:-0.99689725 4:0.94054732 
0.1 1:1.0016232 2:-0.83526692 3:-0.99689725 4:0.94054732 
0.1 1:-0.37441149 2:-1.6566815 3:-0.81424356 4:-1.0026811 
-0.1 1:1.0016232 2:-1.3699179 3:-0.81424356 4:0.77861162 
-0.06035638300944143 1:0.084266749 2:0.21590221 3:-0.083628797 4:0.33328843 
-0.1 1:1.0016232 2:0.21590221 3:-0.083628797 4:0.33328843 
-0.1 1:0.084266749 2:-1.215819 3:0.82963965 4:0.015200446 
0.00597718254005108 1:1.9189797 2:1.3550503 3:0.46433227 4:2.3723998 
0.005121710320295052 1:3.7536927 2:1.3550503 3:0.46433227 4:2.3723998 
-0.1 1:1.0016232 2:0.82656155 3:-0.81424356 4:0.77861162 
-0.1 1:1.0016232 2:0.82656155 3:-0.81424356 4:0.77861162 
0.1 1:-1.291768 2:-1.4837514 3:-0.44893618 4:-1.0026811 
-0.1 1:-0.83308973 2:-0.59385942 3:-0.63158987 4:0.6415891 
-0.1 1:1.0016232 2:-0.59385942 3:-0.63158987 4:0.6415891 
-0.1 1:1.0016232 2:-0.71860931 3:-0.44893618 4:2.0509636 
-0.1 1:2.3776579 2:-0.71860931 3:-0.44893618 4:2.0509636 
-0.06285489424399214 1:2.3776579 2:-0.71860931 3:-0.44893618 4:2.0509636 
-0.08127583656464307 1:1.0016232 2:1.481141 3:0.46433227 4:0.12234587 
0.09990803967451301 1:-0.37441149 2:-0.017992227 3:-0.63158987 4:2.2858593 
0.1 1:1.0016232 2:-0.017992227 3:-0.63158987 4:2.2858593 
0.1 1:2.3776579 2:-0.017992227 3:-0.63158987 4:2.2858593 
0.1 1:2.3776579 2:-0.017992227 3:-0.63158987 4:2.2858593 
0.1 1:-0.37441149 2:-0.50715286 3:-0.99689725 4:2.8837758 
0.08423362644347417 1:1.0016232 2:-0.50715286 3:-0.99689725 4:2.8837758 
0.1 1:2.3776579 2:-0.50715286 3:-0.99689725 4:2.8837758 
0.1 1:2.3776579 2:-0.50715286 3:-0.99689725 4:2.8837758 
-0.1 1:1.0016232 2:-0.5177191 3:-1.1795509 4:1.1348702 
-0.1 1:-0.83308973 2:0.23692106 3:0.28167858 4:0.18484737 
-0.1 1:1.0016232 2:0.23692106 3:0.28167858 4:0.18484737 
-0.1 1:-0.83308973 2:-1.2254942 3:-0.81424356 4:-1.0026811 
-0.1 1:-0.37441149 2:-1.2254942 3:-0.81424356 4:-1.0026811 
-0.1 1:-1.291768 2:1.349253 3:0.099024893 4:-1.0026811 
-0.1 1:-0.83308973 2:1.349253 3:0.099024893 4:-1.0026811 
-0.1 1:-0.37441149 2:1.349253 3:0.099024893 4:-1.0026811 
0.002347894343523645 1:3.7536927 2:1.1379392 3:1.9255618 4:1.3723759 
-0.1 1:1.0016232 2:-0.23898495 3:-0.44893618 4:2.0509636 
-0.1 1:2.3776579 2:-0.23898495 3:-0.44893618 4:2.0509636 
-0.1 1:2.3776579 2:-0.23898495 3:-0.44893618 4:2.0509636 
0.1 1:-0.37441149 2:-0.56952168 3:-0.63158987 4:-1.0026811 
0.1 1:1.0016232 2:-0.095079672 3:0.099024893 4:0.25470199 
0.09779803410911253 1:-1.291768 2:1.4656315 3:-0.99689725 4:-1.0026811 
0.1 1:1.0016232 2:0.70988287 3:1.3776007 4:0.77861162 
0.1 1:2.3776579 2:0.70988287 3:1.3776007 4:0.77861162 
0.1 1:2.3776579 2:0.70988287 3:1.3776007 4:0.77861162 
0.1 1:1.0016232 2:1.4905698 3:2.2908692 4:-0.26559447 
0.1 1:-0.83308973 2:1.0823186 3:-0.083628797 4:-1.0026811 
-0.01842849702761911 1:-0.83308973 2:-1.7115629 3:0.28167858 4:0.18484737 
-0.1 1:0.084266749 2:-1.7115629 3:0.28167858 4:0.18484737 
-0.1 1:1.0016232 2:-1.7115629 3:0.28167858 4:0.18484737 
0.1 1:1.0016232 2:1.4395184 3:0.64698596 4:0.066094524 
0.1 1:1.0016232 2:-1.1118702 3:0.099024893 4:0.25470199 
0.1 1:1.0016232 2:-1.1118702 3:0.099024893 4:0.25470199 
0.1 1:-0.37441149 2:-0.76624803 3:-0.81424356 4:-1.0026811 
-0.1 1:0.084266749 2:-0.86021967 3:-0.99689725 4:0.94054732 
-0.1 1:1.0016232 2:-0.86021967 3:-0.99689725 4:0.94054732 
-0.1 1:1.0016232 2:-0.86021967 3:-0.99689725 4:0.94054732 
-0.1 1:-1.291768 2:1.0865347 3:-1.1795509 4:-1.0026811 
0.1 1:-0.83308973 2:1.0865347 3:-1.1795509 4:-1.0026811 
0.1 1:-0.37441149 2:1.0865347 3:-1.1795509 4:-1.0026811 
0.1 1:-0.37441149 2:1.0865347 3:-1.1795509 4:-1.0026811 
0.1 1:0.084266749 2:0.67041876 3:0.099024893 4:0.25470199 
-0.1 1:1.0016232 2:0.67041876 3:0.099024893 4:0.25470199 
-0.009517791124939131 1:-0.83308973 2:0.46612542 3:-0.083628797 4:0.33328843 
-0.1 1:0.084266749 2:0.46612542 3:-0.083628797 4:0.33328843 
-0.1 1:1.0016232 2:0.46612542 3:-0.083628797 4:0.33328843 
-0.1 1:1.0016232 2:0.46612542 3:-0.083628797 4:0.33328843 
0.1 1:-0.83308973 2:-0.787273 3:-0.26628249 4:-1.0026811 
0.1 1:1.0016232 2:-0.44805051 3:-0.44893618 4:0.52414123 
0.1 1:1.0016232 2:-0.44805051 3:-0.44893618 4:0.52414123 
0.1 1:0.084266749 2:0.7119352 3:-0.44893618 4:0.52414123 
0.1 1:1.0016232 2:0.7119352 3:-0.44893618 4:0.52414123 
0.1 1:1.0016232 2:0.7119352 3:-0.44893618 4:0.52414123 
0.1 1:-0.37441149 2:-1.8771235 3:-0.083628797 4:-1.0026811 
0.1 1:-0.37441149 2:-1.8771235 3:-0.083628797 4:-1.0026811 
0.1 1:0.084266749 2:1.2899957 3:-0.81424356 4:0.77861162 
0.1 1:1.0016232 2:1.2899957 3:-0.81424356 4:0.77861162 
0.1 1:1.0016232 2:1.2899957 3:-0.81424356 4:0.77861162 
-0.1 1:-0.83308973 2:0.64686846 3:0.64698596 4:0.066094524 
-0.1 1:0.084266749 2:0.64686846 3:0.64698596 4:0.066094524 
-0.1 1:1.0016232 2:0.64686846 3:0.64698596 4:0.066094524 
-0.1 1:-0.83308973 2:0.68830219 3:2.4735229 4:-0.29016402 
-0.1 1:1.0016232 2:0.68830219 3:2.4735229 4:-0.29016402 
0.1 1:-0.83308973 2:1.5719138 3:0.64698596 4:0.066094524 
0.1 1:1.0016232 2:1.5719138 3:0.64698596 4:0.066094524 
-0.1 1:-1.291768 2:0.87754254 3:1.5602544 4:-1.0026811 
-0.1 1:-0.83308973 2:0.87754254 3:1.5602544 4:-1.0026811 
0.07230819755140482 1:-0.83308973 2:-0.73921812 3:-0.26628249 4:-1.0026811 
-0.1 1:-0.37441149 2:-0.73921812 3:-0.26628249 4:-1.0026811 
0.1 1:1.0016232 2:-1.798142 3:-0.083628797 4:0.33328843 
0.1 1:-0.37441149 2:-0.8565115 3:-0.26628249 4:-1.0026811 
0.1 1:-0.83308973 2:-0.55938377 3:-0.44893618 4:0.52414123 
-0.00429110514572724 1:3.7536927 2:0.95315675 3:0.64698596 4:2.2036458 
0.1 1:1.0016232 2:-1.1747693 3:-1.1795509 4:1.1348702 
0.1 1:-1.291768 2:0.61773339 3:0.099024893 4:-1.0026811 
0.1 1:-0.83308973 2:0.61773339 3:0.099024893 4:-1.0026811 
0.1 1:-0.37441149 2:0.61773339 3:0.099024893 4:-1.0026811 
-0.1 1:0.084266749 2:-1.6661125 3:-0.81424356 4:0.77861162 
-0.1 1:1.0016232 2:-1.6661125 3:-0.81424356 4:0.77861162 
-0.1 1:1.0016232 2:-1.6661125 3:-0.81424356 4:0.77861162 
-0.007668359039163659 1:-1.291768 2:-1.9059978 3:-0.44893618 4:-1.0026811 
-0.1 1:-0.37441149 2:-1.9059978 3:-0.44893618 4:-1.0026811 
0.1 1:0.084266749 2:0.82100255 3:-0.63158987 4:0.6415891 
-0.1 1:1.0016232 2:0.82100255 3:-0.63158987 4:0.6415891 
0.1 1:1.0016232 2:0.82100255 3:-0.63158987 4:0.6415891 
0.1 1:0.084266749 2:0.26784651 3:-0.63158987 4:0.6415891 
0.1 1:1.0016232 2:0.26784651 3:-0.63158987 4:0.6415891 
0.1 1:1.0016232 2:0.26784651 3:-0.63158987 4:0.6415891 
-0.09441502593044657 1:0.084266749 2:-0.25847144 3:-0.99689725 4:0.94054732 
-0.1 1:1.0016232 2:-0.25847144 3:-0.99689725 4:0.94054732 
-0.1 1:1.0016232 2:-0.25847144 3:-0.99689725 4:0.94054732 
-0.1 1:1.0016232 2:0.12516492 3:1.0122933 4:-0.031066897 
-0.1 1:-0.37441149 2:-0.3040363 3:0.46433227 4:1.2473729 
-0.1 1:1.0016232 2:-0.3040363 3:0.46433227 4:1.2473729 
-0.1 1:2.3776579 2:-0.3040363 3:0.46433227 4:1.2473729 
-0.05549579159529144 1:0.084266749 2:1.4875345 3:2.8388302 4:-0.33469634 
-0.1 1:1.0016232 2:1.4875345 3:2.8388302 4:-0.33469634 
-0.02395285304689153 1:-0.37441149 2:0.23402246 3:-0.99689725 4:2.8837758 
0.1 1:1.0016232 2:0.23402246 3:-0.99689725 4:2.8837758 
0.1 1:2.3776579 2:0.23402246 3:-0.99689725 4:2.8837758 
0.1 1:2.3776579 2:0.23402246 3:-0.99689725 4:2.8837758 
0.1 1:2.3776579 2:-0.1460112 3:0.099024893 4:1.5120851 
0.1 1:0.084266749 2:-1.7345277 3:0.46433227 4:0.12234587 
0.06526301836801103 1:1.0016232 2:-1.7345277 3:0.46433227 4:0.12234587 
-0.1 1:-0.83308973 2:-0.23191647 3:0.82963965 4:0.015200446 
0.1 1:-0.83308973 2:-0.17949052 3:1.0122933 4:-0.031066897 
-0.09316186689278497 1:0.084266749 2:-0.17949052 3:1.0122933 4:-0.031066897 
0.1 1:1.0016232 2:-0.57521939 3:-1.1795509 4:1.1348702 
0.1 1:1.0016232 2:-0.57521939 3:-1.1795509 4:1.1348702 
0.1 1:-0.83308973 2:0.61766879 3:0.099024893 4:0.25470199 
0.1 1:1.0016232 2:0.61766879 3:0.099024893 4:0.25470199 
0.1 1:1.0016232 2:0.61766879 3:0.099024893 4:0.25470199 
0.1 1:-1.291768 2:0.030277321 3:1.9255618 4:-1.0026811 
0.1 1:-0.83308973 2:0.030277321 3:1.9255618 4:-1.0026811 
0.1 1:-0.37441149 2:0.030277321 3:1.9255618 4:-1.0026811 
0.1 1:-0.37441149 2:0.030277321 3:1.9255618 4:-1.0026811 
-0.007411195693711298 1:1.0016232 2:0.92302525 3:1.7429081 4:-0.18054601 
0.1 1:-0.37441149 2:-1.3674747 3:-0.44893618 4:2.0509636 
0.1 1:1.0016232 2:-1.3674747 3:-0.44893618 4:2.0509636 
0.1 1:2.3776579 2:-1.3674747 3:-0.44893618 4:2.0509636 
-0.05946418356539995 1:-1.291768 2:0.16469478 3:-0.083628797 4:-1.0026811 
-0.1 1:-0.83308973 2:-0.035387269 3:0.46433227 4:-1.0026811 
-0.1 1:-0.37441149 2:-0.035387269 3:0.46433227 4:-1.0026811 
-0.1 1:-0.83308973 2:-0.22910735 3:-0.44893618 4:-1.0026811 
0.1 1:-0.37441149 2:-0.22910735 3:-0.44893618 4:-1.0026811 
0.1 1:1.0016232 2:1.436859 3:-0.083628797 4:0.33328843 
0.1 1:0.084266749 2:-0.23669174 3:-0.81424356 4:0.77861162 
0.1 1:1.0016232 2:-0.23669174 3:-0.81424356 4:0.77861162 
0.1 1:1.0016232 2:-0.23669174 3:-0.81424356 4:0.77861162 
-0.1 1:-0.37441149 2:-1.7851506 3:-0.63158987 4:-1.0026811 
-0.1 1:0.084266749 2:0.24858088 3:-0.44893618 4:0.52414123 
-0.1 1:1.0016232 2:0.24858088 3:-0.44893618 4:0.52414123 
-0.1 1:0.084266749 2:-1.0655019 3:-0.63158987 4:0.6415891 
-0.1 1:1.0016232 2:-1.0655019 3:-0.63158987 4:0.6415891 
0.1 1:0.084266749 2:0.3953597 3:-0.44893618 4:0.52414123 
0.1 1:1.0016232 2:0.3953597 3:-0.44893618 4:0.52414123 
0.1 1:1.0016232 2:0.3953597 3:-0.44893618 4:0.52414123 
-0.1 1:-0.83308973 2:-0.4878947 3:-0.99689725 4:0.94054732 
-0.1 1:0.084266749 2:-0.4878947 3:-0.99689725 4:0.94054732 
-0.1 1:1.0016232 2:-0.4878947 3:-0.99689725 4:0.94054732 
-0.1 1:1.0016232 2:-0.4878947 3:-0.99689725 4:0.94054732 
0.1 1:-0.83308973 2:0.78827425 3:-0.26628249 4:-1.0026811 
0.1 1:-0.37441149 2:0.78827425 3:-0.26628249 4:-1.0026811 
0.1 1:-0.37441149 2:0.78827425 3:-0.26628249 4:-1.0026811 
0.1 1:-0.83308973 2:1.4703549 3:-0.083628797 4:-1.0026811 
0.1 1:-0.37441149 2:1.4703549 3:-0.083628797 4:-1.0026811 
0.1 1:-0.37441149 2:1.4703549 3:-0.083628797 4:-1.0026811 
-0.1 1:-0.83308973 2:0.55758007 3:-0.083628797 4:-1.0026811 
-0.1 1:-0.37441149 2:0.55758007 3:-0.083628797 4:-1.0026811 
0.1 1:-0.83308973 2:1.0745611 3:-0.26628249 4:0.42235307 
0.1 1:0.084266749 2:1.0745611 3:-0.26628249 4:0.42235307 
-0.02632760196824008 1:1.0016232 2:-0.94911909 3:-0.44893618 4:2.0509636 
-0.1 1:2.3776579 2:-0.94911909 3:-0.44893618 4:2.0509636 
-0.1 1:2.3776579 2:-0.94911909 3:-0.44893618 4:2.0509636 
0.1 1:2.3776579 2:-1.6457011 3:-0.44893618 4:2.0509636 
0.1 1:2.3776579 2:-1.6457011 3:-0.44893618 4:2.0509636 
-0.1 1:-1.291768 2:1.505063 3:1.5602544 4:-1.0026811 
-0.1 1:-0.83308973 2:1.505063 3:1.5602544 4:-1.0026811 
0.05634239118029353 1:-0.83308973 2:-0.18141842 3:-0.81424356 4:0.77861162 
0.1 1:1.0016232 2:-0.18141842 3:-0.81424356 4:0.77861162 
-0.1 1:1.0016232 2:0.45295419 3:-0.26628249 4:0.42235307 
0.03503840947671014 1:0.084266749 2:0.3724372 3:2.8388302 4:-0.33469634 
-0.1 1:-1.291768 2:1.0538895 3:-0.81424356 4:-1.0026811 
-0.1 1:-1.291768 2:1.0227656 3:-0.44893618 4:-1.0026811 
-0.1 1:-0.83308973 2:1.0227656 3:-0.44893618 4:-1.0026811 
-0.1 1:-0.37441149 2:1.0227656 3:-0.44893618 4:-1.0026811 
-0.1 1:-0.37441149 2:1.0227656 3:-0.44893618 4:-1.0026811 
0.1 1:-1.291768 2:0.99847042 3:0.64698596 4:-1.0026811 
0.1 1:-0.83308973 2:0.99847042 3:0.64698596 4:-1.0026811 
0.1 1:-0.37441149 2:0.99847042 3:0.64698596 4:-1.0026811 
0.1 1:-0.37441149 2:0.99847042 3:0.64698596 4:-1.0026811 
0.1 1:-0.83308973 2:-0.28123021 3:-0.44893618 4:0.52414123 
-0.1 1:1.0016232 2:-0.28123021 3:-0.44893618 4:0.52414123 
-0.1 1:1.0016232 2:-0.28123021 3:-0.44893618 4:0.52414123 
0.1 1:1.0016232 2:0.33216141 3:1.5602544 4:-0.1476606 
0.1 1:-0.83308973 2:0.098637873 3:0.28167858 4:-1.0026811 
0.1 1:-0.37441149 2:0.098637873 3:0.28167858 4:-1.0026811 
0.1 1:-0.37441149 2:0.098637873 3:0.28167858 4:-1.0026811 
0.1 1:-0.83308973 2:0.9762296 3:1.7429081 4:-0.18054601 
-0.1 1:1.0016232 2:0.9762296 3:1.7429081 4:-0.18054601 
-0.1 1:1.0016232 2:-0.9026931 3:-0.99689725 4:0.94054732 
-0.1 1:-0.37441149 2:-1.4922996 3:-0.99689725 4:-1.0026811 
0.05200504685331742 1:2.3776579 2:-1.6647314 3:1.3776007 4:0.77861162 
0.1 1:-0.83308973 2:-0.40753613 3:-0.26628249 4:0.42235307 
0.1 1:1.0016232 2:-0.40753613 3:-0.26628249 4:0.42235307 
-0.1 1:1.0016232 2:-0.90335984 3:-0.63158987 4:2.2858593 
-0.1 1:2.3776579 2:-0.90335984 3:-0.63158987 4:2.2858593 
-0.1 1:2.3776579 2:-0.90335984 3:-0.63158987 4:2.2858593 
-0.1 1:-0.83308973 2:-1.4346438 3:0.099024893 4:-1.0026811 
-0.1 1:-0.37441149 2:-1.4346438 3:0.099024893 4:-1.0026811 
-0.1 1:-0.37441149 2:-1.4346438 3:0.099024893 4:-1.0026811 
-0.00926681774932458 1:1.0016232 2:-1.2684273 3:2.2908692 4:0.47149218 
-0.03502426441320882 1:2.3776579 2:-1.2684273 3:2.2908692 4:0.47149218 
0.1 1:-1.291768 2:1.5981752 3:1.7429081 4:-1.0026811 
0.1 1:-0.83308973 2:1.5981752 3:1.7429081 4:-1.0026811 
0.1 1:1.0016232 2:-0.88966667 3:0.64698596 4:1.1348702 
0.1 1:-0.83308973 2:1.0875903 3:-0.44893618 4:-1.0026811 
0.1 1:-0.37441149 2:1.0875903 3:-0.44893618 4:-1.0026811 
0.1 1:-0.37441149 2:1.0875903 3:-0.44893618 4:-1.0026811 
-0.1 1:-0.83308973 2:-1.025443 3:0.099024893 4:-1.0026811 
0.1 1:-0.83308973 2:-0.55723014 3:-0.44893618 4:0.52414123 
0.1 1:1.0016232 2:-0.55723014 3:-0.44893618 4:0.52414123 
0.1 1:-1.291768 2:0.82547692 3:-0.44893618 4:-1.0026811 
-0.1 1:0.084266749 2:-1.3404158 3:-1.1795509 4:1.1348702 
0.1 1:-1.291768 2:-1.1162668 3:-1.1795509 4:-1.0026811 
0.1 1:-0.83308973 2:-1.1162668 3:-1.1795509 4:-1.0026811 
0.1 1:-0.37441149 2:-1.1162668 3:-1.1795509 4:-1.0026811 
0.1 1:1.0016232 2:0.16462965 3:-0.44893618 4:0.52414123 
0.1 1:1.0016232 2:0.16462965 3:-0.44893618 4:0.52414123 
-0.1 1:1.0016232 2:0.53489142 3:2.6561766 4:0.37638423 
-0.1 1:2.3776579 2:0.53489142 3:2.6561766 4:0.37638423 
0.1 1:-0.83308973 2:-0.55171952 3:-1.1795509 4:1.1348702 
-0.1 1:1.0016232 2:-0.55171952 3:-1.1795509 4:1.1348702 
0.008113117967087661 1:-0.37441149 2:-0.11395993 3:1.3776007 4:-1.0026811 
0.1 1:-1.291768 2:1.0377254 3:2.4735229 4:-1.0026811 
0.1 1:-0.83308973 2:1.0377254 3:2.4735229 4:-1.0026811 
0.1 1:0.084266749 2:1.4558955 3:-0.81424356 4:0.77861162 
0.1 1:1.0016232 2:1.4558955 3:-0.81424356 4:0.77861162 
0.1 1:0.084266749 2:0.9005486 3:-0.99689725 4:0.94054732 
0.1 1:1.0016232 2:0.9005486 3:-0.99689725 4:0.94054732 
0.1 1:1.0016232 2:0.9005486 3:-0.99689725 4:0.94054732 
-0.1 1:1.0016232 2:1.2358237 3:-0.63158987 4:0.6415891 
-0.1 1:1.0016232 2:1.2358237 3:-0.63158987 4:0.6415891 
-0.1 1:1.0016232 2:0.98298844 3:-0.81424356 4:0.77861162 
0.1 1:1.0016232 2:-1.3194136 3:-0.44893618 4:2.0509636 
0.1 1:2.3776579 2:-1.3194136 3:-0.44893618 4:2.0509636 
0.1 1:2.3776579 2:-1.3194136 3:-0.44893618 4:2.0509636 
-0.07813509646641342 1:-0.37441149 2:0.67609495 3:-0.81424356 4:-1.0026811 
-0.1 1:-0.37441149 2:0.67609495 3:-0.81424356 4:-1.0026811 
-0.07818554557577853 1:-0.83308973 2:-1.448208 3:-1.1795509 4:1.1348702 
0.1 1:0.084266749 2:-1.448208 3:-1.1795509 4:1.1348702 
0.1 1:1.0016232 2:-1.448208 3:-1.1795509 4:1.1348702 
0.1 1:-1.291768 2:-0.2511004 3:1.9255618 4:-1.0026811 
0.0154888630624186 1:-0.83308973 2:-0.2511004 3:1.9255618 4:-1.0026811 
0.1 1:-0.83308973 2:1.4383315 3:-0.99689725 4:0.94054732 
0.001555786179916855 1:1.0016232 2:1.4383315 3:-0.99689725 4:0.94054732 
0.1 1:-0.83308973 2:-0.63570992 3:-0.26628249 4:0.42235307 
-0.1 1:-0.37441149 2:0.40019886 3:1.0122933 4:-1.0026811 
-0.1 1:-0.83308973 2:-0.11243501 3:0.099024893 4:-1.0026811 
-0.1 1:-0.37441149 2:-0.11243501 3:0.099024893 4:-1.0026811 
0.1 1:-0.37441149 2:-0.11243501 3:0.099024893 4:-1.0026811 
0.1 1:-0.83308973 2:-0.84906572 3:-0.81424356 4:0.77861162 
-0.1 1:1.0016232 2:-0.84906572 3:-0.81424356 4:0.77861162 
0.1 1:-0.83308973 2:1.0589397 3:0.099024893 4:-1.0026811 
-0.1 1:-0.37441149 2:1.0589397 3:0.099024893 4:-1.0026811 
-0.1 1:-0.83308973 2:-1.1216489 3:-0.99689725 4:0.94054732 
0.1 1:0.084266749 2:-1.1216489 3:-0.99689725 4:0.94054732 
0.001931189624887659 1:1.0016232 2:-1.1216489 3:-0.99689725 4:0.94054732 
0.1 1:-1.291768 2:-0.029948556 3:-0.083628797 4:-1.0026811 
0.1 1:-0.83308973 2:-0.029948556 3:-0.083628797 4:-1.0026811 
0.1 1:-0.37441149 2:-0.029948556 3:-0.083628797 4:-1.0026811 
0.1 1:-0.37441149 2:-0.029948556 3:-0.083628797 4:-1.0026811 
-0.1 1:-0.83308973 2:1.4666201 3:0.46433227 4:0.12234587 
0.1 1:1.0016232 2:1.4666201 3:0.46433227 4:0.12234587 
-0.1 1:1.0016232 2:0.60389484 3:0.46433227 4:1.2473729 
-0.1 1:-0.83308973 2:1.4135151 3:0.82963965 4:-1.0026811 
0.1 1:-0.37441149 2:1.4135151 3:0.82963965 4:-1.0026811 
-0.1 1:-0.37441149 2:1.4135151 3:0.82963965 4:-1.0026811 
0.1 1:-1.291768 2:1.0929504 3:0.099024893 4:-1.0026811 
0.1 1:-1.291768 2:0.44961146 3:-0.26628249 4:-1.0026811 
0.1 1:-0.37441149 2:0.44961146 3:-0.26628249 4:-1.0026811 
0.1 1:-0.37441149 2:0.44961146 3:-0.26628249 4:-1.0026811 
-0.1 1:-0.83308973 2:-0.2397323 3:0.28167858 4:0.18484737 
-0.1 1:1.0016232 2:-0.2397323 3:0.28167858 4:0.18484737 
-0.1 1:1.0016232 2:-0.2397323 3:0.28167858 4:0.18484737 
-0.1 1:-0.83308973 2:0.9014345 3:-0.44893618 4:0.52414123 
0.1 1:1.0016232 2:0.9014345 3:-0.44893618 4:0.52414123 
-0.1 1:-0.37441149 2:-0.73406415 3:-0.63158987 4:-1.0026811 
-0.1 1:-0.37441149 2:-0.73406415 3:-0.63158987 4:-1.0026811 
-0.1 1:-0.83308973 2:-0.033507205 3:-1.1795509 4:1.1348702 
0.1 1:0.084266749 2:-0.033507205 3:-1.1795509 4:1.1348702 
0.1 1:1.0016232 2:-0.033507205 3:-1.1795509 4:1.1348702 
0.1 1:1.0016232 2:-0.033507205 3:-1.1795509 4:1.1348702 
-0.1 1:0.084266749 2:0.38205378 3:0.099024893 4:0.25470199 
-0.1 1:1.0016232 2:0.38205378 3:0.099024893 4:0.25470199 
-0.1 1:1.0016232 2:0.38205378 3:0.099024893 4:0.25470199 
0.1 1:-1.291768 2:-0.18409709 3:0.46433227 4:-1.0026811 
0.1 1:-0.37441149 2:1.137695 3:2.2908692 4:0.47149218 
0.1 1:2.3776579 2:1.137695 3:2.2908692 4:0.47149218 
0.1 1:2.3776579 2:1.137695 3:2.2908692 4:0.47149218 
0.1 1:0.084266749 2:-0.58844199 3:-0.44893618 4:0.52414123 
0.1 1:1.0016232 2:-0.58844199 3:-0.44893618 4:0.52414123 
0.1 1:1.0016232 2:-0.58844199 3:-0.44893618 4:0.52414123 
-0.1 1:-0.37441149 2:-0.44065343 3:-0.81424356 4:2.5599043 
-0.1 1:1.0016232 2:-0.44065343 3:-0.81424356 4:2.5599043 
0.1 1:2.3776579 2:-0.44065343 3:-0.81424356 4:2.5599043 
0.1 1:1.0016232 2:1.1257611 3:-0.63158987 4:0.6415891 
0.1 1:0.084266749 2:0.88414372 3:1.7429081 4:-0.18054601 
0.1 1:1.0016232 2:0.88414372 3:1.7429081 4:-0.18054601 
0.1 1:1.0016232 2:0.88414372 3:1.7429081 4:-0.18054601 
0.1 1:-1.291768 2:-1.6756692 3:0.46433227 4:-1.0026811 
0.1 1:-0.37441149 2:-1.6756692 3:0.46433227 4:-1.0026811 
0.1 1:-0.37441149 2:-1.6756692 3:0.46433227 4:-1.0026811 
0.1 1:-1.291768 2:0.40708256 3:-1.1795509 4:-1.0026811 
-0.1 1:-1.291768 2:-1.6797562 3:-0.81424356 4:-1.0026811 
-0.1 1:-0.37441149 2:-1.6797562 3:-0.81424356 4:-1.0026811 
-0.1 1:-0.83308973 2:-0.05039964 3:-0.81424356 4:0.77861162 
-0.1 1:0.084266749 2:-0.05039964 3:-0.81424356 4:0.77861162 
-0.1 1:1.0016232 2:-0.05039964 3:-0.81424356 4:0.77861162 
-0.1 1:1.0016232 2:-0.05039964 3:-0.81424356 4:0.77861162 
0.1 1:0.084266749 2:-0.95301061 3:-0.44893618 4:0.52414123 
-0.03706367040222745 1:-0.83308973 2:-0.9268291 3:-1.3622046 4:1.3723759 
-0.1 1:0.084266749 2:-0.9268291 3:-1.3622046 4:1.3723759 
-0.1 1:1.0016232 2:-0.9268291 3:-1.3622046 4:1.3723759 
-0.1 1:1.0016232 2:-0.9268291 3:-1.3622046 4:1.3723759 
-0.1 1:0.084266749 2:1.2441755 3:0.46433227 4:0.12234587 
-0.1 1:1.0016232 2:1.2441755 3:0.46433227 4:0.12234587 
-0.1 1:-0.83308973 2:-1.3689941 3:0.099024893 4:-1.0026811 
-0.03541798831400257 1:-0.37441149 2:-1.3689941 3:0.099024893 4:-1.0026811 
0.1 1:0.084266749 2:-1.5082018 3:-0.083628797 4:0.33328843 
0.1 1:1.0016232 2:-1.5082018 3:-0.083628797 4:0.33328843 
0.1 1:1.0016232 2:-1.5082018 3:-0.083628797 4:0.33328843 
0.1 1:0.084266749 2:-0.76900652 3:-0.083628797 4:0.33328843 
0.1 1:1.0016232 2:-0.76900652 3:-0.083628797 4:0.33328843 
0.1 1:1.0016232 2:-0.76900652 3:-0.083628797 4:0.33328843 
0.1 1:-0.83308973 2:-0.76107949 3:-0.63158987 4:0.6415891 
-0.1 1:1.0016232 2:-0.76107949 3:-0.63158987 4:0.6415891 
-0.1 1:1.0016232 2:-0.76107949 3:-0.63158987 4:0.6415891 
-0.1 1:-1.291768 2:-1.9447918 3:-0.083628797 4:-1.0026811 
-0.1 1:-0.83308973 2:-1.9447918 3:-0.083628797 4:-1.0026811 
-0.1 1:-0.37441149 2:-1.9447918 3:-0.083628797 4:-1.0026811 
-0.1 1:-0.37441149 2:-1.9447918 3:-0.083628797 4:-1.0026811 
0.1 1:-0.37441149 2:-1.0963431 3:-0.63158987 4:-1.0026811 
0.1 1:-0.37441149 2:-1.0963431 3:-0.63158987 4:-1.0026811 
-0.1 1:-0.37441149 2:0.40289475 3:0.099024893 4:-1.0026811 
-0.1 1:-0.37441149 2:0.40289475 3:0.099024893 4:-1.0026811 
0.08816414463413237 1:-0.83308973 2:1.4149393 3:1.3776007 4:-1.0026811 
-0.1 1:2.3776579 2:-0.10707454 3:-0.083628797 4:1.669258 
-0.1 1:-0.37441149 2:-0.18248267 3:0.64698596 4:-1.0026811 
0.1 1:-1.291768 2:-0.99595697 3:-0.63158987 4:-1.0026811 
-0.1 1:-0.37441149 2:-0.21898331 3:0.099024893 4:1.5120851 
0.1 1:1.0016232 2:-0.21898331 3:0.099024893 4:1.5120851 
0.1 1:2.3776579 2:-0.21898331 3:0.099024893 4:1.5120851 
0.1 1:2.3776579 2:-0.21898331 3:0.099024893 4:1.5120851 
0.1 1:-0.37441149 2:1.1197313 3:-0.083628797 4:1.669258 
0.1 1:-0.83308973 2:-0.11100054 3:-0.81424356 4:-1.0026811 
0.1 1:-0.37441149 2:-0.11100054 3:-0.81424356 4:-1.0026811 
0.1 1:-0.37441149 2:-0.11100054 3:-0.81424356 4:-1.0026811 
-0.1 1:-0.83308973 2:-1.1401132 3:-0.81424356 4:0.77861162 
0.1 1:0.084266749 2:-1.1401132 3:-0.81424356 4:0.77861162 
0.1 1:1.0016232 2:-1.1401132 3:-0.81424356 4:0.77861162 
0.1 1:1.0016232 2:-1.1401132 3:-0.81424356 4:0.77861162 
-0.1 1:-0.83308973 2:1.2387381 3:-0.26628249 4:0.42235307 
-0.1 1:1.0016232 2:0.33274532 3:1.194947 4:0.85605913 
-0.1 1:-0.83308973 2:-0.91603511 3:-0.083628797 4:0.33328843 
0.1 1:0.084266749 2:-0.91603511 3:-0.083628797 4:0.33328843 
0.1 1:1.0016232 2:-0.91603511 3:-0.083628797 4:0.33328843 
0.1 1:1.0016232 2:-0.91603511 3:-0.083628797 4:0.33328843 
-0.1 1:1.0016232 2:-0.26961496 3:1.194947 4:0.85605913 
0.1 1:2.3776579 2:-0.26961496 3:1.194947 4:0.85605913 
0.1 1:-1.291768 2:0.26457161 3:-0.63158987 4:-1.0026811 
-0.1 1:-0.37441149 2:0.26457161 3:-0.63158987 4:-1.0026811 
-0.1 1:-0.37441149 2:0.26457161 3:-0.63158987 4:-1.0026811 
0.1 1:-0.37441149 2:-0.39161832 3:-1.1795509 4:-1.0026811 
0.001534757648019698 1:-0.37441149 2:0.59788998 3:-0.81424356 4:-1.0026811 
0.1 1:-0.83308973 2:-1.6344285 3:-0.26628249 4:0.42235307 
0.1 1:0.084266749 2:-1.6344285 3:-0.26628249 4:0.42235307 
0.1 1:1.0016232 2:-1.6344285 3:-0.26628249 4:0.42235307 
-0.1 1:-0.83308973 2:-0.0046113301 3:-0.99689725 4:-1.0026811 
-0.1 1:-0.37441149 2:-0.0046113301 3:-0.99689725 4:-1.0026811 
0.0570660794409128 1:0.084266749 2:-1.2342143 3:0.099024893 4:0.25470199 
0.1 1:-0.83308973 2:-0.4441158 3:0.64698596 4:0.066094524 
0.1 1:0.084266749 2:-0.4441158 3:0.64698596 4:0.066094524 
-0.1 1:1.0016232 2:-0.4441158 3:0.64698596 4:0.066094524 
0.1 1:1.0016232 2:-0.4441158 3:0.64698596 4:0.066094524 
0.1 1:1.0016232 2:-0.30637911 3:0.82963965 4:0.015200446 
-0.1 1:-1.291768 2:0.29084872 3:-0.44893618 4:-1.0026811 
-0.1 1:-0.37441149 2:0.29084872 3:-0.44893618 4:-1.0026811 
-0.1 1:-0.83308973 2:0.94334199 3:-0.63158987 4:0.6415891 
0.1 1:1.0016232 2:0.94334199 3:-0.63158987 4:0.6415891 
-0.1 1:1.0016232 2:0.94334199 3:-0.63158987 4:0.6415891 
0.1 1:-1.291768 2:1.2690248 3:-0.44893618 4:-1.0026811 
0.1 1:-0.83308973 2:1.2690248 3:-0.44893618 4:-1.0026811 
-0.1 1:-0.37441149 2:1.2690248 3:-0.44893618 4:-1.0026811 
-0.1 1:1.0016232 2:0.92024957 3:-0.44893618 4:2.0509636 
-0.1 1:2.3776579 2:0.92024957 3:-0.44893618 4:2.0509636 
-0.03873356637075732 1:2.3776579 2:0.92024957 3:-0.44893618 4:2.0509636 
-0.1 1:-0.83308973 2:0.98742531 3:-0.083628797 4:0.33328843 
-0.04198647729692141 1:0.084266749 2:1.3372782 3:-0.81424356 4:0.77861162 
-0.1 1:-0.83308973 2:0.36896966 3:0.82963965 4:-1.0026811 
-0.1 1:-0.37441149 2:0.36896966 3:0.82963965 4:-1.0026811 
-0.07956995543106578 1:-0.37441149 2:0.36896966 3:0.82963965 4:-1.0026811 
-0.1 1:1.0016232 2:0.66144013 3:-0.26628249 4:0.42235307 
-0.1 1:1.0016232 2:0.66144013 3:-0.26628249 4:0.42235307 
-0.1 1:-0.83308973 2:0.98061532 3:0.46433227 4:-1.0026811 
-0.1 1:-0.83308973 2:-1.2948429 3:-0.44893618 4:-1.0026811 
-0.1 1:-0.37441149 2:-1.2948429 3:-0.44893618 4:-1.0026811 
0.1 1:0.084266749 2:-0.92693284 3:-1.1795509 4:1.1348702 
0.1 1:1.0016232 2:-0.92693284 3:-1.1795509 4:1.1348702 
0.1 1:1.0016232 2:-0.92693284 3:-1.1795509 4:1.1348702 
-0.1 1:-0.37441149 2:1.2686801 3:0.82963965 4:-1.0026811 
0.1 1:-0.83308973 2:-0.23370348 3:-0.44893618 4:-1.0026811 
0.1 1:-0.37441149 2:-0.23370348 3:-0.44893618 4:-1.0026811 
0.1 1:-0.37441149 2:-0.23370348 3:-0.44893618 4:-1.0026811 
-0.1 1:0.084266749 2:0.2465116 3:-1.1795509 4:1.1348702 
-0.1 1:1.0016232 2:0.2465116 3:-1.1795509 4:1.1348702 
-0.01713711026367982 1:1.0016232 2:0.2465116 3:-1.1795509 4:1.1348702 
0.1 1:-1.291768 2:-1.7091283 3:-0.26628249 4:-1.0026811 
-0.1 1:0.084266749 2:-0.46673126 3:0.28167858 4:0.18484737 
0.01599453408815322 1:-1.291768 2:-1.6151891 3:2.4735229 4:-1.0026811 
0.05788691443921307 1:-0.83308973 2:-1.6151891 3:2.4735229 4:-1.0026811 
0.1 1:-0.37441149 2:-1.6151891 3:2.4735229 4:-1.0026811 
0.1 1:-0.37441149 2:-1.6151891 3:2.4735229 4:-1.0026811 
0.1 1:-0.83308973 2:0.89801655 3:0.64698596 4:-1.0026811 
0.1 1:-0.37441149 2:0.89801655 3:0.64698596 4:-1.0026811 
0.1 1:-0.37441149 2:0.89801655 3:0.64698596 4:-1.0026811 
0.01488544111576779 1:-0.83308973 2:0.38964989 3:-0.81424356 4:0.77861162 
-0.1 1:0.084266749 2:0.38964989 3:-0.81424356 4:0.77861162 
0.1 1:-1.291768 2:-0.04089624 3:-0.083628797 4:-1.0026811 
0.1 1:-0.83308973 2:-0.04089624 3:-0.083628797 4:-1.0026811 
0.1 1:-0.37441149 2:-0.04089624 3:-0.083628797 4:-1.0026811 
0.1 1:-0.83308973 2:-1.0000389 3:-0.44893618 4:0.52414123 
0.1 1:1.0016232 2:-1.0000389 3:-0.44893618 4:0.52414123 
-0.1 1:-0.83308973 2:1.3423781 3:0.46433227 4:-1.0026811 
0.1 1:1.0016232 2:-0.83247019 3:-0.99689725 4:0.94054732 
-0.1 1:1.0016232 2:-0.83247019 3:-0.99689725 4:0.94054732 
-0.1 1:1.0016232 2:0.19139352 3:-0.81424356 4:0.77861162 
-0.1 1:1.0016232 2:0.19139352 3:-0.81424356 4:0.77861162 
0.1 1:-0.37441149 2:-1.0177629 3:2.1082155 4:-1.0026811 
-0.1 1:1.0016232 2:-0.10519426 3:-0.083628797 4:0.33328843 
-0.06974034727383907 1:-1.291768 2:-1.6513815 3:-1.1795509 4:-1.0026811 
-0.02415929228172762 1:-0.37441149 2:-1.6513815 3:-1.1795509 4:-1.0026811 
-0.1 1:-0.83308973 2:0.97000303 3:0.28167858 4:-1.0026811 
-0.1 1:-0.37441149 2:0.97000303 3:0.28167858 4:-1.0026811 
-0.1 1:-0.37441149 2:0.97000303 3:0.28167858 4:-1.0026811 
0.1 1:-0.83308973 2:1.2342609 3:-0.26628249 4:0.42235307 
-0.1 1:1.0016232 2:-1.2920495 3:-0.99689725 4:0.94054732 
-0.1 1:1.0016232 2:-1.2920495 3:-0.99689725 4:0.94054732 
-0.1 1:1.0016232 2:0.82696916 3:-0.63158987 4:0.6415891 
-0.1 1:-0.37441149 2:-1.6122666 3:-1.3622046 4:-1.0026811 
0.1 1:-0.83308973 2:-0.75118085 3:-0.083628797 4:-1.0026811 
0.1 1:-0.37441149 2:-0.75118085 3:-0.083628797 4:-1.0026811 
-0.1 1:1.0016232 2:-1.7183394 3:-0.44893618 4:0.52414123 
-0.1 1:-0.83308973 2:-0.50041815 3:-0.44893618 4:-1.0026811 
-0.1 1:-0.37441149 2:-0.50041815 3:-0.44893618 4:-1.0026811 
-0.1 1:-0.37441149 2:-0.50041815 3:-0.44893618 4:-1.0026811 
-0.1 1:-1.291768 2:-0.76567583 3:0.28167858 4:-1.0026811 
-0.1 1:-0.83308973 2:-0.76567583 3:0.28167858 4:-1.0026811 
-0.1 1:-0.37441149 2:-0.76567583 3:0.28167858 4:-1.0026811 
0.1 1:-1.291768 2:0.43794879 3:0.28167858 4:-1.0026811 
0.1 1:-0.37441149 2:0.43794879 3:0.28167858 4:-1.0026811 
0.1 1:-0.37441149 2:0.43794879 3:0.28167858 4:-1.0026811 
-0.1 1:-0.83308973 2:-0.016699556 3:-0.81424356 4:-1.0026811 
-0.1 1:1.0016232 2:-0.009429131 3:-0.81424356 4:0.77861162 
-0.1 1:-0.37441149 2:-0.97671039 3:-0.63158987 4:-1.0026811 
-0.1 1:-0.83308973 2:0.66777852 3:2.1082155 4:-0.23926994 
-0.1 1:1.0016232 2:0.66777852 3:2.1082155 4:-0.23926994 
-0.1 1:-1.291768 2:-0.13484239 3:0.28167858 4:-1.0026811 
-0.1 1:-0.37441149 2:-0.13484239 3:0.28167858 4:-1.0026811 
0.1 1:1.0016232 2:1.1669724 3:1.0122933 4:-0.031066897 
0.1 1:1.0016232 2:1.1669724 3:1.0122933 4:-0.031066897 
0.1 1:-1.291768 2:-0.34013811 3:-0.44893618 4:-1.0026811 
-0.1 1:-0.83308973 2:-0.34013811 3:-0.44893618 4:-1.0026811 
0.1 1:-0.37441149 2:-0.34013811 3:-0.44893618 4:-1.0026811 
-0.1 1:-0.37441149 2:-0.34013811 3:-0.44893618 4:-1.0026811 
0.1 1:1.0016232 2:-1.1842457 3:-0.63158987 4:2.2858593 
0.1 1:2.3776579 2:-1.1842457 3:-0.63158987 4:2.2858593 
0.1 1:2.3776579 2:-1.1842457 3:-0.63158987 4:2.2858593 
-0.1 1:1.0016232 2:1.3200932 3:0.099024893 4:0.25470199 
-0.1 1:-0.83308973 2:0.40767576 3:-0.44893618 4:-1.0026811 
0.1 1:0.084266749 2:0.0062783846 3:-0.26628249 4:0.42235307 
0.1 1:1.0016232 2:0.0062783846 3:-0.26628249 4:0.42235307 
0.1 1:1.0016232 2:0.0062783846 3:-0.26628249 4:0.42235307 
-0.05214616133009965 1:-0.83308973 2:-0.25391032 3:0.46433227 4:0.12234587 
0.1 1:0.084266749 2:-0.25391032 3:0.46433227 4:0.12234587 
0.1 1:1.0016232 2:-0.25391032 3:0.46433227 4:0.12234587 
0.1 1:1.0016232 2:-0.25391032 3:0.46433227 4:0.12234587 
0.1 1:-0.37441149 2:-0.45013939 3:0.099024893 4:-1.0026811 
-0.1 1:-0.37441149 2:0.76731493 3:-0.99689725 4:-1.0026811 
-0.1 1:-0.37441149 2:0.76731493 3:-0.99689725 4:-1.0026811 
-0.1 1:1.0016232 2:0.38014434 3:0.28167858 4:0.18484737 
-0.009260864414883982 1:-0.37441149 2:-1.9810313 3:-0.63158987 4:-1.0026811 
-0.1 1:-0.37441149 2:-1.9810313 3:-0.63158987 4:-1.0026811 
-0.1 1:-0.37441149 2:0.91745506 3:1.5602544 4:0.70735991 
-0.1 1:2.3776579 2:0.91745506 3:1.5602544 4:0.70735991 
0.1 1:0.084266749 2:0.80852388 3:-0.81424356 4:0.77861162 
0.1 1:1.0016232 2:0.80852388 3:-0.81424356 4:0.77861162 
0.1 1:-1.291768 2:-0.76632952 3:-0.63158987 4:-1.0026811 
0.1 1:-0.37441149 2:-0.76632952 3:-0.63158987 4:-1.0026811 
-0.1 1:-0.37441149 2:-0.8830197 3:-0.99689725 4:-1.0026811 
-0.1 1:-0.37441149 2:-0.8830197 3:-0.99689725 4:-1.0026811 
-0.1 1:-0.37441149 2:1.0974075 3:-0.26628249 4:-1.0026811 
0.1 1:0.084266749 2:0.25640815 3:-0.63158987 4:0.6415891 
0.1 1:1.0016232 2:0.25640815 3:-0.63158987 4:0.6415891 
-0.1 1:1.0016232 2:-0.073951711 3:0.64698596 4:1.1348702 
-0.1 1:2.3776579 2:-0.073951711 3:0.64698596 4:1.1348702 
-0.1 1:2.3776579 2:-0.073951711 3:0.64698596 4:1.1348702 
-0.1 1:-0.37441149 2:0.16790071 3:-1.3622046 4:-1.0026811 
-0.1 1:-0.37441149 2:0.16790071 3:-1.3622046 4:-1.0026811 
-0.01467464368776863 1:-0.83308973 2:0.52447876 3:-0.44893618 4:-1.0026811 
-0.1 1:-0.37441149 2:0.52447876 3:-0.44893618 4:-1.0026811 
-0.1 1:0.084266749 2:0.38116863 3:-0.99689725 4:0.94054732 
-0.1 1:1.0016232 2:0.38116863 3:-0.99689725 4:0.94054732 
-0.1 1:1.0016232 2:0.38116863 3:-0.99689725 4:0.94054732 
0.1 1:-0.37441149 2:-1.4822342 3:-0.99689725 4:-1.0026811 
0.1 1:-0.83308973 2:-1.6012018 3:-0.083628797 4:-1.0026811 
0.1 1:-0.37441149 2:-1.6012018 3:-0.083628797 4:-1.0026811 
0.1 1:-0.37441149 2:-1.6012018 3:-0.083628797 4:-1.0026811 
-0.1 1:1.0016232 2:-0.441658 3:-0.99689725 4:0.94054732 
-0.1 1:1.0016232 2:-0.441658 3:-0.99689725 4:0.94054732 
-0.1 1:-0.37441149 2:0.82134204 3:0.82963965 4:-1.0026811 
0.05049651361940685 1:-0.83308973 2:0.23208402 3:-0.63158987 4:0.6415891 
-0.1 1:0.084266749 2:0.23208402 3:-0.63158987 4:0.6415891 
0.1 1:1.0016232 2:0.23208402 3:-0.63158987 4:0.6415891 
-0.1 1:1.0016232 2:-0.4671262 3:-0.81424356 4:0.77861162 
0.1 1:-0.37441149 2:-1.7151821 3:-0.44893618 4:-1.0026811 
0.1 1:1.0016232 2:-0.39837279 3:1.0122933 4:-0.031066897 
0.05044791762100195 1:1.0016232 2:-0.39837279 3:1.0122933 4:-0.031066897 
0.1 1:0.084266749 2:0.60587469 3:2.6561766 4:-0.31314844 
0.1 1:-0.83308973 2:1.008298 3:2.2908692 4:-1.0026811 
0.1 1:-0.37441149 2:1.008298 3:2.2908692 4:-1.0026811 
0.1 1:-0.83308973 2:0.23069321 3:-0.81424356 4:-1.0026811 
0.1 1:-0.37441149 2:0.23069321 3:-0.81424356 4:-1.0026811 
0.1 1:-0.37441149 2:0.23069321 3:-0.81424356 4:-1.0026811 
0.1 1:-0.83308973 2:-0.61344278 3:0.46433227 4:0.12234587 
-0.1 1:1.0016232 2:-0.61344278 3:0.46433227 4:0.12234587 
0.1 1:-0.83308973 2:-0.77886909 3:-1.1795509 4:-1.0026811 
0.1 1:-0.37441149 2:-0.77886909 3:-1.1795509 4:-1.0026811 
-0.03734410746857631 1:-1.291768 2:1.3659848 3:0.46433227 4:-1.0026811 
-7.855892052332826e-05 1:-0.37441149 2:1.3659848 3:0.46433227 4:-1.0026811 
-0.04139716314378121 1:-0.83308973 2:-1.7655718 3:1.0122933 4:-1.0026811 
-0.1 1:-0.37441149 2:-1.7655718 3:1.0122933 4:-1.0026811 
-0.1 1:-0.37441149 2:-1.7655718 3:1.0122933 4:-1.0026811 
0.1 1:-1.291768 2:-0.74810085 3:-1.3622046 4:-1.0026811 
0.1 1:-0.83308973 2:-0.74810085 3:-1.3622046 4:-1.0026811 
0.1 1:-0.37441149 2:-0.74810085 3:-1.3622046 4:-1.0026811 
-0.1 1:1.0016232 2:-0.6307322 3:-0.99689725 4:0.94054732 
-0.1 1:-0.83308973 2:-0.038036007 3:-0.99689725 4:0.94054732 
-0.1 1:1.0016232 2:-0.038036007 3:-0.99689725 4:0.94054732 
0.1 1:1.0016232 2:-0.038036007 3:-0.99689725 4:0.94054732 
-0.04529437690501288 1:-0.37441149 2:-1.6041415 3:-1.1795509 4:3.2724214 
0.01860415076297955 1:1.0016232 2:-1.6041415 3:-1.1795509 4:3.2724214 
-0.1 1:-0.37441149 2:1.4200754 3:1.194947 4:-1.0026811 
-0.1 1:-1.291768 2:-0.74697361 3:-0.26628249 4:-1.0026811 
-0.1 1:-0.83308973 2:-0.74697361 3:-0.26628249 4:-1.0026811 
-0.1 1:-0.37441149 2:-0.74697361 3:-0.26628249 4:-1.0026811 
-0.1 1:-0.37441149 2:-0.74697361 3:-0.26628249 4:-1.0026811 
-0.1 1:-0.37441149 2:1.2933243 3:1.9255618 4:0.5806902 
-0.1 1:1.0016232 2:1.2933243 3:1.9255618 4:0.5806902 
-0.1 1:2.3776579 2:1.2933243 3:1.9255618 4:0.5806902 
-0.1 1:2.3776579 2:1.2933243 3:1.9255618 4:0.5806902 
-0.1 1:-1.291768 2:0.71125015 3:-0.083628797 4:-1.0026811 
-0.1 1:-0.83308973 2:0.71125015 3:-0.083628797 4:-1.0026811 
-0.1 1:-0.37441149 2:0.71125015 3:-0.083628797 4:-1.0026811 
-0.1 1:-0.37441149 2:0.71125015 3:-0.083628797 4:-1.0026811 
-0.1 1:-0.83308973 2:-1.4885929 3:-0.81424356 4:-1.0026811 
-0.04145097425579714 1:0.084266749 2:0.16927456 3:1.0122933 4:-0.031066897 
-0.1 1:1.0016232 2:0.16927456 3:1.0122933 4:-0.031066897 
-0.1 1:1.0016232 2:0.16927456 3:1.0122933 4:-0.031066897 
0.1 1:-0.37441149 2:-0.57048213 3:0.28167858 4:-1.0026811 
-0.1 1:-0.83308973 2:0.61501065 3:0.46433227 4:-1.0026811 
-0.1 1:-0.37441149 2:0.61501065 3:0.46433227 4:-1.0026811 
-0.1 1:-0.83308973 2:0.58254342 3:-0.083628797 4:0.33328843 
-0.1 1:0.084266749 2:0.58254342 3:-0.083628797 4:0.33328843 
-0.1 1:1.0016232 2:0.58254342 3:-0.083628797 4:0.33328843 
-0.1 1:2.3776579 2:1.2911212 3:-0.083628797 4:1.669258 
0.1 1:-0.37441149 2:0.9287522 3:0.099024893 4:1.5120851 
-0.1 1:1.0016232 2:0.9287522 3:0.099024893 4:1.5120851 
0.07214716556115212 1:-0.83308973 2:-1.1452479 3:-0.81424356 4:0.77861162 
0.1 1:1.0016232 2:-1.1452479 3:-0.81424356 4:0.77861162 
0.04210097766867651 1:-0.83308973 2:0.36898304 3:1.0122933 4:-0.031066897 
-0.1 1:-0.83308973 2:-0.99640596 3:0.82963965 4:0.015200446 
0.1 1:0.084266749 2:-0.99640596 3:0.82963965 4:0.015200446 
0.1 1:-1.291768 2:-1.0857958 3:-0.44893618 4:-1.0026811 
0.1 1:-0.83308973 2:-1.0857958 3:-0.44893618 4:-1.0026811 
0.1 1:-0.37441149 2:-1.0857958 3:-0.44893618 4:-1.0026811 
0.1 1:-0.37441149 2:-1.0857958 3:-0.44893618 4:-1.0026811 
-0.1 1:1.0016232 2:1.0056215 3:-0.26628249 4:0.42235307 
0.05879971396410574 1:0.084266749 2:0.65778445 3:1.194947 4:-0.073310994 
0.1 1:-0.83308973 2:0.37952727 3:1.0122933 4:-1.0026811 
0.1 1:-0.37441149 2:0.37952727 3:1.0122933 4:-1.0026811 
0.1 1:-0.37441149 2:0.37952727 3:1.0122933 4:-1.0026811 
-0.1 1:-0.37441149 2:-0.01906235 3:0.099024893 4:-1.0026811 
0.1 1:0.084266749 2:-1.3072305 3:-1.1795509 4:1.1348702 
0.1 1:1.0016232 2:-1.3072305 3:-1.1795509 4:1.1348702 
0.1 1:1.0016232 2:-1.3072305 3:-1.1795509 4:1.1348702 
-0.1 1:-1.291768 2:-1.0452056 3:-1.3622046 4:-1.0026811 
-0.1 1:-0.83308973 2:-1.0452056 3:-1.3622046 4:-1.0026811 
-0.1 1:-0.37441149 2:-1.0452056 3:-1.3622046 4:-1.0026811 
-0.1 1:-0.37441149 2:-1.0452056 3:-1.3622046 4:-1.0026811 
0.1 1:-0.37441149 2:-1.8084524 3:-0.81424356 4:-1.0026811 
-0.1 1:-1.291768 2:-1.7984987 3:-0.81424356 4:-1.0026811 
0.1 1:1.0016232 2:0.40165963 3:2.1082155 4:0.52414123 
0.07245948821662546 1:2.3776579 2:0.40165963 3:2.1082155 4:0.52414123 
0.1 1:2.3776579 2:0.40165963 3:2.1082155 4:0.52414123 
0.1 1:-0.83308973 2:-0.37876194 3:0.099024893 4:0.25470199 
0.1 1:-0.83308973 2:-1.8227943 3:-0.63158987 4:-1.0026811 
-0.005419122090044737 1:-1.291768 2:1.4919254 3:1.194947 4:-1.0026811 
-0.007157750207295071 1:-0.37441149 2:1.4919254 3:1.194947 4:-1.0026811 
-0.1 1:-0.83308973 2:-1.3650806 3:-0.81424356 4:-1.0026811 
-0.1 1:-0.37441149 2:-1.3650806 3:-0.81424356 4:-1.0026811 
0.1 1:-1.291768 2:0.0046797631 3:1.0122933 4:-1.0026811 
0.1 1:-0.37441149 2:0.0046797631 3:1.0122933 4:-1.0026811 
0.1 1:-0.83308973 2:0.66261278 3:1.5602544 4:-0.1476606 
0.1 1:0.084266749 2:0.66261278 3:1.5602544 4:-0.1476606 
-0.1 1:1.0016232 2:0.66261278 3:1.5602544 4:-0.1476606 
0.03415284283313602 1:1.0016232 2:0.66261278 3:1.5602544 4:-0.1476606 
0.1 1:0.084266749 2:0.79004798 3:-0.81424356 4:0.77861162 
0.1 1:1.0016232 2:0.79004798 3:-0.81424356 4:0.77861162 
0.1 1:1.0016232 2:0.79004798 3:-0.81424356 4:0.77861162 
0.00767102214330265 1:1.0016232 2:-1.3207122 3:0.099024893 4:1.5120851 
-0.1 1:-0.83308973 2:-1.1092147 3:-0.99689725 4:-1.0026811 
-0.1 1:-0.37441149 2:-1.1092147 3:-0.99689725 4:-1.0026811 
-0.1 1:-0.37441149 2:1.1288753 3:0.099024893 4:-1.0026811 
-0.06334970680880386 1:-0.37441149 2:1.1288753 3:0.099024893 4:-1.0026811 
0.1 1:-0.83308973 2:0.65027667 3:1.194947 4:-0.073310994 
0.1 1:1.0016232 2:0.65027667 3:1.194947 4:-0.073310994 
0.1 1:1.0016232 2:0.65027667 3:1.194947 4:-0.073310994 
0.1 1:0.084266749 2:0.30965561 3:-0.44893618 4:0.52414123 
0.1 1:1.0016232 2:0.30965561 3:-0.44893618 4:0.52414123 
0.1 1:1.0016232 2:0.30965561 3:-0.44893618 4:0.52414123 
-0.04842465025235184 1:1.0016232 2:-0.86441834 3:-1.1795509 4:1.1348702 
0.1 1:-0.83308973 2:0.42341925 3:1.7429081 4:-0.18054601 
-0.1 1:0.084266749 2:0.42341925 3:1.7429081 4:-0.18054601 
-0.1 1:1.0016232 2:0.42341925 3:1.7429081 4:-0.18054601 
0.1 1:1.0016232 2:-0.054303455 3:-0.44893618 4:2.0509636 
0.1 1:2.3776579 2:-0.054303455 3:-0.44893618 4:2.0509636 
0.1 1:2.3776579 2:-0.054303455 3:-0.44893618 4:2.0509636 
-0.1 1:0.084266749 2:1.257105 3:1.5602544 4:-0.1476606 
-0.1 1:1.0016232 2:1.257105 3:1.5602544 4:-0.1476606 
-0.1 1:1.0016232 2:1.257105 3:1.5602544 4:-0.1476606 
-0.1 1:-1.291768 2:-0.26278332 3:-0.44893618 4:-1.0026811 
-0.1 1:-0.83308973 2:-0.26278332 3:-0.44893618 4:-1.0026811 
-0.1 1:-0.37441149 2:-0.26278332 3:-0.44893618 4:-1.0026811 
-0.1 1:-0.37441149 2:-0.26278332 3:-0.44893618 4:-1.0026811 
-0.1 1:-0.83308973 2:-0.50048386 3:-1.1795509 4:1.1348702 
0.06259925079666627 1:1.0016232 2:-0.50048386 3:-1.1795509 4:1.1348702 
0.09661278054320908 1:-0.37441149 2:-0.2462797 3:0.099024893 4:1.5120851 
0.1 1:1.0016232 2:-0.2462797 3:0.099024893 4:1.5120851 
0.1 1:2.3776579 2:-0.2462797 3:0.099024893 4:1.5120851 
0.1 1:2.3776579 2:-0.2462797 3:0.099024893 4:1.5120851 
-0.09702434114700864 1:1.0016232 2:0.63110315 3:-0.99689725 4:0.94054732 
-0.1 1:1.0016232 2:0.63110315 3:-0.99689725 4:0.94054732 
0.1 1:-0.83308973 2:1.1003498 3:-0.63158987 4:0.6415891 
0.1 1:0.084266749 2:1.1003498 3:-0.63158987 4:0.6415891 
0.1 1:1.0016232 2:1.1003498 3:-0.63158987 4:0.6415891 
0.1 1:-0.83308973 2:0.13656807 3:1.0122933 4:-0.031066897 
0.1 1:-0.37441149 2:0.94993037 3:1.7429081 4:0.6415891 
0.1 1:1.0016232 2:-1.4796625 3:-0.44893618 4:0.52414123 
-0.1 1:1.0016232 2:1.3158201 3:-0.083628797 4:0.33328843 
-0.1 1:-0.37441149 2:0.28079657 3:-0.26628249 4:-1.0026811 
-0.1 1:-0.37441149 2:1.4627467 3:1.9255618 4:-1.0026811 
0.1 1:-0.83308973 2:-0.44164251 3:-0.81424356 4:-1.0026811 
0.1 1:-0.37441149 2:-0.44164251 3:-0.81424356 4:-1.0026811 
0.1 1:-0.37441149 2:-0.44164251 3:-0.81424356 4:-1.0026811 
0.1 1:-0.37441149 2:-0.82155257 3:-0.44893618 4:-1.0026811 
0.1 1:0.084266749 2:-0.35368891 3:-0.44893618 4:0.52414123 
0.1 1:1.0016232 2:-0.35368891 3:-0.44893618 4:0.52414123 
-0.1 1:-1.291768 2:1.3009505 3:-0.083628797 4:-1.0026811 
-0.1 1:-0.37441149 2:1.3009505 3:-0.083628797 4:-1.0026811 
-0.1 1:0.084266749 2:-0.077818766 3:0.64698596 4:0.066094524 
-0.1 1:1.0016232 2:-0.077818766 3:0.64698596 4:0.066094524 
-0.1 1:1.0016232 2:-0.077818766 3:0.64698596 4:0.066094524 
-0.1 1:1.0016232 2:-1.1485325 3:-0.26628249 4:1.8473873 
0.04058766336381005 1:2.3776579 2:-1.1485325 3:-0.26628249 4:1.8473873 
0.1 1:-1.291768 2:1.3038288 3:-0.81424356 4:-1.0026811 
-0.0486884077050574 1:-0.37441149 2:1.3038288 3:-0.81424356 4:-1.0026811 
-0.1 1:0.084266749 2:1.1211849 3:-0.44893618 4:0.52414123 
0.1 1:-0.83308973 2:-1.0765377 3:-0.81424356 4:0.77861162 
0.1 1:1.0016232 2:-1.0765377 3:-0.81424356 4:0.77861162 
0.1 1:1.0016232 2:-1.0765377 3:-0.81424356 4:0.77861162 
0.1 1:-1.291768 2:0.13032574 3:-0.63158987 4:-1.0026811 
0.1 1:-0.83308973 2:0.13032574 3:-0.63158987 4:-1.0026811 
0.1 1:-0.37441149 2:0.13032574 3:-0.63158987 4:-1.0026811 
-0.1 1:-0.83308973 2:0.73617232 3:-0.26628249 4:-1.0026811 
-0.1 1:-0.37441149 2:0.73617232 3:-0.26628249 4:-1.0026811 
0.1 1:-0.37441149 2:-0.63615252 3:-0.99689725 4:-1.0026811 
0.1 1:-0.37441149 2:-0.63615252 3:-0.99689725 4:-1.0026811 
-0.1 1:-1.291768 2:1.3460513 3:1.9255618 4:-1.0026811 
-0.1 1:-0.83308973 2:1.3460513 3:1.9255618 4:-1.0026811 
-0.1 1:-0.37441149 2:1.3460513 3:1.9255618 4:-1.0026811 
-0.1 1:-0.37441149 2:1.3460513 3:1.9255618 4:-1.0026811 
-0.1 1:1.0016232 2:0.0049285748 3:-0.26628249 4:0.42235307 
-0.1 1:0.084266749 2:0.35035053 3:-0.63158987 4:0.6415891 
-0.1 1:1.0016232 2:0.35035053 3:-0.63158987 4:0.6415891 
-0.1 1:-0.83308973 2:1.1409856 3:-0.26628249 4:0.42235307 
-0.07192751637875149 1:-0.83308973 2:-0.38405055 3:-1.1795509 4:1.1348702 
0.1 1:0.084266749 2:-0.38405055 3:-1.1795509 4:1.1348702 
0.1 1:1.0016232 2:-0.38405055 3:-1.1795509 4:1.1348702 
0.1 1:1.0016232 2:-0.38405055 3:-1.1795509 4:1.1348702 
-0.1 1:-0.83308973 2:-1.0715386 3:-1.3622046 4:1.3723759 
0.1 1:1.0016232 2:0.54290254 3:-0.99689725 4:0.94054732 
0.1 1:0.084266749 2:1.1853101 3:0.46433227 4:0.12234587 
-0.1 1:1.0016232 2:1.5274749 3:0.46433227 4:0.12234587 
0.1 1:-0.83308973 2:-0.24597427 3:0.099024893 4:0.25470199 
0.1 1:0.084266749 2:-0.24597427 3:0.099024893 4:0.25470199 
0.1 1:1.0016232 2:-0.24597427 3:0.099024893 4:0.25470199 
0.1 1:1.0016232 2:-0.24597427 3:0.099024893 4:0.25470199 
0.1 1:0.084266749 2:-0.086710303 3:-0.63158987 4:0.6415891 
0.1 1:1.0016232 2:-0.086710303 3:-0.63158987 4:0.6415891 
0.1 1:1.0016232 2:-0.086710303 3:-0.63158987 4:0.6415891 
0.1 1:-0.83308973 2:0.9094645 3:-0.26628249 4:-1.0026811 
0.1 1:-0.37441149 2:0.9094645 3:-0.26628249 4:-1.0026811 
0.1 1:-0.37441149 2:0.9094645 3:-0.26628249 4:-1.0026811 
-0.1 1:-0.83308973 2:1.0162005 3:-0.26628249 4:0.42235307 
-0.1 1:0.084266749 2:1.0162005 3:-0.26628249 4:0.42235307 
0.1 1:1.0016232 2:1.0162005 3:-0.26628249 4:0.42235307 
-0.1 1:1.0016232 2:1.0162005 3:-0.26628249 4:0.42235307 
0.1 1:1.0016232 2:1.0653887 3:1.194947 4:-0.073310994 
-0.1 1:1.0016232 2:0.17252951 3:-0.63158987 4:0.6415891 
0.1 1:1.0016232 2:-0.83843664 3:0.28167858 4:0.18484737 
0.1 1:1.0016232 2:-0.83843664 3:0.28167858 4:0.18484737 
0.1 1:-0.37441149 2:1.122707 3:-0.63158987 4:-1.0026811 
0.1 1:-0.37441149 2:1.122707 3:-0.63158987 4:-1.0026811 
-0.1 1:1.0016232 2:-1.2356487 3:-0.81424356 4:0.77861162 
-0.1 1:-1.291768 2:-1.2696613 3:-0.63158987 4:-1.0026811 
0.1 1:0.084266749 2:0.31425466 3:-0.44893618 4:0.52414123 
0.1 1:1.0016232 2:0.31425466 3:-0.44893618 4:0.52414123 
-0.1 1:-1.291768 2:0.84260717 3:-0.083628797 4:-1.0026811 
-0.1 1:-0.83308973 2:0.84260717 3:-0.083628797 4:-1.0026811 
-0.1 1:-0.37441149 2:0.84260717 3:-0.083628797 4:-1.0026811 
0.1 1:-1.291768 2:0.1499172 3:-0.81424356 4:-1.0026811 
0.1 1:-0.83308973 2:0.1499172 3:-0.81424356 4:-1.0026811 
0.1 1:-1.291768 2:0.26715572 3:-0.26628249 4:-1.0026811 
0.1 1:-0.37441149 2:-1.5926672 3:-0.99689725 4:-1.0026811 
-0.1 1:-0.37441149 2:-1.5581196 3:-0.44893618 4:2.0509636 
-0.1 1:1.0016232 2:-1.5581196 3:-0.44893618 4:2.0509636 
-0.1 1:2.3776579 2:-1.5581196 3:-0.44893618 4:2.0509636 
-0.1 1:2.3776579 2:-1.5581196 3:-0.44893618 4:2.0509636 
-0.1 1:-1.291768 2:1.599998 3:1.3776007 4:-1.0026811 
-0.1 1:-0.37441149 2:1.599998 3:1.3776007 4:-1.0026811 
0.1 1:-0.83308973 2:-1.2393521 3:-0.81424356 4:0.77861162 
0.1 1:0.084266749 2:1.5458637 3:0.099024893 4:0.25470199 
0.1 1:1.0016232 2:1.5458637 3:0.099024893 4:0.25470199 
0.1 1:-0.37441149 2:-0.14751909 3:-0.81424356 4:-1.0026811 
0.1 1:-0.37441149 2:-0.14751909 3:-0.81424356 4:-1.0026811 
0.1 1:-0.37441149 2:-1.6730594 3:-0.44893618 4:2.0509636 
-0.01433712314900119 1:1.0016232 2:-1.6730594 3:-0.44893618 4:2.0509636 
-0.1 1:-0.83308973 2:0.11472274 3:0.82963965 4:0.015200446 
-0.1 1:1.0016232 2:0.11472274 3:0.82963965 4:0.015200446 
-0.1 1:1.0016232 2:-0.77372509 3:0.64698596 4:1.1348702 
-0.1 1:2.3776579 2:-0.77372509 3:0.64698596 4:1.1348702 
-0.1 1:2.3776579 2:-0.77372509 3:0.64698596 4:1.1348702 
-0.1 1:1.0016232 2:0.93056651 3:1.0122933 4:-0.031066897 
-0.1 1:-0.83308973 2:-0.15865874 3:-0.44893618 4:0.52414123 
-0.1 1:0.084266749 2:-0.15865874 3:-0.44893618 4:0.52414123 
-0.1 1:1.0016232 2:-0.15865874 3:-0.44893618 4:0.52414123 
-0.1 1:1.0016232 2:-0.15865874 3:-0.44893618 4:0.52414123 
-0.1 1:-1.291768 2:1.3605994 3:1.5602544 4:-1.0026811 
-0.06319080616544355 1:-0.83308973 2:1.3605994 3:1.5602544 4:-1.0026811 
-0.06358199364523756 1:-0.37441149 2:1.3605994 3:1.5602544 4:-1.0026811 
-0.1 1:-1.291768 2:0.36118028 3:-0.44893618 4:-1.0026811 
-0.1 1:-1.291768 2:0.233632 3:-0.083628797 4:-1.0026811 
-0.1 1:-0.83308973 2:0.233632 3:-0.083628797 4:-1.0026811 
-0.1 1:-0.37441149 2:0.233632 3:-0.083628797 4:-1.0026811 
0.1 1:-1.291768 2:-1.5245386 3:-0.81424356 4:-1.0026811 
0.1 1:-0.83308973 2:-1.5245386 3:-0.81424356 4:-1.0026811 
0.1 1:-0.37441149 2:-1.5245386 3:-0.81424356 4:-1.0026811 
-0.1 1:-0.83308973 2:0.71432449 3:0.82963965 4:0.015200446 
0.1 1:0.084266749 2:-0.88857085 3:-0.99689725 4:0.94054732 
0.1 1:1.0016232 2:-0.88857085 3:-0.99689725 4:0.94054732 
0.1 1:1.0016232 2:-0.88857085 3:-0.99689725 4:0.94054732 
-0.1 1:0.084266749 2:0.54231539 3:-0.26628249 4:0.42235307 
0.1 1:-0.83308973 2:1.0660739 3:2.2908692 4:-0.26559447 
1.686314141033588e-05 1:0.084266749 2:1.0660739 3:2.2908692 4:-0.26559447 
0.1 1:1.0016232 2:1.0660739 3:2.2908692 4:-0.26559447 
0.1 1:1.0016232 2:1.0660739 3:2.2908692 4:-0.26559447 
0.1 1:1.0016232 2:0.21306495 3:-0.083628797 4:0.33328843 
-0.1 1:-0.83308973 2:1.5193709 3:-0.26628249 4:-1.0026811 
-0.1 1:-0.37441149 2:1.5193709 3:-0.26628249 4:-1.0026811 
-0.1 1:-0.83308973 2:-0.22754248 3:-0.81424356 4:-1.0026811 
-0.1 1:-0.37441149 2:-0.22754248 3:-0.81424356 4:-1.0026811 
0.1 1:-1.291768 2:-1.3360605 3:0.82963965 4:-1.0026811 
-0.001033229629963812 1:3.7536927 2:-1.80936 3:-0.99689725 4:4.8270042 
0.1 1:1.0016232 2:-1.2707166 3:-0.63158987 4:2.2858593 
0.009518288609751726 1:2.3776579 2:-1.2707166 3:-0.63158987 4:2.2858593 
0.001044615398239994 1:2.3776579 2:-1.2707166 3:-0.63158987 4:2.2858593 
-0.1 1:0.084266749 2:0.26450399 3:0.46433227 4:0.12234587 
-0.01429903385256754 1:1.0016232 2:0.26450399 3:0.46433227 4:0.12234587 
-0.1 1:1.0016232 2:0.26450399 3:0.46433227 4:0.12234587 
0.1 1:-0.83308973 2:-0.57618358 3:0.099024893 4:0.25470199 
0.1 1:1.0016232 2:-0.57618358 3:0.099024893 4:0.25470199 
0.1 1:1.0016232 2:-0.57618358 3:0.099024893 4:0.25470199 
0.1 1:-0.37441149 2:-0.34689889 3:-0.44893618 4:2.0509636 
0.1 1:2.3776579 2:-0.34689889 3:-0.44893618 4:2.0509636 
0.1 1:2.3776579 2:-0.34689889 3:-0.44893618 4:2.0509636 
-0.1 1:0.084266749 2:0.19693681 3:0.099024893 4:0.25470199 
-0.00135103699094314 1:-0.37441149 2:0.17551162 3:0.099024893 4:1.5120851 
0.1 1:1.0016232 2:0.17551162 3:0.099024893 4:1.5120851 
0.1 1:2.3776579 2:0.17551162 3:0.099024893 4:1.5120851 
0.1 1:2.3776579 2:0.17551162 3:0.099024893 4:1.5120851 
0.1 1:-0.83308973 2:-0.38653155 3:-0.81424356 4:0.77861162 
0.1 1:0.084266749 2:-0.38653155 3:-0.81424356 4:0.77861162 
0.1 1:1.0016232 2:-0.38653155 3:-0.81424356 4:0.77861162 
0.1 1:1.0016232 2:-0.38653155 3:-0.81424356 4:0.77861162 
0.1 1:0.084266749 2:-1.1842976 3:-0.81424356 4:0.77861162 
0.1 1:1.0016232 2:-1.1842976 3:-0.81424356 4:0.77861162 
0.1 1:1.0016232 2:-1.1842976 3:-0.81424356 4:0.77861162 
-0.1 1:-0.83308973 2:-0.87571654 3:-0.26628249 4:-1.0026811 
-0.1 1:-0.37441149 2:-0.87571654 3:-0.26628249 4:-1.0026811 
-0.1 1:-0.37441149 2:-0.87571654 3:-0.26628249 4:-1.0026811 
0.1 1:1.0016232 2:-0.47533464 3:-1.3622046 4:1.3723759 
0.1 1:-1.291768 2:0.11091938 3:0.64698596 4:-1.0026811 
0.1 1:-0.83308973 2:0.11091938 3:0.64698596 4:-1.0026811 
-0.1 1:-0.37441149 2:0.11091938 3:0.64698596 4:-1.0026811 
-0.1 1:0.084266749 2:-1.0803087 3:-0.083628797 4:0.33328843 
-0.09327413654959496 1:1.0016232 2:0.067455194 3:1.7429081 4:-0.18054601 
0.1 1:0.084266749 2:0.38044588 3:0.64698596 4:0.066094524 
0.1 1:1.0016232 2:1.3065137 3:0.099024893 4:1.5120851 
0.1 1:0.084266749 2:-0.99729903 3:-0.44893618 4:0.52414123 
0.1 1:1.0016232 2:-0.99729903 3:-0.44893618 4:0.52414123 
0.1 1:1.0016232 2:-0.99729903 3:-0.44893618 4:0.52414123 
0.1 1:-0.37441149 2:-0.96102848 3:-0.083628797 4:-1.0026811 
0.1 1:-1.291768 2:1.2892677 3:0.099024893 4:-1.0026811 
-0.1 1:-1.291768 2:0.022855031 3:-0.63158987 4:-1.0026811 
-0.1 1:-0.83308973 2:0.022855031 3:-0.63158987 4:-1.0026811 
-0.1 1:-0.37441149 2:0.022855031 3:-0.63158987 4:-1.0026811 
-0.1 1:-0.37441149 2:0.022855031 3:-0.63158987 4:-1.0026811 
0.1 1:-0.83308973 2:0.10009107 3:-0.99689725 4:0.94054732 
-0.1 1:1.0016232 2:0.10009107 3:-0.99689725 4:0.94054732 
0.1 1:1.0016232 2:0.10009107 3:-0.99689725 4:0.94054732 
-0.1 1:-0.37441149 2:-1.8047652 3:-0.81424356 4:-1.0026811 
-0.1 1:-1.291768 2:-1.2361787 3:-0.99689725 4:-1.0026811 
-0.1 1:-0.83308973 2:-1.2361787 3:-0.99689725 4:-1.0026811 
-0.1 1:-0.37441149 2:-1.2361787 3:-0.99689725 4:-1.0026811 
-0.1 1:-0.83308973 2:-0.72182451 3:-0.26628249 4:0.42235307 
-0.01439456361586711 1:1.0016232 2:-0.72182451 3:-0.26628249 4:0.42235307 
0.1 1:-0.83308973 2:0.55309416 3:2.1082155 4:-0.23926994 
0.1 1:1.0016232 2:0.55309416 3:2.1082155 4:-0.23926994 
0.1 1:1.0016232 2:0.55309416 3:2.1082155 4:-0.23926994 
0.09601834133689592 1:-1.291768 2:-1.8106983 3:-0.81424356 4:-1.0026811 
-0.1 1:0.084266749 2:-1.4695773 3:-0.083628797 4:0.33328843 
-0.1 1:1.0016232 2:-1.4695773 3:-0.083628797 4:0.33328843 
-0.1 1:1.0016232 2:-1.4695773 3:-0.083628797 4:0.33328843 
-0.1 1:-1.291768 2:1.3372113 3:2.2908692 4:-1.0026811 
-0.1 1:-0.37441149 2:1.3372113 3:2.2908692 4:-1.0026811 
-0.1 1:-0.37441149 2:1.3372113 3:2.2908692 4:-1.0026811 
0.1 1:-0.83308973 2:0.18590871 3:0.46433227 4:0.12234587 
0.1 1:0.084266749 2:0.18590871 3:0.46433227 4:0.12234587 
0.1 1:1.0016232 2:0.18590871 3:0.46433227 4:0.12234587 
0.1 1:-0.37441149 2:1.5675114 3:1.9255618 4:-1.0026811 
0.1 1:-1.291768 2:1.3471183 3:2.2908692 4:-1.0026811 
0.06020552679249019 1:-0.83308973 2:1.3471183 3:2.2908692 4:-1.0026811 
0.1 1:-0.83308973 2:0.62709753 3:-0.63158987 4:0.6415891 
-0.1 1:1.0016232 2:0.62709753 3:-0.63158987 4:0.6415891 
0.1 1:-0.83308973 2:0.20043698 3:0.46433227 4:-1.0026811 
-0.1 1:-0.83308973 2:1.4756817 3:-0.26628249 4:-1.0026811 
-0.1 1:1.0016232 2:0.11787552 3:-1.1795509 4:1.1348702 
-0.1 1:1.0016232 2:0.11787552 3:-1.1795509 4:1.1348702 
-0.1 1:1.0016232 2:-1.6008451 3:-0.26628249 4:1.8473873 
-0.1 1:-0.83308973 2:-0.12409057 3:-1.1795509 4:1.1348702 
0.1 1:0.084266749 2:-0.12409057 3:-1.1795509 4:1.1348702 
0.1 1:1.0016232 2:-0.12409057 3:-1.1795509 4:1.1348702 
-0.1 1:1.0016232 2:1.5323839 3:-0.083628797 4:0.33328843 
-0.1 1:2.3776579 2:-1.6281219 3:2.1082155 4:0.52414123 
0.1 1:-0.83308973 2:0.47814957 3:-0.81424356 4:0.77861162 
-0.05530696398414317 1:0.084266749 2:0.47814957 3:-0.81424356 4:0.77861162 
-0.1 1:-1.291768 2:0.11532236 3:1.194947 4:-1.0026811 
0.1 1:-0.83308973 2:-1.3436382 3:-1.1795509 4:-1.0026811 
-0.1 1:-0.37441149 2:-1.3436382 3:-1.1795509 4:-1.0026811 
0.1 1:-0.83308973 2:-1.7404982 3:-0.81424356 4:0.77861162 
0.1 1:0.084266749 2:-1.7404982 3:-0.81424356 4:0.77861162 
0.1 1:1.0016232 2:-1.7404982 3:-0.81424356 4:0.77861162 
0.1 1:1.0016232 2:-1.7404982 3:-0.81424356 4:0.77861162 
-0.1 1:-0.37441149 2:-1.3546185 3:-0.63158987 4:-1.0026811 
-0.1 1:1.0016232 2:-0.7361774 3:0.099024893 4:0.25470199 
-0.1 1:1.0016232 2:-0.7361774 3:0.099024893 4:0.25470199 
-0.1 1:-0.83308973 2:-0.10640698 3:-1.1795509 4:-1.0026811 
-0.1 1:-0.37441149 2:-0.10640698 3:-1.1795509 4:-1.0026811 
-0.1 1:-0.83308973 2:-0.74773663 3:-0.63158987 4:0.6415891 
-0.05840560530406827 1:-0.37441149 2:-0.68676914 3:-0.63158987 4:-1.0026811 
-0.1 1:-0.37441149 2:-0.68676914 3:-0.63158987 4:-1.0026811 
0.1 1:0.084266749 2:-0.5020202 3:-0.083628797 4:0.33328843 
0.1 1:1.0016232 2:-0.5020202 3:-0.083628797 4:0.33328843 
-0.03541618281532451 1:-0.83308973 2:-0.1009452 3:1.3776007 4:-0.11203475 
0.04236900398674764 1:0.084266749 2:-0.1009452 3:1.3776007 4:-0.11203475 
0.1 1:1.0016232 2:-0.1009452 3:1.3776007 4:-0.11203475 
0.001887804581471214 1:-0.37441149 2:1.3325136 3:-0.26628249 4:1.8473873 
-2.368855083246975e-06 1:0.084266749 2:-1.8279274 3:-0.81424356 4:0.77861162 
-0.1 1:1.0016232 2:-1.8279274 3:-0.81424356 4:0.77861162 
-0.1 1:1.0016232 2:1.4651102 3:-0.26628249 4:0.42235307 
-0.1 1:-1.291768 2:1.0691057 3:1.3776007 4:-1.0026811 
-0.1 1:-0.83308973 2:1.0691057 3:1.3776007 4:-1.0026811 
-0.1 1:-0.37441149 2:1.0691057 3:1.3776007 4:-1.0026811 
-0.07293410418699801 1:-0.37441149 2:1.0691057 3:1.3776007 4:-1.0026811 
-0.1 1:-0.83308973 2:-1.5012481 3:-0.44893618 4:-1.0026811 
-0.1 1:-0.37441149 2:-0.89977531 3:-0.44893618 4:-1.0026811 
-0.1 1:-1.291768 2:0.60316915 3:-0.26628249 4:-1.0026811 
-0.1 1:-0.83308973 2:0.60316915 3:-0.26628249 4:-1.0026811 
-0.1 1:-0.37441149 2:0.60316915 3:-0.26628249 4:-1.0026811 
-0.1 1:-0.37441149 2:0.60316915 3:-0.26628249 4:-1.0026811 
0.1 1:1.0016232 2:-1.0058602 3:-0.99689725 4:2.8837758 
0.1 1:2.3776579 2:-1.0058602 3:-0.99689725 4:2.8837758 
0.1 1:2.3776579 2:-1.0058602 3:-0.99689725 4:2.8837758 
0.1 1:-0.83308973 2:0.50228691 3:0.099024893 4:-1.0026811 
0.06105688040541186 1:-0.37441149 2:0.50228691 3:0.099024893 4:-1.0026811 
0.1 1:-0.37441149 2:0.50228691 3:0.099024893 4:-1.0026811 
-0.1 1:-0.37441149 2:1.0623 3:0.46433227 4:-1.0026811 
0.1 1:-1.291768 2:1.2373413 3:1.7429081 4:-1.0026811 
0.1 1:1.0016232 2:1.2252022 3:0.46433227 4:0.12234587 
0.1 1:-0.83308973 2:1.0511248 3:-0.44893618 4:0.52414123 
0.1 1:-0.83308973 2:-1.2712202 3:-0.81424356 4:0.77861162 
0.1 1:1.0016232 2:-1.2712202 3:-0.81424356 4:0.77861162 
-0.01770647131947815 1:0.084266749 2:-1.7155303 3:-0.083628797 4:0.33328843 
-0.1 1:1.0016232 2:-1.7155303 3:-0.083628797 4:0.33328843 
-0.1 1:1.0016232 2:-1.7155303 3:-0.083628797 4:0.33328843 
-0.1 1:1.0016232 2:1.4299418 3:0.099024893 4:0.25470199 
0.1 1:-0.83308973 2:1.0727179 3:0.28167858 4:-1.0026811 
0.1 1:-0.37441149 2:1.0727179 3:0.28167858 4:-1.0026811 
0.1 1:1.0016232 2:0.85125024 3:0.099024893 4:0.25470199 
-0.1 1:-1.291768 2:0.22099536 3:0.099024893 4:-1.0026811 
-0.1 1:-0.83308973 2:0.22099536 3:0.099024893 4:-1.0026811 
-0.1 1:-0.37441149 2:0.22099536 3:0.099024893 4:-1.0026811 
-0.1 1:-0.37441149 2:0.22099536 3:0.099024893 4:-1.0026811 
0.1 1:1.0016232 2:0.6794226 3:1.0122933 4:-0.031066897 
0.1 1:-0.83308973 2:-0.34519278 3:-0.26628249 4:-1.0026811 
0.1 1:-0.37441149 2:-0.34519278 3:-0.26628249 4:-1.0026811 
-0.1 1:-0.83308973 2:0.80697862 3:0.099024893 4:0.25470199 
-0.1 1:0.084266749 2:0.80697862 3:0.099024893 4:0.25470199 
-0.1 1:1.0016232 2:0.80697862 3:0.099024893 4:0.25470199 
0.1 1:1.0016232 2:0.80697862 3:0.099024893 4:0.25470199 
0.1 1:1.0016232 2:-1.0114033 3:-0.63158987 4:2.2858593 
-0.1 1:1.0016232 2:0.90140426 3:0.099024893 4:0.25470199 
-0.1 1:0.084266749 2:-1.0482428 3:-0.99689725 4:0.94054732 
-0.1 1:1.0016232 2:-1.0482428 3:-0.99689725 4:0.94054732 
0.1 1:-0.37441149 2:0.2609909 3:-0.26628249 4:-1.0026811 
0.1 1:-0.37441149 2:0.2609909 3:-0.26628249 4:-1.0026811 
-0.1 1:-0.83308973 2:0.4431861 3:-0.26628249 4:0.42235307 
0.1 1:1.0016232 2:0.4431861 3:-0.26628249 4:0.42235307 
0.1 1:1.0016232 2:0.4431861 3:-0.26628249 4:0.42235307 
-0.1 1:-0.37441149 2:-0.68396576 3:2.4735229 4:-1.0026811 
0.1 1:-0.83308973 2:1.4849466 3:-0.083628797 4:-1.0026811 
-0.02768154499310426 1:-1.291768 2:1.5887218 3:2.2908692 4:-1.0026811 
-0.1 1:0.084266749 2:0.42114719 3:-0.63158987 4:0.6415891 
-0.1 1:1.0016232 2:0.42114719 3:-0.63158987 4:0.6415891 
-0.1 1:1.0016232 2:0.42114719 3:-0.63158987 4:0.6415891 
-0.1 1:-1.291768 2:-1.1032614 3:-0.44893618 4:-1.0026811 
-0.1 1:-0.83308973 2:-1.1032614 3:-0.44893618 4:-1.0026811 
-0.1 1:-0.37441149 2:-1.1032614 3:-0.44893618 4:-1.0026811 
-0.1 1:-0.37441149 2:-1.1032614 3:-0.44893618 4:-1.0026811 
0.1 1:-0.83308973 2:1.4566787 3:-0.44893618 4:-1.0026811 
0.1 1:-0.83308973 2:-0.45002166 3:-0.26628249 4:-1.0026811 
0.1 1:-0.37441149 2:-0.45002166 3:-0.26628249 4:-1.0026811 
0.1 1:-0.37441149 2:-0.45002166 3:-0.26628249 4:-1.0026811 
-0.1 1:0.084266749 2:1.2298449 3:0.82963965 4:0.015200446 
-0.1 1:1.0016232 2:1.2298449 3:0.82963965 4:0.015200446 
-0.1 1:-0.83308973 2:-1.2313354 3:-0.44893618 4:0.52414123 
-0.1 1:-1.291768 2:0.078803998 3:-0.81424356 4:-1.0026811 
-0.1 1:-0.83308973 2:0.078803998 3:-0.81424356 4:-1.0026811 
-0.1 1:-0.37441149 2:0.078803998 3:-0.81424356 4:-1.0026811 
-0.1 1:-0.37441149 2:0.078803998 3:-0.81424356 4:-1.0026811 
-0.1 1:-1.291768 2:-0.001051118 3:-0.083628797 4:-1.0026811 
-0.1 1:-0.83308973 2:-0.001051118 3:-0.083628797 4:-1.0026811 
0.1 1:0.084266749 2:0.76836937 3:-0.26628249 4:0.42235307 
0.1 1:1.0016232 2:0.76836937 3:-0.26628249 4:0.42235307 
0.1 1:1.0016232 2:0.76836937 3:-0.26628249 4:0.42235307 
0.1 1:1.0016232 2:-0.79838985 3:-0.44893618 4:0.52414123 
-0.1 1:1.0016232 2:0.56853684 3:-0.083628797 4:0.33328843 
0.1 1:-0.83308973 2:-1.0645802 3:-1.1795509 4:1.1348702 
-0.1 1:0.084266749 2:-1.6114672 3:-0.81424356 4:0.77861162 
-0.1 1:1.0016232 2:-1.6114672 3:-0.81424356 4:0.77861162 
-0.1 1:1.0016232 2:-1.6114672 3:-0.81424356 4:0.77861162 
0.1 1:-0.37441149 2:-1.7646842 3:-1.1795509 4:3.2724214 
0.09676164777341814 1:2.3776579 2:-1.7646842 3:-1.1795509 4:3.2724214 
0.1 1:-1.291768 2:1.5732755 3:0.28167858 4:-1.0026811 
-0.1 1:-1.291768 2:-0.33418836 3:-1.1795509 4:-1.0026811 
-0.1 1:-0.83308973 2:-0.33418836 3:-1.1795509 4:-1.0026811 
-0.1 1:-0.37441149 2:-0.33418836 3:-1.1795509 4:-1.0026811 
-0.1 1:-0.83308973 2:-0.39263225 3:0.099024893 4:-1.0026811 
0.1 1:0.084266749 2:1.3299287 3:0.099024893 4:0.25470199 
-0.1 1:-0.83308973 2:0.53228013 3:-0.44893618 4:0.52414123 
-0.1 1:0.084266749 2:0.53228013 3:-0.44893618 4:0.52414123 
-0.1 1:1.0016232 2:0.53228013 3:-0.44893618 4:0.52414123 
-0.1 1:1.0016232 2:0.53228013 3:-0.44893618 4:0.52414123 
-0.003023389741846964 1:-1.291768 2:1.5910098 3:3.2041376 4:-1.0026811 
-0.1 1:-0.83308973 2:1.5910098 3:3.2041376 4:-1.0026811 
-0.1 1:-0.37441149 2:-0.40573241 3:-0.26628249 4:1.8473873 
-0.1 1:1.0016232 2:-0.40573241 3:-0.26628249 4:1.8473873 
-0.1 1:2.3776579 2:-0.40573241 3:-0.26628249 4:1.8473873 
0.1 1:-0.83308973 2:-0.094137647 3:-0.26628249 4:-1.0026811 
0.1 1:-0.37441149 2:-0.094137647 3:-0.26628249 4:-1.0026811 
0.1 1:-0.83308973 2:0.35782231 3:-0.99689725 4:0.94054732 
0.1 1:-0.83308973 2:1.4668904 3:3.2041376 4:-1.0026811 
0.1 1:-0.37441149 2:1.4668904 3:3.2041376 4:-1.0026811 
0.1 1:-0.37441149 2:1.4668904 3:3.2041376 4:-1.0026811 
0.1 1:-1.291768 2:0.94888031 3:1.0122933 4:-1.0026811 
-0.1 1:-0.37441149 2:0.94888031 3:1.0122933 4:-1.0026811 
-0.1 1:-0.37441149 2:0.94888031 3:1.0122933 4:-1.0026811 
-0.1 1:-0.37441149 2:0.286585 3:-0.99689725 4:-1.0026811 
0.1 1:-1.291768 2:0.25405367 3:-0.99689725 4:-1.0026811 
0.1 1:-0.83308973 2:0.25405367 3:-0.99689725 4:-1.0026811 
0.1 1:-0.37441149 2:0.25405367 3:-0.99689725 4:-1.0026811 
0.1 1:-0.37441149 2:0.25405367 3:-0.99689725 4:-1.0026811 
-0.1 1:0.084266749 2:-0.84351343 3:-0.63158987 4:0.6415891 
-0.1 1:1.0016232 2:-0.84351343 3:-0.63158987 4:0.6415891 
-0.1 1:1.0016232 2:-0.84351343 3:-0.63158987 4:0.6415891 
-0.1 1:-0.83308973 2:0.40138726 3:-0.63158987 4:0.6415891 
-0.1 1:-1.291768 2:-0.78375294 3:-0.44893618 4:-1.0026811 
0.1 1:-0.83308973 2:-0.78375294 3:-0.44893618 4:-1.0026811 
0.1 1:-0.37441149 2:-0.78375294 3:-0.44893618 4:-1.0026811 
-0.1 1:1.0016232 2:-0.19328323 3:-0.63158987 4:0.6415891 
-0.0002667220219797856 1:1.0016232 2:0.75542326 3:0.64698596 4:0.066094524 
0.01279427983938401 1:-0.83308973 2:-1.5580108 3:-0.99689725 4:0.94054732 
-0.1 1:0.084266749 2:-1.5580108 3:-0.99689725 4:0.94054732 
-0.1 1:1.0016232 2:-1.5580108 3:-0.99689725 4:0.94054732 
-0.1 1:1.0016232 2:-1.5580108 3:-0.99689725 4:0.94054732 
0.1 1:0.084266749 2:0.99360309 3:-0.26628249 4:0.42235307 
0.1 1:1.0016232 2:0.99360309 3:-0.26628249 4:0.42235307 
0.1 1:1.0016232 2:0.99360309 3:-0.26628249 4:0.42235307 
-0.1 1:-0.83308973 2:0.86780934 3:-0.99689725 4:0.94054732 
-0.1 1:0.084266749 2:0.86780934 3:-0.99689725 4:0.94054732 
-0.1 1:1.0016232 2:0.86780934 3:-0.99689725 4:0.94054732 
-0.1 1:1.0016232 2:0.86780934 3:-0.99689725 4:0.94054732 
-0.1 1:-0.37441149 2:-1.4141163 3:-1.1795509 4:-1.0026811 
-0.1 1:-0.83308973 2:-1.6997996 3:-0.44893618 4:0.52414123 
-0.1 1:0.084266749 2:-1.6997996 3:-0.44893618 4:0.52414123 
-0.1 1:1.0016232 2:-1.6997996 3:-0.44893618 4:0.52414123 
-0.1 1:-0.83308973 2:1.2337837 3:-0.083628797 4:0.33328843 
-0.0702620324033154 1:1.0016232 2:1.2337837 3:-0.083628797 4:0.33328843 
0.1 1:-0.83308973 2:1.291844 3:0.099024893 4:-1.0026811 
0.01235845043125907 1:-0.83308973 2:-1.3141722 3:-0.44893618 4:0.52414123 
-0.1 1:1.0016232 2:-1.3141722 3:-0.44893618 4:0.52414123 
-0.1 1:1.0016232 2:-1.2754381 3:-0.26628249 4:0.42235307 
0.1 1:-1.291768 2:0.18656679 3:-0.99689725 4:-1.0026811 
0.1 1:-0.83308973 2:0.18656679 3:-0.99689725 4:-1.0026811 
0.1 1:-0.37441149 2:0.18656679 3:-0.99689725 4:-1.0026811 
0.1 1:-0.37441149 2:0.18656679 3:-0.99689725 4:-1.0026811 
0.1 1:-0.83308973 2:-0.8127478 3:-0.63158987 4:-1.0026811 
0.1 1:-0.37441149 2:-0.8127478 3:-0.63158987 4:-1.0026811 
0.1 1:-0.37441149 2:-0.8127478 3:-0.63158987 4:-1.0026811 
0.1 1:-0.83308973 2:0.38094808 3:0.099024893 4:-1.0026811 
0.1 1:-0.37441149 2:0.38094808 3:0.099024893 4:-1.0026811 
-0.1 1:-0.83308973 2:-1.2394708 3:-0.63158987 4:0.6415891 
-0.1 1:-1.291768 2:0.49587123 3:-0.81424356 4:-1.0026811 
-0.1 1:-1.291768 2:-0.29182531 3:-0.26628249 4:-1.0026811 
0.1 1:-0.83308973 2:-0.29182531 3:-0.26628249 4:-1.0026811 
0.1 1:-0.37441149 2:-0.29182531 3:-0.26628249 4:-1.0026811 
0.1 1:-0.37441149 2:-0.29182531 3:-0.26628249 4:-1.0026811 
-0.1 1:0.084266749 2:-1.5408977 3:-0.99689725 4:0.94054732 
-0.1 1:1.0016232 2:-1.5408977 3:-0.99689725 4:0.94054732 
-0.1 1:1.0016232 2:-1.5408977 3:-0.99689725 4:0.94054732 
0.0296409111417335 1:2.3776579 2:0.88078567 3:3.3867913 4:0.21877676 
0.1 1:0.084266749 2:-0.4294352 3:-0.99689725 4:0.94054732 
-0.1 1:1.0016232 2:-0.30252842 3:-0.81424356 4:0.77861162 
-0.1 1:-0.83308973 2:1.2399203 3:1.194947 4:-1.0026811 
-0.1 1:-0.37441149 2:1.2399203 3:1.194947 4:-1.0026811 
-0.1 1:-0.37441149 2:1.2399203 3:1.194947 4:-1.0026811 
0.1 1:-1.291768 2:-0.6382708 3:-0.81424356 4:-1.0026811 
0.1 1:-0.83308973 2:-0.6382708 3:-0.81424356 4:-1.0026811 
0.1 1:-0.37441149 2:-0.6382708 3:-0.81424356 4:-1.0026811 
0.1 1:-0.37441149 2:-0.6382708 3:-0.81424356 4:-1.0026811 
-0.1 1:-0.83308973 2:0.96307635 3:-0.083628797 4:0.33328843 
0.1 1:0.084266749 2:-0.03000243 3:-0.63158987 4:0.6415891 
0.1 1:1.0016232 2:-0.03000243 3:-0.63158987 4:0.6415891 
0.1 1:1.0016232 2:-0.03000243 3:-0.63158987 4:0.6415891 
-0.1 1:-0.83308973 2:-0.64893133 3:0.099024893 4:0.25470199 
-0.1 1:0.084266749 2:-0.64893133 3:0.099024893 4:0.25470199 
-0.1 1:1.0016232 2:-0.64893133 3:0.099024893 4:0.25470199 
-0.1 1:1.0016232 2:-0.64893133 3:0.099024893 4:0.25470199 
0.1 1:1.0016232 2:-1.3403058 3:-0.81424356 4:0.77861162 
0.1 1:-0.83308973 2:-0.10635293 3:-1.1795509 4:1.1348702 
0.1 1:0.084266749 2:-0.10635293 3:-1.1795509 4:1.1348702 
0.1 1:1.0016232 2:-0.10635293 3:-1.1795509 4:1.1348702 
0.1 1:1.0016232 2:-0.10635293 3:-1.1795509 4:1.1348702 
0.1 1:-0.83308973 2:-1.627542 3:-0.083628797 4:-1.0026811 
0.1 1:-0.37441149 2:-1.627542 3:-0.083628797 4:-1.0026811 
0.1 1:-0.37441149 2:-1.627542 3:-0.083628797 4:-1.0026811 
-0.1 1:1.0016232 2:-1.2424134 3:-0.63158987 4:0.6415891 
-0.1 1:1.0016232 2:-1.2424134 3:-0.63158987 4:0.6415891 
0.1 1:-1.291768 2:-0.81850854 3:0.28167858 4:-1.0026811 
0.1 1:-0.83308973 2:-0.44672053 3:1.0122933 4:-0.031066897 
0.1 1:0.084266749 2:-0.44672053 3:1.0122933 4:-0.031066897 
0.01221533191161653 1:-0.83308973 2:1.2573019 3:-0.083628797 4:-1.0026811 
-0.1 1:-1.291768 2:-0.38484882 3:-0.81424356 4:-1.0026811 
-0.1 1:-0.37441149 2:-0.38484882 3:-0.81424356 4:-1.0026811 
-0.1 1:-1.291768 2:-1.7424681 3:-0.26628249 4:-1.0026811 
-0.03359441267171532 1:-0.83308973 2:-1.7424681 3:-0.26628249 4:-1.0026811 
-0.1 1:1.0016232 2:-1.2078674 3:-0.99689725 4:2.8837758 
-0.1 1:2.3776579 2:-1.2078674 3:-0.99689725 4:2.8837758 
0.1 1:1.0016232 2:-1.3699757 3:-0.81424356 4:2.5599043 
0.1 1:2.3776579 2:-1.3699757 3:-0.81424356 4:2.5599043 
0.1 1:2.3776579 2:-1.3699757 3:-0.81424356 4:2.5599043 
-0.1 1:-0.83308973 2:-0.57593712 3:-0.99689725 4:-1.0026811 
-0.1 1:-0.37441149 2:-0.57593712 3:-0.99689725 4:-1.0026811 
-0.1 1:-0.37441149 2:-0.57593712 3:-0.99689725 4:-1.0026811 
-0.1 1:1.0016232 2:0.81064078 3:-0.44893618 4:0.52414123 
-0.1 1:1.0016232 2:0.81064078 3:-0.44893618 4:0.52414123 
0.1 1:-0.83308973 2:-0.78391631 3:-0.81424356 4:0.77861162 
0.1 1:1.0016232 2:-0.78391631 3:-0.81424356 4:0.77861162 
-0.1 1:-0.83308973 2:1.1992748 3:-0.99689725 4:0.94054732 
-0.1 1:0.084266749 2:1.1992748 3:-0.99689725 4:0.94054732 
-0.1 1:1.0016232 2:1.1992748 3:-0.99689725 4:0.94054732 
-0.1 1:1.0016232 2:1.1992748 3:-0.99689725 4:0.94054732 
-0.1 1:0.084266749 2:0.28298319 3:-0.81424356 4:0.77861162 
-0.1 1:1.0016232 2:0.28298319 3:-0.81424356 4:0.77861162 
-0.1 1:1.0016232 2:0.28298319 3:-0.81424356 4:0.77861162 
-0.1 1:-0.37441149 2:-0.064255226 3:-0.63158987 4:2.2858593 
-0.1 1:1.0016232 2:-0.064255226 3:-0.63158987 4:2.2858593 
-0.1 1:2.3776579 2:-0.064255226 3:-0.63158987 4:2.2858593 
-0.05930849993365213 1:2.3776579 2:-0.064255226 3:-0.63158987 4:2.2858593 
0.1 1:-1.291768 2:0.2396142 3:-0.26628249 4:-1.0026811 
0.1 1:-0.83308973 2:0.2396142 3:-0.26628249 4:-1.0026811 
0.1 1:-0.37441149 2:0.2396142 3:-0.26628249 4:-1.0026811 
0.1 1:-0.37441149 2:0.2396142 3:-0.26628249 4:-1.0026811 
-0.1 1:-0.37441149 2:0.83994986 3:0.28167858 4:-1.0026811 
-0.1 1:0.084266749 2:-1.2818972 3:-0.99689725 4:0.94054732 
0.1 1:0.084266749 2:-0.82302103 3:-1.1795509 4:1.1348702 
0.1 1:1.0016232 2:-0.82302103 3:-1.1795509 4:1.1348702 
0.1 1:1.0016232 2:-0.82302103 3:-1.1795509 4:1.1348702 
0.07506960538875208 1:-0.37441149 2:1.4704947 3:1.7429081 4:-1.0026811 
0.1 1:0.084266749 2:0.66577119 3:-0.26628249 4:0.42235307 
0.1 1:1.0016232 2:0.66577119 3:-0.26628249 4:0.42235307 
0.1 1:0.084266749 2:0.77656882 3:-0.26628249 4:0.42235307 
0.1 1:1.0016232 2:0.77656882 3:-0.26628249 4:0.42235307 
0.1 1:1.0016232 2:0.77656882 3:-0.26628249 4:0.42235307 
0.1 1:1.0016232 2:-0.26713038 3:1.3776007 4:-0.11203475 
-0.1 1:0.084266749 2:0.30222747 3:-0.44893618 4:0.52414123 
-0.1 1:1.0016232 2:0.30222747 3:-0.44893618 4:0.52414123 
-0.1 1:-0.83308973 2:-1.1129701 3:-1.1795509 4:1.1348702 
-0.1 1:0.084266749 2:-1.1129701 3:-1.1795509 4:1.1348702 
-0.1 1:1.0016232 2:-1.1129701 3:-1.1795509 4:1.1348702 
-0.1 1:1.0016232 2:-1.1129701 3:-1.1795509 4:1.1348702 
0.1 1:0.084266749 2:-1.7584591 3:-0.44893618 4:0.52414123 
0.1 1:1.0016232 2:-1.7584591 3:-0.44893618 4:0.52414123 
0.1 1:1.0016232 2:-1.7584591 3:-0.44893618 4:0.52414123 
0.1 1:0.084266749 2:-1.7657305 3:-0.44893618 4:0.52414123 
0.1 1:1.0016232 2:-1.7657305 3:-0.44893618 4:0.52414123 
0.1 1:1.0016232 2:-1.7657305 3:-0.44893618 4:0.52414123 
-0.1 1:0.084266749 2:0.084214018 3:-0.63158987 4:0.6415891 
-0.1 1:1.0016232 2:0.084214018 3:-0.63158987 4:0.6415891 
-0.1 1:1.0016232 2:0.084214018 3:-0.63158987 4:0.6415891 
-0.04934023665528914 1:1.0016232 2:0.35972837 3:-0.26628249 4:0.42235307 
-0.1 1:-0.83308973 2:1.2258624 3:3.2041376 4:-1.0026811 
-0.1 1:-0.37441149 2:1.2258624 3:3.2041376 4:-1.0026811 
-0.1 1:-0.37441149 2:1.2258624 3:3.2041376 4:-1.0026811 
-0.1 1:1.0016232 2:-1.5675966 3:-0.99689725 4:0.94054732 
-0.1 1:-0.83308973 2:1.2209938 3:3.0214839 4:-1.0026811 
0.1 1:-1.291768 2:0.25251839 3:-0.26628249 4:-1.0026811 
0.08880497714263152 1:-0.83308973 2:0.25251839 3:-0.26628249 4:-1.0026811 
-0.1 1:-0.37441149 2:0.25251839 3:-0.26628249 4:-1.0026811 
0.1 1:-0.83308973 2:-0.0081779002 3:-0.083628797 4:0.33328843 
0.1 1:0.084266749 2:-0.0081779002 3:-0.083628797 4:0.33328843 
-0.1 1:1.0016232 2:-0.0081779002 3:-0.083628797 4:0.33328843 
-0.1 1:1.0016232 2:-0.0081779002 3:-0.083628797 4:0.33328843 
-0.1 1:0.084266749 2:1.4971419 3:2.1082155 4:-0.23926994 
-0.1 1:-0.37441149 2:-0.94208541 3:-0.63158987 4:-1.0026811 
-0.1 1:0.084266749 2:-0.16283829 3:-0.63158987 4:0.6415891 
-0.1 1:1.0016232 2:-0.16283829 3:-0.63158987 4:0.6415891 
-0.1 1:1.0016232 2:-0.16283829 3:-0.63158987 4:0.6415891 
-0.1 1:-0.83308973 2:0.14431811 3:1.7429081 4:-1.0026811 
-0.08742565704622507 1:-0.37441149 2:-1.5955709 3:-0.99689725 4:2.8837758 
-0.1 1:1.0016232 2:-1.5955709 3:-0.99689725 4:2.8837758 
-0.1 1:2.3776579 2:-1.5955709 3:-0.99689725 4:2.8837758 
-0.1 1:2.3776579 2:-1.5955709 3:-0.99689725 4:2.8837758 
-0.1 1:-0.83308973 2:-0.088243336 3:-0.26628249 4:-1.0026811 
-0.1 1:-0.37441149 2:-0.088243336 3:-0.26628249 4:-1.0026811 
-0.1 1:-0.37441149 2:-0.088243336 3:-0.26628249 4:-1.0026811 
0.04001290100175058 1:-1.291768 2:0.58939004 3:0.099024893 4:-1.0026811 
-0.1 1:-0.83308973 2:0.58939004 3:0.099024893 4:-1.0026811 
-0.1 1:-0.37441149 2:0.58939004 3:0.099024893 4:-1.0026811 
-0.1 1:-0.37441149 2:-0.61600103 3:-1.1795509 4:3.2724214 
-0.07142327454744915 1:2.3776579 2:-0.61600103 3:-1.1795509 4:3.2724214 
0.1 1:-1.291768 2:-1.4922478 3:-0.99689725 4:-1.0026811 
0.1 1:-0.83308973 2:-1.4922478 3:-0.99689725 4:-1.0026811 
0.02663389296889628 1:-0.37441149 2:-1.4922478 3:-0.99689725 4:-1.0026811 
0.1 1:-0.37441149 2:-1.4922478 3:-0.99689725 4:-1.0026811 
0.1 1:-0.83308973 2:1.2435769 3:0.64698596 4:-1.0026811 
-0.1 1:0.084266749 2:-0.36970044 3:-0.81424356 4:0.77861162 
-0.1 1:1.0016232 2:-0.36970044 3:-0.81424356 4:0.77861162 
-0.1 1:1.0016232 2:-0.36970044 3:-0.81424356 4:0.77861162 
-0.04216416934147029 1:2.3776579 2:0.92933336 3:-0.083628797 4:1.669258 
-0.1 1:2.3776579 2:0.92933336 3:-0.083628797 4:1.669258 
-0.1 1:-0.37441149 2:0.78604941 3:-0.44893618 4:-1.0026811 
-0.1 1:-1.291768 2:1.0296281 3:0.28167858 4:-1.0026811 
-0.1 1:-0.37441149 2:1.0296281 3:0.28167858 4:-1.0026811 
-0.1 1:-0.37441149 2:1.0296281 3:0.28167858 4:-1.0026811 
0.1 1:-0.83308973 2:-0.20434277 3:-0.81424356 4:0.77861162 
0.1 1:0.084266749 2:-0.20434277 3:-0.81424356 4:0.77861162 
-0.1 1:1.0016232 2:-0.20434277 3:-0.81424356 4:0.77861162 
-0.1 1:1.0016232 2:-0.20434277 3:-0.81424356 4:0.77861162 
0.1 1:-1.291768 2:-0.91050193 3:-1.1795509 4:-1.0026811 
0.1 1:-0.83308973 2:-0.91050193 3:-1.1795509 4:-1.0026811 
0.1 1:-0.37441149 2:-0.91050193 3:-1.1795509 4:-1.0026811 
0.1 1:-1.291768 2:-0.33405579 3:-0.26628249 4:-1.0026811 
0.1 1:-0.37441149 2:-0.33405579 3:-0.26628249 4:-1.0026811 
0.1 1:-0.37441149 2:-0.33405579 3:-0.26628249 4:-1.0026811 
0.05461222303396278 1:-0.37441149 2:-0.61428253 3:-0.99689725 4:2.8837758 
0.1 1:1.0016232 2:-0.61428253 3:-0.99689725 4:2.8837758 
0.1 1:2.3776579 2:-0.61428253 3:-0.99689725 4:2.8837758 
0.1 1:2.3776579 2:-0.61428253 3:-0.99689725 4:2.8837758 
-0.1 1:0.084266749 2:0.43021983 3:-0.083628797 4:0.33328843 
-0.1 1:1.0016232 2:0.43021983 3:-0.083628797 4:0.33328843 
-0.1 1:1.0016232 2:0.43021983 3:-0.083628797 4:0.33328843 
0.02605721378091396 1:2.3776579 2:-1.3070993 3:1.194947 4:0.85605913 
-0.1 1:-0.83308973 2:-0.19904381 3:0.099024893 4:0.25470199 
-0.1 1:0.084266749 2:-0.19904381 3:0.099024893 4:0.25470199 
-0.1 1:1.0016232 2:-0.19904381 3:0.099024893 4:0.25470199 
0.1 1:-1.291768 2:-1.2806375 3:-0.63158987 4:-1.0026811 
0.1 1:-0.83308973 2:-1.2806375 3:-0.63158987 4:-1.0026811 
0.1 1:-0.37441149 2:-1.2806375 3:-0.63158987 4:-1.0026811 
-0.1 1:1.0016232 2:-0.034433081 3:0.28167858 4:0.18484737 
-0.1 1:1.0016232 2:-0.034433081 3:0.28167858 4:0.18484737 
-0.1 1:1.0016232 2:1.3160843 3:1.0122933 4:-0.031066897 
0.1 1:1.0016232 2:1.564329 3:2.4735229 4:-0.29016402 
0.1 1:1.0016232 2:0.89977173 3:-0.083628797 4:0.33328843 
0.1 1:1.0016232 2:0.89977173 3:-0.083628797 4:0.33328843 
-0.1 1:-0.83308973 2:-1.1399817 3:-0.63158987 4:-1.0026811 
0.1 1:0.084266749 2:-1.0596278 3:-0.63158987 4:0.6415891 
0.1 1:1.0016232 2:-1.0596278 3:-0.63158987 4:0.6415891 
0.1 1:1.0016232 2:-1.0596278 3:-0.63158987 4:0.6415891 
-0.1 1:-0.83308973 2:-1.5324093 3:-0.63158987 4:0.6415891 
-0.0002356946420726704 1:1.0016232 2:-1.5324093 3:-0.63158987 4:0.6415891 
0.06191892709452297 1:-0.83308973 2:-0.48566346 3:-0.99689725 4:0.94054732 
0.1 1:0.084266749 2:-0.48566346 3:-0.99689725 4:0.94054732 
0.1 1:1.0016232 2:-0.48566346 3:-0.99689725 4:0.94054732 
0.1 1:1.0016232 2:-0.48566346 3:-0.99689725 4:0.94054732 
-0.1 1:-1.291768 2:-0.38464161 3:-0.26628249 4:-1.0026811 
-0.1 1:-0.83308973 2:-0.38464161 3:-0.26628249 4:-1.0026811 
-0.1 1:-0.37441149 2:-0.38464161 3:-0.26628249 4:-1.0026811 
-0.1 1:-0.37441149 2:-0.38464161 3:-0.26628249 4:-1.0026811 
0.1 1:-0.83308973 2:1.054614 3:0.28167858 4:0.18484737 
0.1 1:0.084266749 2:1.054614 3:0.28167858 4:0.18484737 
0.1 1:1.0016232 2:1.054614 3:0.28167858 4:0.18484737 
0.1 1:1.0016232 2:1.054614 3:0.28167858 4:0.18484737 
0.1 1:-1.291768 2:-1.0087427 3:-0.083628797 4:-1.0026811 
0.1 1:-0.83308973 2:-1.0087427 3:-0.083628797 4:-1.0026811 
0.04004646815731115 1:-0.37441149 2:-1.0087427 3:-0.083628797 4:-1.0026811 
-0.1 1:-0.37441149 2:-1.0087427 3:-0.083628797 4:-1.0026811 
-0.02157493176642311 1:2.3776579 2:-1.7869417 3:1.194947 4:0.85605913 
0.1 1:-0.83308973 2:0.084150193 3:0.28167858 4:-1.0026811 
0.1 1:-0.37441149 2:0.084150193 3:0.28167858 4:-1.0026811 
0.1 1:-0.37441149 2:0.084150193 3:0.28167858 4:-1.0026811 
-0.1 1:-0.83308973 2:-0.26450006 3:-0.81424356 4:0.77861162 
-0.1 1:-0.37441149 2:-1.3705771 3:-0.63158987 4:-1.0026811 
0.1 1:0.084266749 2:-0.19334902 3:-0.26628249 4:0.42235307 
0.1 1:1.0016232 2:-0.19334902 3:-0.26628249 4:0.42235307 
0.1 1:1.0016232 2:-0.19334902 3:-0.26628249 4:0.42235307 
0.07227669782048768 1:1.0016232 2:-1.7465136 3:2.6561766 4:-0.31314844 
0.1 1:1.0016232 2:0.34123555 3:-0.63158987 4:0.6415891 
-0.1 1:-0.83308973 2:-0.69980187 3:-0.083628797 4:0.33328843 
0.1 1:1.0016232 2:-0.69980187 3:-0.083628797 4:0.33328843 
0.1 1:1.0016232 2:-0.69980187 3:-0.083628797 4:0.33328843 
0.1 1:-0.83308973 2:-1.1969418 3:0.46433227 4:0.12234587 
0.1 1:0.084266749 2:-1.1969418 3:0.46433227 4:0.12234587 
0.1 1:1.0016232 2:-1.1969418 3:0.46433227 4:0.12234587 
-0.1 1:0.084266749 2:0.75603896 3:-0.81424356 4:0.77861162 
-0.1 1:1.0016232 2:-0.96758593 3:-0.44893618 4:0.52414123 
-0.06355442498205954 1:-1.291768 2:-1.3287546 3:0.64698596 4:-1.0026811 
0.09793049117033908 1:-0.83308973 2:-1.3287546 3:0.64698596 4:-1.0026811 
0.07366243885332879 1:-0.37441149 2:-1.3287546 3:0.64698596 4:-1.0026811 
-0.1 1:0.084266749 2:-1.2180006 3:-0.083628797 4:0.33328843 
-0.0001630664125665613 1:1.0016232 2:-1.2180006 3:-0.083628797 4:0.33328843 
-0.1 1:1.0016232 2:1.2960328 3:0.099024893 4:0.25470199 
-0.1 1:1.0016232 2:1.2960328 3:0.099024893 4:0.25470199 
-0.1 1:-0.83308973 2:-0.5668083 3:-0.99689725 4:-1.0026811 
-0.1 1:-0.37441149 2:-0.5668083 3:-0.99689725 4:-1.0026811 
-0.1 1:-0.83308973 2:1.0402761 3:0.82963965 4:0.015200446 
-0.1 1:-0.83308973 2:-0.75496628 3:0.099024893 4:0.25470199 
0.1 1:1.0016232 2:-0.75496628 3:0.099024893 4:0.25470199 
0.1 1:1.0016232 2:-0.75496628 3:0.099024893 4:0.25470199 
0.1 1:0.084266749 2:0.46565386 3:-0.81424356 4:0.77861162 
0.1 1:-0.37441149 2:0.22777935 3:1.0122933 4:0.94054732 
0.1 1:1.0016232 2:0.22777935 3:1.0122933 4:0.94054732 
0.1 1:2.3776579 2:0.22777935 3:1.0122933 4:0.94054732 
0.1 1:2.3776579 2:0.22777935 3:1.0122933 4:0.94054732 
0.1 1:-1.291768 2:-0.66726035 3:0.28167858 4:-1.0026811 
0.1 1:-0.37441149 2:-0.66726035 3:0.28167858 4:-1.0026811 
0.1 1:-0.83308973 2:0.35107556 3:-0.26628249 4:0.42235307 
-0.1 1:-1.291768 2:0.44031301 3:0.099024893 4:-1.0026811 
-0.1 1:-0.37441149 2:0.44031301 3:0.099024893 4:-1.0026811 
-0.1 1:-0.37441149 2:0.44031301 3:0.099024893 4:-1.0026811 
0.1 1:1.0016232 2:-1.0708044 3:-0.44893618 4:2.0509636 
-0.1 1:2.3776579 2:-1.0708044 3:-0.44893618 4:2.0509636 
0.1 1:1.0016232 2:-1.8532705 3:-0.44893618 4:0.52414123 
0.08404866322592214 1:1.0016232 2:-1.8532705 3:-0.44893618 4:0.52414123 
0.1 1:-0.83308973 2:0.94193373 3:-0.083628797 4:0.33328843 
-0.1 1:0.084266749 2:0.94193373 3:-0.083628797 4:0.33328843 
-0.1 1:1.0016232 2:0.94193373 3:-0.083628797 4:0.33328843 
