svm_type nu_svr
kernel_type rbf
gamma 0.25
nr_class 2
total_sv 5264
rho -0.00197834
SV
0.1 1:-0.67411876 2:-0.85042277 3:0.0035721831 4:1.0912696 
0.1 1:0.088145277 2:-0.85042277 3:0.0035721831 4:1.0912696 
0.1 1:0.85040932 2:-0.85042277 3:0.0035721831 4:1.0912696 
0.1 1:2.3749374 2:-0.85042277 3:0.0035721831 4:1.0912696 
-0.1 1:0.088145277 2:-0.972485 3:-0.81575673 4:0.30791553 
0.1 1:0.088145277 2:1.7810581 3:0.0035721831 4:0.014157768 
0.1 1:1.1044973 2:1.7810581 3:0.0035721831 4:0.014157768 
-0.1 1:-0.67411876 2:1.155716 3:-0.26953745 4:1.2569791 
-0.1 1:0.088145277 2:1.155716 3:-0.26953745 4:1.2569791 
-0.1 1:0.85040932 2:1.155716 3:-0.26953745 4:1.2569791 
-0.1 1:1.6126734 2:1.155716 3:-0.26953745 4:1.2569791 
0.1 1:-0.92820678 2:-0.17930098 3:-0.26953745 4:0.097012523 
0.1 1:1.1044973 2:-0.17930098 3:-0.26953745 4:0.097012523 
-0.1 1:-0.42003075 2:1.8773534 3:1.64223 4:-1.062954 
-0.1 1:-0.67411876 2:0.31932782 3:-0.54264709 4:1.4503068 
-0.1 1:0.088145277 2:0.31932782 3:-0.54264709 4:1.4503068 
-0.1 1:1.6126734 2:0.31932782 3:-0.54264709 4:1.4503068 
-0.1 1:2.3749374 2:0.31932782 3:-0.54264709 4:1.4503068 
0.1 1:0.088145277 2:1.3322237 3:-0.26953745 4:0.097012523 
-0.1 1:-1.1822948 2:0.68996641 3:0.8229011 4:-1.062954 
-0.1 1:-0.67411876 2:0.68996641 3:0.8229011 4:-1.062954 
-0.1 1:-0.42003075 2:0.68996641 3:0.8229011 4:-1.062954 
-0.1 1:-0.16594274 2:0.68996641 3:0.8229011 4:-1.062954 
-0.1 1:0.088145277 2:-0.23250683 3:-1.0888664 4:0.44500249 
-0.1 1:1.1044973 2:-0.23250683 3:-1.0888664 4:0.44500249 
-0.1 1:-1.1822948 2:0.56151396 3:-0.81575673 4:-1.062954 
-0.1 1:-0.92820678 2:0.56151396 3:-0.81575673 4:-1.062954 
-0.1 1:-0.67411876 2:0.56151396 3:-0.81575673 4:-1.062954 
-0.1 1:-0.92820678 2:-0.609947 3:-1.0888664 4:-1.062954 
-0.1 1:-0.67411876 2:-0.609947 3:-1.0888664 4:-1.062954 
-0.1 1:-0.42003075 2:-0.609947 3:-1.0888664 4:-1.062954 
-0.1 1:-0.16594274 2:-0.609947 3:-1.0888664 4:-1.062954 
0.1 1:-1.1822948 2:-0.17949628 3:-0.54264709 4:-1.062954 
0.1 1:-0.92820678 2:-0.17949628 3:-0.54264709 4:-1.062954 
0.1 1:-0.67411876 2:-0.17949628 3:-0.54264709 4:-1.062954 
0.1 1:-0.42003075 2:-0.17949628 3:-0.54264709 4:-1.062954 
0.1 1:-0.16594274 2:-0.17949628 3:-0.54264709 4:-1.062954 
0.1 1:-0.92820678 2:-0.96967189 3:-0.54264709 4:0.1936764 
0.1 1:-0.42003075 2:-0.96967189 3:-0.54264709 4:0.1936764 
0.1 1:0.088145277 2:-0.96967189 3:-0.54264709 4:0.1936764 
0.1 1:0.5963213 2:-0.96967189 3:-0.54264709 4:0.1936764 
-0.1 1:-1.1822948 2:-1.0411419 3:-1.0888664 4:-1.062954 
-0.1 1:-0.92820678 2:-1.0411419 3:-1.0888664 4:-1.062954 
-0.1 1:-0.67411876 2:-1.0411419 3:-1.0888664 4:-1.062954 
-0.1 1:-0.42003075 2:-1.0411419 3:-1.0888664 4:-1.062954 
-0.1 1:-0.16594274 2:-1.0411419 3:-1.0888664 4:-1.062954 
-0.1 1:0.088145277 2:1.3118955 3:0.0035721831 4:1.0912696 
-0.1 1:0.088145277 2:-0.45986345 3:-0.26953745 4:0.097012523 
0.1 1:-0.67411876 2:-0.28278141 3:0.0035721831 4:-1.062954 
0.1 1:-0.67411876 2:-0.76603488 3:1.0960107 4:-1.062954 
0.1 1:-0.42003075 2:1.7173827 3:1.3691204 4:-0.26929271 
0.1 1:0.088145277 2:1.7173827 3:1.3691204 4:-0.26929271 
0.1 1:0.5963213 2:1.7173827 3:1.3691204 4:-0.26929271 
0.1 1:1.1044973 2:1.7173827 3:1.3691204 4:-0.26929271 
-0.1 1:-0.92820678 2:-1.1717164 3:-0.81575673 4:0.30791553 
-0.1 1:-0.42003075 2:-1.1717164 3:-0.81575673 4:0.30791553 
0.1 1:1.1044973 2:-0.44922286 3:-0.81575673 4:0.30791553 
-0.1 1:-0.42003075 2:-1.0214908 3:-0.26953745 4:0.097012523 
-0.1 1:0.088145277 2:-1.0214908 3:-0.26953745 4:0.097012523 
-0.1 1:0.5963213 2:-1.0214908 3:-0.26953745 4:0.097012523 
0.1 1:-0.92820678 2:1.7210825 3:-0.81575673 4:0.30791553 
-0.1 1:-0.42003075 2:1.7210825 3:-0.81575673 4:0.30791553 
-0.1 1:0.088145277 2:1.7210825 3:-0.81575673 4:0.30791553 
-0.1 1:0.5963213 2:1.7210825 3:-0.81575673 4:0.30791553 
-0.08883831542652906 1:-1.1822948 2:0.28524752 3:0.0035721831 4:-1.062954 
-0.1 1:-0.67411876 2:0.28524752 3:0.0035721831 4:-1.062954 
-0.1 1:-0.16594274 2:0.28524752 3:0.0035721831 4:-1.062954 
-0.1 1:-0.42003075 2:1.2860281 3:-0.54264709 4:0.1936764 
-0.1 1:0.5963213 2:1.2860281 3:-0.54264709 4:0.1936764 
-0.1 1:1.1044973 2:1.2860281 3:-0.54264709 4:0.1936764 
-0.1 1:-0.42003075 2:0.59417383 3:-0.81575673 4:0.30791553 
-0.1 1:0.088145277 2:0.59417383 3:-0.81575673 4:0.30791553 
-0.1 1:0.5963213 2:0.59417383 3:-0.81575673 4:0.30791553 
-0.1 1:1.1044973 2:0.59417383 3:-0.81575673 4:0.30791553 
0.1 1:-0.92820678 2:-0.16706066 3:-1.0888664 4:0.44500249 
0.1 1:-0.42003075 2:-0.16706066 3:-1.0888664 4:0.44500249 
0.1 1:0.088145277 2:-0.16706066 3:-1.0888664 4:0.44500249 
0.1 1:0.5963213 2:-0.16706066 3:-1.0888664 4:0.44500249 
0.1 1:1.1044973 2:-0.16706066 3:-1.0888664 4:0.44500249 
-0.1 1:-0.92820678 2:-0.79129519 3:-0.81575673 4:0.30791553 
0.1 1:0.088145277 2:0.27704546 3:0.27668182 4:-0.057649686 
0.1 1:-0.67411876 2:0.60972036 3:1.0960107 4:0.61255322 
-0.1 1:-0.42003075 2:0.72907885 3:1.0960107 4:-0.22520041 
0.1 1:0.088145277 2:0.72907885 3:1.0960107 4:-0.22520041 
0.1 1:1.1044973 2:0.72907885 3:1.0960107 4:-0.22520041 
-0.1 1:-0.42003075 2:-1.4990019 3:-1.0888664 4:3.4609156 
-0.1 1:0.5963213 2:-1.4990019 3:-1.0888664 4:3.4609156 
-0.1 1:1.6126734 2:-1.4990019 3:-1.0888664 4:3.4609156 
-0.1 1:2.6290254 2:-1.4990019 3:-1.0888664 4:3.4609156 
-0.1 1:3.6453775 2:-1.4990019 3:-1.0888664 4:3.4609156 
-0.1 1:-0.67411876 2:-1.3211915 3:-1.361976 4:-1.062954 
-0.1 1:-0.67411876 2:-0.26620774 3:-0.81575673 4:1.6787851 
-0.03728844315108093 1:0.088145277 2:-0.26620774 3:-0.81575673 4:1.6787851 
-0.1 1:0.85040932 2:-0.26620774 3:-0.81575673 4:1.6787851 
-0.1 1:1.6126734 2:-0.26620774 3:-0.81575673 4:1.6787851 
-0.1 1:2.3749374 2:-0.26620774 3:-0.81575673 4:1.6787851 
0.1 1:-0.67411876 2:-0.92239571 3:1.64223 4:0.44500249 
0.1 1:0.85040932 2:-0.92239571 3:1.64223 4:0.44500249 
0.1 1:2.3749374 2:-0.92239571 3:1.64223 4:0.44500249 
0.1 1:-0.92820678 2:-0.69583824 3:-0.81575673 4:-1.062954 
-0.001780086995048381 1:2.3749374 2:0.45131019 3:1.0960107 4:0.61255322 
-0.1 1:-0.92820678 2:-0.5412419 3:-0.54264709 4:-1.062954 
-0.1 1:-0.42003075 2:-0.5412419 3:-0.54264709 4:-1.062954 
0.1 1:-0.92820678 2:-0.55850983 3:-1.361976 4:0.61255322 
0.1 1:1.1044973 2:-0.55850983 3:-1.361976 4:0.61255322 
-0.09737478488720588 1:-0.67411876 2:0.31345448 3:0.8229011 4:0.71111247 
-0.03499003657517382 1:0.85040932 2:0.31345448 3:0.8229011 4:0.71111247 
-0.1 1:1.6126734 2:0.31345448 3:0.8229011 4:0.71111247 
-0.1 1:2.3749374 2:0.31345448 3:0.8229011 4:0.71111247 
0.1 1:0.088145277 2:-0.30949227 3:0.8229011 4:-0.17592079 
-0.1 1:2.6290254 2:-1.1976778 3:-0.26953745 4:2.4169457 
-0.08535932746113498 1:3.6453775 2:-1.1976778 3:-0.26953745 4:2.4169457 
-0.03136280163483367 1:0.85040932 2:-0.11360899 3:-1.361976 4:2.2880605 
-0.1 1:-0.67411876 2:-0.12433564 3:-0.81575673 4:1.6787851 
-0.1 1:-0.42003075 2:-0.86367258 3:0.0035721831 4:0.014157768 
-0.1 1:0.088145277 2:-0.86367258 3:0.0035721831 4:0.014157768 
0.1 1:0.088145277 2:-0.59066678 3:-1.361976 4:0.61255322 
0.1 1:0.5963213 2:-0.59066678 3:-1.361976 4:0.61255322 
0.1 1:1.1044973 2:-0.59066678 3:-1.361976 4:0.61255322 
0.0345535218833604 1:-0.92820678 2:-0.84563688 3:1.64223 4:-1.062954 
0.1 1:-0.67411876 2:-0.84563688 3:1.64223 4:-1.062954 
-0.1 1:-0.16594274 2:-0.84563688 3:1.64223 4:-1.062954 
0.1 1:0.85040932 2:1.8233203 3:0.54979146 4:0.82199163 
-0.1 1:2.3749374 2:1.8233203 3:0.54979146 4:0.82199163 
-0.001068943055515971 1:-1.1822948 2:1.2038788 3:6.8313131 4:-1.062954 
0.08478880506391881 1:0.85040932 2:1.8875221 3:2.1884493 4:0.30791553 
-0.1 1:-0.92820678 2:1.1908523 3:1.64223 4:-1.062954 
-0.01373364315729778 1:-0.42003075 2:1.1908523 3:1.64223 4:-1.062954 
0.1 1:-0.92820678 2:0.044411138 3:1.0960107 4:-0.22520041 
0.1 1:-0.42003075 2:0.044411138 3:1.0960107 4:-0.22520041 
0.1 1:0.088145277 2:0.044411138 3:1.0960107 4:-0.22520041 
0.1 1:0.5963213 2:0.044411138 3:1.0960107 4:-0.22520041 
0.1 1:1.1044973 2:0.044411138 3:1.0960107 4:-0.22520041 
-0.1 1:-0.42003075 2:0.48042673 3:0.0035721831 4:0.014157768 
0.1 1:-1.1822948 2:-0.0084730061 3:0.27668182 4:-1.062954 
0.1 1:-0.92820678 2:-0.0084730061 3:0.27668182 4:-1.062954 
0.1 1:-0.67411876 2:-0.0084730061 3:0.27668182 4:-1.062954 
0.1 1:-0.42003075 2:-0.0084730061 3:0.27668182 4:-1.062954 
0.1 1:-0.16594274 2:-0.0084730061 3:0.27668182 4:-1.062954 
-0.1 1:1.1044973 2:1.691304 3:1.3691204 4:-0.26929271 
0.1 1:1.1044973 2:-0.015517225 3:-0.26953745 4:0.097012523 
-0.1 1:-0.42003075 2:-0.16388778 3:1.3691204 4:-0.26929271 
0.1 1:1.1044973 2:-0.45218393 3:-0.54264709 4:0.1936764 
-0.1 1:-0.67411876 2:-0.77239399 3:-0.81575673 4:-1.062954 
-0.1 1:-0.42003075 2:-0.77239399 3:-0.81575673 4:-1.062954 
-0.1 1:-0.16594274 2:-0.77239399 3:-0.81575673 4:-1.062954 
0.1 1:0.088145277 2:0.093448124 3:-1.361976 4:0.61255322 
0.1 1:0.5963213 2:0.093448124 3:-1.361976 4:0.61255322 
0.1 1:1.1044973 2:0.093448124 3:-1.361976 4:0.61255322 
0.1 1:-0.67411876 2:0.55356471 3:0.27668182 4:0.94765467 
0.1 1:0.088145277 2:0.55356471 3:0.27668182 4:0.94765467 
0.1 1:0.85040932 2:0.55356471 3:0.27668182 4:0.94765467 
0.1 1:1.6126734 2:0.55356471 3:0.27668182 4:0.94765467 
0.1 1:2.3749374 2:0.55356471 3:0.27668182 4:0.94765467 
0.1 1:-0.67411876 2:0.35708716 3:0.8229011 4:0.71111247 
-0.1 1:-0.92820678 2:1.7244812 3:-0.54264709 4:0.1936764 
-0.1 1:0.5963213 2:1.7244812 3:-0.54264709 4:0.1936764 
-0.1 1:-0.42003075 2:0.3175805 3:-0.54264709 4:0.1936764 
-0.1 1:0.088145277 2:-1.1949547 3:-1.0888664 4:1.952959 
-0.1 1:1.6126734 2:-1.1949547 3:-1.0888664 4:1.952959 
-0.1 1:2.3749374 2:-1.1949547 3:-1.0888664 4:1.952959 
0.1 1:-0.92820678 2:-0.014821757 3:-0.54264709 4:-1.062954 
0.1 1:-0.67411876 2:-0.014821757 3:-0.54264709 4:-1.062954 
0.1 1:-0.42003075 2:-0.014821757 3:-0.54264709 4:-1.062954 
0.1 1:-0.16594274 2:-0.014821757 3:-0.54264709 4:-1.062954 
-0.1 1:0.088145277 2:-1.497586 3:-0.26953745 4:0.097012523 
-0.1 1:0.5963213 2:-1.497586 3:-0.26953745 4:0.097012523 
-0.1 1:1.1044973 2:-1.497586 3:-0.26953745 4:0.097012523 
-0.1 1:0.088145277 2:-1.0384079 3:-0.26953745 4:0.097012523 
-0.1 1:-0.67411876 2:1.1993169 3:0.54979146 4:-1.062954 
-0.1 1:-0.42003075 2:1.1993169 3:0.54979146 4:-1.062954 
-0.1 1:-0.67411876 2:-0.52434177 3:-0.26953745 4:-1.062954 
-0.1 1:-0.42003075 2:-0.52434177 3:-0.26953745 4:-1.062954 
-0.1 1:-0.16594274 2:-0.52434177 3:-0.26953745 4:-1.062954 
-0.1 1:0.088145277 2:0.017048378 3:0.0035721831 4:0.014157768 
-0.1 1:0.5963213 2:0.017048378 3:0.0035721831 4:0.014157768 
0.1 1:-1.1822948 2:0.66484683 3:-0.81575673 4:-1.062954 
0.1 1:-0.67411876 2:0.66484683 3:-0.81575673 4:-1.062954 
0.1 1:-0.42003075 2:1.5760849 3:-0.26953745 4:0.097012523 
0.1 1:0.088145277 2:1.5760849 3:-0.26953745 4:0.097012523 
0.1 1:-0.92820678 2:1.62588 3:0.0035721831 4:0.014157768 
0.1 1:0.088145277 2:1.62588 3:0.0035721831 4:0.014157768 
0.1 1:-0.67411876 2:0.28304885 3:1.64223 4:0.44500249 
0.1 1:0.85040932 2:0.28304885 3:1.64223 4:0.44500249 
-0.1 1:-0.42003075 2:0.47832919 3:-1.0888664 4:-1.062954 
-0.1 1:2.3749374 2:-1.1546806 3:-0.81575673 4:1.6787851 
0.1 1:-0.42003075 2:-1.5985888 3:0.54979146 4:-1.062954 
-0.1 1:-0.92820678 2:-1.36327 3:-1.0888664 4:0.44500249 
-0.1 1:-0.42003075 2:-1.36327 3:-1.0888664 4:0.44500249 
-0.1 1:-0.42003075 2:-0.72181397 3:-0.54264709 4:0.1936764 
-0.1 1:0.088145277 2:-0.72181397 3:-0.54264709 4:0.1936764 
-0.1 1:0.5963213 2:-0.72181397 3:-0.54264709 4:0.1936764 
-0.1 1:1.1044973 2:-0.72181397 3:-0.54264709 4:0.1936764 
0.1 1:0.85040932 2:-0.19698901 3:0.54979146 4:0.82199163 
0.1 1:1.6126734 2:-0.19698901 3:0.54979146 4:0.82199163 
-0.1 1:0.088145277 2:2.1751724 3:0.0035721831 4:0.014157768 
0.1 1:0.85040932 2:-0.95412197 3:-0.81575673 4:1.6787851 
0.1 1:1.6126734 2:-0.95412197 3:-0.81575673 4:1.6787851 
0.1 1:2.3749374 2:-0.95412197 3:-0.81575673 4:1.6787851 
0.1 1:-1.1822948 2:-0.75067911 3:-0.81575673 4:-1.062954 
0.1 1:-0.92820678 2:-0.75067911 3:-0.81575673 4:-1.062954 
0.1 1:-0.67411876 2:-0.75067911 3:-0.81575673 4:-1.062954 
0.1 1:-0.42003075 2:-0.75067911 3:-0.81575673 4:-1.062954 
-0.1 1:-1.1822948 2:-0.98716602 3:-0.54264709 4:-1.062954 
-0.1 1:-0.67411876 2:-0.98716602 3:-0.54264709 4:-1.062954 
0.07363856516404339 1:-0.67411876 2:-1.3528338 3:1.0960107 4:0.61255322 
0.1 1:1.6126734 2:-0.00049134931 3:-0.26953745 4:1.2569791 
0.1 1:2.3749374 2:-0.00049134931 3:-0.26953745 4:1.2569791 
-0.1 1:1.6126734 2:0.98722497 3:1.3691204 4:0.52436863 
0.1 1:-0.42003075 2:-0.2220328 3:-0.81575673 4:0.30791553 
0.1 1:0.088145277 2:-0.2220328 3:-0.81575673 4:0.30791553 
0.1 1:-0.92820678 2:0.38979751 3:0.0035721831 4:0.014157768 
0.1 1:-0.42003075 2:0.38979751 3:0.0035721831 4:0.014157768 
0.1 1:-0.42003075 2:-0.3791727 3:0.54979146 4:1.7644645 
0.1 1:1.6126734 2:-0.3791727 3:0.54979146 4:1.7644645 
0.09072684961895479 1:2.6290254 2:-0.3791727 3:0.54979146 4:1.7644645 
0.1 1:0.088145277 2:0.2190098 3:-0.54264709 4:0.1936764 
-0.1 1:0.088145277 2:-1.1752561 3:-0.81575673 4:0.30791553 
-0.1 1:1.1044973 2:-1.1752561 3:-0.81575673 4:0.30791553 
-0.1 1:-0.67411876 2:1.3720889 3:0.0035721831 4:-1.062954 
-0.1 1:-0.42003075 2:1.3720889 3:0.0035721831 4:-1.062954 
-0.1 1:-0.16594274 2:1.3720889 3:0.0035721831 4:-1.062954 
0.1 1:-0.42003075 2:0.20765216 3:0.0035721831 4:2.1683814 
0.1 1:0.5963213 2:0.20765216 3:0.0035721831 4:2.1683814 
0.1 1:1.6126734 2:0.20765216 3:0.0035721831 4:2.1683814 
0.1 1:2.6290254 2:0.20765216 3:0.0035721831 4:2.1683814 
0.1 1:3.6453775 2:0.20765216 3:0.0035721831 4:2.1683814 
0.1 1:-0.67411876 2:0.11457385 3:-1.0888664 4:1.952959 
0.1 1:0.088145277 2:0.11457385 3:-1.0888664 4:1.952959 
0.1 1:0.85040932 2:0.11457385 3:-1.0888664 4:1.952959 
0.1 1:1.6126734 2:0.11457385 3:-1.0888664 4:1.952959 
0.1 1:2.3749374 2:0.11457385 3:-1.0888664 4:1.952959 
-0.1 1:-0.67411876 2:-0.57879944 3:-0.81575673 4:1.6787851 
0.1 1:-0.42003075 2:-0.62254797 3:-0.81575673 4:0.30791553 
-0.1 1:-0.42003075 2:-0.14973395 3:-0.26953745 4:-1.062954 
-0.1 1:-0.16594274 2:-0.14973395 3:-0.26953745 4:-1.062954 
-0.03252797610328734 1:-0.92820678 2:-0.90993826 3:-1.0888664 4:-1.062954 
-0.1 1:-0.67411876 2:-0.90993826 3:-1.0888664 4:-1.062954 
-0.1 1:-0.42003075 2:-0.90993826 3:-1.0888664 4:-1.062954 
-0.1 1:-1.1822948 2:-1.3651941 3:-1.0888664 4:-1.062954 
-0.1 1:-0.92820678 2:-1.3651941 3:-1.0888664 4:-1.062954 
-0.1 1:-0.67411876 2:-1.3651941 3:-1.0888664 4:-1.062954 
-0.1 1:-0.42003075 2:-1.3651941 3:-1.0888664 4:-1.062954 
-0.1 1:-0.16594274 2:-1.3651941 3:-1.0888664 4:-1.062954 
-0.1 1:-0.42003075 2:-1.1566187 3:-0.81575673 4:-1.062954 
-0.1 1:-0.16594274 2:-1.1566187 3:-0.81575673 4:-1.062954 
-0.1 1:0.088145277 2:0.60223676 3:1.9153396 4:-0.3448795 
-0.1 1:-0.67411876 2:-1.2623623 3:-0.81575673 4:-1.062954 
0.1 1:-0.16594274 2:0.14799296 3:0.8229011 4:-1.062954 
-0.1 1:-0.92820678 2:1.8500728 3:-0.54264709 4:0.1936764 
-0.1 1:1.1044973 2:1.8500728 3:-0.54264709 4:0.1936764 
-0.1 1:-0.16594274 2:-1.2156671 3:-1.361976 4:-1.062954 
0.1 1:-0.92820678 2:1.6295932 3:1.0960107 4:-0.22520041 
0.1 1:-0.42003075 2:1.6295932 3:1.0960107 4:-0.22520041 
0.1 1:0.088145277 2:1.6295932 3:1.0960107 4:-0.22520041 
0.1 1:0.5963213 2:1.6295932 3:1.0960107 4:-0.22520041 
0.1 1:1.1044973 2:1.6295932 3:1.0960107 4:-0.22520041 
0.1 1:-0.67411876 2:-0.13019926 3:-0.81575673 4:1.6787851 
0.1 1:0.088145277 2:-0.13019926 3:-0.81575673 4:1.6787851 
0.1 1:0.85040932 2:-0.13019926 3:-0.81575673 4:1.6787851 
0.1 1:1.6126734 2:-0.13019926 3:-0.81575673 4:1.6787851 
0.1 1:2.3749374 2:-0.13019926 3:-0.81575673 4:1.6787851 
0.1 1:-0.92820678 2:0.098854957 3:-1.0888664 4:0.44500249 
0.1 1:0.088145277 2:0.098854957 3:-1.0888664 4:0.44500249 
0.1 1:0.5963213 2:0.098854957 3:-1.0888664 4:0.44500249 
0.1 1:-0.42003075 2:-0.47807141 3:0.27668182 4:-0.057649686 
0.1 1:0.088145277 2:-0.47807141 3:0.27668182 4:-0.057649686 
0.1 1:0.5963213 2:-0.47807141 3:0.27668182 4:-0.057649686 
-0.1 1:-0.92820678 2:0.28631797 3:-0.26953745 4:-1.062954 
-0.1 1:-0.67411876 2:0.28631797 3:-0.26953745 4:-1.062954 
-0.1 1:-0.67411876 2:-1.4364738 3:-1.361976 4:-1.062954 
0.01678270646293407 1:-0.42003075 2:-1.4364738 3:-1.361976 4:-1.062954 
0.1 1:0.85040932 2:-0.24418594 3:-0.54264709 4:1.4503068 
0.1 1:1.6126734 2:-0.24418594 3:-0.54264709 4:1.4503068 
0.1 1:2.3749374 2:-0.24418594 3:-0.54264709 4:1.4503068 
0.1 1:0.088145277 2:0.84859469 3:-0.26953745 4:0.097012523 
0.1 1:1.6126734 2:0.81747131 3:0.27668182 4:0.94765467 
0.1 1:2.3749374 2:0.81747131 3:0.27668182 4:0.94765467 
-0.1 1:-1.1822948 2:0.86133207 3:-0.81575673 4:-1.062954 
0.1 1:-0.92820678 2:0.86133207 3:-0.81575673 4:-1.062954 
0.1 1:-0.67411876 2:0.86133207 3:-0.81575673 4:-1.062954 
0.1 1:-0.42003075 2:0.86133207 3:-0.81575673 4:-1.062954 
0.1 1:-0.16594274 2:0.86133207 3:-0.81575673 4:-1.062954 
0.1 1:-0.92820678 2:-0.35424036 3:-1.0888664 4:0.44500249 
0.1 1:-0.42003075 2:-0.35424036 3:-1.0888664 4:0.44500249 
0.1 1:0.088145277 2:-0.35424036 3:-1.0888664 4:0.44500249 
0.1 1:0.5963213 2:-0.35424036 3:-1.0888664 4:0.44500249 
0.1 1:1.1044973 2:-0.35424036 3:-1.0888664 4:0.44500249 
0.1 1:0.088145277 2:-0.25878737 3:-1.361976 4:2.2880605 
0.1 1:0.85040932 2:-0.25878737 3:-1.361976 4:2.2880605 
0.1 1:1.6126734 2:-0.25878737 3:-1.361976 4:2.2880605 
-0.09977488036485295 1:-0.16594274 2:-0.6157438 3:-0.26953745 4:-1.062954 
-0.1 1:0.5963213 2:1.3083341 3:-0.26953745 4:0.097012523 
0.1 1:0.088145277 2:0.5996417 3:-0.26953745 4:0.097012523 
0.1 1:1.1044973 2:0.5996417 3:-0.26953745 4:0.097012523 
0.1 1:0.088145277 2:-0.9869123 3:-0.26953745 4:0.097012523 
0.1 1:0.5963213 2:-0.9869123 3:-0.26953745 4:0.097012523 
0.1 1:1.1044973 2:-0.9869123 3:-0.26953745 4:0.097012523 
-0.1 1:-0.92820678 2:0.66367329 3:-0.81575673 4:0.30791553 
0.1 1:-0.67411876 2:-0.7574092 3:-0.81575673 4:-1.062954 
0.1 1:-0.42003075 2:-0.7574092 3:-0.81575673 4:-1.062954 
0.1 1:-0.16594274 2:-0.7574092 3:-0.81575673 4:-1.062954 
-0.1 1:-0.42003075 2:0.0080951487 3:0.54979146 4:-0.12048121 
-0.1 1:0.088145277 2:0.0080951487 3:0.54979146 4:-0.12048121 
-0.1 1:0.5963213 2:0.0080951487 3:0.54979146 4:-0.12048121 
-0.1 1:1.1044973 2:0.0080951487 3:0.54979146 4:-0.12048121 
0.008008028329410239 1:0.5963213 2:-1.5947765 3:0.27668182 4:-0.057649686 
0.1 1:1.1044973 2:-1.5947765 3:0.27668182 4:-0.057649686 
0.1 1:0.088145277 2:-0.7317719 3:-1.0888664 4:1.952959 
0.1 1:-0.67411876 2:-0.86469784 3:-1.0888664 4:-1.062954 
0.1 1:-0.16594274 2:-0.86469784 3:-1.0888664 4:-1.062954 
-0.1 1:1.1044973 2:0.55981505 3:-0.54264709 4:0.1936764 
0.1 1:-0.92820678 2:0.49202155 3:0.54979146 4:-1.062954 
0.1 1:0.088145277 2:-0.74937596 3:0.27668182 4:0.94765467 
0.1 1:0.85040932 2:-0.74937596 3:0.27668182 4:0.94765467 
0.1 1:1.6126734 2:-0.74937596 3:0.27668182 4:0.94765467 
0.1 1:2.3749374 2:-0.74937596 3:0.27668182 4:0.94765467 
-0.1 1:0.088145277 2:-0.65017038 3:0.0035721831 4:1.0912696 
-0.1 1:0.85040932 2:-0.65017038 3:0.0035721831 4:1.0912696 
-0.1 1:1.6126734 2:-0.65017038 3:0.0035721831 4:1.0912696 
-0.06862515736548858 1:2.3749374 2:-0.65017038 3:0.0035721831 4:1.0912696 
0.1 1:-0.92820678 2:0.49926623 3:-0.26953745 4:0.097012523 
0.1 1:0.088145277 2:0.49926623 3:-0.26953745 4:0.097012523 
0.1 1:0.088145277 2:-0.25251483 3:-1.361976 4:2.2880605 
-0.1 1:0.088145277 2:0.21386158 3:0.0035721831 4:1.0912696 
-0.1 1:0.85040932 2:0.21386158 3:0.0035721831 4:1.0912696 
-0.1 1:1.6126734 2:0.21386158 3:0.0035721831 4:1.0912696 
-0.1 1:2.3749374 2:0.21386158 3:0.0035721831 4:1.0912696 
0.1 1:-0.67411876 2:0.23893498 3:-0.54264709 4:1.4503068 
0.1 1:0.85040932 2:0.23893498 3:-0.54264709 4:1.4503068 
0.1 1:1.6126734 2:0.23893498 3:-0.54264709 4:1.4503068 
0.1 1:2.3749374 2:0.23893498 3:-0.54264709 4:1.4503068 
-0.1 1:-1.1822948 2:0.43927798 3:-1.361976 4:-1.062954 
-0.03620017333450956 1:-0.92820678 2:0.43927798 3:-1.361976 4:-1.062954 
-0.1 1:-0.67411876 2:0.43927798 3:-1.361976 4:-1.062954 
-0.1 1:-0.42003075 2:0.43927798 3:-1.361976 4:-1.062954 
-0.1 1:-0.16594274 2:0.43927798 3:-1.361976 4:-1.062954 
0.1 1:0.088145277 2:-0.78935491 3:-0.81575673 4:0.30791553 
0.1 1:0.5963213 2:-0.78935491 3:-0.81575673 4:0.30791553 
0.1 1:1.1044973 2:-0.78935491 3:-0.81575673 4:0.30791553 
0.1 1:1.1044973 2:-1.2702913 3:-0.54264709 4:0.1936764 
-0.1 1:-0.67411876 2:-0.36922385 3:0.0035721831 4:-1.062954 
-0.1 1:-0.42003075 2:-0.36922385 3:0.0035721831 4:-1.062954 
-0.1 1:-0.16594274 2:-0.36922385 3:0.0035721831 4:-1.062954 
0.1 1:-1.1822948 2:-1.4993868 3:0.27668182 4:-1.062954 
0.1 1:-0.92820678 2:-1.4993868 3:0.27668182 4:-1.062954 
0.1 1:-0.67411876 2:-1.4993868 3:0.27668182 4:-1.062954 
0.1 1:-0.92820678 2:1.6585527 3:0.27668182 4:-1.062954 
0.1 1:-0.42003075 2:1.6585527 3:0.27668182 4:-1.062954 
0.1 1:-0.16594274 2:1.6585527 3:0.27668182 4:-1.062954 
0.1 1:-0.92820678 2:-1.2179735 3:0.8229011 4:-0.17592079 
0.1 1:-0.42003075 2:-1.2179735 3:0.8229011 4:-0.17592079 
0.1 1:0.088145277 2:-1.2179735 3:0.8229011 4:-0.17592079 
0.1 1:1.1044973 2:-1.2179735 3:0.8229011 4:-0.17592079 
0.1 1:-1.1822948 2:0.59850772 3:1.9153396 4:-1.062954 
0.1 1:-0.92820678 2:0.59850772 3:1.9153396 4:-1.062954 
0.1 1:-0.67411876 2:0.59850772 3:1.9153396 4:-1.062954 
0.1 1:-0.42003075 2:0.59850772 3:1.9153396 4:-1.062954 
0.1 1:-0.16594274 2:0.59850772 3:1.9153396 4:-1.062954 
-0.1 1:0.5963213 2:-0.50071824 3:-1.0888664 4:0.44500249 
-0.1 1:0.088145277 2:0.43558071 3:2.1884493 4:-0.37751925 
-0.1 1:0.85040932 2:-0.79745037 3:0.8229011 4:0.71111247 
-0.1 1:1.6126734 2:-0.79745037 3:0.8229011 4:0.71111247 
-0.1 1:1.1044973 2:-0.17072747 3:-0.54264709 4:0.1936764 
0.1 1:0.5963213 2:-0.12743458 3:0.0035721831 4:0.014157768 
-0.1 1:-0.92820678 2:0.64670937 3:0.8229011 4:-1.062954 
-0.0604180907711209 1:-0.67411876 2:0.64670937 3:0.8229011 4:-1.062954 
-0.1 1:-0.42003075 2:0.64670937 3:0.8229011 4:-1.062954 
-0.1 1:-0.16594274 2:0.64670937 3:0.8229011 4:-1.062954 
-0.01036822445090549 1:-0.67411876 2:-0.26595378 3:1.9153396 4:-1.062954 
0.0666420178275034 1:-0.92820678 2:-0.036417313 3:-0.54264709 4:0.1936764 
0.1 1:-0.42003075 2:-0.036417313 3:-0.54264709 4:0.1936764 
0.1 1:0.5963213 2:-0.036417313 3:-0.54264709 4:0.1936764 
0.1 1:1.1044973 2:-0.036417313 3:-0.54264709 4:0.1936764 
0.1 1:-0.67411876 2:0.2789354 3:2.4615589 4:-1.062954 
0.1 1:-0.42003075 2:0.2789354 3:2.4615589 4:-1.062954 
-0.01025114349896273 1:-0.67411876 2:2.1578118 3:4.9195457 4:-0.12048121 
0.1 1:-0.42003075 2:-0.26223586 3:-0.81575673 4:0.30791553 
0.1 1:0.088145277 2:-0.26223586 3:-0.81575673 4:0.30791553 
0.1 1:0.5963213 2:-0.26223586 3:-0.81575673 4:0.30791553 
0.1 1:1.1044973 2:-0.26223586 3:-0.81575673 4:0.30791553 
-0.1 1:1.1044973 2:-0.28382471 3:-0.26953745 4:0.097012523 
0.1 1:-0.92820678 2:0.10571728 3:1.0960107 4:-0.22520041 
0.1 1:0.5963213 2:0.10571728 3:1.0960107 4:-0.22520041 
-0.1 1:-0.92820678 2:-0.41929793 3:-1.0888664 4:0.44500249 
-0.1 1:-0.67411876 2:0.49169008 3:-0.54264709 4:-1.062954 
-0.01453452411919651 1:-0.16594274 2:0.49169008 3:-0.54264709 4:-1.062954 
-0.1 1:-0.92820678 2:-0.73560416 3:-0.54264709 4:0.1936764 
-0.1 1:-0.42003075 2:-0.73560416 3:-0.54264709 4:0.1936764 
-0.1 1:1.1044973 2:-0.73560416 3:-0.54264709 4:0.1936764 
-0.1 1:-0.92820678 2:0.067646723 3:-0.81575673 4:-1.062954 
0.02831385633328475 1:2.6290254 2:0.033773267 3:-0.26953745 4:2.4169457 
-0.1 1:-0.42003075 2:-0.53686178 3:-0.54264709 4:0.1936764 
-0.1 1:1.1044973 2:-0.53686178 3:-0.54264709 4:0.1936764 
-0.1 1:-0.92820678 2:-0.50799019 3:-0.81575673 4:-1.062954 
0.1 1:-0.16594274 2:-0.50799019 3:-0.81575673 4:-1.062954 
-0.1 1:-1.1822948 2:0.53480623 3:-1.361976 4:-1.062954 
-0.1 1:-0.42003075 2:0.53480623 3:-1.361976 4:-1.062954 
-0.1 1:-0.16594274 2:0.53480623 3:-1.361976 4:-1.062954 
-0.1 1:-0.92820678 2:0.31999704 3:1.64223 4:-0.30897577 
-0.1 1:-0.67411876 2:-0.011244778 3:-0.81575673 4:-1.062954 
-0.1 1:-0.16594274 2:-0.011244778 3:-0.81575673 4:-1.062954 
-0.1 1:-0.92820678 2:0.87169199 3:-0.26953745 4:0.097012523 
-0.1 1:-0.42003075 2:0.87169199 3:-0.26953745 4:0.097012523 
-0.1 1:0.088145277 2:0.87169199 3:-0.26953745 4:0.097012523 
-0.1 1:0.5963213 2:0.87169199 3:-0.26953745 4:0.097012523 
-0.1 1:1.1044973 2:0.87169199 3:-0.26953745 4:0.097012523 
0.1 1:1.1044973 2:-0.27949128 3:-1.361976 4:0.61255322 
0.1 1:-1.1822948 2:-1.0309141 3:-0.54264709 4:-1.062954 
0.1 1:-0.92820678 2:-1.0309141 3:-0.54264709 4:-1.062954 
0.1 1:-0.67411876 2:-1.0309141 3:-0.54264709 4:-1.062954 
0.1 1:-0.42003075 2:-1.0309141 3:-0.54264709 4:-1.062954 
0.1 1:-0.16594274 2:-1.0309141 3:-0.54264709 4:-1.062954 
0.1 1:-0.92820678 2:-0.54794603 3:0.0035721831 4:-1.062954 
0.1 1:-0.67411876 2:-0.54794603 3:0.0035721831 4:-1.062954 
0.1 1:-0.42003075 2:-0.54794603 3:0.0035721831 4:-1.062954 
0.1 1:-0.16594274 2:-0.54794603 3:0.0035721831 4:-1.062954 
-0.07861273727375868 1:-0.67411876 2:-1.3189619 3:-0.54264709 4:1.4503068 
-0.1 1:0.088145277 2:-1.3189619 3:-0.54264709 4:1.4503068 
-0.1 1:0.85040932 2:-1.3189619 3:-0.54264709 4:1.4503068 
-0.1 1:1.6126734 2:-1.3189619 3:-0.54264709 4:1.4503068 
-0.1 1:2.3749374 2:-1.3189619 3:-0.54264709 4:1.4503068 
0.1 1:-0.16594274 2:-0.057438979 3:-0.54264709 4:-1.062954 
0.1 1:-0.92820678 2:1.4816352 3:-1.0888664 4:0.44500249 
0.1 1:-0.42003075 2:1.4816352 3:-1.0888664 4:0.44500249 
0.1 1:1.1044973 2:1.4816352 3:-1.0888664 4:0.44500249 
0.1 1:-0.42003075 2:0.065382214 3:0.27668182 4:-1.062954 
0.1 1:1.6126734 2:-0.67079284 3:0.8229011 4:0.71111247 
0.1 1:2.3749374 2:-0.67079284 3:0.8229011 4:0.71111247 
0.04589406387575569 1:-0.42003075 2:-0.89750345 3:-1.361976 4:3.9635677 
-0.01962614322651054 1:1.6126734 2:-0.89750345 3:-1.361976 4:3.9635677 
-0.1 1:3.6453775 2:-0.89750345 3:-1.361976 4:3.9635677 
0.007444735019290885 1:-0.67411876 2:-1.5916886 3:0.54979146 4:-1.062954 
0.1 1:-0.67411876 2:-0.98620523 3:-0.81575673 4:-1.062954 
0.1 1:-0.42003075 2:-0.98620523 3:-0.81575673 4:-1.062954 
0.1 1:-0.16594274 2:-0.98620523 3:-0.81575673 4:-1.062954 
0.1 1:-0.92820678 2:-1.3031376 3:0.0035721831 4:-1.062954 
0.1 1:-0.42003075 2:-1.3031376 3:0.0035721831 4:-1.062954 
-0.1 1:-0.92820678 2:0.27819017 3:0.0035721831 4:0.014157768 
-0.1 1:-0.42003075 2:0.27819017 3:0.0035721831 4:0.014157768 
-0.1 1:0.088145277 2:0.27819017 3:0.0035721831 4:0.014157768 
-0.1 1:0.5963213 2:0.27819017 3:0.0035721831 4:0.014157768 
-0.1 1:-0.92820678 2:-0.46621675 3:-0.26953745 4:0.097012523 
-0.1 1:-0.42003075 2:-0.46621675 3:-0.26953745 4:0.097012523 
-0.1 1:0.088145277 2:-0.46621675 3:-0.26953745 4:0.097012523 
-0.1 1:0.5963213 2:-0.46621675 3:-0.26953745 4:0.097012523 
-0.1 1:1.1044973 2:-0.46621675 3:-0.26953745 4:0.097012523 
-0.1 1:-0.67411876 2:-0.50554264 3:-0.54264709 4:-1.062954 
-0.1 1:-0.42003075 2:-0.50554264 3:-0.54264709 4:-1.062954 
-0.1 1:-0.16594274 2:-0.50554264 3:-0.54264709 4:-1.062954 
0.1 1:-0.42003075 2:0.37637242 3:0.27668182 4:-0.057649686 
0.1 1:0.088145277 2:0.37637242 3:0.27668182 4:-0.057649686 
0.1 1:0.5963213 2:0.37637242 3:0.27668182 4:-0.057649686 
0.1 1:1.1044973 2:0.37637242 3:0.27668182 4:-0.057649686 
-0.1 1:0.088145277 2:-0.24866883 3:0.0035721831 4:1.0912696 
0.1 1:-0.92820678 2:-0.73383079 3:-0.54264709 4:-1.062954 
0.1 1:-0.67411876 2:0.27326676 3:-0.54264709 4:1.4503068 
0.1 1:0.088145277 2:0.27326676 3:-0.54264709 4:1.4503068 
0.1 1:0.85040932 2:0.27326676 3:-0.54264709 4:1.4503068 
0.1 1:1.6126734 2:0.27326676 3:-0.54264709 4:1.4503068 
0.1 1:2.3749374 2:0.27326676 3:-0.54264709 4:1.4503068 
0.1 1:1.6126734 2:-1.1558777 3:-0.26953745 4:2.4169457 
0.1 1:2.6290254 2:-1.1558777 3:-0.26953745 4:2.4169457 
0.1 1:3.6453775 2:-1.1558777 3:-0.26953745 4:2.4169457 
-0.1 1:-0.92820678 2:0.29824632 3:0.8229011 4:-0.17592079 
-0.1 1:-0.42003075 2:0.29824632 3:0.8229011 4:-0.17592079 
-0.1 1:0.088145277 2:0.29824632 3:0.8229011 4:-0.17592079 
-0.1 1:0.5963213 2:0.29824632 3:0.8229011 4:-0.17592079 
-0.1 1:1.1044973 2:0.29824632 3:0.8229011 4:-0.17592079 
-0.1 1:-0.92820678 2:-0.34624697 3:0.0035721831 4:-1.062954 
-0.1 1:-0.67411876 2:-0.34624697 3:0.0035721831 4:-1.062954 
-0.1 1:-0.42003075 2:-0.34624697 3:0.0035721831 4:-1.062954 
-0.1 1:-0.16594274 2:-0.34624697 3:0.0035721831 4:-1.062954 
-0.05914299875743414 1:-0.16594274 2:-0.52309289 3:-0.54264709 4:3.9635677 
-0.1 1:1.1044973 2:-0.52309289 3:-0.54264709 4:3.9635677 
-0.1 1:2.3749374 2:-0.52309289 3:-0.54264709 4:3.9635677 
-0.07375632820419553 1:3.6453775 2:-0.52309289 3:-0.54264709 4:3.9635677 
-0.08355966502227348 1:4.9158175 2:-0.52309289 3:-0.54264709 4:3.9635677 
0.1 1:-1.1822948 2:-0.610171 3:-0.54264709 4:-1.062954 
0.1 1:-0.92820678 2:-0.610171 3:-0.54264709 4:-1.062954 
0.1 1:-0.67411876 2:-0.610171 3:-0.54264709 4:-1.062954 
0.1 1:-0.42003075 2:-0.610171 3:-0.54264709 4:-1.062954 
0.1 1:-0.16594274 2:-0.610171 3:-0.54264709 4:-1.062954 
-0.1 1:-0.92820678 2:-1.170828 3:-1.0888664 4:-1.062954 
-0.1 1:-0.67411876 2:-1.170828 3:-1.0888664 4:-1.062954 
-0.1 1:-0.42003075 2:-1.170828 3:-1.0888664 4:-1.062954 
-0.1 1:-0.16594274 2:-1.170828 3:-1.0888664 4:-1.062954 
0.1 1:-0.92820678 2:-0.68516652 3:0.54979146 4:-0.12048121 
0.1 1:0.088145277 2:-0.68516652 3:0.54979146 4:-0.12048121 
0.1 1:0.5963213 2:-0.68516652 3:0.54979146 4:-0.12048121 
-0.1 1:0.088145277 2:0.072117967 3:-0.81575673 4:1.6787851 
0.1 1:1.6126734 2:0.072117967 3:-0.81575673 4:1.6787851 
0.1 1:2.3749374 2:0.072117967 3:-0.81575673 4:1.6787851 
-0.03477438867046253 1:-1.1822948 2:1.835036 3:-0.26953745 4:-1.062954 
-0.07125277019221585 1:-0.67411876 2:1.7532305 3:1.9153396 4:-1.062954 
-0.09958174926627612 1:-1.1822948 2:0.81484706 3:-0.26953745 4:-1.062954 
-0.1 1:-0.42003075 2:0.81484706 3:-0.26953745 4:-1.062954 
-0.1 1:0.5963213 2:1.7018215 3:0.54979146 4:-0.12048121 
-0.1 1:1.1044973 2:1.7018215 3:0.54979146 4:-0.12048121 
-0.1 1:-0.92820678 2:0.18875637 3:-1.0888664 4:0.44500249 
-0.1 1:-0.42003075 2:0.18875637 3:-1.0888664 4:0.44500249 
-0.1 1:0.088145277 2:0.18875637 3:-1.0888664 4:0.44500249 
-0.1 1:0.5963213 2:0.18875637 3:-1.0888664 4:0.44500249 
-0.1 1:1.1044973 2:0.18875637 3:-1.0888664 4:0.44500249 
0.1 1:0.088145277 2:-0.82044327 3:-0.26953745 4:1.2569791 
0.1 1:0.85040932 2:-0.82044327 3:-0.26953745 4:1.2569791 
0.1 1:1.6126734 2:-0.82044327 3:-0.26953745 4:1.2569791 
0.1 1:2.3749374 2:-0.82044327 3:-0.26953745 4:1.2569791 
0.1 1:-0.92820678 2:2.0527484 3:-0.26953745 4:0.097012523 
0.1 1:0.088145277 2:2.0527484 3:-0.26953745 4:0.097012523 
0.1 1:0.5963213 2:2.0527484 3:-0.26953745 4:0.097012523 
0.1 1:1.1044973 2:2.0527484 3:-0.26953745 4:0.097012523 
0.1 1:-0.92820678 2:-1.3911235 3:0.27668182 4:-1.062954 
0.1 1:-0.16594274 2:-1.3911235 3:0.27668182 4:-1.062954 
-0.1 1:-1.1822948 2:-0.81158372 3:-1.361976 4:-1.062954 
-0.1 1:-0.92820678 2:-0.81158372 3:-1.361976 4:-1.062954 
-0.1 1:-0.67411876 2:-0.81158372 3:-1.361976 4:-1.062954 
-0.01886440388254064 1:-0.92820678 2:1.8099767 3:1.64223 4:-0.30897577 
-0.1 1:0.5963213 2:1.8099767 3:1.64223 4:-0.30897577 
-0.07062907379960302 1:-0.92820678 2:1.0658788 3:0.27668182 4:-1.062954 
0.1 1:-0.92820678 2:-0.18759946 3:-0.54264709 4:0.1936764 
-0.1 1:0.5963213 2:-0.18759946 3:-0.54264709 4:0.1936764 
0.1 1:0.088145277 2:1.4590414 3:1.3691204 4:-0.26929271 
0.1 1:0.5963213 2:1.4590414 3:1.3691204 4:-0.26929271 
0.01977217503558565 1:1.1044973 2:1.4590414 3:1.3691204 4:-0.26929271 
-0.1 1:0.85040932 2:-0.66539073 3:0.27668182 4:0.94765467 
-0.1 1:1.6126734 2:-0.66539073 3:0.27668182 4:0.94765467 
-0.1 1:-0.42003075 2:1.0400995 3:1.0960107 4:-1.062954 
-0.1 1:-0.16594274 2:1.0400995 3:1.0960107 4:-1.062954 
0.1 1:-0.92820678 2:-0.96031269 3:-0.54264709 4:-1.062954 
0.09335498403812104 1:-0.67411876 2:-0.96031269 3:-0.54264709 4:-1.062954 
0.1 1:-0.42003075 2:-0.96031269 3:-0.54264709 4:-1.062954 
0.1 1:-0.16594274 2:-0.96031269 3:-0.54264709 4:-1.062954 
0.1 1:-0.67411876 2:-0.34856403 3:0.54979146 4:0.82199163 
0.1 1:0.088145277 2:-0.34856403 3:0.54979146 4:0.82199163 
0.1 1:2.3749374 2:-0.34856403 3:0.54979146 4:0.82199163 
0.1 1:0.5963213 2:1.8229471 3:0.8229011 4:-0.17592079 
-0.1 1:-1.1822948 2:0.087160346 3:-1.0888664 4:-1.062954 
-0.1 1:-0.92820678 2:0.087160346 3:-1.0888664 4:-1.062954 
-0.1 1:-0.67411876 2:0.087160346 3:-1.0888664 4:-1.062954 
-0.1 1:-0.42003075 2:0.087160346 3:-1.0888664 4:-1.062954 
-0.1 1:-0.16594274 2:0.087160346 3:-1.0888664 4:-1.062954 
0.1 1:-0.42003075 2:0.4310642 3:0.8229011 4:-0.17592079 
0.1 1:0.5963213 2:0.4310642 3:0.8229011 4:-0.17592079 
0.1 1:-1.1822948 2:-0.3642804 3:0.0035721831 4:-1.062954 
0.1 1:-0.92820678 2:-0.3642804 3:0.0035721831 4:-1.062954 
0.1 1:-0.67411876 2:-0.3642804 3:0.0035721831 4:-1.062954 
0.1 1:-0.42003075 2:-0.3642804 3:0.0035721831 4:-1.062954 
0.1 1:-0.16594274 2:-0.3642804 3:0.0035721831 4:-1.062954 
0.1 1:-0.67411876 2:-0.97469344 3:0.0035721831 4:-1.062954 
-0.1 1:-0.42003075 2:-0.62717235 3:-0.81575673 4:0.30791553 
-0.1 1:0.088145277 2:-0.62717235 3:-0.81575673 4:0.30791553 
-0.1 1:0.5963213 2:-0.62717235 3:-0.81575673 4:0.30791553 
-0.1 1:1.1044973 2:-0.62717235 3:-0.81575673 4:0.30791553 
-0.1 1:0.088145277 2:-0.75084164 3:0.0035721831 4:0.014157768 
-0.1 1:0.5963213 2:-0.75084164 3:0.0035721831 4:0.014157768 
-0.1 1:1.1044973 2:1.6107098 3:0.27668182 4:-0.057649686 
-0.1 1:0.088145277 2:0.099911653 3:-0.26953745 4:0.097012523 
-0.1 1:-0.42003075 2:0.060717656 3:0.54979146 4:-0.12048121 
-0.1 1:1.1044973 2:0.060717656 3:0.54979146 4:-0.12048121 
-0.1 1:-0.42003075 2:-0.6180112 3:0.27668182 4:-0.057649686 
-0.1 1:0.088145277 2:-0.6180112 3:0.27668182 4:-0.057649686 
-0.1 1:0.5963213 2:-0.6180112 3:0.27668182 4:-0.057649686 
-0.1 1:1.1044973 2:-0.6180112 3:0.27668182 4:-0.057649686 
0.1 1:0.088145277 2:1.899601 3:0.8229011 4:0.71111247 
0.1 1:0.85040932 2:1.899601 3:0.8229011 4:0.71111247 
0.1 1:2.3749374 2:1.899601 3:0.8229011 4:0.71111247 
0.1 1:-0.67411876 2:-1.3410921 3:-1.0888664 4:-1.062954 
0.1 1:-0.67411876 2:-1.6337986 3:-0.54264709 4:1.4503068 
0.1 1:0.088145277 2:-1.6337986 3:-0.54264709 4:1.4503068 
0.1 1:0.85040932 2:-1.6337986 3:-0.54264709 4:1.4503068 
0.1 1:1.6126734 2:-1.6337986 3:-0.54264709 4:1.4503068 
0.1 1:2.3749374 2:-1.6337986 3:-0.54264709 4:1.4503068 
0.1 1:-1.1822948 2:-0.30956054 3:-0.81575673 4:-1.062954 
0.1 1:-0.92820678 2:-0.30956054 3:-0.81575673 4:-1.062954 
0.1 1:-0.67411876 2:-0.30956054 3:-0.81575673 4:-1.062954 
0.1 1:-0.42003075 2:-0.30956054 3:-0.81575673 4:-1.062954 
0.1 1:-0.16594274 2:-0.30956054 3:-0.81575673 4:-1.062954 
0.1 1:-0.42003075 2:-1.693613 3:-0.54264709 4:0.1936764 
0.1 1:0.088145277 2:-1.693613 3:-0.54264709 4:0.1936764 
0.1 1:0.5963213 2:-1.693613 3:-0.54264709 4:0.1936764 
0.1 1:1.1044973 2:-1.693613 3:-0.54264709 4:0.1936764 
0.05929451512456123 1:1.1044973 2:0.031560455 3:1.9153396 4:-0.3448795 
0.1 1:-0.92820678 2:0.49184028 3:-0.54264709 4:0.1936764 
0.1 1:-0.42003075 2:0.49184028 3:-0.54264709 4:0.1936764 
0.1 1:0.088145277 2:0.49184028 3:-0.54264709 4:0.1936764 
0.1 1:0.5963213 2:0.49184028 3:-0.54264709 4:0.1936764 
0.1 1:1.1044973 2:0.49184028 3:-0.54264709 4:0.1936764 
-0.1 1:-0.67411876 2:-0.37968646 3:-1.0888664 4:1.952959 
-0.1 1:0.088145277 2:-0.37968646 3:-1.0888664 4:1.952959 
-0.1 1:0.85040932 2:-0.37968646 3:-1.0888664 4:1.952959 
-0.1 1:1.6126734 2:-0.37968646 3:-1.0888664 4:1.952959 
-0.1 1:2.3749374 2:-0.37968646 3:-1.0888664 4:1.952959 
0.1 1:-0.92820678 2:1.7945537 3:4.646436 4:-0.57651645 
0.1 1:0.5963213 2:0.44384422 3:1.64223 4:-0.30897577 
-0.1 1:-0.42003075 2:1.6781998 3:2.4615589 4:-0.40732077 
-0.1 1:-0.92820678 2:-0.60662347 3:-0.26953745 4:-1.062954 
-0.1 1:-0.67411876 2:-0.60662347 3:-0.26953745 4:-1.062954 
-0.1 1:-0.42003075 2:-0.60662347 3:-0.26953745 4:-1.062954 
-0.1 1:-0.16594274 2:-0.60662347 3:-0.26953745 4:-1.062954 
0.1 1:-0.42003075 2:1.283074 3:0.8229011 4:-0.17592079 
0.1 1:0.088145277 2:1.283074 3:0.8229011 4:-0.17592079 
0.1 1:-0.42003075 2:-0.71969899 3:0.8229011 4:-0.17592079 
0.1 1:0.088145277 2:-0.71969899 3:0.8229011 4:-0.17592079 
0.1 1:0.5963213 2:-0.71969899 3:0.8229011 4:-0.17592079 
0.1 1:1.1044973 2:-0.71969899 3:0.8229011 4:-0.17592079 
-0.1 1:-0.67411876 2:0.426463 3:-0.26953745 4:1.2569791 
-0.1 1:0.088145277 2:0.426463 3:-0.26953745 4:1.2569791 
-0.1 1:0.85040932 2:0.426463 3:-0.26953745 4:1.2569791 
-0.1 1:1.6126734 2:0.426463 3:-0.26953745 4:1.2569791 
-0.1 1:-0.92820678 2:-1.3479306 3:-0.54264709 4:0.1936764 
-0.1 1:-0.42003075 2:-1.3479306 3:-0.54264709 4:0.1936764 
-0.1 1:0.088145277 2:-1.3479306 3:-0.54264709 4:0.1936764 
-0.1 1:0.5963213 2:-1.3479306 3:-0.54264709 4:0.1936764 
-0.1 1:1.1044973 2:-1.3479306 3:-0.54264709 4:0.1936764 
0.1 1:0.088145277 2:0.036398252 3:0.54979146 4:-0.12048121 
-0.1 1:0.088145277 2:0.27125548 3:0.8229011 4:0.71111247 
-0.1 1:0.85040932 2:0.27125548 3:0.8229011 4:0.71111247 
-0.1 1:1.6126734 2:0.27125548 3:0.8229011 4:0.71111247 
-0.1 1:-1.1822948 2:-1.0885208 3:-0.54264709 4:-1.062954 
-0.1 1:-0.92820678 2:-1.0885208 3:-0.54264709 4:-1.062954 
-0.1 1:-0.16594274 2:-1.0885208 3:-0.54264709 4:-1.062954 
0.1 1:-0.42003075 2:0.94307449 3:0.0035721831 4:0.014157768 
0.1 1:0.088145277 2:0.94307449 3:0.0035721831 4:0.014157768 
0.1 1:0.5963213 2:0.94307449 3:0.0035721831 4:0.014157768 
0.1 1:1.1044973 2:0.94307449 3:0.0035721831 4:0.014157768 
-0.1 1:0.5963213 2:0.141594 3:1.0960107 4:-0.22520041 
-0.1 1:0.088145277 2:1.9468692 3:-0.26953745 4:0.097012523 
-0.1 1:-0.42003075 2:-1.0227041 3:0.0035721831 4:-1.062954 
0.1 1:2.3749374 2:1.9153624 3:0.27668182 4:0.94765467 
-0.1 1:-0.42003075 2:-0.10952928 3:0.54979146 4:-0.12048121 
0.01584745592144741 1:0.5963213 2:1.5027702 3:0.0035721831 4:0.014157768 
0.1 1:-1.1822948 2:1.3680863 3:1.0960107 4:-1.062954 
0.1 1:-0.92820678 2:1.3680863 3:1.0960107 4:-1.062954 
0.1 1:-0.67411876 2:1.3680863 3:1.0960107 4:-1.062954 
0.1 1:-0.42003075 2:1.3680863 3:1.0960107 4:-1.062954 
0.1 1:-0.16594274 2:1.3680863 3:1.0960107 4:-1.062954 
-0.1 1:-0.42003075 2:-1.4530489 3:0.27668182 4:-1.062954 
-0.1 1:-0.16594274 2:-1.4530489 3:0.27668182 4:-1.062954 
-0.1 1:-0.67411876 2:0.13147091 3:0.27668182 4:0.94765467 
0.0112231217602946 1:2.3749374 2:0.13147091 3:0.27668182 4:0.94765467 
0.1 1:-0.16594274 2:-0.27683638 3:0.0035721831 4:-1.062954 
-0.1 1:0.5963213 2:-1.1980309 3:1.0960107 4:-0.22520041 
-0.1 1:1.1044973 2:-1.1980309 3:1.0960107 4:-0.22520041 
0.1 1:-0.92820678 2:-0.064660176 3:-0.26953745 4:-1.062954 
0.1 1:-0.67411876 2:-0.064660176 3:-0.26953745 4:-1.062954 
-0.1 1:-0.92820678 2:0.9083462 3:-0.26953745 4:0.097012523 
-0.1 1:0.5963213 2:0.9083462 3:-0.26953745 4:0.097012523 
-0.1 1:1.1044973 2:0.9083462 3:-0.26953745 4:0.097012523 
-0.1 1:-0.92820678 2:0.56087522 3:0.54979146 4:-1.062954 
0.1 1:-0.42003075 2:0.56087522 3:0.54979146 4:-1.062954 
0.1 1:0.5963213 2:1.8834826 3:4.3733264 4:-0.56030186 
0.1 1:-0.67411876 2:-0.13410067 3:0.0035721831 4:1.0912696 
0.1 1:0.088145277 2:-0.13410067 3:0.0035721831 4:1.0912696 
0.1 1:1.6126734 2:-0.13410067 3:0.0035721831 4:1.0912696 
0.1 1:2.3749374 2:-0.13410067 3:0.0035721831 4:1.0912696 
0.03404263754353708 1:-0.42003075 2:-1.0102895 3:0.54979146 4:1.7644645 
0.07736197769547416 1:0.5963213 2:-1.0102895 3:0.54979146 4:1.7644645 
0.1 1:-0.42003075 2:1.7834161 3:0.27668182 4:-1.062954 
0.1 1:-1.1822948 2:0.56796559 3:-0.81575673 4:-1.062954 
0.1 1:-0.42003075 2:-0.8519865 3:-0.81575673 4:0.30791553 
0.1 1:-0.92820678 2:0.43448052 3:0.27668182 4:-0.057649686 
0.1 1:-0.42003075 2:0.43448052 3:0.27668182 4:-0.057649686 
0.1 1:0.088145277 2:0.43448052 3:0.27668182 4:-0.057649686 
0.1 1:0.5963213 2:0.43448052 3:0.27668182 4:-0.057649686 
0.1 1:1.1044973 2:0.43448052 3:0.27668182 4:-0.057649686 
-0.1 1:0.088145277 2:-0.92547602 3:0.0035721831 4:0.014157768 
-0.1 1:0.5963213 2:-0.92547602 3:0.0035721831 4:0.014157768 
-0.1 1:1.1044973 2:-0.92547602 3:0.0035721831 4:0.014157768 
0.1 1:-0.67411876 2:0.63832837 3:0.0035721831 4:1.0912696 
0.1 1:0.088145277 2:0.63832837 3:0.0035721831 4:1.0912696 
0.1 1:0.85040932 2:0.63832837 3:0.0035721831 4:1.0912696 
0.1 1:1.6126734 2:0.63832837 3:0.0035721831 4:1.0912696 
0.1 1:2.3749374 2:0.63832837 3:0.0035721831 4:1.0912696 
0.1 1:-0.92820678 2:1.3952773 3:0.0035721831 4:0.014157768 
0.1 1:-0.42003075 2:1.3952773 3:0.0035721831 4:0.014157768 
0.1 1:0.088145277 2:1.3952773 3:0.0035721831 4:0.014157768 
0.1 1:0.5963213 2:1.3952773 3:0.0035721831 4:0.014157768 
0.1 1:1.1044973 2:1.3952773 3:0.0035721831 4:0.014157768 
-0.1 1:1.6126734 2:-0.98526376 3:-0.54264709 4:1.4503068 
-0.1 1:2.3749374 2:-0.98526376 3:-0.54264709 4:1.4503068 
0.1 1:-0.92820678 2:-0.38107208 3:0.8229011 4:-0.17592079 
0.1 1:-0.42003075 2:-0.38107208 3:0.8229011 4:-0.17592079 
0.1 1:0.088145277 2:-0.38107208 3:0.8229011 4:-0.17592079 
0.1 1:0.5963213 2:-0.38107208 3:0.8229011 4:-0.17592079 
0.1 1:1.1044973 2:-0.38107208 3:0.8229011 4:-0.17592079 
0.08633086490420734 1:-0.92820678 2:-1.5299474 3:-0.81575673 4:0.30791553 
0.1 1:-0.42003075 2:-1.5299474 3:-0.81575673 4:0.30791553 
0.1 1:0.088145277 2:-1.5299474 3:-0.81575673 4:0.30791553 
0.1 1:0.5963213 2:-1.5299474 3:-0.81575673 4:0.30791553 
0.1 1:1.1044973 2:-1.5299474 3:-0.81575673 4:0.30791553 
-0.1 1:-0.67411876 2:-0.60814053 3:-1.0888664 4:1.952959 
-0.1 1:0.088145277 2:-0.60814053 3:-1.0888664 4:1.952959 
-0.1 1:0.85040932 2:-0.60814053 3:-1.0888664 4:1.952959 
-0.1 1:1.6126734 2:-0.60814053 3:-1.0888664 4:1.952959 
-0.1 1:2.3749374 2:-0.60814053 3:-1.0888664 4:1.952959 
0.1 1:-0.16594274 2:0.95381968 3:-1.0888664 4:-1.062954 
-0.0049156589965924 1:0.088145277 2:0.84142602 3:5.7388746 4:-0.63210932 
-0.1 1:2.3749374 2:-0.088711402 3:0.0035721831 4:1.0912696 
-0.1 1:-0.42003075 2:-0.22994647 3:0.8229011 4:-0.17592079 
-0.1 1:1.1044973 2:-0.22994647 3:0.8229011 4:-0.17592079 
0.1 1:-0.92820678 2:-0.59635796 3:0.54979146 4:-0.12048121 
0.1 1:0.5963213 2:-0.59635796 3:0.54979146 4:-0.12048121 
0.1 1:-1.1822948 2:-1.2520045 3:-0.81575673 4:-1.062954 
0.1 1:-0.92820678 2:-1.2520045 3:-0.81575673 4:-1.062954 
0.1 1:-0.16594274 2:-1.2520045 3:-0.81575673 4:-1.062954 
0.1 1:-0.42003075 2:0.37868525 3:-1.361976 4:0.61255322 
0.1 1:0.088145277 2:0.37868525 3:-1.361976 4:0.61255322 
0.1 1:0.5963213 2:0.37868525 3:-1.361976 4:0.61255322 
0.1 1:-0.92820678 2:0.10254947 3:0.0035721831 4:0.014157768 
0.1 1:-0.92820678 2:0.018590116 3:1.9153396 4:-0.3448795 
-0.1 1:-0.92820678 2:0.10702393 3:0.0035721831 4:-1.062954 
-0.1 1:-0.42003075 2:-1.2944248 3:-0.54264709 4:0.1936764 
-0.1 1:0.088145277 2:-1.2944248 3:-0.54264709 4:0.1936764 
-0.1 1:0.5963213 2:-0.12088998 3:0.27668182 4:-0.057649686 
-0.1 1:1.1044973 2:-0.12088998 3:0.27668182 4:-0.057649686 
0.1 1:-0.92820678 2:-0.12641112 3:0.27668182 4:-0.057649686 
0.1 1:-0.42003075 2:-0.12641112 3:0.27668182 4:-0.057649686 
-0.1 1:0.088145277 2:-0.12641112 3:0.27668182 4:-0.057649686 
0.1 1:0.088145277 2:-1.5881747 3:0.27668182 4:-0.057649686 
0.1 1:-0.92820678 2:-1.1054655 3:-1.361976 4:0.61255322 
-0.1 1:-0.67411876 2:-0.58064006 3:-0.26953745 4:1.2569791 
-0.1 1:1.6126734 2:-0.58064006 3:-0.26953745 4:1.2569791 
-0.1 1:1.6126734 2:-0.1401093 3:0.27668182 4:0.94765467 
-0.06001535686851882 1:2.3749374 2:-0.1401093 3:0.27668182 4:0.94765467 
-0.1 1:0.85040932 2:-1.0021388 3:0.0035721831 4:1.0912696 
-0.1 1:1.6126734 2:-1.0021388 3:0.0035721831 4:1.0912696 
-0.1 1:2.3749374 2:-1.0021388 3:0.0035721831 4:1.0912696 
-0.1 1:-0.67411876 2:0.15397456 3:-0.81575673 4:-1.062954 
-0.1 1:-0.42003075 2:0.15397456 3:-0.81575673 4:-1.062954 
-0.1 1:-0.42003075 2:-1.2475929 3:-0.81575673 4:-1.062954 
-0.1 1:-0.16594274 2:-1.2475929 3:-0.81575673 4:-1.062954 
0.1 1:-0.92820678 2:-1.5362674 3:-0.81575673 4:0.30791553 
0.1 1:-0.42003075 2:-1.5362674 3:-0.81575673 4:0.30791553 
0.1 1:0.088145277 2:-1.5362674 3:-0.81575673 4:0.30791553 
0.1 1:0.5963213 2:-1.5362674 3:-0.81575673 4:0.30791553 
0.1 1:1.1044973 2:-1.5362674 3:-0.81575673 4:0.30791553 
-0.1 1:-0.42003075 2:-0.21266987 3:-0.81575673 4:-1.062954 
-0.1 1:-0.16594274 2:-0.21266987 3:-0.81575673 4:-1.062954 
0.02263751705434552 1:0.5963213 2:1.6380205 3:0.8229011 4:-0.17592079 
0.1 1:1.1044973 2:1.6380205 3:0.8229011 4:-0.17592079 
0.1 1:1.1044973 2:0.44417857 3:-1.0888664 4:0.44500249 
0.1 1:0.088145277 2:-0.32378513 3:0.54979146 4:-0.12048121 
0.1 1:0.5963213 2:-0.32378513 3:0.54979146 4:-0.12048121 
0.1 1:1.1044973 2:-0.32378513 3:0.54979146 4:-0.12048121 
0.1 1:-0.42003075 2:0.51370519 3:1.0960107 4:-0.22520041 
0.1 1:0.088145277 2:0.51370519 3:1.0960107 4:-0.22520041 
0.1 1:0.5963213 2:0.51370519 3:1.0960107 4:-0.22520041 
0.1 1:1.1044973 2:0.51370519 3:1.0960107 4:-0.22520041 
0.1 1:-0.92820678 2:0.44955591 3:0.27668182 4:-0.057649686 
0.1 1:-0.42003075 2:0.44955591 3:0.27668182 4:-0.057649686 
0.1 1:0.5963213 2:0.44955591 3:0.27668182 4:-0.057649686 
0.1 1:1.1044973 2:0.44955591 3:0.27668182 4:-0.057649686 
0.1 1:0.5963213 2:-1.1182417 3:-0.54264709 4:0.1936764 
0.0007424960978159576 1:1.1044973 2:-1.1182417 3:-0.54264709 4:0.1936764 
-0.1 1:-0.67411876 2:0.35076233 3:-0.26953745 4:1.2569791 
0.1 1:0.088145277 2:0.35076233 3:-0.26953745 4:1.2569791 
0.1 1:0.85040932 2:0.35076233 3:-0.26953745 4:1.2569791 
-0.1 1:-1.1822948 2:1.5511364 3:0.27668182 4:-1.062954 
-0.1 1:-0.92820678 2:1.5511364 3:0.27668182 4:-1.062954 
0.1 1:-0.67411876 2:1.5511364 3:0.27668182 4:-1.062954 
0.1 1:-0.16594274 2:1.5511364 3:0.27668182 4:-1.062954 
-0.1 1:-0.42003075 2:0.84165184 3:1.0960107 4:-0.22520041 
-0.1 1:0.5963213 2:0.84165184 3:1.0960107 4:-0.22520041 
-0.1 1:-0.67411876 2:-0.9622311 3:-1.0888664 4:1.952959 
-0.1 1:0.088145277 2:-0.9622311 3:-1.0888664 4:1.952959 
-0.1 1:0.85040932 2:-0.9622311 3:-1.0888664 4:1.952959 
-0.1 1:1.6126734 2:-0.9622311 3:-1.0888664 4:1.952959 
-0.1 1:2.3749374 2:-0.9622311 3:-1.0888664 4:1.952959 
0.1 1:1.6126734 2:-1.0624345 3:-0.54264709 4:2.7069373 
0.1 1:2.6290254 2:-1.0624345 3:-0.54264709 4:2.7069373 
0.1 1:3.6453775 2:-1.0624345 3:-0.54264709 4:2.7069373 
-0.1 1:-0.92820678 2:-0.41130546 3:-1.0888664 4:0.44500249 
-0.1 1:-0.42003075 2:-0.41130546 3:-1.0888664 4:0.44500249 
-0.1 1:0.5963213 2:-0.41130546 3:-1.0888664 4:0.44500249 
-0.1 1:1.1044973 2:-0.41130546 3:-1.0888664 4:0.44500249 
0.1 1:-0.42003075 2:0.2916925 3:-0.26953745 4:0.097012523 
0.1 1:0.088145277 2:0.2916925 3:-0.26953745 4:0.097012523 
0.1 1:-0.42003075 2:0.092674123 3:0.0035721831 4:0.014157768 
0.1 1:0.088145277 2:0.092674123 3:0.0035721831 4:0.014157768 
0.1 1:0.5963213 2:0.092674123 3:0.0035721831 4:0.014157768 
0.1 1:1.1044973 2:0.092674123 3:0.0035721831 4:0.014157768 
0.1 1:-1.1822948 2:-1.0194714 3:-0.81575673 4:-1.062954 
0.1 1:-0.92820678 2:-1.0194714 3:-0.81575673 4:-1.062954 
0.1 1:-0.67411876 2:-1.0194714 3:-0.81575673 4:-1.062954 
0.1 1:-0.42003075 2:-1.0194714 3:-0.81575673 4:-1.062954 
0.1 1:-0.16594274 2:-1.0194714 3:-0.81575673 4:-1.062954 
0.03879100154102395 1:-0.92820678 2:-0.3809456 3:0.8229011 4:-0.17592079 
0.1 1:0.088145277 2:-0.3809456 3:0.8229011 4:-0.17592079 
0.1 1:1.1044973 2:-0.3809456 3:0.8229011 4:-0.17592079 
-0.1 1:-0.42003075 2:1.3894797 3:0.0035721831 4:-1.062954 
0.01488554269139922 1:-0.42003075 2:0.039897078 3:-1.0888664 4:3.4609156 
0.1 1:0.5963213 2:0.039897078 3:-1.0888664 4:3.4609156 
0.0529561591680323 1:1.6126734 2:0.039897078 3:-1.0888664 4:3.4609156 
0.1 1:2.6290254 2:0.039897078 3:-1.0888664 4:3.4609156 
0.08707768641593809 1:3.6453775 2:0.039897078 3:-1.0888664 4:3.4609156 
-0.1 1:1.1044973 2:-0.96152301 3:-1.361976 4:0.61255322 
-0.08572069980935119 1:-1.1822948 2:-1.5050372 3:-1.0888664 4:-1.062954 
-0.1 1:-0.67411876 2:-1.5050372 3:-1.0888664 4:-1.062954 
-0.09244021252896559 1:2.3749374 2:-1.512595 3:0.0035721831 4:1.0912696 
-0.1 1:1.1044973 2:-0.39318711 3:0.54979146 4:-0.12048121 
-0.1 1:-0.67411876 2:0.60092263 3:1.3691204 4:-1.062954 
0.1 1:0.5963213 2:-0.22848409 3:0.27668182 4:-0.057649686 
0.1 1:1.1044973 2:-0.22848409 3:0.27668182 4:-0.057649686 
0.1 1:-0.92820678 2:-0.53741542 3:0.0035721831 4:-1.062954 
0.1 1:-0.42003075 2:-0.53741542 3:0.0035721831 4:-1.062954 
0.1 1:-0.16594274 2:-0.53741542 3:0.0035721831 4:-1.062954 
-0.1 1:0.088145277 2:0.42051579 3:-0.81575673 4:0.30791553 
-0.1 1:0.5963213 2:0.42051579 3:-0.81575673 4:0.30791553 
-0.1 1:1.1044973 2:0.42051579 3:-0.81575673 4:0.30791553 
-0.1 1:0.5963213 2:-0.59258705 3:-0.81575673 4:0.30791553 
-0.1 1:-0.42003075 2:1.9064982 3:-0.54264709 4:0.1936764 
-0.1 1:-0.92820678 2:0.74201001 3:1.9153396 4:-0.3448795 
-0.1 1:-0.42003075 2:0.74201001 3:1.9153396 4:-0.3448795 
0.1 1:0.088145277 2:0.74201001 3:1.9153396 4:-0.3448795 
-0.1 1:2.6290254 2:-1.6487515 3:0.0035721831 4:2.1683814 
-0.0951210758122307 1:3.6453775 2:-1.6487515 3:0.0035721831 4:2.1683814 
0.1 1:-0.92820678 2:1.3343129 3:0.0035721831 4:0.014157768 
0.1 1:-0.42003075 2:1.3343129 3:0.0035721831 4:0.014157768 
0.1 1:0.088145277 2:1.3343129 3:0.0035721831 4:0.014157768 
0.1 1:-0.42003075 2:0.64241903 3:-1.0888664 4:0.44500249 
0.1 1:0.088145277 2:0.64241903 3:-1.0888664 4:0.44500249 
-0.1 1:0.5963213 2:0.32549256 3:-0.54264709 4:0.1936764 
-0.1 1:-0.42003075 2:1.2709838 3:1.0960107 4:-0.22520041 
-0.1 1:0.088145277 2:1.2709838 3:1.0960107 4:-0.22520041 
-0.1 1:1.1044973 2:1.2709838 3:1.0960107 4:-0.22520041 
-0.1 1:-1.1822948 2:0.43302962 3:0.0035721831 4:-1.062954 
-0.1 1:-0.92820678 2:0.43302962 3:0.0035721831 4:-1.062954 
0.03081856841015783 1:-0.42003075 2:0.43302962 3:0.0035721831 4:-1.062954 
0.1 1:-0.16594274 2:0.43302962 3:0.0035721831 4:-1.062954 
-0.03174529963780048 1:0.088145277 2:-0.10708856 3:-0.81575673 4:0.30791553 
-0.1 1:0.088145277 2:0.33668351 3:0.54979146 4:-0.12048121 
-0.1 1:0.5963213 2:0.33668351 3:0.54979146 4:-0.12048121 
-0.1 1:1.1044973 2:0.33668351 3:0.54979146 4:-0.12048121 
0.1 1:-1.1822948 2:0.29693696 3:-0.26953745 4:-1.062954 
0.1 1:-0.92820678 2:0.29693696 3:-0.26953745 4:-1.062954 
0.1 1:-0.67411876 2:0.29693696 3:-0.26953745 4:-1.062954 
0.1 1:-0.16594274 2:0.29693696 3:-0.26953745 4:-1.062954 
0.1 1:-0.92820678 2:-0.31779328 3:-0.81575673 4:0.30791553 
0.1 1:-0.42003075 2:-0.31779328 3:-0.81575673 4:0.30791553 
0.1 1:0.088145277 2:-0.31779328 3:-0.81575673 4:0.30791553 
0.1 1:0.5963213 2:-0.31779328 3:-0.81575673 4:0.30791553 
0.1 1:1.1044973 2:-0.31779328 3:-0.81575673 4:0.30791553 
-0.1 1:0.85040932 2:-1.1808459 3:0.27668182 4:0.94765467 
-0.1 1:1.6126734 2:-1.1808459 3:0.27668182 4:0.94765467 
-0.1 1:2.3749374 2:-1.1808459 3:0.27668182 4:0.94765467 
0.1 1:-0.92820678 2:0.64463632 3:0.8229011 4:-0.17592079 
0.1 1:0.088145277 2:0.64463632 3:0.8229011 4:-0.17592079 
0.1 1:0.5963213 2:0.64463632 3:0.8229011 4:-0.17592079 
-0.1 1:0.088145277 2:0.22918776 3:-0.26953745 4:1.2569791 
-0.1 1:0.85040932 2:0.22918776 3:-0.26953745 4:1.2569791 
-0.1 1:1.6126734 2:0.22918776 3:-0.26953745 4:1.2569791 
-0.1 1:2.3749374 2:0.22918776 3:-0.26953745 4:1.2569791 
0.02028005088134824 1:-0.67411876 2:-0.98037923 3:0.27668182 4:0.94765467 
0.1 1:0.088145277 2:-0.98037923 3:0.27668182 4:0.94765467 
0.1 1:1.6126734 2:-0.98037923 3:0.27668182 4:0.94765467 
0.1 1:2.3749374 2:-0.98037923 3:0.27668182 4:0.94765467 
-0.1 1:-1.1822948 2:1.4354041 3:0.0035721831 4:-1.062954 
-0.1 1:-0.92820678 2:1.4354041 3:0.0035721831 4:-1.062954 
-0.1 1:-0.67411876 2:1.4354041 3:0.0035721831 4:-1.062954 
-0.1 1:-0.42003075 2:1.4354041 3:0.0035721831 4:-1.062954 
-0.1 1:-0.16594274 2:1.4354041 3:0.0035721831 4:-1.062954 
-0.1 1:-0.67411876 2:-0.18989946 3:1.3691204 4:0.52436863 
-0.1 1:-1.1822948 2:-0.20257794 3:0.0035721831 4:-1.062954 
-0.1 1:-0.92820678 2:-0.20257794 3:0.0035721831 4:-1.062954 
-0.1 1:-0.16594274 2:-0.20257794 3:0.0035721831 4:-1.062954 
-0.1 1:1.6126734 2:-0.66435969 3:0.27668182 4:0.94765467 
-0.1 1:2.3749374 2:-0.66435969 3:0.27668182 4:0.94765467 
-0.1 1:-0.42003075 2:1.3019843 3:-0.26953745 4:0.097012523 
-0.1 1:0.088145277 2:1.3019843 3:-0.26953745 4:0.097012523 
-0.1 1:0.5963213 2:1.3019843 3:-0.26953745 4:0.097012523 
-0.1 1:1.1044973 2:1.3019843 3:-0.26953745 4:0.097012523 
0.1 1:0.088145277 2:1.5197885 3:0.27668182 4:-0.057649686 
0.1 1:0.5963213 2:1.5197885 3:0.27668182 4:-0.057649686 
0.1 1:1.1044973 2:1.5197885 3:0.27668182 4:-0.057649686 
0.1 1:1.6126734 2:-0.6529356 3:-0.26953745 4:1.2569791 
0.1 1:2.3749374 2:-0.6529356 3:-0.26953745 4:1.2569791 
0.1 1:-0.92820678 2:1.4979622 3:0.27668182 4:-1.062954 
0.1 1:-0.67411876 2:1.4979622 3:0.27668182 4:-1.062954 
0.1 1:-0.42003075 2:1.4979622 3:0.27668182 4:-1.062954 
0.1 1:-0.16594274 2:1.4979622 3:0.27668182 4:-1.062954 
-0.1 1:-0.67411876 2:-0.32955324 3:-1.361976 4:-1.062954 
-0.02426267685532669 1:-0.16594274 2:-0.32955324 3:-1.361976 4:-1.062954 
-0.1 1:-0.92820678 2:-0.34343939 3:-0.81575673 4:0.30791553 
-0.1 1:-0.67411876 2:0.26521029 3:-0.26953745 4:1.2569791 
-0.1 1:0.85040932 2:0.26521029 3:-0.26953745 4:1.2569791 
0.1 1:-0.92820678 2:-0.66266312 3:-1.0888664 4:0.44500249 
0.1 1:-0.42003075 2:-0.66266312 3:-1.0888664 4:0.44500249 
0.1 1:0.088145277 2:-0.66266312 3:-1.0888664 4:0.44500249 
0.1 1:0.5963213 2:-0.66266312 3:-1.0888664 4:0.44500249 
0.1 1:1.1044973 2:-0.66266312 3:-1.0888664 4:0.44500249 
0.1 1:-1.1822948 2:-1.4410522 3:-1.361976 4:-1.062954 
0.1 1:-0.92820678 2:-1.4410522 3:-1.361976 4:-1.062954 
0.1 1:-0.67411876 2:-1.4410522 3:-1.361976 4:-1.062954 
0.1 1:-0.16594274 2:-1.4410522 3:-1.361976 4:-1.062954 
-0.1 1:0.088145277 2:0.1013883 3:0.54979146 4:0.82199163 
-0.1 1:1.6126734 2:0.1013883 3:0.54979146 4:0.82199163 
-0.1 1:2.3749374 2:0.1013883 3:0.54979146 4:0.82199163 
0.1 1:0.5963213 2:-0.9703228 3:0.27668182 4:1.952959 
0.1 1:1.6126734 2:-0.9703228 3:0.27668182 4:1.952959 
0.1 1:2.6290254 2:-0.9703228 3:0.27668182 4:1.952959 
0.1 1:3.6453775 2:-0.9703228 3:0.27668182 4:1.952959 
-0.1 1:-0.92820678 2:-0.0076285836 3:-0.26953745 4:0.097012523 
-0.1 1:-0.42003075 2:-0.0076285836 3:-0.26953745 4:0.097012523 
-0.1 1:0.088145277 2:-0.0076285836 3:-0.26953745 4:0.097012523 
-0.1 1:1.1044973 2:-0.0076285836 3:-0.26953745 4:0.097012523 
-0.1 1:-0.67411876 2:1.1858048 3:-0.54264709 4:1.4503068 
-0.1 1:0.088145277 2:1.1858048 3:-0.54264709 4:1.4503068 
-0.1 1:1.6126734 2:1.1858048 3:-0.54264709 4:1.4503068 
-0.1 1:-0.67411876 2:-1.5606396 3:-1.0888664 4:1.952959 
-0.1 1:-0.92820678 2:-0.29441168 3:2.4615589 4:-1.062954 
-0.0617262333353998 1:-0.67411876 2:-0.29441168 3:2.4615589 4:-1.062954 
-0.1 1:-0.42003075 2:-0.29441168 3:2.4615589 4:-1.062954 
0.1 1:-0.92820678 2:0.45839298 3:-0.26953745 4:0.097012523 
-0.03584632396931415 1:-0.92820678 2:1.925582 3:4.3733264 4:-0.56030186 
-0.1 1:0.088145277 2:1.925582 3:4.3733264 4:-0.56030186 
-0.09852032734264132 1:0.5963213 2:1.925582 3:4.3733264 4:-0.56030186 
-0.00886908126331323 1:1.1044973 2:1.925582 3:4.3733264 4:-0.56030186 
0.1 1:-0.92820678 2:-1.3827762 3:-0.54264709 4:0.1936764 
0.1 1:-0.42003075 2:-1.3827762 3:-0.54264709 4:0.1936764 
0.1 1:0.088145277 2:-1.3827762 3:-0.54264709 4:0.1936764 
0.1 1:0.5963213 2:-1.3827762 3:-0.54264709 4:0.1936764 
0.1 1:1.1044973 2:-1.3827762 3:-0.54264709 4:0.1936764 
-0.1 1:-0.67411876 2:0.71958337 3:0.0035721831 4:1.0912696 
-0.1 1:0.088145277 2:0.71958337 3:0.0035721831 4:1.0912696 
-0.1 1:0.85040932 2:0.71958337 3:0.0035721831 4:1.0912696 
-0.1 1:1.6126734 2:0.71958337 3:0.0035721831 4:1.0912696 
-0.1 1:2.3749374 2:0.71958337 3:0.0035721831 4:1.0912696 
0.1 1:-0.92820678 2:0.084055858 3:-0.81575673 4:-1.062954 
-0.1 1:-0.67411876 2:0.084055858 3:-0.81575673 4:-1.062954 
-0.1 1:-0.16594274 2:0.084055858 3:-0.81575673 4:-1.062954 
-0.1 1:-0.92820678 2:-0.079354435 3:2.1884493 4:-0.37751925 
-0.1 1:0.088145277 2:-0.079354435 3:2.1884493 4:-0.37751925 
-0.1 1:-0.92820678 2:-0.09906703 3:-1.0888664 4:0.44500249 
-0.1 1:-0.42003075 2:-0.09906703 3:-1.0888664 4:0.44500249 
-0.1 1:0.088145277 2:-0.09906703 3:-1.0888664 4:0.44500249 
-0.1 1:0.088145277 2:0.69351478 3:1.3691204 4:0.52436863 
-0.1 1:0.85040932 2:0.69351478 3:1.3691204 4:0.52436863 
0.01771967168593776 1:0.5963213 2:1.6167556 3:4.646436 4:0.39635873 
-0.1 1:-0.42003075 2:-1.2295401 3:0.0035721831 4:0.014157768 
-0.1 1:-0.92820678 2:-1.1813351 3:1.0960107 4:-0.22520041 
-0.1 1:-0.42003075 2:-1.1813351 3:1.0960107 4:-0.22520041 
-0.1 1:0.088145277 2:-1.1813351 3:1.0960107 4:-0.22520041 
0.1 1:0.088145277 2:0.56210869 3:-1.0888664 4:0.44500249 
0.1 1:0.5963213 2:0.56210869 3:-1.0888664 4:0.44500249 
0.1 1:1.1044973 2:0.56210869 3:-1.0888664 4:0.44500249 
0.1 1:0.088145277 2:-1.2644342 3:0.0035721831 4:1.0912696 
0.1 1:0.85040932 2:-1.2644342 3:0.0035721831 4:1.0912696 
0.1 1:1.6126734 2:-1.2644342 3:0.0035721831 4:1.0912696 
0.1 1:2.3749374 2:-1.2644342 3:0.0035721831 4:1.0912696 
-0.09154217717098513 1:-1.1822948 2:1.0197697 3:2.1884493 4:-1.062954 
-0.1 1:-0.92820678 2:1.0197697 3:2.1884493 4:-1.062954 
-0.1 1:-0.67411876 2:1.0197697 3:2.1884493 4:-1.062954 
-0.1 1:-0.42003075 2:1.0197697 3:2.1884493 4:-1.062954 
-0.1 1:-0.42003075 2:1.611091 3:2.4615589 4:-1.062954 
0.1 1:-0.67411876 2:0.62503192 3:-0.26953745 4:1.2569791 
0.1 1:0.088145277 2:0.62503192 3:-0.26953745 4:1.2569791 
0.1 1:0.85040932 2:0.62503192 3:-0.26953745 4:1.2569791 
0.1 1:1.6126734 2:0.62503192 3:-0.26953745 4:1.2569791 
0.1 1:2.3749374 2:0.62503192 3:-0.26953745 4:1.2569791 
0.1 1:-0.67411876 2:0.53225432 3:0.0035721831 4:-1.062954 
0.1 1:-0.42003075 2:0.53225432 3:0.0035721831 4:-1.062954 
0.1 1:-0.16594274 2:0.53225432 3:0.0035721831 4:-1.062954 
0.05262700134089175 1:-1.1822948 2:-1.045024 3:-1.361976 4:-1.062954 
-0.1 1:-0.16594274 2:-1.045024 3:-1.361976 4:-1.062954 
0.1 1:-0.92820678 2:-0.86602292 3:1.0960107 4:-1.062954 
-0.1 1:-0.16594274 2:-1.1305519 3:-1.0888664 4:-1.062954 
-0.04003551739095452 1:-0.42003075 2:-0.43051307 3:-0.54264709 4:2.7069373 
0.1 1:-0.67411876 2:-0.064406756 3:1.0960107 4:0.61255322 
0.1 1:0.088145277 2:-0.064406756 3:1.0960107 4:0.61255322 
-0.08958845638904994 1:-0.16594274 2:-1.5132782 3:-0.26953745 4:-1.062954 
-0.1 1:0.5963213 2:-1.5219321 3:-0.81575673 4:0.30791553 
-0.06781178362696275 1:-0.67411876 2:-1.3036317 3:0.54979146 4:-1.062954 
-0.1 1:-0.42003075 2:-1.3036317 3:0.54979146 4:-1.062954 
-0.1 1:-0.16594274 2:-1.3036317 3:0.54979146 4:-1.062954 
0.1 1:0.088145277 2:1.498249 3:-0.26953745 4:1.2569791 
0.1 1:0.85040932 2:1.498249 3:-0.26953745 4:1.2569791 
0.1 1:1.6126734 2:1.498249 3:-0.26953745 4:1.2569791 
0.1 1:2.3749374 2:1.498249 3:-0.26953745 4:1.2569791 
-0.1 1:-0.67411876 2:-0.34267843 3:-0.54264709 4:-1.062954 
-0.1 1:-0.42003075 2:-0.34267843 3:-0.54264709 4:-1.062954 
0.1 1:-0.92820678 2:0.68732446 3:-0.26953745 4:0.097012523 
-0.1 1:-0.42003075 2:-0.55280358 3:0.8229011 4:1.5981457 
0.1 1:-0.67411876 2:0.0091944061 3:-0.81575673 4:1.6787851 
0.1 1:0.088145277 2:0.0091944061 3:-0.81575673 4:1.6787851 
0.1 1:0.85040932 2:0.0091944061 3:-0.81575673 4:1.6787851 
0.1 1:1.6126734 2:0.0091944061 3:-0.81575673 4:1.6787851 
0.1 1:2.3749374 2:0.0091944061 3:-0.81575673 4:1.6787851 
0.1 1:-0.42003075 2:1.3059965 3:0.8229011 4:-0.17592079 
0.1 1:0.088145277 2:1.3059965 3:0.8229011 4:-0.17592079 
0.1 1:1.1044973 2:1.3059965 3:0.8229011 4:-0.17592079 
0.1 1:-0.92820678 2:-0.59865999 3:0.27668182 4:-0.057649686 
-0.1 1:-0.92820678 2:-0.60143166 3:0.54979146 4:-1.062954 
-0.1 1:-0.67411876 2:-0.60143166 3:0.54979146 4:-1.062954 
-0.1 1:-0.42003075 2:-0.60143166 3:0.54979146 4:-1.062954 
-0.1 1:-0.16594274 2:-0.60143166 3:0.54979146 4:-1.062954 
-0.1 1:-0.67411876 2:-1.3553409 3:-0.54264709 4:-1.062954 
0.1 1:-0.16594274 2:-1.3553409 3:-0.54264709 4:-1.062954 
-0.1 1:1.6126734 2:-0.10605985 3:-0.54264709 4:2.7069373 
-0.1 1:2.6290254 2:-0.10605985 3:-0.54264709 4:2.7069373 
-0.1 1:-0.67411876 2:0.090195208 3:0.0035721831 4:-1.062954 
-0.1 1:-0.42003075 2:0.090195208 3:0.0035721831 4:-1.062954 
-0.1 1:-0.16594274 2:0.090195208 3:0.0035721831 4:-1.062954 
0.1 1:-0.92820678 2:0.68117468 3:0.0035721831 4:0.014157768 
0.1 1:0.5963213 2:0.68117468 3:0.0035721831 4:0.014157768 
0.1 1:1.1044973 2:0.68117468 3:0.0035721831 4:0.014157768 
0.1 1:0.85040932 2:-0.32320857 3:-1.0888664 4:1.952959 
0.1 1:1.6126734 2:-0.32320857 3:-1.0888664 4:1.952959 
0.1 1:2.3749374 2:-0.32320857 3:-1.0888664 4:1.952959 
-0.1 1:-0.92820678 2:0.52820818 3:-0.54264709 4:0.1936764 
-0.1 1:-0.42003075 2:0.52820818 3:-0.54264709 4:0.1936764 
-0.1 1:0.088145277 2:0.52820818 3:-0.54264709 4:0.1936764 
-0.1 1:0.5963213 2:0.52820818 3:-0.54264709 4:0.1936764 
-0.1 1:-1.1822948 2:0.0024914157 3:0.0035721831 4:-1.062954 
-0.1 1:-0.92820678 2:0.0024914157 3:0.0035721831 4:-1.062954 
-0.1 1:-0.67411876 2:0.0024914157 3:0.0035721831 4:-1.062954 
-0.1 1:-0.42003075 2:0.0024914157 3:0.0035721831 4:-1.062954 
-0.1 1:-0.16594274 2:0.0024914157 3:0.0035721831 4:-1.062954 
-0.1 1:0.5963213 2:-0.058517887 3:0.8229011 4:1.5981457 
-0.1 1:1.6126734 2:-0.058517887 3:0.8229011 4:1.5981457 
-0.1 1:3.6453775 2:-0.058517887 3:0.8229011 4:1.5981457 
-0.1 1:-0.67411876 2:1.6434716 3:-0.26953745 4:1.2569791 
-0.1 1:0.088145277 2:1.6434716 3:-0.26953745 4:1.2569791 
-0.1 1:0.85040932 2:1.6434716 3:-0.26953745 4:1.2569791 
-0.1 1:1.6126734 2:1.6434716 3:-0.26953745 4:1.2569791 
-0.1 1:2.3749374 2:1.6434716 3:-0.26953745 4:1.2569791 
0.1 1:0.088145277 2:-0.29063926 3:0.8229011 4:0.71111247 
-0.1 1:0.85040932 2:-0.16899854 3:0.54979146 4:0.82199163 
-0.1 1:1.1044973 2:1.2229635 3:1.0960107 4:-0.22520041 
-0.1 1:-0.92820678 2:-0.85139738 3:-1.0888664 4:0.44500249 
-0.1 1:-0.42003075 2:-0.85139738 3:-1.0888664 4:0.44500249 
-0.1 1:0.088145277 2:-0.85139738 3:-1.0888664 4:0.44500249 
-0.1 1:0.5963213 2:-0.85139738 3:-1.0888664 4:0.44500249 
-0.009881410014300382 1:2.3749374 2:-1.5564749 3:-0.81575673 4:4.4205243 
-0.0191251266301442 1:4.9158175 2:-1.5564749 3:-0.81575673 4:4.4205243 
0.1 1:-0.92820678 2:-1.0074371 3:-1.361976 4:-1.062954 
0.1 1:-0.67411876 2:-1.0074371 3:-1.361976 4:-1.062954 
-0.1 1:-0.92820678 2:-0.28017197 3:1.64223 4:-0.30897577 
-0.1 1:-0.42003075 2:-0.28017197 3:1.64223 4:-0.30897577 
-0.1 1:0.5963213 2:-0.28017197 3:1.64223 4:-0.30897577 
-0.1 1:1.1044973 2:-0.46986659 3:-1.0888664 4:0.44500249 
0.1 1:-1.1822948 2:-0.65954804 3:0.0035721831 4:-1.062954 
0.1 1:-0.92820678 2:-0.65954804 3:0.0035721831 4:-1.062954 
-0.1 1:1.6126734 2:-0.49802471 3:-0.81575673 4:1.6787851 
-0.08920654542314234 1:-0.67411876 2:1.6862077 3:0.27668182 4:0.94765467 
-0.1 1:0.088145277 2:1.6862077 3:0.27668182 4:0.94765467 
-0.1 1:0.85040932 2:1.6862077 3:0.27668182 4:0.94765467 
-0.1 1:2.3749374 2:1.6862077 3:0.27668182 4:0.94765467 
-0.1 1:-0.92820678 2:-0.086308554 3:-0.54264709 4:-1.062954 
-0.1 1:-0.67411876 2:-0.086308554 3:-0.54264709 4:-1.062954 
-0.1 1:-0.42003075 2:-0.086308554 3:-0.54264709 4:-1.062954 
0.1 1:0.088145277 2:-1.0873644 3:-0.81575673 4:0.30791553 
0.1 1:1.1044973 2:-0.28092073 3:-0.54264709 4:0.1936764 
0.1 1:-0.42003075 2:-0.69433503 3:-1.0888664 4:0.44500249 
0.1 1:0.088145277 2:-0.69433503 3:-1.0888664 4:0.44500249 
0.1 1:0.5963213 2:-0.69433503 3:-1.0888664 4:0.44500249 
0.1 1:1.1044973 2:-0.69433503 3:-1.0888664 4:0.44500249 
-0.1 1:-0.42003075 2:1.2073574 3:0.27668182 4:-0.057649686 
-0.1 1:0.088145277 2:1.2073574 3:0.27668182 4:-0.057649686 
0.09916685306931347 1:-0.42003075 2:-1.3048562 3:-1.0888664 4:-1.062954 
-0.1 1:-0.92820678 2:-1.0990127 3:-1.0888664 4:-1.062954 
-0.08714194932596604 1:-0.42003075 2:-1.0990127 3:-1.0888664 4:-1.062954 
-0.1 1:-0.16594274 2:-1.0990127 3:-1.0888664 4:-1.062954 
-0.1 1:2.6290254 2:-0.44562746 3:0.0035721831 4:2.1683814 
-0.1 1:3.6453775 2:-0.44562746 3:0.0035721831 4:2.1683814 
-0.1 1:-0.92820678 2:1.4481243 3:0.0035721831 4:0.014157768 
-0.1 1:-0.42003075 2:1.4481243 3:0.0035721831 4:0.014157768 
-0.1 1:0.088145277 2:1.4481243 3:0.0035721831 4:0.014157768 
-0.1 1:0.5963213 2:1.4481243 3:0.0035721831 4:0.014157768 
-0.1 1:1.1044973 2:1.4481243 3:0.0035721831 4:0.014157768 
0.1 1:-0.42003075 2:1.3210437 3:-0.54264709 4:0.1936764 
0.1 1:0.088145277 2:1.3210437 3:-0.54264709 4:0.1936764 
0.1 1:0.5963213 2:1.3210437 3:-0.54264709 4:0.1936764 
0.1 1:1.1044973 2:1.3210437 3:-0.54264709 4:0.1936764 
-0.1 1:-0.67411876 2:-1.2350652 3:-0.54264709 4:1.4503068 
-0.1 1:0.088145277 2:-1.2350652 3:-0.54264709 4:1.4503068 
-0.1 1:0.85040932 2:-1.2350652 3:-0.54264709 4:1.4503068 
-0.1 1:-0.42003075 2:-0.12412769 3:0.0035721831 4:-1.062954 
0.1 1:0.85040932 2:-1.1699693 3:-0.81575673 4:1.6787851 
-0.1 1:-0.92820678 2:-0.52327143 3:-1.0888664 4:0.44500249 
-0.1 1:-0.42003075 2:-0.52327143 3:-1.0888664 4:0.44500249 
0.1 1:0.5963213 2:-0.92046672 3:-0.81575673 4:0.30791553 
0.1 1:1.1044973 2:-0.92046672 3:-0.81575673 4:0.30791553 
-0.1 1:0.5963213 2:-0.17377163 3:-0.54264709 4:0.1936764 
-0.1 1:1.1044973 2:-0.17377163 3:-0.54264709 4:0.1936764 
-0.1 1:-0.67411876 2:-0.15619552 3:-0.26953745 4:-1.062954 
-0.1 1:-0.42003075 2:-0.15619552 3:-0.26953745 4:-1.062954 
-0.1 1:-0.16594274 2:-0.15619552 3:-0.26953745 4:-1.062954 
0.1 1:-0.42003075 2:-0.47862251 3:-0.81575673 4:-1.062954 
0.1 1:-0.67411876 2:-0.91626623 3:-0.81575673 4:-1.062954 
0.1 1:-0.42003075 2:-0.91626623 3:-0.81575673 4:-1.062954 
0.1 1:-0.16594274 2:-0.91626623 3:-0.81575673 4:-1.062954 
0.1 1:1.1044973 2:1.8370595 3:0.8229011 4:-0.17592079 
0.1 1:-0.92820678 2:1.3974151 3:0.27668182 4:-0.057649686 
0.1 1:-0.42003075 2:1.3974151 3:0.27668182 4:-0.057649686 
0.1 1:0.088145277 2:1.3974151 3:0.27668182 4:-0.057649686 
-0.1 1:-0.42003075 2:-0.19281935 3:1.3691204 4:-0.26929271 
-0.02722171278548291 1:0.088145277 2:-0.19281935 3:1.3691204 4:-0.26929271 
-0.1 1:0.5963213 2:-0.19281935 3:1.3691204 4:-0.26929271 
-0.1 1:1.1044973 2:-0.19281935 3:1.3691204 4:-0.26929271 
-0.1 1:0.088145277 2:0.096926007 3:0.8229011 4:-0.17592079 
-0.1 1:0.5963213 2:0.096926007 3:0.8229011 4:-0.17592079 
-0.1 1:1.1044973 2:0.096926007 3:0.8229011 4:-0.17592079 
0.1 1:-0.16594274 2:-1.5199106 3:-0.81575673 4:-1.062954 
-0.1 1:-0.42003075 2:-0.090640701 3:-0.54264709 4:0.1936764 
-0.1 1:0.088145277 2:-0.090640701 3:-0.54264709 4:0.1936764 
-0.1 1:0.5963213 2:-0.090640701 3:-0.54264709 4:0.1936764 
-0.1 1:1.1044973 2:-0.090640701 3:-0.54264709 4:0.1936764 
0.1 1:-0.92820678 2:0.53632064 3:0.8229011 4:-1.062954 
0.1 1:-0.67411876 2:0.53632064 3:0.8229011 4:-1.062954 
0.1 1:-0.42003075 2:0.29267146 3:-0.81575673 4:0.30791553 
0.1 1:0.5963213 2:0.29267146 3:-0.81575673 4:0.30791553 
0.1 1:1.1044973 2:0.29267146 3:-0.81575673 4:0.30791553 
-0.05549116674248063 1:0.85040932 2:1.7304446 3:0.54979146 4:0.82199163 
-0.1 1:1.6126734 2:1.7304446 3:0.54979146 4:0.82199163 
-0.1 1:0.088145277 2:1.0192826 3:-0.26953745 4:0.097012523 
-0.1 1:0.5963213 2:1.0192826 3:-0.26953745 4:0.097012523 
-0.1 1:1.1044973 2:1.0192826 3:-0.26953745 4:0.097012523 
-0.1 1:-0.92820678 2:0.33655241 3:0.0035721831 4:-1.062954 
-0.1 1:-0.16594274 2:0.33655241 3:0.0035721831 4:-1.062954 
-0.1 1:-1.1822948 2:0.83652652 3:-0.54264709 4:-1.062954 
-0.08433008247249144 1:-0.67411876 2:0.83652652 3:-0.54264709 4:-1.062954 
-0.1 1:-1.1822948 2:-0.088157788 3:-0.81575673 4:-1.062954 
0.1 1:-0.16594274 2:-0.088157788 3:-0.81575673 4:-1.062954 
-0.1 1:-0.92820678 2:0.18420855 3:-0.54264709 4:-1.062954 
-0.1 1:-0.67411876 2:0.18420855 3:-0.54264709 4:-1.062954 
-0.1 1:-0.42003075 2:0.18420855 3:-0.54264709 4:-1.062954 
-0.1 1:-0.16594274 2:0.18420855 3:-0.54264709 4:-1.062954 
-0.1 1:0.088145277 2:0.13105568 3:-0.81575673 4:0.30791553 
0.1 1:-0.67411876 2:-1.0568268 3:-0.81575673 4:-1.062954 
0.1 1:-0.42003075 2:-1.0568268 3:-0.81575673 4:-1.062954 
0.1 1:0.088145277 2:-0.82916278 3:0.8229011 4:-0.17592079 
0.1 1:0.5963213 2:-0.82916278 3:0.8229011 4:-0.17592079 
0.1 1:1.1044973 2:-0.82916278 3:0.8229011 4:-0.17592079 
0.1 1:-0.42003075 2:0.31385504 3:-0.81575673 4:-1.062954 
0.1 1:-0.16594274 2:0.31385504 3:-0.81575673 4:-1.062954 
-0.1 1:-0.42003075 2:0.11172408 3:-0.26953745 4:0.097012523 
-0.1 1:0.5963213 2:0.11172408 3:-0.26953745 4:0.097012523 
-0.1 1:1.1044973 2:0.11172408 3:-0.26953745 4:0.097012523 
-0.1 1:1.1044973 2:1.1655001 3:0.54979146 4:-0.12048121 
0.1 1:2.3749374 2:-0.98253813 3:0.0035721831 4:1.0912696 
-0.1 1:2.3749374 2:-0.38638777 3:0.0035721831 4:1.0912696 
-0.1 1:-0.67411876 2:-0.48482805 3:-0.81575673 4:-1.062954 
0.1 1:-1.1822948 2:-1.4012111 3:-1.0888664 4:-1.062954 
0.1 1:-0.92820678 2:-1.4012111 3:-1.0888664 4:-1.062954 
0.1 1:-0.42003075 2:-1.4012111 3:-1.0888664 4:-1.062954 
0.1 1:-0.16594274 2:-1.4012111 3:-1.0888664 4:-1.062954 
-0.09814618389942809 1:-0.42003075 2:-1.4748749 3:-0.26953745 4:0.097012523 
-0.1 1:0.088145277 2:-1.4748749 3:-0.26953745 4:0.097012523 
-0.1 1:0.5963213 2:-1.4748749 3:-0.26953745 4:0.097012523 
-0.1 1:1.1044973 2:-1.4748749 3:-0.26953745 4:0.097012523 
0.1 1:-0.67411876 2:0.64141977 3:-1.0888664 4:-1.062954 
0.1 1:-0.42003075 2:0.64141977 3:-1.0888664 4:-1.062954 
0.1 1:-0.16594274 2:0.64141977 3:-1.0888664 4:-1.062954 
-0.1 1:-0.92820678 2:-1.0630528 3:0.54979146 4:-0.12048121 
-0.1 1:0.088145277 2:-1.0630528 3:0.54979146 4:-0.12048121 
-0.1 1:0.5963213 2:-1.0630528 3:0.54979146 4:-0.12048121 
0.04963403431786736 1:-0.92820678 2:1.9729077 3:3.0077782 4:-1.062954 
0.05163060794835735 1:-0.16594274 2:1.9729077 3:3.0077782 4:-1.062954 
0.1 1:2.3749374 2:-0.80606321 3:0.54979146 4:0.82199163 
0.07027321212906425 1:-0.67411876 2:0.84071616 3:1.64223 4:0.44500249 
-0.1 1:-0.67411876 2:-0.4602223 3:-1.0888664 4:-1.062954 
-0.1 1:-0.42003075 2:-0.4602223 3:-1.0888664 4:-1.062954 
-0.1 1:-0.16594274 2:-0.4602223 3:-1.0888664 4:-1.062954 
0.1 1:0.5963213 2:0.074534326 3:1.9153396 4:-0.3448795 
0.1 1:1.1044973 2:0.074534326 3:1.9153396 4:-0.3448795 
-0.1 1:0.5963213 2:1.2411589 3:2.4615589 4:-0.40732077 
-0.1 1:-0.92820678 2:-1.2227959 3:-0.81575673 4:0.30791553 
-0.1 1:0.088145277 2:-1.2227959 3:-0.81575673 4:0.30791553 
-0.1 1:0.5963213 2:-1.2227959 3:-0.81575673 4:0.30791553 
-0.1 1:1.1044973 2:-1.2227959 3:-0.81575673 4:0.30791553 
-0.1 1:-0.92820678 2:0.15113615 3:2.1884493 4:-1.062954 
-0.1 1:-0.67411876 2:0.15113615 3:2.1884493 4:-1.062954 
-0.1 1:-0.42003075 2:0.15113615 3:2.1884493 4:-1.062954 
-0.1 1:0.5963213 2:-0.35546502 3:-1.361976 4:0.61255322 
-0.1 1:-0.67411876 2:-0.16341542 3:-0.81575673 4:-1.062954 
-0.1 1:-0.42003075 2:-0.16341542 3:-0.81575673 4:-1.062954 
-0.1 1:-0.16594274 2:-0.16341542 3:-0.81575673 4:-1.062954 
-0.1 1:-0.42003075 2:1.5177307 3:1.0960107 4:-0.22520041 
-0.1 1:0.088145277 2:1.5177307 3:1.0960107 4:-0.22520041 
-0.1 1:0.5963213 2:1.5177307 3:1.0960107 4:-0.22520041 
-0.09945926430539956 1:-0.42003075 2:1.2363556 3:0.54979146 4:-0.12048121 
-0.1 1:0.5963213 2:1.2363556 3:0.54979146 4:-0.12048121 
-0.1 1:-1.1822948 2:-1.3276264 3:-0.26953745 4:-1.062954 
-0.1 1:-0.92820678 2:-1.3276264 3:-0.26953745 4:-1.062954 
-0.1 1:-0.67411876 2:-1.3276264 3:-0.26953745 4:-1.062954 
-0.1 1:-0.42003075 2:-1.3276264 3:-0.26953745 4:-1.062954 
-0.1 1:-0.16594274 2:-1.3276264 3:-0.26953745 4:-1.062954 
-0.1 1:0.088145277 2:-0.73657386 3:-0.81575673 4:1.6787851 
-0.1 1:0.85040932 2:-0.73657386 3:-0.81575673 4:1.6787851 
-0.1 1:1.6126734 2:-0.73657386 3:-0.81575673 4:1.6787851 
-0.1 1:2.3749374 2:-0.73657386 3:-0.81575673 4:1.6787851 
-0.02384946137097291 1:-0.42003075 2:1.3046065 3:3.8271071 4:-0.52439814 
-0.1 1:-0.92820678 2:-0.24035941 3:-0.26953745 4:-1.062954 
0.1 1:-0.16594274 2:-0.24035941 3:-0.26953745 4:-1.062954 
-0.1 1:0.088145277 2:-0.86553516 3:-0.54264709 4:0.1936764 
0.1 1:0.85040932 2:-0.38864651 3:0.0035721831 4:1.0912696 
0.1 1:-0.42003075 2:0.054764494 3:-0.81575673 4:0.30791553 
0.1 1:1.1044973 2:0.054764494 3:-0.81575673 4:0.30791553 
-0.1 1:-0.92820678 2:-1.0061266 3:0.27668182 4:-1.062954 
-0.1 1:-0.67411876 2:-1.0061266 3:0.27668182 4:-1.062954 
-0.1 1:-0.42003075 2:-1.0061266 3:0.27668182 4:-1.062954 
-0.1 1:-0.16594274 2:-1.0061266 3:0.27668182 4:-1.062954 
-0.1 1:1.6126734 2:-1.031057 3:-0.26953745 4:1.2569791 
-0.1 1:-0.67411876 2:-1.1593212 3:-1.361976 4:-1.062954 
-0.1 1:1.1044973 2:1.912839 3:0.0035721831 4:0.014157768 
-0.1 1:-0.92820678 2:0.26434618 3:-0.54264709 4:0.1936764 
-0.1 1:-0.42003075 2:0.26434618 3:-0.54264709 4:0.1936764 
-0.1 1:0.088145277 2:0.26434618 3:-0.54264709 4:0.1936764 
-0.1 1:-1.1822948 2:1.4085721 3:-0.26953745 4:-1.062954 
-0.1 1:-0.67411876 2:1.4085721 3:-0.26953745 4:-1.062954 
-0.1 1:-0.42003075 2:1.4085721 3:-0.26953745 4:-1.062954 
-0.1 1:-0.16594274 2:1.4085721 3:-0.26953745 4:-1.062954 
0.1 1:1.1044973 2:1.8181907 3:0.8229011 4:-0.17592079 
0.1 1:0.85040932 2:0.078102912 3:0.27668182 4:0.94765467 
0.1 1:1.6126734 2:0.078102912 3:0.27668182 4:0.94765467 
0.04195350668169485 1:-0.42003075 2:1.1837537 3:0.54979146 4:-0.12048121 
-0.1 1:0.088145277 2:1.1837537 3:0.54979146 4:-0.12048121 
0.1 1:-0.92820678 2:1.6518568 3:1.3691204 4:-1.062954 
0.1 1:-0.42003075 2:1.6518568 3:1.3691204 4:-1.062954 
0.1 1:-0.16594274 2:1.6518568 3:1.3691204 4:-1.062954 
0.1 1:1.6126734 2:0.59429294 3:0.0035721831 4:1.0912696 
0.1 1:2.3749374 2:0.59429294 3:0.0035721831 4:1.0912696 
-0.1 1:-0.67411876 2:-0.45705204 3:-0.81575673 4:1.6787851 
-0.06819785098861852 1:0.088145277 2:-0.45705204 3:-0.81575673 4:1.6787851 
-0.1 1:0.85040932 2:-0.45705204 3:-0.81575673 4:1.6787851 
0.1 1:-0.42003075 2:-0.051673951 3:-0.54264709 4:0.1936764 
0.1 1:0.088145277 2:-0.051673951 3:-0.54264709 4:0.1936764 
0.1 1:0.5963213 2:-0.051673951 3:-0.54264709 4:0.1936764 
0.1 1:1.1044973 2:-0.051673951 3:-0.54264709 4:0.1936764 
-0.1 1:-0.92820678 2:-0.027693436 3:-0.54264709 4:-1.062954 
-0.1 1:-0.42003075 2:-1.0812119 3:0.27668182 4:-0.057649686 
-0.1 1:0.5963213 2:-1.0812119 3:0.27668182 4:-0.057649686 
-0.1 1:1.1044973 2:-1.0812119 3:0.27668182 4:-0.057649686 
0.1 1:0.088145277 2:0.23398524 3:0.8229011 4:0.71111247 
0.1 1:0.85040932 2:0.23398524 3:0.8229011 4:0.71111247 
0.1 1:1.6126734 2:0.23398524 3:0.8229011 4:0.71111247 
0.1 1:2.3749374 2:0.23398524 3:0.8229011 4:0.71111247 
-0.1 1:0.088145277 2:-1.4476246 3:0.54979146 4:-0.12048121 
-0.1 1:0.5963213 2:-1.4476246 3:0.54979146 4:-0.12048121 
-0.1 1:1.1044973 2:-1.4476246 3:0.54979146 4:-0.12048121 
0.1 1:-0.67411876 2:-1.006292 3:2.7346686 4:-1.062954 
0.1 1:-0.42003075 2:-1.006292 3:2.7346686 4:-1.062954 
0.1 1:-0.16594274 2:-1.006292 3:2.7346686 4:-1.062954 
-0.1 1:-0.92820678 2:0.30922099 3:-0.54264709 4:0.1936764 
-0.1 1:0.088145277 2:0.30922099 3:-0.54264709 4:0.1936764 
-0.1 1:1.1044973 2:0.30922099 3:-0.54264709 4:0.1936764 
-0.1 1:-0.67411876 2:-1.19702 3:-0.54264709 4:-1.062954 
-0.1 1:0.088145277 2:1.6415782 3:0.0035721831 4:0.014157768 
-0.1 1:0.5963213 2:1.6415782 3:0.0035721831 4:0.014157768 
-0.1 1:1.1044973 2:1.6415782 3:0.0035721831 4:0.014157768 
-0.1 1:-0.92820678 2:-1.3352413 3:0.0035721831 4:0.014157768 
-0.1 1:-0.42003075 2:-1.3352413 3:0.0035721831 4:0.014157768 
-0.1 1:0.5963213 2:-1.3352413 3:0.0035721831 4:0.014157768 
-0.1 1:1.1044973 2:-1.3352413 3:0.0035721831 4:0.014157768 
0.1 1:-0.67411876 2:-0.83204068 3:0.0035721831 4:1.0912696 
0.1 1:0.088145277 2:-0.83204068 3:0.0035721831 4:1.0912696 
0.1 1:0.85040932 2:-0.83204068 3:0.0035721831 4:1.0912696 
0.1 1:1.6126734 2:-0.83204068 3:0.0035721831 4:1.0912696 
0.1 1:2.3749374 2:-0.83204068 3:0.0035721831 4:1.0912696 
0.1 1:0.5963213 2:-1.1883542 3:-1.0888664 4:0.44500249 
-0.07083487457002599 1:2.3749374 2:-1.0066173 3:-0.26953745 4:3.5769122 
-0.1 1:3.6453775 2:-1.0066173 3:-0.26953745 4:3.5769122 
-0.0431402354708272 1:4.9158175 2:-1.0066173 3:-0.26953745 4:3.5769122 
0.1 1:-0.92820678 2:-0.073029228 3:-0.54264709 4:0.1936764 
0.1 1:-0.42003075 2:-0.073029228 3:-0.54264709 4:0.1936764 
0.1 1:0.088145277 2:-0.073029228 3:-0.54264709 4:0.1936764 
0.1 1:0.5963213 2:-0.073029228 3:-0.54264709 4:0.1936764 
0.1 1:1.1044973 2:-0.073029228 3:-0.54264709 4:0.1936764 
0.1 1:-0.42003075 2:0.39605696 3:-0.81575673 4:0.30791553 
0.1 1:0.088145277 2:0.39605696 3:-0.81575673 4:0.30791553 
0.06574914722639999 1:-1.1822948 2:-1.5020126 3:-0.54264709 4:-1.062954 
0.1 1:-0.42003075 2:-1.5020126 3:-0.54264709 4:-1.062954 
0.1 1:-0.67411876 2:0.3266192 3:0.27668182 4:0.94765467 
0.1 1:0.088145277 2:0.3266192 3:0.27668182 4:0.94765467 
0.1 1:0.85040932 2:0.3266192 3:0.27668182 4:0.94765467 
0.1 1:1.6126734 2:0.3266192 3:0.27668182 4:0.94765467 
0.1 1:2.3749374 2:0.3266192 3:0.27668182 4:0.94765467 
-0.1 1:1.1044973 2:-0.18655093 3:-1.0888664 4:0.44500249 
-0.1 1:1.1044973 2:-0.62475339 3:-0.81575673 4:0.30791553 
-0.1 1:-0.42003075 2:1.339221 3:0.0035721831 4:-1.062954 
-0.1 1:-0.16594274 2:1.339221 3:0.0035721831 4:-1.062954 
0.1 1:-0.92820678 2:0.85405082 3:-1.0888664 4:0.44500249 
0.1 1:-0.42003075 2:0.85405082 3:-1.0888664 4:0.44500249 
0.1 1:0.088145277 2:0.85405082 3:-1.0888664 4:0.44500249 
-0.1 1:-0.92820678 2:-0.032839319 3:0.0035721831 4:0.014157768 
-0.1 1:-0.42003075 2:-0.032839319 3:0.0035721831 4:0.014157768 
-0.1 1:0.088145277 2:-0.032839319 3:0.0035721831 4:0.014157768 
-0.1 1:0.5963213 2:-0.032839319 3:0.0035721831 4:0.014157768 
0.1 1:0.088145277 2:-1.5313512 3:0.54979146 4:-0.12048121 
-0.1 1:-0.42003075 2:-0.059999412 3:-1.0888664 4:0.44500249 
-0.1 1:0.088145277 2:-0.059999412 3:-1.0888664 4:0.44500249 
-0.1 1:0.5963213 2:-0.059999412 3:-1.0888664 4:0.44500249 
-0.1 1:1.1044973 2:-0.059999412 3:-1.0888664 4:0.44500249 
-0.1 1:0.088145277 2:0.45688991 3:0.27668182 4:-0.057649686 
-0.1 1:0.5963213 2:0.45688991 3:0.27668182 4:-0.057649686 
0.01958195092746227 1:-0.42003075 2:1.8559161 3:-0.26953745 4:0.097012523 
0.1 1:1.1044973 2:1.8559161 3:-0.26953745 4:0.097012523 
-0.1 1:-0.92820678 2:0.24915954 3:-0.54264709 4:-1.062954 
-0.06014789347889503 1:-0.92820678 2:1.4727011 3:0.8229011 4:-1.062954 
-0.1 1:-0.92820678 2:0.16751285 3:-0.26953745 4:0.097012523 
-0.1 1:-0.42003075 2:0.16751285 3:-0.26953745 4:0.097012523 
-0.1 1:0.088145277 2:0.16751285 3:-0.26953745 4:0.097012523 
-0.1 1:0.5963213 2:0.16751285 3:-0.26953745 4:0.097012523 
-0.1 1:-0.67411876 2:0.53095455 3:-0.54264709 4:-1.062954 
-0.1 1:0.5963213 2:0.052900244 3:-1.0888664 4:0.44500249 
-0.1 1:1.1044973 2:0.052900244 3:-1.0888664 4:0.44500249 
-0.1 1:0.088145277 2:-0.25468925 3:1.0960107 4:-0.22520041 
-0.06550138981827537 1:-0.92820678 2:2.0273389 3:-0.54264709 4:0.1936764 
-0.1 1:-0.42003075 2:-1.3525039 3:-0.81575673 4:0.30791553 
-0.1 1:0.5963213 2:-1.3525039 3:-0.81575673 4:0.30791553 
-0.1 1:1.1044973 2:-1.3525039 3:-0.81575673 4:0.30791553 
-0.1 1:-0.67411876 2:-0.073561797 3:-0.26953745 4:1.2569791 
-0.1 1:0.088145277 2:-0.073561797 3:-0.26953745 4:1.2569791 
-0.1 1:0.85040932 2:-0.073561797 3:-0.26953745 4:1.2569791 
-0.1 1:1.6126734 2:-0.073561797 3:-0.26953745 4:1.2569791 
-0.1 1:2.3749374 2:-0.073561797 3:-0.26953745 4:1.2569791 
-0.1 1:0.088145277 2:1.0655443 3:1.3691204 4:0.52436863 
-0.1 1:1.6126734 2:1.0655443 3:1.3691204 4:0.52436863 
-0.1 1:2.3749374 2:1.0655443 3:1.3691204 4:0.52436863 
0.1 1:0.088145277 2:-0.07491109 3:-0.81575673 4:0.30791553 
0.1 1:0.5963213 2:-0.07491109 3:-0.81575673 4:0.30791553 
0.1 1:-0.42003075 2:-1.3201232 3:-0.54264709 4:0.1936764 
0.1 1:0.088145277 2:-1.3201232 3:-0.54264709 4:0.1936764 
-0.1 1:-0.67411876 2:-0.8487494 3:-1.361976 4:-1.062954 
-0.1 1:-0.67411876 2:0.39721643 3:-0.26953745 4:1.2569791 
-0.03177897595476332 1:0.088145277 2:0.39721643 3:-0.26953745 4:1.2569791 
-0.1 1:0.85040932 2:0.39721643 3:-0.26953745 4:1.2569791 
-0.1 1:1.6126734 2:0.39721643 3:-0.26953745 4:1.2569791 
-0.1 1:2.3749374 2:0.39721643 3:-0.26953745 4:1.2569791 
-0.1 1:-0.92820678 2:-1.4094078 3:-0.54264709 4:-1.062954 
-0.1 1:-0.67411876 2:-1.4094078 3:-0.54264709 4:-1.062954 
-0.1 1:-0.42003075 2:-1.4094078 3:-0.54264709 4:-1.062954 
-0.1 1:-0.16594274 2:-1.4094078 3:-0.54264709 4:-1.062954 
-0.1 1:-0.92820678 2:0.68236184 3:-0.54264709 4:0.1936764 
-0.1 1:-0.42003075 2:0.68236184 3:-0.54264709 4:0.1936764 
0.1 1:0.088145277 2:0.68236184 3:-0.54264709 4:0.1936764 
-0.1 1:-0.42003075 2:0.59495524 3:-0.26953745 4:0.097012523 
-0.1 1:0.088145277 2:0.59495524 3:-0.26953745 4:0.097012523 
0.1 1:-1.1822948 2:0.58415827 3:-0.26953745 4:-1.062954 
0.1 1:-0.92820678 2:0.58415827 3:-0.26953745 4:-1.062954 
0.1 1:-0.67411876 2:0.58415827 3:-0.26953745 4:-1.062954 
0.1 1:-0.42003075 2:0.58415827 3:-0.26953745 4:-1.062954 
0.1 1:-0.16594274 2:0.58415827 3:-0.26953745 4:-1.062954 
0.1 1:-1.1822948 2:-0.19902679 3:-1.361976 4:-1.062954 
0.1 1:-0.92820678 2:-0.19902679 3:-1.361976 4:-1.062954 
0.0009813157774177263 1:-0.16594274 2:-0.19902679 3:-1.361976 4:-1.062954 
0.1 1:1.1044973 2:1.648201 3:1.0960107 4:-0.22520041 
-0.1 1:-0.92820678 2:-1.230916 3:-0.54264709 4:0.1936764 
0.1 1:1.1044973 2:-0.56934983 3:0.54979146 4:-0.12048121 
-0.07401947977145754 1:-1.1822948 2:1.2143837 3:0.54979146 4:-1.062954 
-0.1 1:-0.92820678 2:1.2143837 3:0.54979146 4:-1.062954 
-0.1 1:-0.42003075 2:1.2143837 3:0.54979146 4:-1.062954 
-0.1 1:-0.16594274 2:1.2143837 3:0.54979146 4:-1.062954 
0.1 1:-0.92820678 2:0.95215714 3:-1.0888664 4:0.44500249 
0.1 1:-0.42003075 2:0.95215714 3:-1.0888664 4:0.44500249 
0.1 1:0.088145277 2:0.95215714 3:-1.0888664 4:0.44500249 
0.1 1:0.5963213 2:0.95215714 3:-1.0888664 4:0.44500249 
0.1 1:1.1044973 2:0.95215714 3:-1.0888664 4:0.44500249 
0.1 1:-0.67411876 2:-0.1755645 3:-1.361976 4:-1.062954 
0.1 1:-0.42003075 2:-0.1755645 3:-1.361976 4:-1.062954 
-0.1 1:-0.92820678 2:1.2813397 3:-0.26953745 4:0.097012523 
-0.1 1:-0.42003075 2:1.2813397 3:-0.26953745 4:0.097012523 
-0.1 1:0.5963213 2:1.2813397 3:-0.26953745 4:0.097012523 
-0.1 1:1.1044973 2:1.2813397 3:-0.26953745 4:0.097012523 
-0.1 1:0.85040932 2:0.28772496 3:-0.54264709 4:1.4503068 
-0.1 1:-0.92820678 2:-1.4093292 3:-1.0888664 4:0.44500249 
-0.1 1:-0.42003075 2:-1.4093292 3:-1.0888664 4:0.44500249 
-0.1 1:0.088145277 2:-1.4093292 3:-1.0888664 4:0.44500249 
-0.1 1:0.5963213 2:-1.4093292 3:-1.0888664 4:0.44500249 
-0.1 1:1.1044973 2:-1.4093292 3:-1.0888664 4:0.44500249 
0.1 1:0.088145277 2:0.073984704 3:0.0035721831 4:0.014157768 
0.1 1:0.5963213 2:0.073984704 3:0.0035721831 4:0.014157768 
0.001066070057948977 1:1.1044973 2:0.073984704 3:0.0035721831 4:0.014157768 
-0.05567871616513165 1:-0.42003075 2:-0.02182682 3:-0.81575673 4:-1.062954 
0.1 1:-0.67411876 2:-0.86884102 3:-1.361976 4:2.2880605 
0.1 1:1.6126734 2:-0.86884102 3:-1.361976 4:2.2880605 
-0.1 1:-0.42003075 2:-0.33821943 3:-0.54264709 4:0.1936764 
-0.1 1:0.088145277 2:-0.33821943 3:-0.54264709 4:0.1936764 
-0.1 1:0.5963213 2:-0.33821943 3:-0.54264709 4:0.1936764 
-0.1 1:1.1044973 2:-0.33821943 3:-0.54264709 4:0.1936764 
0.1 1:-0.16594274 2:-0.83732124 3:-0.81575673 4:-1.062954 
-0.1 1:-0.92820678 2:-0.56989099 3:-0.81575673 4:-1.062954 
-0.1 1:3.6453775 2:-1.5057525 3:0.8229011 4:1.5981457 
0.1 1:-0.42003075 2:-1.6874532 3:-1.0888664 4:3.4609156 
0.1 1:0.5963213 2:-1.6874532 3:-1.0888664 4:3.4609156 
0.1 1:1.6126734 2:-1.6874532 3:-1.0888664 4:3.4609156 
0.1 1:2.6290254 2:-1.6874532 3:-1.0888664 4:3.4609156 
0.1 1:3.6453775 2:-1.6874532 3:-1.0888664 4:3.4609156 
-0.1 1:-0.42003075 2:0.16865697 3:0.27668182 4:-1.062954 
-0.1 1:-0.16594274 2:0.16865697 3:0.27668182 4:-1.062954 
0.1 1:-1.1822948 2:0.70257078 3:-0.26953745 4:-1.062954 
-0.1 1:-0.92820678 2:0.21563873 3:-1.0888664 4:-1.062954 
-0.1 1:-0.42003075 2:0.68350478 3:0.8229011 4:1.5981457 
-0.1 1:0.5963213 2:0.68350478 3:0.8229011 4:1.5981457 
-0.09597829158718017 1:1.6126734 2:0.68350478 3:0.8229011 4:1.5981457 
-0.1 1:-0.42003075 2:0.93232151 3:1.64223 4:-0.30897577 
0.1 1:0.5963213 2:0.93232151 3:1.64223 4:-0.30897577 
0.1 1:0.088145277 2:0.69191483 3:-1.361976 4:0.61255322 
0.1 1:0.088145277 2:0.8917392 3:0.27668182 4:-0.057649686 
-0.1 1:-0.92820678 2:1.565284 3:0.54979146 4:-0.12048121 
-0.1 1:-0.67411876 2:-1.2157465 3:0.8229011 4:0.71111247 
-0.1 1:0.088145277 2:-1.2157465 3:0.8229011 4:0.71111247 
-0.1 1:0.85040932 2:-1.2157465 3:0.8229011 4:0.71111247 
-0.1 1:1.6126734 2:-1.2157465 3:0.8229011 4:0.71111247 
-0.1 1:2.3749374 2:-1.2157465 3:0.8229011 4:0.71111247 
0.1 1:-0.42003075 2:1.4407821 3:1.0960107 4:-1.062954 
0.1 1:-0.92820678 2:0.20342659 3:-0.54264709 4:-1.062954 
-0.1 1:0.088145277 2:-0.2474369 3:-0.54264709 4:1.4503068 
-0.1 1:0.85040932 2:-0.2474369 3:-0.54264709 4:1.4503068 
-0.1 1:1.6126734 2:-0.2474369 3:-0.54264709 4:1.4503068 
-0.1 1:2.3749374 2:-0.2474369 3:-0.54264709 4:1.4503068 
-0.1 1:1.1044973 2:1.5371601 3:1.3691204 4:-0.26929271 
-0.04362631916637767 1:4.9158175 2:-1.648037 3:2.1884493 4:1.6787851 
0.1 1:-1.1822948 2:0.65287116 3:-0.54264709 4:-1.062954 
0.1 1:-0.92820678 2:0.65287116 3:-0.54264709 4:-1.062954 
0.1 1:-0.67411876 2:0.65287116 3:-0.54264709 4:-1.062954 
0.1 1:-0.42003075 2:0.65287116 3:-0.54264709 4:-1.062954 
0.1 1:-0.16594274 2:0.65287116 3:-0.54264709 4:-1.062954 
0.1 1:-0.16594274 2:1.531798 3:0.8229011 4:-1.062954 
0.1 1:-0.42003075 2:-1.2152945 3:-0.26953745 4:-1.062954 
0.1 1:-0.16594274 2:-1.2152945 3:-0.26953745 4:-1.062954 
-0.1 1:-1.1822948 2:0.19481705 3:2.1884493 4:-1.062954 
-0.1 1:-0.92820678 2:0.19481705 3:2.1884493 4:-1.062954 
-0.1 1:-0.67411876 2:0.19481705 3:2.1884493 4:-1.062954 
-0.1 1:-0.42003075 2:0.19481705 3:2.1884493 4:-1.062954 
0.1 1:0.5963213 2:-1.3167074 3:-0.81575673 4:3.0496547 
0.06312442531289846 1:1.6126734 2:-1.3167074 3:-0.81575673 4:3.0496547 
0.1 1:2.6290254 2:-1.3167074 3:-0.81575673 4:3.0496547 
0.1 1:3.6453775 2:-1.3167074 3:-0.81575673 4:3.0496547 
0.1 1:0.5963213 2:0.85868825 3:-0.81575673 4:0.30791553 
0.1 1:1.1044973 2:0.85868825 3:-0.81575673 4:0.30791553 
0.1 1:-0.92820678 2:0.67310952 3:-0.26953745 4:0.097012523 
0.1 1:-0.42003075 2:0.67310952 3:-0.26953745 4:0.097012523 
0.1 1:0.088145277 2:0.67310952 3:-0.26953745 4:0.097012523 
0.1 1:0.5963213 2:0.67310952 3:-0.26953745 4:0.097012523 
0.1 1:1.1044973 2:0.67310952 3:-0.26953745 4:0.097012523 
-0.1 1:-0.67411876 2:0.14172588 3:-0.26953745 4:-1.062954 
-0.1 1:-0.42003075 2:0.14172588 3:-0.26953745 4:-1.062954 
-0.1 1:-0.16594274 2:0.14172588 3:-0.26953745 4:-1.062954 
0.1 1:-0.42003075 2:-0.58955999 3:0.54979146 4:-1.062954 
-0.1 1:-0.92820678 2:-0.26309763 3:-0.81575673 4:0.30791553 
-0.1 1:-0.16594274 2:0.34269755 3:-1.0888664 4:-1.062954 
-0.1 1:1.1044973 2:-0.66048231 3:0.27668182 4:-0.057649686 
0.1 1:-0.92820678 2:-0.20885056 3:-1.0888664 4:0.44500249 
-0.1 1:1.1044973 2:0.61799945 3:0.54979146 4:-0.12048121 
-0.1 1:-1.1822948 2:0.87695364 3:1.0960107 4:-1.062954 
0.1 1:-0.92820678 2:0.87695364 3:1.0960107 4:-1.062954 
-0.1 1:-0.67411876 2:0.87695364 3:1.0960107 4:-1.062954 
0.1 1:-0.16594274 2:0.87695364 3:1.0960107 4:-1.062954 
-0.05770423497983102 1:-1.1822948 2:0.75948166 3:-0.26953745 4:-1.062954 
0.1 1:0.088145277 2:-0.54051657 3:0.54979146 4:0.82199163 
0.1 1:1.6126734 2:-0.54051657 3:0.54979146 4:0.82199163 
-0.1 1:-0.42003075 2:-1.3143067 3:-1.0888664 4:-1.062954 
-0.1 1:-1.1822948 2:0.61792895 3:-0.81575673 4:-1.062954 
-0.06947783222484234 1:-0.92820678 2:0.61792895 3:-0.81575673 4:-1.062954 
0.1 1:-0.42003075 2:0.61792895 3:-0.81575673 4:-1.062954 
0.1 1:-0.16594274 2:0.61792895 3:-0.81575673 4:-1.062954 
0.007704340824322745 1:-0.42003075 2:-0.60907699 3:0.0035721831 4:2.1683814 
0.1 1:0.5963213 2:-0.60907699 3:0.0035721831 4:2.1683814 
0.1 1:2.6290254 2:-0.60907699 3:0.0035721831 4:2.1683814 
0.1 1:3.6453775 2:-0.60907699 3:0.0035721831 4:2.1683814 
0.1 1:1.1044973 2:1.2776754 3:-0.26953745 4:0.097012523 
0.1 1:-0.67411876 2:-0.68857438 3:-0.54264709 4:1.4503068 
-0.1 1:-0.67411876 2:-0.26282633 3:-0.81575673 4:-1.062954 
-0.1 1:-0.42003075 2:-0.26282633 3:-0.81575673 4:-1.062954 
0.1 1:-0.67411876 2:1.447859 3:2.1884493 4:-1.062954 
0.1 1:-0.16594274 2:1.447859 3:2.1884493 4:-1.062954 
0.1 1:0.088145277 2:-0.8932936 3:0.27668182 4:-0.057649686 
0.1 1:0.5963213 2:-0.8932936 3:0.27668182 4:-0.057649686 
0.1 1:1.1044973 2:-0.8932936 3:0.27668182 4:-0.057649686 
0.1 1:-0.92820678 2:0.46765083 3:1.9153396 4:-0.3448795 
0.1 1:1.1044973 2:-0.57091878 3:-0.54264709 4:0.1936764 
0.1 1:1.1044973 2:-0.4600602 3:-1.0888664 4:0.44500249 
-0.1 1:-0.67411876 2:-0.48676311 3:0.8229011 4:0.71111247 
0.1 1:-1.1822948 2:0.20876673 3:-0.54264709 4:-1.062954 
0.1 1:-0.92820678 2:0.20876673 3:-0.54264709 4:-1.062954 
0.1 1:-0.67411876 2:0.20876673 3:-0.54264709 4:-1.062954 
0.1 1:-0.42003075 2:0.20876673 3:-0.54264709 4:-1.062954 
0.1 1:-0.16594274 2:0.20876673 3:-0.54264709 4:-1.062954 
0.1 1:-0.67411876 2:-0.24368328 3:-0.81575673 4:1.6787851 
0.1 1:0.088145277 2:-0.24368328 3:-0.81575673 4:1.6787851 
0.1 1:2.3749374 2:-0.24368328 3:-0.81575673 4:1.6787851 
0.1 1:-0.92820678 2:0.126582 3:-1.0888664 4:0.44500249 
0.1 1:-0.42003075 2:0.126582 3:-1.0888664 4:0.44500249 
0.1 1:0.088145277 2:0.126582 3:-1.0888664 4:0.44500249 
0.1 1:0.5963213 2:0.126582 3:-1.0888664 4:0.44500249 
0.1 1:1.1044973 2:0.126582 3:-1.0888664 4:0.44500249 
-0.1 1:-0.42003075 2:0.59307409 3:0.54979146 4:-0.12048121 
-0.03381693219035668 1:-0.92820678 2:-1.4821115 3:0.54979146 4:-1.062954 
-0.1 1:-0.67411876 2:-1.4821115 3:0.54979146 4:-1.062954 
-0.1 1:-0.42003075 2:-1.4821115 3:0.54979146 4:-1.062954 
-0.1 1:-0.42003075 2:0.03245554 3:-1.361976 4:0.61255322 
0.1 1:-0.42003075 2:0.87768023 3:1.3691204 4:-0.26929271 
0.1 1:0.088145277 2:0.87768023 3:1.3691204 4:-0.26929271 
0.1 1:0.5963213 2:0.87768023 3:1.3691204 4:-0.26929271 
0.1 1:1.1044973 2:0.87768023 3:1.3691204 4:-0.26929271 
0.1 1:0.5963213 2:1.4963553 3:-0.54264709 4:0.1936764 
0.1 1:1.1044973 2:1.4963553 3:-0.54264709 4:0.1936764 
-0.1 1:0.5963213 2:1.2350917 3:-0.54264709 4:0.1936764 
-0.1 1:1.1044973 2:1.2350917 3:-0.54264709 4:0.1936764 
-0.1 1:1.1044973 2:-0.35555386 3:-1.0888664 4:0.44500249 
0.1 1:0.5963213 2:1.8799075 3:0.54979146 4:-0.12048121 
0.1 1:1.1044973 2:1.8799075 3:0.54979146 4:-0.12048121 
-0.1 1:0.85040932 2:-1.3044288 3:-1.0888664 4:1.952959 
-0.1 1:1.6126734 2:-1.3044288 3:-1.0888664 4:1.952959 
0.1 1:-0.92820678 2:0.7657969 3:0.0035721831 4:0.014157768 
0.1 1:0.088145277 2:0.7657969 3:0.0035721831 4:0.014157768 
0.1 1:0.5963213 2:0.7657969 3:0.0035721831 4:0.014157768 
0.1 1:1.1044973 2:0.7657969 3:0.0035721831 4:0.014157768 
-0.1 1:-0.42003075 2:1.1578169 3:1.9153396 4:-1.062954 
0.1 1:0.088145277 2:0.65714291 3:-0.26953745 4:0.097012523 
0.1 1:1.1044973 2:0.65714291 3:-0.26953745 4:0.097012523 
0.1 1:-0.67411876 2:-1.224514 3:0.8229011 4:-1.062954 
-0.1 1:-0.67411876 2:-0.098513287 3:0.27668182 4:0.94765467 
-0.1 1:0.088145277 2:-0.098513287 3:0.27668182 4:0.94765467 
-0.1 1:0.85040932 2:-0.098513287 3:0.27668182 4:0.94765467 
-0.1 1:1.6126734 2:-0.098513287 3:0.27668182 4:0.94765467 
-0.1 1:2.3749374 2:-0.098513287 3:0.27668182 4:0.94765467 
-0.1 1:-0.92820678 2:-0.20387987 3:0.8229011 4:-0.17592079 
-0.1 1:-0.42003075 2:-0.20387987 3:0.8229011 4:-0.17592079 
-0.1 1:0.088145277 2:-0.20387987 3:0.8229011 4:-0.17592079 
-0.1 1:0.5963213 2:-0.20387987 3:0.8229011 4:-0.17592079 
-0.1 1:1.1044973 2:-0.20387987 3:0.8229011 4:-0.17592079 
0.1 1:-0.92820678 2:2.1790873 3:1.3691204 4:-0.26929271 
0.1 1:0.088145277 2:0.064510274 3:0.27668182 4:0.94765467 
-0.1 1:0.088145277 2:-0.1665696 3:0.54979146 4:-0.12048121 
-0.1 1:1.1044973 2:-0.1665696 3:0.54979146 4:-0.12048121 
0.1 1:-0.92820678 2:0.073276878 3:-1.361976 4:-1.062954 
0.1 1:-0.42003075 2:0.073276878 3:-1.361976 4:-1.062954 
0.1 1:-0.16594274 2:0.073276878 3:-1.361976 4:-1.062954 
-0.1 1:-0.42003075 2:1.2036952 3:1.0960107 4:-1.062954 
-0.1 1:-0.16594274 2:1.2036952 3:1.0960107 4:-1.062954 
0.1 1:0.85040932 2:-0.39556246 3:-1.0888664 4:1.952959 
0.1 1:1.6126734 2:-0.39556246 3:-1.0888664 4:1.952959 
0.1 1:2.3749374 2:-0.39556246 3:-1.0888664 4:1.952959 
-0.1 1:1.1044973 2:1.8054403 3:0.54979146 4:-0.12048121 
0.1 1:-1.1822948 2:-0.057221668 3:0.0035721831 4:-1.062954 
0.1 1:-0.92820678 2:-0.057221668 3:0.0035721831 4:-1.062954 
0.1 1:-0.67411876 2:-0.057221668 3:0.0035721831 4:-1.062954 
0.1 1:-0.42003075 2:-0.057221668 3:0.0035721831 4:-1.062954 
0.1 1:-0.16594274 2:-0.057221668 3:0.0035721831 4:-1.062954 
-0.1 1:-0.42003075 2:-1.4688073 3:0.27668182 4:-0.057649686 
-0.1 1:1.1044973 2:-1.4688073 3:0.27668182 4:-0.057649686 
-0.1 1:-0.67411876 2:-1.2054333 3:-0.54264709 4:1.4503068 
-0.1 1:0.088145277 2:-1.2054333 3:-0.54264709 4:1.4503068 
-0.1 1:0.85040932 2:-1.2054333 3:-0.54264709 4:1.4503068 
-0.1 1:1.6126734 2:-1.2054333 3:-0.54264709 4:1.4503068 
-0.1 1:2.3749374 2:-1.2054333 3:-0.54264709 4:1.4503068 
0.1 1:-0.42003075 2:-0.15843802 3:-0.81575673 4:0.30791553 
0.1 1:0.088145277 2:-0.15843802 3:-0.81575673 4:0.30791553 
0.1 1:-1.1822948 2:0.26289135 3:-0.81575673 4:-1.062954 
-0.1 1:0.5963213 2:0.33139572 3:-1.0888664 4:0.44500249 
-0.04593744144215675 1:1.1044973 2:0.33139572 3:-1.0888664 4:0.44500249 
-0.1 1:-0.92820678 2:-0.028529836 3:0.8229011 4:-0.17592079 
-0.1 1:1.1044973 2:-0.028529836 3:0.8229011 4:-0.17592079 
-0.1 1:-0.42003075 2:-0.39065651 3:1.0960107 4:-0.22520041 
-0.1 1:0.088145277 2:-0.39065651 3:1.0960107 4:-0.22520041 
-0.1 1:-0.92820678 2:-0.9929375 3:-0.54264709 4:0.1936764 
0.1 1:0.088145277 2:-0.9929375 3:-0.54264709 4:0.1936764 
0.1 1:0.5963213 2:-0.9929375 3:-0.54264709 4:0.1936764 
0.1 1:1.1044973 2:-0.9929375 3:-0.54264709 4:0.1936764 
0.1 1:-0.92820678 2:0.097446976 3:-1.361976 4:-1.062954 
0.1 1:0.088145277 2:1.5465596 3:0.0035721831 4:0.014157768 
0.1 1:1.1044973 2:1.5465596 3:0.0035721831 4:0.014157768 
0.1 1:-1.1822948 2:1.210577 3:0.27668182 4:-1.062954 
0.1 1:-0.92820678 2:1.210577 3:0.27668182 4:-1.062954 
0.1 1:-0.67411876 2:1.210577 3:0.27668182 4:-1.062954 
0.1 1:-0.42003075 2:1.210577 3:0.27668182 4:-1.062954 
0.1 1:2.3749374 2:-1.6800324 3:-0.26953745 4:1.2569791 
-0.1 1:-0.67411876 2:0.037251617 3:-0.54264709 4:-1.062954 
-0.1 1:-0.16594274 2:0.037251617 3:-0.54264709 4:-1.062954 
0.06544086339378427 1:-0.92820678 2:0.50502958 3:-1.0888664 4:0.44500249 
0.1 1:-0.42003075 2:0.50502958 3:-1.0888664 4:0.44500249 
0.1 1:0.088145277 2:0.50502958 3:-1.0888664 4:0.44500249 
0.1 1:0.5963213 2:0.50502958 3:-1.0888664 4:0.44500249 
0.1 1:1.1044973 2:0.50502958 3:-1.0888664 4:0.44500249 
-0.1 1:0.5963213 2:-0.36078034 3:-1.0888664 4:0.44500249 
-0.1 1:1.1044973 2:-0.36078034 3:-1.0888664 4:0.44500249 
0.1 1:-0.67411876 2:1.5414612 3:-0.26953745 4:1.2569791 
0.1 1:0.088145277 2:1.5414612 3:-0.26953745 4:1.2569791 
0.1 1:0.85040932 2:1.5414612 3:-0.26953745 4:1.2569791 
0.1 1:1.6126734 2:1.5414612 3:-0.26953745 4:1.2569791 
0.1 1:2.3749374 2:1.5414612 3:-0.26953745 4:1.2569791 
-0.1 1:-0.92820678 2:-0.6029943 3:-1.6350856 4:-1.062954 
0.1 1:-0.92820678 2:-1.3099099 3:-1.0888664 4:-1.062954 
0.1 1:-0.42003075 2:-1.3099099 3:-1.0888664 4:-1.062954 
0.1 1:-0.16594274 2:-1.3099099 3:-1.0888664 4:-1.062954 
0.1 1:-0.42003075 2:1.3482107 3:0.8229011 4:1.5981457 
0.1 1:0.5963213 2:1.3482107 3:0.8229011 4:1.5981457 
0.1 1:2.6290254 2:1.3482107 3:0.8229011 4:1.5981457 
-0.07249823489172953 1:-0.92820678 2:-1.6563485 3:0.0035721831 4:0.014157768 
-0.1 1:-0.42003075 2:0.71555606 3:1.3691204 4:-0.26929271 
-0.1 1:0.5963213 2:0.71555606 3:1.3691204 4:-0.26929271 
-0.1 1:1.1044973 2:0.71555606 3:1.3691204 4:-0.26929271 
-0.1 1:-0.92820678 2:0.23192034 3:-0.26953745 4:-1.062954 
-0.1 1:-0.42003075 2:0.23192034 3:-0.26953745 4:-1.062954 
-0.1 1:-0.16594274 2:0.23192034 3:-0.26953745 4:-1.062954 
-0.1 1:-0.42003075 2:0.13286181 3:0.54979146 4:-0.12048121 
-0.1 1:0.088145277 2:0.13286181 3:0.54979146 4:-0.12048121 
-0.1 1:0.5963213 2:0.13286181 3:0.54979146 4:-0.12048121 
-0.1 1:1.1044973 2:0.13286181 3:0.54979146 4:-0.12048121 
0.1 1:-0.42003075 2:0.20754036 3:1.64223 4:-0.30897577 
0.1 1:1.1044973 2:0.20754036 3:1.64223 4:-0.30897577 
-0.1 1:-1.1822948 2:-1.4106315 3:0.0035721831 4:-1.062954 
-0.1 1:-0.92820678 2:-1.4106315 3:0.0035721831 4:-1.062954 
-0.1 1:-0.67411876 2:-1.4106315 3:0.0035721831 4:-1.062954 
-0.1 1:-0.42003075 2:-1.4106315 3:0.0035721831 4:-1.062954 
-0.1 1:-0.16594274 2:-1.4106315 3:0.0035721831 4:-1.062954 
-0.1 1:-0.67411876 2:-0.13139503 3:-0.81575673 4:1.6787851 
-0.1 1:0.088145277 2:-0.13139503 3:-0.81575673 4:1.6787851 
-0.1 1:0.85040932 2:-0.13139503 3:-0.81575673 4:1.6787851 
-0.1 1:1.6126734 2:-0.13139503 3:-0.81575673 4:1.6787851 
-0.1 1:0.5963213 2:1.3235239 3:0.54979146 4:-0.12048121 
-0.1 1:1.1044973 2:1.3235239 3:0.54979146 4:-0.12048121 
-0.000739561497268411 1:0.85040932 2:-1.3171322 3:-1.0888664 4:1.952959 
0.06734908342616271 1:2.3749374 2:-1.3171322 3:-1.0888664 4:1.952959 
0.1 1:1.1044973 2:-1.1935854 3:-1.0888664 4:0.44500249 
-0.1 1:0.5963213 2:0.0090393269 3:2.7346686 4:-0.43463882 
-0.1 1:1.1044973 2:0.0090393269 3:2.7346686 4:-0.43463882 
0.1 1:-1.1822948 2:0.45201951 3:2.4615589 4:-1.062954 
-0.1 1:0.088145277 2:0.22270841 3:1.9153396 4:-0.3448795 
-0.1 1:0.5963213 2:0.22270841 3:1.9153396 4:-0.3448795 
-0.1 1:1.1044973 2:0.22270841 3:1.9153396 4:-0.3448795 
-0.1 1:-0.92820678 2:-1.5620534 3:-0.81575673 4:0.30791553 
-0.1 1:-0.42003075 2:-1.5620534 3:-0.81575673 4:0.30791553 
-0.1 1:0.088145277 2:-1.5620534 3:-0.81575673 4:0.30791553 
-0.1 1:-0.92820678 2:-0.89782783 3:0.0035721831 4:0.014157768 
-0.1 1:-0.42003075 2:-0.89782783 3:0.0035721831 4:0.014157768 
-0.1 1:-0.67411876 2:0.062727365 3:-0.81575673 4:1.6787851 
-0.1 1:0.5963213 2:1.4402467 3:-0.54264709 4:0.1936764 
-0.1 1:-0.67411876 2:-0.057220018 3:0.27668182 4:-1.062954 
-0.1 1:-0.42003075 2:-0.057220018 3:0.27668182 4:-1.062954 
0.1 1:-0.42003075 2:0.087363119 3:-0.54264709 4:0.1936764 
-0.1 1:0.5963213 2:1.1375161 3:0.0035721831 4:0.014157768 
-0.1 1:1.1044973 2:1.1375161 3:0.0035721831 4:0.014157768 
-0.1 1:-0.42003075 2:-0.1330986 3:-0.54264709 4:0.1936764 
-0.1 1:-0.92820678 2:1.9768805 3:-0.81575673 4:-1.062954 
0.1 1:1.1044973 2:1.8616811 3:2.1884493 4:-0.37751925 
0.1 1:-0.92820678 2:0.15549632 3:-1.0888664 4:0.44500249 
0.1 1:-0.42003075 2:0.15549632 3:-1.0888664 4:0.44500249 
0.1 1:0.5963213 2:0.15549632 3:-1.0888664 4:0.44500249 
-0.1 1:-0.67411876 2:0.19423835 3:0.0035721831 4:1.0912696 
-0.1 1:0.088145277 2:0.19423835 3:0.0035721831 4:1.0912696 
-0.1 1:0.85040932 2:0.19423835 3:0.0035721831 4:1.0912696 
-0.1 1:1.6126734 2:0.19423835 3:0.0035721831 4:1.0912696 
-0.1 1:2.3749374 2:0.19423835 3:0.0035721831 4:1.0912696 
-0.08107496523321431 1:-0.42003075 2:-0.45212242 3:0.8229011 4:1.5981457 
-0.1 1:0.5963213 2:-0.45212242 3:0.8229011 4:1.5981457 
-0.1 1:2.6290254 2:-0.45212242 3:0.8229011 4:1.5981457 
0.1 1:-0.42003075 2:1.8603369 3:0.27668182 4:-0.057649686 
0.06851416545674165 1:0.088145277 2:1.8603369 3:0.27668182 4:-0.057649686 
0.1 1:0.5963213 2:1.8603369 3:0.27668182 4:-0.057649686 
0.1 1:1.1044973 2:1.8603369 3:0.27668182 4:-0.057649686 
0.1 1:-1.1822948 2:0.93997398 3:-1.361976 4:-1.062954 
0.1 1:-0.92820678 2:0.93997398 3:-1.361976 4:-1.062954 
0.1 1:-0.67411876 2:0.93997398 3:-1.361976 4:-1.062954 
0.1 1:-0.16594274 2:0.93997398 3:-1.361976 4:-1.062954 
0.1 1:-1.1822948 2:-0.19070138 3:0.54979146 4:-1.062954 
0.1 1:-0.92820678 2:-0.19070138 3:0.54979146 4:-1.062954 
0.1 1:-0.67411876 2:-0.19070138 3:0.54979146 4:-1.062954 
0.1 1:-0.42003075 2:-0.19070138 3:0.54979146 4:-1.062954 
0.1 1:-0.16594274 2:-0.19070138 3:0.54979146 4:-1.062954 
0.1 1:-0.67411876 2:0.25953598 3:0.27668182 4:0.94765467 
0.1 1:0.088145277 2:0.25953598 3:0.27668182 4:0.94765467 
0.1 1:0.85040932 2:0.25953598 3:0.27668182 4:0.94765467 
0.1 1:1.6126734 2:0.25953598 3:0.27668182 4:0.94765467 
0.1 1:2.3749374 2:0.25953598 3:0.27668182 4:0.94765467 
-0.1 1:0.088145277 2:-0.35361582 3:-0.26953745 4:0.097012523 
-0.1 1:0.5963213 2:-0.35361582 3:-0.26953745 4:0.097012523 
-0.1 1:-0.92820678 2:1.3073692 3:-0.81575673 4:0.30791553 
-0.1 1:-0.42003075 2:1.3073692 3:-0.81575673 4:0.30791553 
-0.1 1:0.088145277 2:1.3073692 3:-0.81575673 4:0.30791553 
-0.1 1:0.5963213 2:1.3073692 3:-0.81575673 4:0.30791553 
-0.1 1:1.1044973 2:1.3073692 3:-0.81575673 4:0.30791553 
0.1 1:-1.1822948 2:0.92167209 3:0.27668182 4:-1.062954 
0.1 1:-0.92820678 2:0.92167209 3:0.27668182 4:-1.062954 
0.1 1:-0.67411876 2:0.92167209 3:0.27668182 4:-1.062954 
-0.1 1:-0.42003075 2:0.92167209 3:0.27668182 4:-1.062954 
0.1 1:-0.16594274 2:0.92167209 3:0.27668182 4:-1.062954 
-0.08575675972386863 1:-1.1822948 2:-0.31363997 3:-0.26953745 4:-1.062954 
-0.1 1:-0.92820678 2:-0.31363997 3:-0.26953745 4:-1.062954 
-0.1 1:-0.16594274 2:-0.31363997 3:-0.26953745 4:-1.062954 
0.1 1:-0.92820678 2:0.54994541 3:0.27668182 4:-1.062954 
0.1 1:-0.67411876 2:0.54994541 3:0.27668182 4:-1.062954 
0.1 1:-0.42003075 2:0.54994541 3:0.27668182 4:-1.062954 
0.1 1:-0.16594274 2:0.54994541 3:0.27668182 4:-1.062954 
-0.1 1:-0.92820678 2:0.32985283 3:0.27668182 4:-0.057649686 
0.1 1:-1.1822948 2:0.47076364 3:-0.54264709 4:-1.062954 
