svm_type nu_svr
kernel_type rbf
gamma 1
nr_class 2
total_sv 7667
rho -0.00144338
SV
-1 1:0.0072390414 2:0.86928922 3:0.13805628 4:11.079533 
-1 1:0.10495069 2:0.86928922 3:0.13805628 4:11.079533 
-1 1:0.20266233 2:0.86928922 3:0.13805628 4:11.079533 
-1 1:0.30037398 2:0.86928922 3:0.13805628 4:11.079533 
-1 1:-0.12304315 2:1.3945139 3:-0.08930979 4:3.3233921 
-0.7414605095468831 1:-0.057902056 2:1.3945139 3:-0.08930979 4:3.3233921 
1 1:-0.12304315 2:3.5504811 3:0.21384497 4:-17.728991 
1 1:-0.090472604 2:3.5504811 3:0.21384497 4:-17.728991 
-0.5305451729186028 1:-0.025331507 2:3.5504811 3:0.21384497 4:-17.728991 
-1 1:-0.1556137 2:2.564838 3:0.17595063 4:-17.728991 
1 1:-0.12304315 2:2.564838 3:0.17595063 4:-17.728991 
-1 1:-0.057902056 2:2.564838 3:0.17595063 4:-17.728991 
-1 1:-0.025331507 2:2.564838 3:0.17595063 4:-17.728991 
-1 1:-0.12304315 2:1.5323589 3:0.32752801 4:-6.3256167 
-0.9993300530666828 1:0.0072390414 2:1.5323589 3:0.32752801 4:-6.3256167 
1 1:0.072380139 2:1.5323589 3:0.32752801 4:-6.3256167 
1 1:0.13752124 2:1.5323589 3:0.32752801 4:-6.3256167 
1 1:-0.057902056 2:-3.6805637 3:-0.08930979 4:3.3233921 
1 1:0.0072390414 2:-3.6805637 3:-0.08930979 4:3.3233921 
1 1:0.072380139 2:-3.6805637 3:-0.08930979 4:3.3233921 
1 1:0.13752124 2:-3.6805637 3:-0.08930979 4:3.3233921 
0.0128348469861943 1:-0.090472604 2:-0.36503462 3:0.21384497 4:8.3358643 
-0.08867495791550972 1:0.0072390414 2:-0.36503462 3:0.21384497 4:8.3358643 
0.09698246859935389 1:0.10495069 2:-0.36503462 3:0.21384497 4:8.3358643 
-0.02242613659336863 1:0.30037398 2:-0.36503462 3:0.21384497 4:8.3358643 
-1 1:-0.090472604 2:0.71410517 3:0.21384497 4:-17.728991 
-1 1:-0.057902056 2:0.71410517 3:0.21384497 4:-17.728991 
-1 1:-0.025331507 2:0.71410517 3:0.21384497 4:-17.728991 
1 1:-0.12304315 2:-1.2624912 3:-0.12720414 4:5.0777574 
1 1:-0.057902056 2:-1.2624912 3:-0.12720414 4:5.0777574 
1 1:0.0072390414 2:-1.2624912 3:-0.12720414 4:5.0777574 
1 1:0.072380139 2:-1.2624912 3:-0.12720414 4:5.0777574 
-1 1:-0.12304315 2:0.35335198 3:-0.20299283 4:9.639107 
1 1:0.0072390414 2:0.35335198 3:-0.20299283 4:9.639107 
1 1:0.072380139 2:0.35335198 3:-0.20299283 4:9.639107 
-0.3017676304556091 1:-0.12304315 2:-0.72465753 3:0.21384497 4:-4.6965633 
1 1:0.0072390414 2:-0.72465753 3:0.21384497 4:-4.6965633 
-1 1:0.072380139 2:-0.72465753 3:0.21384497 4:-4.6965633 
0.2962622851621117 1:0.13752124 2:-0.72465753 3:0.21384497 4:-4.6965633 
-1 1:-0.12304315 2:-0.6726012 3:0.13805628 4:-3.3247288 
-1 1:0.0072390414 2:-0.6726012 3:0.13805628 4:-3.3247288 
-1 1:0.072380139 2:-0.6726012 3:0.13805628 4:-3.3247288 
-0.8555349435027952 1:0.13752124 2:-0.6726012 3:0.13805628 4:-3.3247288 
-1 1:-0.12304315 2:1.5136863 3:-0.013521099 4:0.51640773 
-1 1:-0.057902056 2:1.5136863 3:-0.013521099 4:0.51640773 
1 1:0.0072390414 2:1.5136863 3:-0.013521099 4:0.51640773 
-1 1:0.072380139 2:1.5136863 3:-0.013521099 4:0.51640773 
-0.9845579741988272 1:-0.090472604 2:-2.9462321 3:-0.08930979 4:24.375775 
-1 1:0.0072390414 2:-2.9462321 3:-0.08930979 4:24.375775 
-1 1:0.10495069 2:-2.9462321 3:-0.08930979 4:24.375775 
-0.3071931175754892 1:0.20266233 2:-2.9462321 3:-0.08930979 4:24.375775 
-1 1:-0.12304315 2:-1.7631729 3:-0.20299283 4:9.639107 
-1 1:0.072380139 2:-1.7631729 3:-0.20299283 4:9.639107 
1 1:-0.12304315 2:1.9060392 3:0.4033167 4:-7.2027994 
-0.9987444230152831 1:-0.057902056 2:1.9060392 3:0.4033167 4:-7.2027994 
0.9960394659449858 1:0.072380139 2:1.9060392 3:0.4033167 4:-7.2027994 
-1 1:0.13752124 2:1.9060392 3:0.4033167 4:-7.2027994 
1 1:-0.12304315 2:2.8810621 3:0.13805628 4:-3.3247288 
1 1:0.072380139 2:2.8810621 3:0.13805628 4:-3.3247288 
-1 1:-0.057902056 2:-1.1109671 3:-0.013521099 4:0.51640773 
0.9259134387219536 1:0.0072390414 2:-1.1109671 3:-0.013521099 4:0.51640773 
-1 1:0.072380139 2:-1.1109671 3:-0.013521099 4:0.51640773 
-1 1:0.13752124 2:-1.1109671 3:-0.013521099 4:0.51640773 
0.5031547316321587 1:-0.057902056 2:-1.3211296 3:0.25173932 4:-5.2889464 
-0.3707833312442301 1:0.0072390414 2:-1.3211296 3:0.25173932 4:-5.2889464 
-1 1:0.072380139 2:-1.3211296 3:0.25173932 4:-5.2889464 
0.8644206520753761 1:0.13752124 2:-1.3211296 3:0.25173932 4:-5.2889464 
-1 1:-0.057902056 2:3.4962855 3:0.17595063 4:-4.0449419 
-1 1:0.0072390414 2:3.4962855 3:0.17595063 4:-4.0449419 
1 1:0.072380139 2:3.4962855 3:0.17595063 4:-4.0449419 
-1 1:0.13752124 2:3.4962855 3:0.17595063 4:-4.0449419 
1 1:-0.025331507 2:2.1723268 3:0.062267591 4:-17.728991 
0.3355337266747658 1:0.0072390414 2:0.15943904 3:0.024373246 4:16.481132 
1 1:0.10495069 2:0.15943904 3:0.024373246 4:16.481132 
-1 1:0.20266233 2:0.15943904 3:0.024373246 4:16.481132 
0.6133951660398507 1:0.30037398 2:0.15943904 3:0.024373246 4:16.481132 
-1 1:-0.12304315 2:2.4888687 3:-0.051415445 4:1.8196505 
-1 1:-0.057902056 2:2.4888687 3:-0.051415445 4:1.8196505 
-1 1:0.0072390414 2:2.4888687 3:-0.051415445 4:1.8196505 
-1 1:0.072380139 2:2.4888687 3:-0.051415445 4:1.8196505 
-0.3439680371114784 1:0.072380139 2:1.5454164 3:0.25173932 4:19.591143 
1 1:0.20266233 2:1.5454164 3:0.25173932 4:19.591143 
-1 1:0.33294453 2:1.5454164 3:0.25173932 4:19.591143 
0.3428693149592956 1:0.46322672 2:1.5454164 3:0.25173932 4:19.591143 
0.2737985994989537 1:-0.12304315 2:1.6462544 3:0.25173932 4:-5.2889464 
-1 1:-0.057902056 2:1.6462544 3:0.25173932 4:-5.2889464 
-1 1:0.072380139 2:1.6462544 3:0.25173932 4:-5.2889464 
-0.1688278074317946 1:0.13752124 2:1.6462544 3:0.25173932 4:-5.2889464 
1 1:-0.12304315 2:2.286212 3:0.062267591 4:-17.728991 
1 1:-0.057902056 2:2.286212 3:0.062267591 4:-17.728991 
1 1:-0.025331507 2:2.286212 3:0.062267591 4:-17.728991 
1 1:-0.090472604 2:1.036773 3:0.17595063 4:-17.728991 
-0.06650876775229664 1:-0.090472604 2:1.3406044 3:0.13805628 4:11.079533 
-0.6389828682718736 1:0.0072390414 2:1.3406044 3:0.13805628 4:11.079533 
-1 1:0.10495069 2:1.3406044 3:0.13805628 4:11.079533 
-0.9084031832257833 1:0.20266233 2:1.3406044 3:0.13805628 4:11.079533 
-1 1:0.0072390414 2:1.9261165 3:-0.12720414 4:27.884506 
0.5125485103844294 1:0.10495069 2:1.9261165 3:-0.12720414 4:27.884506 
-0.005445550101517822 1:0.20266233 2:1.9261165 3:-0.12720414 4:27.884506 
1 1:0.30037398 2:1.9261165 3:-0.12720414 4:27.884506 
-1 1:-0.057902056 2:0.33452286 3:-0.08930979 4:3.3233921 
-1 1:0.072380139 2:0.33452286 3:-0.08930979 4:3.3233921 
-0.8079343263829479 1:-0.12304315 2:3.5201753 3:0.25173932 4:-5.2889464 
-0.8459860620873845 1:-0.057902056 2:3.5201753 3:0.25173932 4:-5.2889464 
-0.448854603299043 1:0.072380139 2:3.5201753 3:0.25173932 4:-5.2889464 
-0.1512079431898379 1:0.13752124 2:3.5201753 3:0.25173932 4:-5.2889464 
0.9860558545167359 1:-0.090472604 2:2.9402175 3:0.4033167 4:3.3233921 
-0.9833583288878579 1:0.10495069 2:2.9402175 3:0.4033167 4:3.3233921 
0.5039352070529649 1:0.20266233 2:2.9402175 3:0.4033167 4:3.3233921 
-1 1:-0.12304315 2:3.3588705 3:0.47910539 4:-7.9546702 
0.3378191847144273 1:-0.057902056 2:3.3588705 3:0.47910539 4:-7.9546702 
-0.002217929569578891 1:0.0072390414 2:3.3588705 3:0.47910539 4:-7.9546702 
-1 1:0.072380139 2:3.3588705 3:0.47910539 4:-7.9546702 
0.6172615930555626 1:-0.057902056 2:-2.6324426 3:0.13805628 4:25.483795 
-0.7803609385188444 1:0.072380139 2:-2.6324426 3:0.13805628 4:25.483795 
1 1:0.33294453 2:-2.6324426 3:0.13805628 4:25.483795 
-0.4695692028583625 1:0.46322672 2:-2.6324426 3:0.13805628 4:25.483795 
0.422237238431732 1:0.0072390414 2:1.2449969 3:0.21384497 4:8.3358643 
-0.6640139456646054 1:0.10495069 2:1.2449969 3:0.21384497 4:8.3358643 
0.0528792076710668 1:0.20266233 2:1.2449969 3:0.21384497 4:8.3358643 
0.2047766377203034 1:0.30037398 2:1.2449969 3:0.21384497 4:8.3358643 
0.6807788380488825 1:0.0072390414 2:1.2487839 3:0.44121105 4:2.5436742 
-1 1:0.10495069 2:1.2487839 3:0.44121105 4:2.5436742 
0.333281157509974 1:0.30037398 2:1.2487839 3:0.44121105 4:2.5436742 
1 1:-0.12304315 2:2.4349108 3:0.51699974 4:-8.2917157 
-0.5271242095043214 1:-0.057902056 2:2.4349108 3:0.51699974 4:-8.2917157 
-1 1:0.072380139 2:2.4349108 3:0.51699974 4:-8.2917157 
-1 1:0.13752124 2:2.4349108 3:0.51699974 4:-8.2917157 
0.5058498918246767 1:-0.057902056 2:-0.26372649 3:0.21384497 4:21.368292 
-0.9782185605062221 1:0.072380139 2:-0.26372649 3:0.21384497 4:21.368292 
0.5887321238044282 1:0.20266233 2:-0.26372649 3:0.21384497 4:21.368292 
-0.1225632719474869 1:0.33294453 2:-0.26372649 3:0.21384497 4:21.368292 
-1 1:-0.025331507 2:0.6997082 3:0.51699974 4:-17.728991 
1 1:-0.1556137 2:0.044045789 3:0.44121105 4:-17.728991 
1 1:-0.12304315 2:0.044045789 3:0.44121105 4:-17.728991 
1 1:-0.057902056 2:0.044045789 3:0.44121105 4:-17.728991 
1 1:-0.025331507 2:0.044045789 3:0.44121105 4:-17.728991 
0.07030787596710185 1:-0.090472604 2:2.9701921 3:0.74436581 4:-2.0900778 
0.3647004640356539 1:0.10495069 2:2.9701921 3:0.74436581 4:-2.0900778 
-1 1:0.20266233 2:2.9701921 3:0.74436581 4:-2.0900778 
0.5814925443787338 1:0.30037398 2:2.9701921 3:0.74436581 4:-2.0900778 
0.4063892978449751 1:-0.090472604 2:2.2169075 3:0.13805628 4:11.079533 
-0.6716585812265391 1:0.0072390414 2:2.2169075 3:0.13805628 4:11.079533 
-1 1:0.20266233 2:2.2169075 3:0.13805628 4:11.079533 
0.02793779880779312 1:0.30037398 2:2.2169075 3:0.13805628 4:11.079533 
1 1:-0.057902056 2:-3.8817387 3:-0.08930979 4:3.3233921 
1 1:0.0072390414 2:-3.8817387 3:-0.08930979 4:3.3233921 
1 1:0.072380139 2:-3.8817387 3:-0.08930979 4:3.3233921 
1 1:0.13752124 2:-3.8817387 3:-0.08930979 4:3.3233921 
1 1:-0.12304315 2:2.0105154 3:0.28963366 4:-5.8298179 
1 1:-0.057902056 2:2.0105154 3:0.28963366 4:-5.8298179 
1 1:0.072380139 2:2.0105154 3:0.28963366 4:-5.8298179 
1 1:0.13752124 2:2.0105154 3:0.28963366 4:-5.8298179 
-0.4116464489859915 1:-0.057902056 2:-1.0449807 3:0.55489408 4:-8.6062916 
1 1:0.0072390414 2:-1.0449807 3:0.55489408 4:-8.6062916 
-0.8859421683588358 1:0.072380139 2:-1.0449807 3:0.55489408 4:-8.6062916 
0.2979235037064396 1:0.13752124 2:-1.0449807 3:0.55489408 4:-8.6062916 
-1 1:-0.12304315 2:3.1076165 3:0.21384497 4:-4.6965633 
0.3089638353758315 1:-0.057902056 2:3.1076165 3:0.21384497 4:-4.6965633 
-0.4736081112408717 1:0.072380139 2:3.1076165 3:0.21384497 4:-4.6965633 
-1 1:0.13752124 2:3.1076165 3:0.21384497 4:-4.6965633 
0.8991664970464187 1:-0.12304315 2:1.8933061 3:0.66857712 4:-9.4356279 
-1 1:-0.057902056 2:1.8933061 3:0.66857712 4:-9.4356279 
1 1:0.072380139 2:1.8933061 3:0.66857712 4:-9.4356279 
-0.7997100886162593 1:0.13752124 2:1.8933061 3:0.66857712 4:-9.4356279 
0.1578509860226073 1:-0.057902056 2:2.5857059 3:0.59278843 4:8.7562652 
-0.8007362202958874 1:0.20266233 2:2.5857059 3:0.59278843 4:8.7562652 
1 1:0.33294453 2:2.5857059 3:0.59278843 4:8.7562652 
-0.34951316969443 1:0.46322672 2:2.5857059 3:0.59278843 4:8.7562652 
-1 1:-0.090472604 2:-0.64433759 3:0.10016194 4:12.680007 
-1 1:0.0072390414 2:-0.64433759 3:0.10016194 4:12.680007 
-1 1:0.10495069 2:-0.64433759 3:0.10016194 4:12.680007 
-1 1:0.20266233 2:-0.64433759 3:0.10016194 4:12.680007 
-1 1:-0.057902056 2:-2.9098056 3:-0.16509848 4:7.1510981 
-0.5420034912271005 1:-0.090472604 2:1.557352 3:-0.12720414 4:27.884506 
1 1:0.0072390414 2:1.557352 3:-0.12720414 4:27.884506 
1 1:0.20266233 2:1.557352 3:-0.12720414 4:27.884506 
1 1:0.30037398 2:1.557352 3:-0.12720414 4:27.884506 
-0.2921339192672787 1:-0.090472604 2:-2.894327 3:-0.013521099 4:18.761806 
-1 1:0.0072390414 2:-2.894327 3:-0.013521099 4:18.761806 
1 1:0.20266233 2:-2.894327 3:-0.013521099 4:18.761806 
-0.8337914008212566 1:0.30037398 2:-2.894327 3:-0.013521099 4:18.761806 
1 1:-0.025331507 2:-2.8195841 3:-0.013521099 4:-17.728991 
0.3134949636721617 1:-0.090472604 2:-0.07829339 3:0.25173932 4:7.1510981 
-1 1:0.0072390414 2:-0.07829339 3:0.25173932 4:7.1510981 
0.9948937208289259 1:0.20266233 2:-0.07829339 3:0.25173932 4:7.1510981 
-0.2845858427786554 1:0.30037398 2:-0.07829339 3:0.25173932 4:7.1510981 
-0.365150638432374 1:0.0072390414 2:-1.7348397 3:0.13805628 4:11.079533 
1 1:0.10495069 2:-1.7348397 3:0.13805628 4:11.079533 
-1 1:0.20266233 2:-1.7348397 3:0.13805628 4:11.079533 
0.2823572654841416 1:0.30037398 2:-1.7348397 3:0.13805628 4:11.079533 
1 1:-0.12304315 2:0.45939081 3:-0.12720414 4:5.0777574 
1 1:-0.057902056 2:0.45939081 3:-0.12720414 4:5.0777574 
0.5960885113475664 1:0.0072390414 2:0.45939081 3:-0.12720414 4:5.0777574 
1 1:-0.025331507 2:3.8423407 3:0.10016194 4:43.089004 
-1 1:0.13752124 2:3.8423407 3:0.10016194 4:43.089004 
-0.0983688180193325 1:0.30037398 2:3.8423407 3:0.10016194 4:43.089004 
0.2641325876585071 1:0.62607947 2:3.8423407 3:0.10016194 4:43.089004 
1 1:-0.12304315 2:2.5057085 3:0.44121105 4:-7.5926583 
-1 1:-0.057902056 2:2.5057085 3:0.44121105 4:-7.5926583 
0.05263279368764773 1:0.0072390414 2:2.5057085 3:0.44121105 4:-7.5926583 
0.06467021053245581 1:0.13752124 2:2.5057085 3:0.44121105 4:-7.5926583 
1 1:-0.12304315 2:2.7005257 3:0.17595063 4:-4.0449419 
-1 1:-0.057902056 2:2.7005257 3:0.17595063 4:-4.0449419 
-1 1:0.072380139 2:2.7005257 3:0.17595063 4:-4.0449419 
1 1:0.13752124 2:2.7005257 3:0.17595063 4:-4.0449419 
1 1:0.0072390414 2:1.0063872 3:-0.16509848 4:7.1510981 
1 1:0.072380139 2:1.0063872 3:-0.16509848 4:7.1510981 
0.4991765714832699 1:-0.12304315 2:-3.8388777 3:0.17595063 4:-4.0449419 
-1 1:-0.057902056 2:-3.8388777 3:0.17595063 4:-4.0449419 
1 1:0.072380139 2:-3.8388777 3:0.17595063 4:-4.0449419 
-0.4746008547397558 1:0.13752124 2:-3.8388777 3:0.17595063 4:-4.0449419 
1 1:-0.057902056 2:3.055205 3:0.4033167 4:-7.2027994 
1 1:0.0072390414 2:3.055205 3:0.4033167 4:-7.2027994 
1 1:0.072380139 2:3.055205 3:0.4033167 4:-7.2027994 
1 1:0.13752124 2:3.055205 3:0.4033167 4:-7.2027994 
1 1:-0.12304315 2:1.3701867 3:0.17595063 4:-4.0449419 
0.7794391214999752 1:0.0072390414 2:1.3701867 3:0.17595063 4:-4.0449419 
1 1:0.072380139 2:1.3701867 3:0.17595063 4:-4.0449419 
1 1:0.13752124 2:1.3701867 3:0.17595063 4:-4.0449419 
-1 1:-0.12304315 2:2.8936588 3:0.062267591 4:-17.728991 
-1 1:-0.090472604 2:2.8936588 3:0.062267591 4:-17.728991 
-1 1:-0.057902056 2:2.8936588 3:0.062267591 4:-17.728991 
-1 1:-0.025331507 2:2.8936588 3:0.062267591 4:-17.728991 
1 1:-0.12304315 2:-0.21070794 3:-0.013521099 4:0.51640773 
-1 1:0.0072390414 2:-0.21070794 3:-0.013521099 4:0.51640773 
-1 1:0.13752124 2:-0.21070794 3:-0.013521099 4:0.51640773 
0.9179778459466796 1:-0.1556137 2:2.6362202 3:0.44121105 4:-17.728991 
-1 1:-0.12304315 2:2.6362202 3:0.44121105 4:-17.728991 
1 1:-0.057902056 2:2.6362202 3:0.44121105 4:-17.728991 
0.9679266335666771 1:-0.025331507 2:2.6362202 3:0.44121105 4:-17.728991 
0.5979787827522295 1:-0.12304315 2:0.94187825 3:0.4033167 4:-7.2027994 
-1 1:-0.057902056 2:0.94187825 3:0.4033167 4:-7.2027994 
1 1:0.072380139 2:0.94187825 3:0.4033167 4:-7.2027994 
-0.6493461777020194 1:0.13752124 2:0.94187825 3:0.4033167 4:-7.2027994 
-0.918757641567755 1:-0.057902056 2:2.9253658 3:0.59278843 4:-8.9005722 
1 1:0.0072390414 2:2.9253658 3:0.59278843 4:-8.9005722 
1 1:0.072380139 2:2.9253658 3:0.59278843 4:-8.9005722 
-0.9337517739592268 1:0.13752124 2:2.9253658 3:0.59278843 4:-8.9005722 
1 1:-0.1556137 2:3.4616644 3:-0.051415445 4:-17.728991 
-1 1:-0.12304315 2:3.4616644 3:-0.051415445 4:-17.728991 
0.9975447513171862 1:-0.090472604 2:3.4616644 3:-0.051415445 4:-17.728991 
-0.6286731375635424 1:-0.12304315 2:2.3782623 3:0.25173932 4:-5.2889464 
-1 1:0.0072390414 2:2.3782623 3:0.25173932 4:-5.2889464 
-0.2007493931969258 1:0.072380139 2:2.3782623 3:0.25173932 4:-5.2889464 
0.7035667583334468 1:0.13752124 2:2.3782623 3:0.25173932 4:-5.2889464 
0.3376090657620762 1:-0.057902056 2:-3.2585371 3:0.36542235 4:15.112727 
-1 1:0.072380139 2:-3.2585371 3:0.36542235 4:15.112727 
1 1:0.20266233 2:-3.2585371 3:0.36542235 4:15.112727 
-0.3325679802203885 1:0.33294453 2:-3.2585371 3:0.36542235 4:15.112727 
-1 1:-0.1556137 2:3.5331531 3:0.21384497 4:-17.728991 
-0.8718075113694393 1:-0.12304315 2:3.5331531 3:0.21384497 4:-17.728991 
1 1:-0.057902056 2:3.5331531 3:0.21384497 4:-17.728991 
-1 1:-0.025331507 2:3.5331531 3:0.21384497 4:-17.728991 
-1 1:-0.12304315 2:2.7803644 3:-0.24088717 4:-17.728991 
1 1:-0.12304315 2:3.1136185 3:0.062267591 4:-1.6301097 
0.1545547862446534 1:0.0072390414 2:3.1136185 3:0.062267591 4:-1.6301097 
1 1:0.13752124 2:3.1136185 3:0.062267591 4:-1.6301097 
0.00734543600673329 1:0.0072390414 2:-2.3894719 3:-0.12720414 4:5.0777574 
-1 1:0.072380139 2:-2.3894719 3:-0.12720414 4:5.0777574 
1 1:-0.12304315 2:-2.0767694 3:-0.16509848 4:7.1510981 
1 1:-0.057902056 2:-2.0767694 3:-0.16509848 4:7.1510981 
-1 1:0.072380139 2:-2.0767694 3:-0.16509848 4:7.1510981 
-1 1:0.13752124 2:-2.0767694 3:-0.16509848 4:7.1510981 
1 1:-0.12304315 2:2.7529172 3:0.28963366 4:-5.8298179 
1 1:0.0072390414 2:2.7529172 3:0.28963366 4:-5.8298179 
-1 1:0.072380139 2:2.7529172 3:0.28963366 4:-5.8298179 
-1 1:0.13752124 2:2.7529172 3:0.28963366 4:-5.8298179 
-0.2263426048062392 1:-0.057902056 2:-2.6977671 3:0.17595063 4:23.323156 
1 1:0.20266233 2:-2.6977671 3:0.17595063 4:23.323156 
-1 1:0.33294453 2:-2.6977671 3:0.17595063 4:23.323156 
0.2241846151491937 1:0.46322672 2:-2.6977671 3:0.17595063 4:23.323156 
1 1:-0.090472604 2:-0.31289814 3:0.024373246 4:16.481132 
1 1:0.0072390414 2:-0.31289814 3:0.024373246 4:16.481132 
-1 1:0.10495069 2:-0.31289814 3:0.024373246 4:16.481132 
1 1:0.20266233 2:-0.31289814 3:0.024373246 4:16.481132 
-0.2231581183808168 1:-0.12304315 2:-0.17903799 3:0.28963366 4:-5.8298179 
-0.4576979484338599 1:0.0072390414 2:-0.17903799 3:0.28963366 4:-5.8298179 
1 1:0.072380139 2:-0.17903799 3:0.28963366 4:-5.8298179 
-0.3348170126612386 1:0.13752124 2:-0.17903799 3:0.28963366 4:-5.8298179 
-1 1:0.072380139 2:0.55001078 3:-0.20299283 4:9.639107 
-1 1:0.13752124 2:0.55001078 3:-0.20299283 4:9.639107 
1 1:-0.090472604 2:2.6841047 3:0.25173932 4:7.1510981 
1 1:0.0072390414 2:2.6841047 3:0.25173932 4:7.1510981 
0.4017735137429893 1:0.10495069 2:2.6841047 3:0.25173932 4:7.1510981 
1 1:0.20266233 2:2.6841047 3:0.25173932 4:7.1510981 
-0.2333559894245397 1:-0.12304315 2:-0.93361531 3:0.32752801 4:-6.3256167 
1 1:-0.057902056 2:-0.93361531 3:0.32752801 4:-6.3256167 
-1 1:0.0072390414 2:-0.93361531 3:0.32752801 4:-6.3256167 
0.2418465178709727 1:0.13752124 2:-0.93361531 3:0.32752801 4:-6.3256167 
-0.1104992008097765 1:0.0072390414 2:-1.8171695 3:0.17595063 4:9.639107 
-1 1:0.10495069 2:-1.8171695 3:0.17595063 4:9.639107 
-0.7191667154358121 1:0.30037398 2:-1.8171695 3:0.17595063 4:9.639107 
0.2902990257496998 1:-0.090472604 2:0.81293617 3:0.28963366 4:6.0693551 
-1 1:0.0072390414 2:0.81293617 3:0.28963366 4:6.0693551 
1 1:0.10495069 2:0.81293617 3:0.28963366 4:6.0693551 
-0.2021121169529567 1:0.30037398 2:0.81293617 3:0.28963366 4:6.0693551 
-1 1:-0.12304315 2:3.2416694 3:0.21384497 4:-4.6965633 
1 1:-0.057902056 2:3.2416694 3:0.21384497 4:-4.6965633 
1 1:0.072380139 2:3.2416694 3:0.21384497 4:-4.6965633 
1 1:0.13752124 2:3.2416694 3:0.21384497 4:-4.6965633 
1 1:-0.12304315 2:2.8600643 3:-0.051415445 4:1.8196505 
-0.05650561478525085 1:0.0072390414 2:2.8600643 3:-0.051415445 4:1.8196505 
-1 1:0.13752124 2:2.8600643 3:-0.051415445 4:1.8196505 
0.9503655499029539 1:-0.12304315 2:2.2884828 3:0.55489408 4:-8.6062916 
-0.01615471994009332 1:-0.057902056 2:2.2884828 3:0.55489408 4:-8.6062916 
-1 1:0.0072390414 2:2.2884828 3:0.55489408 4:-8.6062916 
0.7451143364078935 1:0.072380139 2:2.2884828 3:0.55489408 4:-8.6062916 
0.5047527249640613 1:-0.090472604 2:1.6327238 3:0.024373246 4:16.481132 
0.9664950915206746 1:0.0072390414 2:1.6327238 3:0.024373246 4:16.481132 
-1 1:0.10495069 2:1.6327238 3:0.024373246 4:16.481132 
1 1:0.20266233 2:1.6327238 3:0.024373246 4:16.481132 
0.4757916665960883 1:-0.12304315 2:-2.1409142 3:0.10016194 4:-2.524492 
-0.8883943136228317 1:-0.057902056 2:-2.1409142 3:0.10016194 4:-2.524492 
-1 1:0.0072390414 2:-2.1409142 3:0.10016194 4:-2.524492 
-1 1:0.072380139 2:-2.1409142 3:0.10016194 4:-2.524492 
-1 1:-0.1556137 2:-0.13077725 3:-0.16509848 4:-17.728991 
-1 1:-0.12304315 2:-0.13077725 3:-0.16509848 4:-17.728991 
-1 1:-0.090472604 2:-0.13077725 3:-0.16509848 4:-17.728991 
-1 1:-0.025331507 2:-0.13077725 3:-0.16509848 4:-17.728991 
-0.2412771961241356 1:-0.057902056 2:-2.6039762 3:0.062267591 4:-1.6301097 
1 1:0.0072390414 2:-2.6039762 3:0.062267591 4:-1.6301097 
0.3526760566640015 1:0.072380139 2:-2.6039762 3:0.062267591 4:-1.6301097 
-0.2739219492807469 1:0.13752124 2:-2.6039762 3:0.062267591 4:-1.6301097 
-0.005491820225824206 1:0.0072390414 2:-2.8095884 3:0.25173932 4:7.1510981 
0.006396936497031731 1:0.30037398 2:-2.8095884 3:0.25173932 4:7.1510981 
0.00905967176468736 1:-0.025331507 2:-3.6690486 3:-0.12720414 4:73.498002 
-0.009500097126251772 1:0.13752124 2:-3.6690486 3:-0.12720414 4:73.498002 
-0.01328856007228796 1:0.46322672 2:-3.6690486 3:-0.12720414 4:73.498002 
0.01341551465941881 1:0.62607947 2:-3.6690486 3:-0.12720414 4:73.498002 
-0.6498677470319116 1:-0.12304315 2:0.92285266 3:0.13805628 4:-3.3247288 
0.5096209639250067 1:-0.057902056 2:0.92285266 3:0.13805628 4:-3.3247288 
-1 1:0.072380139 2:0.92285266 3:0.13805628 4:-3.3247288 
-1 1:0.13752124 2:0.92285266 3:0.13805628 4:-3.3247288 
-0.8569139844955852 1:0.072380139 2:3.7996697 3:-0.12720414 4:5.0777574 
-0.3646930751040627 1:0.13752124 2:3.7996697 3:-0.12720414 4:5.0777574 
-1 1:0.0072390414 2:1.6124375 3:0.062267591 4:14.468771 
-0.03434982528300373 1:0.10495069 2:1.6124375 3:0.062267591 4:14.468771 
-1 1:0.20266233 2:1.6124375 3:0.062267591 4:14.468771 
-1 1:0.30037398 2:1.6124375 3:0.062267591 4:14.468771 
1 1:-0.12304315 2:0.021872892 3:-0.24088717 4:12.680007 
1 1:0.0072390414 2:0.021872892 3:-0.24088717 4:12.680007 
1 1:0.072380139 2:0.021872892 3:-0.24088717 4:12.680007 
1 1:0.13752124 2:0.021872892 3:-0.24088717 4:12.680007 
1 1:-0.057902056 2:2.827229 3:-0.08930979 4:3.3233921 
1 1:0.13752124 2:2.827229 3:-0.08930979 4:3.3233921 
0.9178744009470177 1:-0.057902056 2:3.3095496 3:0.062267591 4:-1.6301097 
0.6854226361553789 1:0.0072390414 2:3.3095496 3:0.062267591 4:-1.6301097 
0.9301256526162242 1:0.072380139 2:3.3095496 3:0.062267591 4:-1.6301097 
1 1:0.13752124 2:3.3095496 3:0.062267591 4:-1.6301097 
-1 1:-0.12304315 2:-2.2056585 3:-0.013521099 4:0.51640773 
-1 1:-0.057902056 2:-2.2056585 3:-0.013521099 4:0.51640773 
-1 1:0.0072390414 2:-2.2056585 3:-0.013521099 4:0.51640773 
-1 1:0.072380139 2:-2.2056585 3:-0.013521099 4:0.51640773 
0.9969899866595083 1:-0.090472604 2:0.85605388 3:0.10016194 4:12.680007 
-0.9076949698195554 1:0.0072390414 2:0.85605388 3:0.10016194 4:12.680007 
-1 1:0.20266233 2:0.85605388 3:0.10016194 4:12.680007 
-0.643382560936536 1:0.30037398 2:0.85605388 3:0.10016194 4:12.680007 
1 1:-0.12304315 2:0.66827262 3:-0.20299283 4:9.639107 
1 1:0.0072390414 2:0.66827262 3:-0.20299283 4:9.639107 
1 1:0.072380139 2:0.66827262 3:-0.20299283 4:9.639107 
-0.8957987946438111 1:-0.057902056 2:0.20369039 3:0.36542235 4:-6.7817517 
1 1:0.0072390414 2:0.20369039 3:0.36542235 4:-6.7817517 
-1 1:0.072380139 2:0.20369039 3:0.36542235 4:-6.7817517 
0.9987843980247011 1:0.13752124 2:0.20369039 3:0.36542235 4:-6.7817517 
-0.806934785953917 1:-0.12304315 2:2.6647905 3:0.32752801 4:-17.728991 
1 1:-0.090472604 2:2.6647905 3:0.32752801 4:-17.728991 
0.9341281283051471 1:-0.057902056 2:2.6647905 3:0.32752801 4:-17.728991 
1 1:-0.025331507 2:2.6647905 3:0.32752801 4:-17.728991 
-1 1:-0.057902056 2:-1.3813966 3:-0.013521099 4:-17.728991 
-1 1:-0.025331507 2:-1.3813966 3:-0.013521099 4:-17.728991 
1 1:-0.12304315 2:-2.8977997 3:0.13805628 4:-3.3247288 
-0.9156034691131369 1:-0.057902056 2:-2.8977997 3:0.13805628 4:-3.3247288 
1 1:0.072380139 2:-2.8977997 3:0.13805628 4:-3.3247288 
0.8526766880971807 1:0.13752124 2:-2.8977997 3:0.13805628 4:-3.3247288 
-1 1:-0.12304315 2:1.2730749 3:0.062267591 4:-1.6301097 
-1 1:-0.057902056 2:1.2730749 3:0.062267591 4:-1.6301097 
-1 1:0.072380139 2:1.2730749 3:0.062267591 4:-1.6301097 
-1 1:0.13752124 2:1.2730749 3:0.062267591 4:-1.6301097 
-0.005664528043642814 1:-0.025331507 2:3.8392274 3:0.13805628 4:39.888057 
0.004630517930255373 1:0.13752124 2:3.8392274 3:0.13805628 4:39.888057 
0.004044635562646226 1:0.46322672 2:3.8392274 3:0.13805628 4:39.888057 
-0.00544583486915251 1:0.62607947 2:3.8392274 3:0.13805628 4:39.888057 
1 1:-0.12304315 2:2.7887577 3:-0.08930979 4:3.3233921 
1 1:0.0072390414 2:2.7887577 3:-0.08930979 4:3.3233921 
-1 1:0.072380139 2:2.7887577 3:-0.08930979 4:3.3233921 
0.5659979992821453 1:-0.1556137 2:-2.8433175 3:-0.20299283 4:-17.728991 
1 1:-0.12304315 2:-2.8433175 3:-0.20299283 4:-17.728991 
1 1:-0.090472604 2:-2.8433175 3:-0.20299283 4:-17.728991 
1 1:-0.057902056 2:-2.8433175 3:-0.20299283 4:-17.728991 
1 1:-0.12304315 2:-2.3841306 3:-0.24088717 4:12.680007 
-1 1:-0.057902056 2:-2.3841306 3:-0.24088717 4:12.680007 
1 1:0.0072390414 2:-2.3841306 3:-0.24088717 4:12.680007 
1 1:0.072380139 2:-2.3841306 3:-0.24088717 4:12.680007 
-0.4679945141054035 1:-0.057902056 2:2.9998681 3:0.47910539 4:11.593971 
1 1:0.072380139 2:2.9998681 3:0.47910539 4:11.593971 
-0.6826356216449924 1:0.20266233 2:2.9998681 3:0.47910539 4:11.593971 
0.2001425329318114 1:0.33294453 2:2.9998681 3:0.47910539 4:11.593971 
1 1:-0.1556137 2:3.0186517 3:-0.051415445 4:-17.728991 
1 1:-0.090472604 2:3.0186517 3:-0.051415445 4:-17.728991 
-1 1:-0.057902056 2:3.0186517 3:-0.051415445 4:-17.728991 
1 1:-0.025331507 2:3.0186517 3:-0.051415445 4:-17.728991 
-0.7591071832636465 1:-0.12304315 2:0.38754114 3:0.13805628 4:-3.3247288 
-1 1:0.072380139 2:0.38754114 3:0.13805628 4:-3.3247288 
0.1005550333529562 1:0.13752124 2:0.38754114 3:0.13805628 4:-3.3247288 
1 1:-0.12304315 2:3.0899112 3:-0.013521099 4:0.51640773 
1 1:0.0072390414 2:3.0899112 3:-0.013521099 4:0.51640773 
1 1:0.072380139 2:3.0899112 3:-0.013521099 4:0.51640773 
1 1:0.13752124 2:3.0899112 3:-0.013521099 4:0.51640773 
-1 1:-0.12304315 2:3.7771495 3:0.17595063 4:-4.0449419 
-1 1:-0.057902056 2:3.7771495 3:0.17595063 4:-4.0449419 
-0.6783496069357497 1:0.0072390414 2:3.7771495 3:0.17595063 4:-4.0449419 
-1 1:0.072380139 2:3.7771495 3:0.17595063 4:-4.0449419 
1 1:-0.12304315 2:-0.11831794 3:-0.051415445 4:1.8196505 
1 1:-0.057902056 2:-0.11831794 3:-0.051415445 4:1.8196505 
0.1205219294138135 1:0.0072390414 2:-0.11831794 3:-0.051415445 4:1.8196505 
1 1:0.072380139 2:-0.11831794 3:-0.051415445 4:1.8196505 
0.09745701333381873 1:-0.057902056 2:3.4230212 3:0.4033167 4:-7.2027994 
-1 1:0.0072390414 2:3.4230212 3:0.4033167 4:-7.2027994 
1 1:0.072380139 2:3.4230212 3:0.4033167 4:-7.2027994 
1 1:0.13752124 2:3.4230212 3:0.4033167 4:-7.2027994 
-1 1:-0.12304315 2:-2.4837024 3:0.024373246 4:-17.728991 
-1 1:-0.090472604 2:-2.4837024 3:0.024373246 4:-17.728991 
-0.1398400971722347 1:-0.025331507 2:-2.4837024 3:0.024373246 4:-17.728991 
0.2176747132711599 1:-0.12304315 2:2.2949953 3:0.17595063 4:-4.0449419 
-1 1:-0.057902056 2:2.2949953 3:0.17595063 4:-4.0449419 
-1 1:0.072380139 2:2.2949953 3:0.17595063 4:-4.0449419 
-1 1:0.13752124 2:2.2949953 3:0.17595063 4:-4.0449419 
0.8859349481763599 1:-0.12304315 2:-0.33270344 3:-0.051415445 4:1.8196505 
-0.2583985010335328 1:0.0072390414 2:-0.33270344 3:-0.051415445 4:1.8196505 
-1 1:0.072380139 2:-0.33270344 3:-0.051415445 4:1.8196505 
-1 1:0.13752124 2:-0.33270344 3:-0.051415445 4:1.8196505 
-0.2636599077667937 1:-0.090472604 2:2.1566721 3:0.21384497 4:8.3358643 
1 1:0.10495069 2:2.1566721 3:0.21384497 4:8.3358643 
-1 1:0.20266233 2:2.1566721 3:0.21384497 4:8.3358643 
0.2517161566772448 1:0.30037398 2:2.1566721 3:0.21384497 4:8.3358643 
-0.9818582408846033 1:-0.090472604 2:-1.6808832 3:0.10016194 4:12.680007 
-1 1:0.0072390414 2:-1.6808832 3:0.10016194 4:12.680007 
-1 1:0.20266233 2:-1.6808832 3:0.10016194 4:12.680007 
-1 1:0.30037398 2:-1.6808832 3:0.10016194 4:12.680007 
0.3968695071255487 1:-0.12304315 2:-1.8683264 3:0.13805628 4:-3.3247288 
0.9425261132867166 1:0.0072390414 2:-1.8683264 3:0.13805628 4:-3.3247288 
1 1:0.072380139 2:-1.8683264 3:0.13805628 4:-3.3247288 
-0.9543231126770446 1:0.13752124 2:-1.8683264 3:0.13805628 4:-3.3247288 
1 1:-0.057902056 2:-3.3616795 3:-0.013521099 4:0.51640773 
-1 1:0.072380139 2:-3.3616795 3:-0.013521099 4:0.51640773 
-1 1:0.13752124 2:-3.3616795 3:-0.013521099 4:0.51640773 
-0.9117551618911683 1:-0.12304315 2:2.4749023 3:-0.16509848 4:-17.728991 
-0.3750515999526871 1:-0.057902056 2:2.4749023 3:-0.16509848 4:-17.728991 
1 1:-0.025331507 2:2.4749023 3:-0.16509848 4:-17.728991 
-1 1:-0.025331507 2:0.34820825 3:0.062267591 4:-17.728991 
1 1:-0.090472604 2:-0.80888318 3:0.062267591 4:14.468771 
0.4531390207592711 1:0.0072390414 2:-0.80888318 3:0.062267591 4:14.468771 
1 1:0.10495069 2:-0.80888318 3:0.062267591 4:14.468771 
1 1:0.20266233 2:-0.80888318 3:0.062267591 4:14.468771 
-0.9142561422524154 1:-0.025331507 2:3.9079311 3:0.10016194 4:43.089004 
0.5397332501265318 1:0.13752124 2:3.9079311 3:0.10016194 4:43.089004 
1 1:0.30037398 2:3.9079311 3:0.10016194 4:43.089004 
-0.7904216919288255 1:0.46322672 2:3.9079311 3:0.10016194 4:43.089004 
-1 1:-0.12304315 2:-1.4124565 3:-0.013521099 4:-17.728991 
-1 1:-0.090472604 2:-1.4124565 3:-0.013521099 4:-17.728991 
-1 1:-0.057902056 2:-1.4124565 3:-0.013521099 4:-17.728991 
1 1:-0.090472604 2:-3.1116449 3:-0.051415445 4:-17.728991 
0.9925871033744095 1:-0.12304315 2:3.5444671 3:0.17595063 4:-4.0449419 
-0.9096330882530826 1:-0.057902056 2:3.5444671 3:0.17595063 4:-4.0449419 
1 1:0.072380139 2:3.5444671 3:0.17595063 4:-4.0449419 
0.5025121498126535 1:0.13752124 2:3.5444671 3:0.17595063 4:-4.0449419 
1 1:-0.090472604 2:1.2130913 3:0.024373246 4:16.481132 
-1 1:0.0072390414 2:1.2130913 3:0.024373246 4:16.481132 
1 1:0.10495069 2:1.2130913 3:0.024373246 4:16.481132 
1 1:0.20266233 2:1.2130913 3:0.024373246 4:16.481132 
0.6781004324815473 1:-0.057902056 2:1.2755708 3:0.25173932 4:-5.2889464 
1 1:0.0072390414 2:1.2755708 3:0.25173932 4:-5.2889464 
1 1:0.072380139 2:1.2755708 3:0.25173932 4:-5.2889464 
-0.2085175181366937 1:0.13752124 2:1.2755708 3:0.25173932 4:-5.2889464 
1 1:-0.12304315 2:-0.9013471 3:-0.08930979 4:3.3233921 
-0.08394227271553589 1:-0.057902056 2:-0.9013471 3:-0.08930979 4:3.3233921 
1 1:0.072380139 2:-0.9013471 3:-0.08930979 4:3.3233921 
-1 1:0.13752124 2:-0.9013471 3:-0.08930979 4:3.3233921 
1 1:-0.1556137 2:1.6080653 3:0.21384497 4:-17.728991 
1 1:-0.12304315 2:1.6080653 3:0.21384497 4:-17.728991 
1 1:-0.090472604 2:1.6080653 3:0.21384497 4:-17.728991 
1 1:-0.057902056 2:1.6080653 3:0.21384497 4:-17.728991 
-1 1:-0.057902056 2:3.4740784 3:-0.051415445 4:1.8196505 
1 1:0.0072390414 2:3.4740784 3:-0.051415445 4:1.8196505 
1 1:0.13752124 2:3.4740784 3:-0.051415445 4:1.8196505 
1 1:-0.057902056 2:0.8729403 3:0.062267591 4:-1.6301097 
1 1:0.0072390414 2:0.8729403 3:0.062267591 4:-1.6301097 
1 1:0.072380139 2:0.8729403 3:0.062267591 4:-1.6301097 
1 1:0.13752124 2:0.8729403 3:0.062267591 4:-1.6301097 
-1 1:-0.12304315 2:2.8419065 3:0.17595063 4:-4.0449419 
-1 1:-0.057902056 2:2.8419065 3:0.17595063 4:-4.0449419 
1 1:0.0072390414 2:2.8419065 3:0.17595063 4:-4.0449419 
-0.9892718319168573 1:0.072380139 2:2.8419065 3:0.17595063 4:-4.0449419 
-1 1:-0.12304315 2:-0.86557768 3:-0.16509848 4:7.1510981 
-1 1:0.0072390414 2:-0.86557768 3:-0.16509848 4:7.1510981 
-1 1:0.072380139 2:-0.86557768 3:-0.16509848 4:7.1510981 
-1 1:0.13752124 2:-0.86557768 3:-0.16509848 4:7.1510981 
1 1:0.0072390414 2:2.3153221 3:-0.12720414 4:27.884506 
-1 1:0.10495069 2:2.3153221 3:-0.12720414 4:27.884506 
-0.3566613160082485 1:0.20266233 2:2.3153221 3:-0.12720414 4:27.884506 
1 1:0.30037398 2:2.3153221 3:-0.12720414 4:27.884506 
0.576066429982949 1:-0.057902056 2:2.0381288 3:0.93383754 4:-10.886966 
-0.3567100264927813 1:0.0072390414 2:2.0381288 3:0.93383754 4:-10.886966 
-1 1:0.072380139 2:2.0381288 3:0.93383754 4:-10.886966 
0.793455949477289 1:0.13752124 2:2.0381288 3:0.93383754 4:-10.886966 
1 1:-0.090472604 2:0.13012672 3:-0.20299283 4:37.007205 
1 1:0.10495069 2:0.13012672 3:-0.20299283 4:37.007205 
1 1:0.20266233 2:0.13012672 3:-0.20299283 4:37.007205 
1 1:0.30037398 2:0.13012672 3:-0.20299283 4:37.007205 
1 1:-0.057902056 2:2.8365067 3:0.21384497 4:-4.6965633 
1 1:0.0072390414 2:2.8365067 3:0.21384497 4:-4.6965633 
1 1:0.072380139 2:2.8365067 3:0.21384497 4:-4.6965633 
1 1:0.13752124 2:2.8365067 3:0.21384497 4:-4.6965633 
-0.3906149664216549 1:-0.12304315 2:3.4358418 3:0.28963366 4:-5.8298179 
1 1:-0.057902056 2:3.4358418 3:0.28963366 4:-5.8298179 
-0.3565104926628282 1:0.072380139 2:3.4358418 3:0.28963366 4:-5.8298179 
-0.7428643860968341 1:0.13752124 2:3.4358418 3:0.28963366 4:-5.8298179 
-1 1:0.0072390414 2:1.7692635 3:-0.013521099 4:18.761806 
-0.9535069851792414 1:0.10495069 2:1.7692635 3:-0.013521099 4:18.761806 
-1 1:0.20266233 2:1.7692635 3:-0.013521099 4:18.761806 
-1 1:0.0072390414 2:-2.544143 3:-0.08930979 4:24.375775 
-1 1:0.10495069 2:-2.544143 3:-0.08930979 4:24.375775 
-1 1:0.20266233 2:-2.544143 3:-0.08930979 4:24.375775 
-1 1:0.30037398 2:-2.544143 3:-0.08930979 4:24.375775 
-1 1:-0.090472604 2:-3.5740844 3:-0.051415445 4:-17.728991 
-0.8802922883751166 1:-0.057902056 2:-3.5740844 3:-0.051415445 4:-17.728991 
-1 1:-0.12304315 2:-0.29946653 3:-0.20299283 4:-17.728991 
-1 1:-0.025331507 2:-0.29946653 3:-0.20299283 4:-17.728991 
0.9785950577236352 1:-0.090472604 2:0.63936861 3:-0.051415445 4:21.368292 
1 1:0.0072390414 2:0.63936861 3:-0.051415445 4:21.368292 
1 1:0.10495069 2:0.63936861 3:-0.051415445 4:21.368292 
1 1:0.30037398 2:0.63936861 3:-0.051415445 4:21.368292 
-1 1:-0.12304315 2:-2.6685845 3:-0.12720414 4:5.0777574 
-0.9674455099366148 1:-0.057902056 2:-2.6685845 3:-0.12720414 4:5.0777574 
1 1:0.0072390414 2:-2.6685845 3:-0.12720414 4:5.0777574 
1 1:0.13752124 2:-2.6685845 3:-0.12720414 4:5.0777574 
1 1:-0.057902056 2:-0.095173223 3:-0.013521099 4:0.51640773 
-0.1878069669833531 1:0.072380139 2:-0.095173223 3:-0.013521099 4:0.51640773 
1 1:0.13752124 2:-0.095173223 3:-0.013521099 4:0.51640773 
-0.03592615597683146 1:-0.12304315 2:-1.6478576 3:-0.24088717 4:12.680007 
1 1:-0.057902056 2:-1.6478576 3:-0.24088717 4:12.680007 
-0.8487276545093443 1:0.0072390414 2:-1.6478576 3:-0.24088717 4:12.680007 
-1 1:0.072380139 2:-1.6478576 3:-0.24088717 4:12.680007 
0.3814322001847517 1:-0.057902056 2:-2.3911873 3:-0.27878152 4:16.481132 
-1 1:0.0072390414 2:-2.3911873 3:-0.27878152 4:16.481132 
0.8432854130391716 1:0.072380139 2:-2.3911873 3:-0.27878152 4:16.481132 
-0.3718927221501526 1:0.13752124 2:-2.3911873 3:-0.27878152 4:16.481132 
-1 1:0.0072390414 2:2.7241402 3:0.28963366 4:6.0693551 
-1 1:0.10495069 2:2.7241402 3:0.28963366 4:6.0693551 
-1 1:0.20266233 2:2.7241402 3:0.28963366 4:6.0693551 
-1 1:0.30037398 2:2.7241402 3:0.28963366 4:6.0693551 
1 1:-0.090472604 2:0.050993149 3:-0.12720414 4:-17.728991 
1 1:-0.025331507 2:0.050993149 3:-0.12720414 4:-17.728991 
-1 1:-0.12304315 2:-3.3405085 3:-0.12720414 4:5.0777574 
-1 1:-0.057902056 2:-3.3405085 3:-0.12720414 4:5.0777574 
-1 1:0.072380139 2:-3.3405085 3:-0.12720414 4:5.0777574 
-1 1:0.13752124 2:-3.3405085 3:-0.12720414 4:5.0777574 
0.4605581904533117 1:0.13752124 2:-1.7186572 3:0.10016194 4:43.089004 
-1 1:0.30037398 2:-1.7186572 3:0.10016194 4:43.089004 
0.748284891696863 1:0.46322672 2:-1.7186572 3:0.10016194 4:43.089004 
-0.1874992442462641 1:0.62607947 2:-1.7186572 3:0.10016194 4:43.089004 
-0.5812906302082181 1:-0.090472604 2:-1.6038488 3:0.062267591 4:14.468771 
-1 1:0.0072390414 2:-1.6038488 3:0.062267591 4:14.468771 
-0.7300642910389016 1:0.20266233 2:-1.6038488 3:0.062267591 4:14.468771 
-0.9735929260083825 1:0.30037398 2:-1.6038488 3:0.062267591 4:14.468771 
-1 1:-0.1556137 2:2.6357789 3:0.32752801 4:-17.728991 
1 1:-0.12304315 2:2.6357789 3:0.32752801 4:-17.728991 
1 1:-0.057902056 2:2.6357789 3:0.32752801 4:-17.728991 
1 1:-0.025331507 2:2.6357789 3:0.32752801 4:-17.728991 
-0.3173072000070335 1:-0.12304315 2:2.2021838 3:0.10016194 4:-2.524492 
-0.9041134613777692 1:-0.057902056 2:2.2021838 3:0.10016194 4:-2.524492 
0.8514510107426138 1:0.072380139 2:2.2021838 3:0.10016194 4:-2.524492 
-1 1:0.13752124 2:2.2021838 3:0.10016194 4:-2.524492 
-1 1:-0.090472604 2:-1.9545771 3:-0.08930979 4:-17.728991 
-0.1370529378104578 1:-0.12304315 2:-1.2584468 3:0.10016194 4:-2.524492 
-0.9410438541231705 1:0.0072390414 2:-1.2584468 3:0.10016194 4:-2.524492 
-0.9961071362514339 1:0.072380139 2:-1.2584468 3:0.10016194 4:-2.524492 
1 1:0.13752124 2:-1.2584468 3:0.10016194 4:-2.524492 
1 1:-0.12304315 2:3.4053938 3:0.13805628 4:-3.3247288 
-1 1:-0.057902056 2:3.4053938 3:0.13805628 4:-3.3247288 
0.8238299716631674 1:0.0072390414 2:3.4053938 3:0.13805628 4:-3.3247288 
0.2465642753614233 1:0.072380139 2:3.4053938 3:0.13805628 4:-3.3247288 
-1 1:-0.1556137 2:2.4074934 3:0.062267591 4:-17.728991 
-1 1:-0.12304315 2:2.4074934 3:0.062267591 4:-17.728991 
1 1:-0.090472604 2:2.4074934 3:0.062267591 4:-17.728991 
-1 1:-0.057902056 2:-0.99207984 3:-0.16509848 4:-17.728991 
-1 1:-0.025331507 2:-0.99207984 3:-0.16509848 4:-17.728991 
0.4797373472528929 1:-0.025331507 2:-1.5582815 3:0.13805628 4:39.888057 
-0.9280808052091207 1:0.13752124 2:-1.5582815 3:0.13805628 4:39.888057 
1 1:0.46322672 2:-1.5582815 3:0.13805628 4:39.888057 
-0.5616808283195556 1:0.62607947 2:-1.5582815 3:0.13805628 4:39.888057 
-1 1:-0.090472604 2:1.3384693 3:0.10016194 4:12.680007 
-1 1:0.10495069 2:1.3384693 3:0.10016194 4:12.680007 
1 1:0.20266233 2:1.3384693 3:0.10016194 4:12.680007 
-0.2948507996525073 1:0.30037398 2:1.3384693 3:0.10016194 4:12.680007 
1 1:-0.12304315 2:-1.8421014 3:-0.16509848 4:7.1510981 
1 1:0.072380139 2:-1.8421014 3:-0.16509848 4:7.1510981 
1 1:0.13752124 2:-1.8421014 3:-0.16509848 4:7.1510981 
-1 1:-0.1556137 2:3.4818651 3:0.10016194 4:-17.728991 
-1 1:-0.12304315 2:3.4818651 3:0.10016194 4:-17.728991 
-1 1:-0.090472604 2:3.4818651 3:0.10016194 4:-17.728991 
-1 1:-0.057902056 2:3.4818651 3:0.10016194 4:-17.728991 
0.9945390326529622 1:-0.090472604 2:-0.53353935 3:0.10016194 4:12.680007 
-0.6333267995250234 1:0.0072390414 2:-0.53353935 3:0.10016194 4:12.680007 
1 1:0.20266233 2:-0.53353935 3:0.10016194 4:12.680007 
-0.1886938674962191 1:0.30037398 2:-0.53353935 3:0.10016194 4:12.680007 
-1 1:-0.12304315 2:0.21795194 3:-0.16509848 4:7.1510981 
-1 1:-0.057902056 2:0.21795194 3:-0.16509848 4:7.1510981 
-1 1:0.072380139 2:0.21795194 3:-0.16509848 4:7.1510981 
-1 1:0.13752124 2:0.21795194 3:-0.16509848 4:7.1510981 
-0.4723137026928673 1:-0.12304315 2:2.8140091 3:0.062267591 4:-1.6301097 
1 1:-0.057902056 2:2.8140091 3:0.062267591 4:-1.6301097 
-0.42777209002447 1:0.072380139 2:2.8140091 3:0.062267591 4:-1.6301097 
-1 1:-0.057902056 2:3.4208233 3:-0.12720414 4:5.0777574 
-1 1:0.0072390414 2:3.4208233 3:-0.12720414 4:5.0777574 
-1 1:0.072380139 2:3.4208233 3:-0.12720414 4:5.0777574 
-0.2529980977680514 1:0.13752124 2:3.4208233 3:-0.12720414 4:5.0777574 
0.01862535917132269 1:-0.12304315 2:3.1786857 3:0.21384497 4:-4.6965633 
1 1:-0.057902056 2:3.1786857 3:0.21384497 4:-4.6965633 
0.3340004898314209 1:0.0072390414 2:3.1786857 3:0.21384497 4:-4.6965633 
1 1:0.072380139 2:3.1786857 3:0.21384497 4:-4.6965633 
0.5383402763641558 1:0.0072390414 2:1.4352541 3:-0.08930979 4:24.375775 
-0.3563604924393071 1:0.20266233 2:1.4352541 3:-0.08930979 4:24.375775 
-1 1:0.30037398 2:1.4352541 3:-0.08930979 4:24.375775 
1 1:-0.12304315 2:0.52663196 3:-0.20299283 4:9.639107 
0.7785825567559399 1:-0.057902056 2:0.52663196 3:-0.20299283 4:9.639107 
1 1:0.13752124 2:0.52663196 3:-0.20299283 4:9.639107 
-0.9940076389651222 1:-0.057902056 2:-2.3708211 3:0.17595063 4:-17.728991 
-1 1:-0.025331507 2:-2.3708211 3:0.17595063 4:-17.728991 
1 1:-0.1556137 2:-1.9824476 3:0.13805628 4:-17.728991 
1 1:-0.12304315 2:3.0923964 3:-0.16509848 4:-17.728991 
-1 1:-0.057902056 2:3.0923964 3:-0.16509848 4:-17.728991 
0.4257632795449247 1:-0.025331507 2:3.0923964 3:-0.16509848 4:-17.728991 
-1 1:-0.057902056 2:1.0961151 3:-0.20299283 4:9.639107 
-1 1:0.072380139 2:1.0961151 3:-0.20299283 4:9.639107 
-1 1:0.13752124 2:1.0961151 3:-0.20299283 4:9.639107 
1 1:-0.057902056 2:3.1928204 3:0.024373246 4:-0.62392968 
1 1:0.0072390414 2:3.1928204 3:0.024373246 4:-0.62392968 
0.5568771977385178 1:0.072380139 2:3.1928204 3:0.024373246 4:-0.62392968 
1 1:0.13752124 2:3.1928204 3:0.024373246 4:-0.62392968 
0.8841512222135607 1:-0.12304315 2:1.4744555 3:0.062267591 4:-1.6301097 
1 1:-0.057902056 2:1.4744555 3:0.062267591 4:-1.6301097 
1 1:0.072380139 2:1.4744555 3:0.062267591 4:-1.6301097 
1 1:0.30037398 2:1.5223471 3:-0.08930979 4:24.375775 
1 1:-0.1556137 2:1.9617052 3:0.062267591 4:-17.728991 
-1 1:-0.12304315 2:1.9617052 3:0.062267591 4:-17.728991 
-1 1:-0.057902056 2:1.9617052 3:0.062267591 4:-17.728991 
0.5433490970343788 1:0.072380139 2:-1.7265801 3:0.10016194 4:27.884506 
-1 1:0.20266233 2:-1.7265801 3:0.10016194 4:27.884506 
0.4991927705843496 1:0.33294453 2:-1.7265801 3:0.10016194 4:27.884506 
-0.2804795353031105 1:0.46322672 2:-1.7265801 3:0.10016194 4:27.884506 
-0.6270310172476645 1:-0.090472604 2:2.5022779 3:0.13805628 4:11.079533 
1 1:0.0072390414 2:2.5022779 3:0.13805628 4:11.079533 
1 1:0.20266233 2:2.5022779 3:0.13805628 4:11.079533 
1 1:0.30037398 2:2.5022779 3:0.13805628 4:11.079533 
-0.9725763341786434 1:-0.057902056 2:-3.0461319 3:-0.16509848 4:56.911276 
-1 1:0.072380139 2:-3.0461319 3:-0.16509848 4:56.911276 
-0.6686618064585294 1:0.20266233 2:-3.0461319 3:-0.16509848 4:56.911276 
-1 1:0.33294453 2:-3.0461319 3:-0.16509848 4:56.911276 
1 1:-0.057902056 2:1.5058767 3:0.32752801 4:-17.728991 
1 1:-0.12304315 2:3.7984736 3:0.13805628 4:-3.3247288 
-0.8808780957382945 1:-0.057902056 2:3.7984736 3:0.13805628 4:-3.3247288 
-1 1:0.072380139 2:3.7984736 3:0.13805628 4:-3.3247288 
-1 1:0.13752124 2:3.7984736 3:0.13805628 4:-3.3247288 
0.3257358206233903 1:-0.12304315 2:3.7910975 3:0.44121105 4:-7.5926583 
-0.9493545019571417 1:-0.057902056 2:3.7910975 3:0.44121105 4:-7.5926583 
1 1:0.072380139 2:3.7910975 3:0.44121105 4:-7.5926583 
-1 1:0.13752124 2:3.7910975 3:0.44121105 4:-7.5926583 
0.05359414816364927 1:-0.090472604 2:0.75368783 3:0.024373246 4:16.481132 
-1 1:0.0072390414 2:0.75368783 3:0.024373246 4:16.481132 
1 1:0.10495069 2:0.75368783 3:0.024373246 4:16.481132 
-0.8910988115115187 1:0.20266233 2:0.75368783 3:0.024373246 4:16.481132 
1 1:0.10495069 2:-1.1891528 3:-0.12720414 4:27.884506 
1 1:0.20266233 2:-1.1891528 3:-0.12720414 4:27.884506 
1 1:0.30037398 2:-1.1891528 3:-0.12720414 4:27.884506 
0.2371816891931522 1:-0.12304315 2:2.1615563 3:0.13805628 4:-3.3247288 
-1 1:-0.057902056 2:2.1615563 3:0.13805628 4:-3.3247288 
-1 1:0.0072390414 2:2.1615563 3:0.13805628 4:-3.3247288 
-1 1:0.072380139 2:2.1615563 3:0.13805628 4:-3.3247288 
0.3882719546847363 1:-0.025331507 2:-1.1465376 3:0.21384497 4:34.400719 
-1 1:0.13752124 2:-1.1465376 3:0.21384497 4:34.400719 
0.7430114317485438 1:0.30037398 2:-1.1465376 3:0.21384497 4:34.400719 
-0.1396367582069624 1:0.62607947 2:-1.1465376 3:0.21384497 4:34.400719 
1 1:-0.1556137 2:0.76275513 3:0.13805628 4:-17.728991 
1 1:-0.12304315 2:0.76275513 3:0.13805628 4:-17.728991 
1 1:-0.090472604 2:0.76275513 3:0.13805628 4:-17.728991 
1 1:-0.057902056 2:0.76275513 3:0.13805628 4:-17.728991 
0.5174774582304771 1:-0.057902056 2:-1.8451384 3:-0.24088717 4:73.498002 
-1 1:0.072380139 2:-1.8451384 3:-0.24088717 4:73.498002 
1 1:0.33294453 2:-1.8451384 3:-0.24088717 4:73.498002 
-0.5177003178704453 1:0.46322672 2:-1.8451384 3:-0.24088717 4:73.498002 
0.3880170801541069 1:0.10495069 2:-0.98671676 3:-0.013521099 4:18.761806 
-0.9416368185298795 1:-0.12304315 2:-1.3198549 3:0.024373246 4:-0.62392968 
-1 1:-0.057902056 2:-1.3198549 3:0.024373246 4:-0.62392968 
-1 1:0.13752124 2:-1.3198549 3:0.024373246 4:-0.62392968 
1 1:-0.12304315 2:-0.30701446 3:0.17595063 4:-17.728991 
1 1:-0.057902056 2:-0.30701446 3:0.17595063 4:-17.728991 
0.6592926795327901 1:-0.090472604 2:-1.1276939 3:-0.12720414 4:27.884506 
0.8785819291658685 1:0.0072390414 2:-1.1276939 3:-0.12720414 4:27.884506 
1 1:0.20266233 2:-1.1276939 3:-0.12720414 4:27.884506 
0.8878469854788634 1:0.30037398 2:-1.1276939 3:-0.12720414 4:27.884506 
-0.7339837841690878 1:-0.090472604 2:0.20426529 3:0.10016194 4:12.680007 
-1 1:0.0072390414 2:0.20426529 3:0.10016194 4:12.680007 
-1 1:0.20266233 2:0.20426529 3:0.10016194 4:12.680007 
-1 1:0.30037398 2:0.20426529 3:0.10016194 4:12.680007 
-0.4745752454961494 1:-0.12304315 2:-3.0627353 3:0.10016194 4:-2.524492 
0.8958523410532508 1:-0.057902056 2:-3.0627353 3:0.10016194 4:-2.524492 
-0.5272673822839972 1:0.072380139 2:-3.0627353 3:0.10016194 4:-2.524492 
-0.1170154955173174 1:0.13752124 2:-3.0627353 3:0.10016194 4:-2.524492 
-1 1:0.0072390414 2:-2.1761816 3:-0.051415445 4:21.368292 
-1 1:0.10495069 2:-2.1761816 3:-0.051415445 4:21.368292 
-1 1:0.20266233 2:-2.1761816 3:-0.051415445 4:21.368292 
-1 1:0.30037398 2:-2.1761816 3:-0.051415445 4:21.368292 
-1 1:-0.12304315 2:1.0234182 3:-0.12720414 4:5.0777574 
-1 1:-0.057902056 2:1.0234182 3:-0.12720414 4:5.0777574 
-0.5309438176339986 1:-0.12304315 2:-0.0012385771 3:0.062267591 4:-1.6301097 
1 1:-0.057902056 2:-0.0012385771 3:0.062267591 4:-1.6301097 
1 1:0.072380139 2:-0.0012385771 3:0.062267591 4:-1.6301097 
0.4569590968247801 1:0.13752124 2:-0.0012385771 3:0.062267591 4:-1.6301097 
-1 1:0.0072390414 2:2.5045183 3:0.28963366 4:6.0693551 
1 1:0.10495069 2:2.5045183 3:0.28963366 4:6.0693551 
-0.1922944844399735 1:0.20266233 2:2.5045183 3:0.28963366 4:6.0693551 
-0.4297853676841706 1:0.30037398 2:2.5045183 3:0.28963366 4:6.0693551 
-1 1:-0.12304315 2:2.1370402 3:0.024373246 4:-0.62392968 
-1 1:-0.057902056 2:2.1370402 3:0.024373246 4:-0.62392968 
-1 1:0.0072390414 2:2.1370402 3:0.024373246 4:-0.62392968 
-0.7288784327464399 1:0.072380139 2:2.1370402 3:0.024373246 4:-0.62392968 
0.5711885466628647 1:-0.090472604 2:-1.5980552 3:-0.12720414 4:27.884506 
1 1:0.10495069 2:-1.5980552 3:-0.12720414 4:27.884506 
1 1:0.30037398 2:-1.5980552 3:-0.12720414 4:27.884506 
-1 1:-0.1556137 2:3.4004689 3:0.10016194 4:-17.728991 
1 1:-0.12304315 2:3.4004689 3:0.10016194 4:-17.728991 
-1 1:-0.057902056 2:3.4004689 3:0.10016194 4:-17.728991 
-1 1:-0.12304315 2:-1.1747608 3:-0.16509848 4:-17.728991 
-1 1:-0.057902056 2:-1.5043993 3:-0.20299283 4:9.639107 
-0.3519834236269201 1:0.072380139 2:-1.5043993 3:-0.20299283 4:9.639107 
-1 1:0.13752124 2:-1.5043993 3:-0.20299283 4:9.639107 
0.5971174225624244 1:-0.057902056 2:2.2610364 3:0.062267591 4:-1.6301097 
1 1:0.072380139 2:2.2610364 3:0.062267591 4:-1.6301097 
-1 1:-0.057902056 2:-3.594455 3:-0.20299283 4:9.639107 
-1 1:0.0072390414 2:-3.594455 3:-0.20299283 4:9.639107 
-1 1:0.072380139 2:-3.594455 3:-0.20299283 4:9.639107 
-1 1:0.13752124 2:-3.594455 3:-0.20299283 4:9.639107 
-1 1:-0.1556137 2:-1.0795774 3:-0.16509848 4:-17.728991 
-1 1:-0.057902056 2:-1.0795774 3:-0.16509848 4:-17.728991 
-0.777087015322908 1:-0.025331507 2:-1.0795774 3:-0.16509848 4:-17.728991 
-0.8592018791838368 1:-0.090472604 2:-3.2766636 3:0.024373246 4:16.481132 
1 1:0.0072390414 2:-3.2766636 3:0.024373246 4:16.481132 
-0.129327947587354 1:0.20266233 2:-3.2766636 3:0.024373246 4:16.481132 
0.9244057773758002 1:0.30037398 2:-3.2766636 3:0.024373246 4:16.481132 
1 1:-0.090472604 2:1.3583183 3:0.062267591 4:-17.728991 
-1 1:-0.1556137 2:3.0448562 3:-0.013521099 4:-17.728991 
-1 1:-0.12304315 2:3.0448562 3:-0.013521099 4:-17.728991 
-1 1:-0.090472604 2:3.0448562 3:-0.013521099 4:-17.728991 
-1 1:-0.057902056 2:3.0448562 3:-0.013521099 4:-17.728991 
1 1:-0.12304315 2:2.4360551 3:0.21384497 4:-4.6965633 
-1 1:0.0072390414 2:2.4360551 3:0.21384497 4:-4.6965633 
-0.3953481264360623 1:0.072380139 2:2.4360551 3:0.21384497 4:-4.6965633 
-1 1:0.13752124 2:2.4360551 3:0.21384497 4:-4.6965633 
1 1:-0.057902056 2:3.8970729 3:0.062267591 4:30.567652 
-1 1:0.20266233 2:3.8970729 3:0.062267591 4:30.567652 
-1 1:0.33294453 2:3.8970729 3:0.062267591 4:30.567652 
-1 1:0.46322672 2:3.8970729 3:0.062267591 4:30.567652 
0.1675320267620091 1:0.072380139 2:-4.0493257 3:-0.20299283 4:64.375303 
-0.4929282015406121 1:0.20266233 2:-4.0493257 3:-0.20299283 4:64.375303 
0.4985441817803924 1:0.33294453 2:-4.0493257 3:-0.20299283 4:64.375303 
-0.1746536680613151 1:0.46322672 2:-4.0493257 3:-0.20299283 4:64.375303 
0.01176137617937836 1:-0.057902056 2:1.2059024 3:0.024373246 4:-0.62392968 
0.5171063715054729 1:0.0072390414 2:1.2059024 3:0.024373246 4:-0.62392968 
-0.8805233028769187 1:0.072380139 2:1.2059024 3:0.024373246 4:-0.62392968 
-1 1:-0.090472604 2:-1.8372062 3:0.024373246 4:16.481132 
-1 1:0.0072390414 2:-1.8372062 3:0.024373246 4:16.481132 
0.9133876074967812 1:0.10495069 2:-1.8372062 3:0.024373246 4:16.481132 
-1 1:0.20266233 2:-1.8372062 3:0.024373246 4:16.481132 
0.6343327499708449 1:-0.090472604 2:-0.80691294 3:0.024373246 4:16.481132 
1 1:0.0072390414 2:-0.80691294 3:0.024373246 4:16.481132 
-1 1:0.20266233 2:-0.80691294 3:0.024373246 4:16.481132 
-0.9375931811393937 1:0.30037398 2:-0.80691294 3:0.024373246 4:16.481132 
1 1:-0.057902056 2:1.5152261 3:-0.013521099 4:0.51640773 
1 1:0.0072390414 2:1.5152261 3:-0.013521099 4:0.51640773 
-1 1:-0.1556137 2:1.9812709 3:-0.16509848 4:-17.728991 
-1 1:-0.12304315 2:1.9812709 3:-0.16509848 4:-17.728991 
-1 1:-0.090472604 2:1.9812709 3:-0.16509848 4:-17.728991 
-1 1:-0.057902056 2:1.9812709 3:-0.16509848 4:-17.728991 
0.9902511052105551 1:-0.090472604 2:2.8479997 3:0.10016194 4:12.680007 
-0.849740728592857 1:0.0072390414 2:2.8479997 3:0.10016194 4:12.680007 
-0.5930941587247137 1:0.20266233 2:2.8479997 3:0.10016194 4:12.680007 
-0.09869333083227125 1:0.30037398 2:2.8479997 3:0.10016194 4:12.680007 
-1 1:-0.12304315 2:1.4175159 3:-0.08930979 4:3.3233921 
-0.5411993482177423 1:0.13752124 2:1.4175159 3:-0.08930979 4:3.3233921 
1 1:-0.090472604 2:-1.922534 3:-0.20299283 4:-17.728991 
1 1:-0.025331507 2:-1.922534 3:-0.20299283 4:-17.728991 
-1 1:-0.12304315 2:2.8207883 3:0.21384497 4:-17.728991 
-1 1:-0.090472604 2:2.8207883 3:0.21384497 4:-17.728991 
-1 1:-0.057902056 2:2.8207883 3:0.21384497 4:-17.728991 
-1 1:-0.025331507 2:2.8207883 3:0.21384497 4:-17.728991 
1 1:-0.057902056 2:1.5719042 3:0.024373246 4:-17.728991 
0.9874748775953809 1:-0.090472604 2:0.88676532 3:0.17595063 4:9.639107 
-0.2034077554246326 1:0.0072390414 2:0.88676532 3:0.17595063 4:9.639107 
1 1:0.10495069 2:0.88676532 3:0.17595063 4:9.639107 
1 1:0.30037398 2:0.88676532 3:0.17595063 4:9.639107 
0.7369751350820665 1:-0.12304315 2:-1.1473266 3:0.28963366 4:-17.728991 
-1 1:-0.1556137 2:1.5584239 3:0.10016194 4:-17.728991 
1 1:-0.12304315 2:1.5584239 3:0.10016194 4:-17.728991 
1 1:-0.090472604 2:1.5584239 3:0.10016194 4:-17.728991 
1 1:-0.025331507 2:1.5584239 3:0.10016194 4:-17.728991 
1 1:-0.1556137 2:2.6659417 3:-0.08930979 4:-17.728991 
1 1:-0.090472604 2:2.6659417 3:-0.08930979 4:-17.728991 
1 1:-0.057902056 2:2.6659417 3:-0.08930979 4:-17.728991 
1 1:-0.025331507 2:2.6659417 3:-0.08930979 4:-17.728991 
1 1:-0.057902056 2:-0.034027706 3:-0.051415445 4:1.8196505 
0.02877534165782271 1:0.13752124 2:-0.034027706 3:-0.051415445 4:1.8196505 
1 1:-0.12304315 2:-1.7568428 3:-0.20299283 4:-17.728991 
1 1:-0.057902056 2:-1.7568428 3:-0.20299283 4:-17.728991 
0.4278883906862366 1:-0.057902056 2:-3.7069322 3:0.062267591 4:-1.6301097 
-0.9824514951664317 1:0.0072390414 2:-3.7069322 3:0.062267591 4:-1.6301097 
0.9346516771478034 1:0.072380139 2:-3.7069322 3:0.062267591 4:-1.6301097 
-0.8660857835952857 1:0.13752124 2:-3.7069322 3:0.062267591 4:-1.6301097 
-0.3617194464036158 1:-0.12304315 2:3.1040908 3:0.062267591 4:-17.728991 
-1 1:-0.090472604 2:3.1040908 3:0.062267591 4:-17.728991 
-0.2698440380120135 1:-0.057902056 2:3.1040908 3:0.062267591 4:-17.728991 
-1 1:-0.025331507 2:3.1040908 3:0.062267591 4:-17.728991 
-1 1:0.0072390414 2:1.2334327 3:-0.16509848 4:7.1510981 
-1 1:0.072380139 2:1.2334327 3:-0.16509848 4:7.1510981 
-0.2665626417657009 1:-0.090472604 2:1.4147907 3:0.10016194 4:12.680007 
-1 1:0.0072390414 2:1.4147907 3:0.10016194 4:12.680007 
-1 1:0.20266233 2:1.4147907 3:0.10016194 4:12.680007 
-1 1:0.30037398 2:1.4147907 3:0.10016194 4:12.680007 
0.1802875279091732 1:-0.1556137 2:2.959987 3:0.85804884 4:-17.728991 
0.9168616630039578 1:-0.12304315 2:2.959987 3:0.85804884 4:-17.728991 
1 1:-0.090472604 2:2.959987 3:0.85804884 4:-17.728991 
1 1:-0.057902056 2:2.959987 3:0.85804884 4:-17.728991 
0.04186806361262191 1:0.0072390414 2:-2.0345609 3:-0.16509848 4:32.031187 
1 1:0.10495069 2:-2.0345609 3:-0.16509848 4:32.031187 
-1 1:0.20266233 2:-2.0345609 3:-0.16509848 4:32.031187 
1 1:0.30037398 2:-2.0345609 3:-0.16509848 4:32.031187 
0.254075881830581 1:-0.090472604 2:-1.6411163 3:-0.16509848 4:32.031187 
-0.7446011448613438 1:0.0072390414 2:-1.6411163 3:-0.16509848 4:32.031187 
1 1:0.10495069 2:-1.6411163 3:-0.16509848 4:32.031187 
1 1:-0.057902056 2:-2.735864 3:-0.20299283 4:9.639107 
1 1:0.072380139 2:-2.735864 3:-0.20299283 4:9.639107 
-0.9187153457647452 1:0.13752124 2:-2.735864 3:-0.20299283 4:9.639107 
-0.9893254733966884 1:0.10495069 2:-2.2651983 3:-0.16509848 4:32.031187 
-1 1:0.20266233 2:-2.2651983 3:-0.16509848 4:32.031187 
-1 1:0.30037398 2:-2.2651983 3:-0.16509848 4:32.031187 
-1 1:-0.12304315 2:2.2711711 3:-0.12720414 4:-17.728991 
-1 1:-0.090472604 2:2.2711711 3:-0.12720414 4:-17.728991 
-1 1:-0.057902056 2:2.2711711 3:-0.12720414 4:-17.728991 
-1 1:-0.025331507 2:2.2711711 3:-0.12720414 4:-17.728991 
-1 1:0.072380139 2:-2.2594045 3:-0.12720414 4:50.691254 
-0.05589544758563836 1:0.20266233 2:-2.2594045 3:-0.12720414 4:50.691254 
-1 1:0.33294453 2:-2.2594045 3:-0.12720414 4:50.691254 
-0.5477129314271586 1:0.46322672 2:-2.2594045 3:-0.12720414 4:50.691254 
-0.5247997449033148 1:-0.057902056 2:-0.34551514 3:0.13805628 4:-3.3247288 
0.9190596604128439 1:0.0072390414 2:-0.34551514 3:0.13805628 4:-3.3247288 
0.9782577144728426 1:0.072380139 2:-0.34551514 3:0.13805628 4:-3.3247288 
1 1:0.13752124 2:-0.34551514 3:0.13805628 4:-3.3247288 
1 1:-0.090472604 2:-0.32473796 3:-0.013521099 4:-17.728991 
1 1:-0.025331507 2:-0.32473796 3:-0.013521099 4:-17.728991 
-1 1:-0.1556137 2:0.46720308 3:-0.12720414 4:-17.728991 
-1 1:-0.12304315 2:0.46720308 3:-0.12720414 4:-17.728991 
-1 1:-0.090472604 2:0.46720308 3:-0.12720414 4:-17.728991 
-1 1:-0.057902056 2:0.46720308 3:-0.12720414 4:-17.728991 
-1 1:-0.057902056 2:0.3691393 3:-0.16509848 4:7.1510981 
-1 1:0.13752124 2:0.3691393 3:-0.16509848 4:7.1510981 
-1 1:0.0072390414 2:1.9513545 3:-0.12720414 4:5.0777574 
-1 1:0.072380139 2:1.9513545 3:-0.12720414 4:5.0777574 
1 1:-0.12304315 2:1.9278878 3:-0.20299283 4:9.639107 
1 1:-0.057902056 2:1.9278878 3:-0.20299283 4:9.639107 
1 1:0.072380139 2:1.9278878 3:-0.20299283 4:9.639107 
1 1:0.13752124 2:1.9278878 3:-0.20299283 4:9.639107 
1 1:-0.057902056 2:0.094435666 3:0.28963366 4:-17.728991 
1 1:-0.025331507 2:0.094435666 3:0.28963366 4:-17.728991 
-1 1:0.0072390414 2:-2.6168735 3:-0.013521099 4:18.761806 
1 1:0.10495069 2:-2.6168735 3:-0.013521099 4:18.761806 
0.6701285875202222 1:0.20266233 2:-2.6168735 3:-0.013521099 4:18.761806 
1 1:0.30037398 2:-2.6168735 3:-0.013521099 4:18.761806 
1 1:-0.12304315 2:2.3156677 3:0.10016194 4:-2.524492 
1 1:-0.057902056 2:2.3156677 3:0.10016194 4:-2.524492 
1 1:0.0072390414 2:2.3156677 3:0.10016194 4:-2.524492 
1 1:0.072380139 2:2.3156677 3:0.10016194 4:-2.524492 
-1 1:-0.1556137 2:-0.55335791 3:-0.051415445 4:-17.728991 
1 1:-0.12304315 2:1.2045984 3:0.70647146 4:-17.728991 
1 1:-0.090472604 2:1.2045984 3:0.70647146 4:-17.728991 
0.3579887357840111 1:-0.057902056 2:1.2045984 3:0.70647146 4:-17.728991 
1 1:-0.025331507 2:1.2045984 3:0.70647146 4:-17.728991 
1 1:-0.1556137 2:3.1527736 3:0.21384497 4:-17.728991 
-1 1:-0.057902056 2:3.1527736 3:0.21384497 4:-17.728991 
1 1:-0.12304315 2:-0.98551936 3:-0.08930979 4:3.3233921 
1 1:-0.057902056 2:-0.98551936 3:-0.08930979 4:3.3233921 
1 1:0.072380139 2:-0.98551936 3:-0.08930979 4:3.3233921 
1 1:0.13752124 2:-0.98551936 3:-0.08930979 4:3.3233921 
0.257785309291421 1:-0.12304315 2:-2.8060761 3:-0.08930979 4:3.3233921 
1 1:0.0072390414 2:-2.8060761 3:-0.08930979 4:3.3233921 
1 1:0.072380139 2:-2.8060761 3:-0.08930979 4:3.3233921 
1 1:0.13752124 2:-2.8060761 3:-0.08930979 4:3.3233921 
-1 1:-0.057902056 2:0.57309842 3:-0.16509848 4:7.1510981 
-1 1:0.0072390414 2:0.57309842 3:-0.16509848 4:7.1510981 
-1 1:0.13752124 2:0.57309842 3:-0.16509848 4:7.1510981 
-0.4439739320113927 1:-0.1556137 2:2.1688909 3:0.17595063 4:-17.728991 
1 1:-0.090472604 2:2.1688909 3:0.17595063 4:-17.728991 
1 1:-0.057902056 2:2.1688909 3:0.17595063 4:-17.728991 
-1 1:-0.12304315 2:0.023996415 3:-0.051415445 4:-17.728991 
-1 1:-0.090472604 2:0.023996415 3:-0.051415445 4:-17.728991 
-1 1:-0.057902056 2:0.023996415 3:-0.051415445 4:-17.728991 
-1 1:-0.025331507 2:0.023996415 3:-0.051415445 4:-17.728991 
-1 1:-0.090472604 2:1.8592122 3:0.024373246 4:-17.728991 
1 1:-0.12304315 2:-2.2266566 3:-0.16509848 4:7.1510981 
-1 1:0.13752124 2:-2.2266566 3:-0.16509848 4:7.1510981 
0.1058738024526924 1:-0.1556137 2:3.2209726 3:-0.051415445 4:-17.728991 
1 1:-0.12304315 2:3.2209726 3:-0.051415445 4:-17.728991 
-1 1:-0.057902056 2:3.2209726 3:-0.051415445 4:-17.728991 
-1 1:-0.025331507 2:3.2209726 3:-0.051415445 4:-17.728991 
-1 1:-0.12304315 2:-2.3797914 3:0.13805628 4:-17.728991 
-1 1:-0.090472604 2:-2.3797914 3:0.13805628 4:-17.728991 
-1 1:-0.057902056 2:-2.3797914 3:0.13805628 4:-17.728991 
-1 1:-0.025331507 2:-2.3797914 3:0.13805628 4:-17.728991 
0.2400861620480688 1:-0.090472604 2:3.8719628 3:0.78226015 4:-2.524492 
-0.8497239702659533 1:0.0072390414 2:3.8719628 3:0.78226015 4:-2.524492 
0.9735860817648851 1:0.10495069 2:3.8719628 3:0.78226015 4:-2.524492 
-0.3666341471821654 1:0.20266233 2:3.8719628 3:0.78226015 4:-2.524492 
0.1554943772258583 1:-0.12304315 2:1.6347121 3:-0.051415445 4:1.8196505 
-1 1:0.0072390414 2:1.6347121 3:-0.051415445 4:1.8196505 
1 1:0.072380139 2:1.6347121 3:-0.051415445 4:1.8196505 
-0.5357167101029582 1:0.13752124 2:1.6347121 3:-0.051415445 4:1.8196505 
1 1:-0.12304315 2:3.4530252 3:0.024373246 4:-17.728991 
1 1:-0.090472604 2:3.4530252 3:0.024373246 4:-17.728991 
1 1:-0.057902056 2:3.4530252 3:0.024373246 4:-17.728991 
1 1:-0.025331507 2:3.4530252 3:0.024373246 4:-17.728991 
-1 1:-0.057902056 2:-2.3429852 3:-0.16509848 4:7.1510981 
-1 1:0.0072390414 2:-2.3429852 3:-0.16509848 4:7.1510981 
-1 1:0.072380139 2:-2.3429852 3:-0.16509848 4:7.1510981 
-1 1:0.13752124 2:-2.3429852 3:-0.16509848 4:7.1510981 
0.4374965087748167 1:-0.12304315 2:1.7930778 3:-0.12720414 4:5.0777574 
-1 1:0.13752124 2:1.7930778 3:-0.12720414 4:5.0777574 
-0.06321935307454177 1:-0.090472604 2:0.94752581 3:0.85804884 4:-17.728991 
-0.8974754848215869 1:-0.025331507 2:0.94752581 3:0.85804884 4:-17.728991 
-0.5692316433050656 1:-0.12304315 2:2.7967905 3:0.10016194 4:-2.524492 
-1 1:-0.057902056 2:2.7967905 3:0.10016194 4:-2.524492 
-1 1:0.072380139 2:2.7967905 3:0.10016194 4:-2.524492 
-1 1:0.13752124 2:2.7967905 3:0.10016194 4:-2.524492 
-0.9863141756976075 1:-0.12304315 2:1.6952968 3:-0.08930979 4:3.3233921 
-1 1:-0.057902056 2:1.6952968 3:-0.08930979 4:3.3233921 
-1 1:0.0072390414 2:1.6952968 3:-0.08930979 4:3.3233921 
-1 1:0.072380139 2:1.6952968 3:-0.08930979 4:3.3233921 
-0.9539994091499459 1:-0.12304315 2:0.38380577 3:-0.08930979 4:3.3233921 
1 1:0.072380139 2:0.38380577 3:-0.08930979 4:3.3233921 
-1 1:-0.057902056 2:-0.34752058 3:-0.12720414 4:5.0777574 
-0.8759468002360405 1:-0.057902056 2:2.1343406 3:-0.16509848 4:7.1510981 
0.8308298735492458 1:0.072380139 2:2.1343406 3:-0.16509848 4:7.1510981 
1 1:0.13752124 2:2.1343406 3:-0.16509848 4:7.1510981 
-1 1:-0.090472604 2:-0.77715623 3:0.024373246 4:16.481132 
0.7670591695252693 1:0.0072390414 2:-0.77715623 3:0.024373246 4:16.481132 
1 1:0.10495069 2:-0.77715623 3:0.024373246 4:16.481132 
1 1:0.30037398 2:-0.77715623 3:0.024373246 4:16.481132 
1 1:0.0072390414 2:-0.90348497 3:-0.051415445 4:21.368292 
1 1:0.10495069 2:-0.90348497 3:-0.051415445 4:21.368292 
1 1:0.20266233 2:-0.90348497 3:-0.051415445 4:21.368292 
1 1:0.30037398 2:-0.90348497 3:-0.051415445 4:21.368292 
1 1:-0.12304315 2:-0.15222797 3:0.17595063 4:-4.0449419 
1 1:0.0072390414 2:-0.15222797 3:0.17595063 4:-4.0449419 
1 1:0.072380139 2:-0.15222797 3:0.17595063 4:-4.0449419 
1 1:0.13752124 2:-0.15222797 3:0.17595063 4:-4.0449419 
0.2111239724415669 1:-0.12304315 2:3.51795 3:0.4033167 4:-17.728991 
-1 1:-0.12304315 2:2.338159 3:0.10016194 4:-2.524492 
-1 1:-0.057902056 2:2.338159 3:0.10016194 4:-2.524492 
-1 1:0.0072390414 2:2.338159 3:0.10016194 4:-2.524492 
-1 1:0.072380139 2:2.338159 3:0.10016194 4:-2.524492 
-0.6674351919173633 1:-0.12304315 2:-1.2116599 3:-0.20299283 4:9.639107 
0.5134966498638922 1:-0.090472604 2:-3.276982 3:0.21384497 4:8.3358643 
-0.8432306969771821 1:0.0072390414 2:-3.276982 3:0.21384497 4:8.3358643 
0.1501931059392108 1:0.10495069 2:-3.276982 3:0.21384497 4:8.3358643 
0.1962540178268862 1:0.20266233 2:-3.276982 3:0.21384497 4:8.3358643 
-1 1:-0.1556137 2:3.3732046 3:0.024373246 4:-17.728991 
-1 1:-0.12304315 2:3.3732046 3:0.024373246 4:-17.728991 
1 1:-0.025331507 2:3.3732046 3:0.024373246 4:-17.728991 
-0.2500043961199084 1:-0.12304315 2:-2.0964921 3:0.28963366 4:-17.728991 
-1 1:-0.090472604 2:-2.0964921 3:0.28963366 4:-17.728991 
1 1:-0.057902056 2:-2.0964921 3:0.28963366 4:-17.728991 
0.04864952170039595 1:-0.025331507 2:-2.0964921 3:0.28963366 4:-17.728991 
-1 1:-0.090472604 2:1.9416028 3:0.024373246 4:-17.728991 
-1 1:-0.057902056 2:1.9416028 3:0.024373246 4:-17.728991 
-1 1:-0.025331507 2:1.9416028 3:0.024373246 4:-17.728991 
-1 1:0.13752124 2:1.4746141 3:-0.20299283 4:9.639107 
-0.4720563111401846 1:-0.12304315 2:3.1158297 3:0.10016194 4:-2.524492 
-1 1:-0.057902056 2:3.1158297 3:0.10016194 4:-2.524492 
-1 1:0.0072390414 2:3.1158297 3:0.10016194 4:-2.524492 
-1 1:0.13752124 2:3.1158297 3:0.10016194 4:-2.524492 
-0.964548324865628 1:-0.1556137 2:-1.4674294 3:0.024373246 4:-17.728991 
0.2799916157511048 1:-0.090472604 2:-1.4674294 3:0.024373246 4:-17.728991 
0.9242676162548652 1:-0.057902056 2:-1.8586474 3:-0.16509848 4:-17.728991 
-1 1:-0.057902056 2:2.1116777 3:-0.12720414 4:5.0777574 
1 1:0.072380139 2:2.1116777 3:-0.12720414 4:5.0777574 
-1 1:-0.12304315 2:3.1027915 3:0.10016194 4:-2.524492 
0.2585118431805972 1:-0.057902056 2:3.1027915 3:0.10016194 4:-2.524492 
-1 1:-0.12304315 2:-1.2210297 3:-0.12720414 4:-17.728991 
-1 1:-0.090472604 2:-1.2210297 3:-0.12720414 4:-17.728991 
-1 1:-0.057902056 2:1.2255825 3:-0.16509848 4:7.1510981 
-1 1:0.13752124 2:1.2255825 3:-0.16509848 4:7.1510981 
-1 1:-0.090472604 2:0.11291551 3:0.21384497 4:-17.728991 
1 1:-0.025331507 2:0.11291551 3:0.21384497 4:-17.728991 
-1 1:-0.057902056 2:0.9199635 3:-0.24088717 4:12.680007 
-1 1:0.0072390414 2:0.9199635 3:-0.24088717 4:12.680007 
1 1:0.072380139 2:0.9199635 3:-0.24088717 4:12.680007 
-1 1:0.13752124 2:0.9199635 3:-0.24088717 4:12.680007 
0.3078544774267434 1:-0.090472604 2:-2.6880258 3:0.062267591 4:14.468771 
0.2430040642386028 1:0.30037398 2:-2.6880258 3:0.062267591 4:14.468771 
1 1:-0.12304315 2:-1.0721586 3:-0.12720414 4:5.0777574 
-1 1:0.0072390414 2:-1.3726506 3:0.024373246 4:16.481132 
-0.7842531703275244 1:0.20266233 2:-1.3726506 3:0.024373246 4:16.481132 
-0.05651813105791096 1:0.072380139 2:0.092235968 3:-0.013521099 4:37.007205 
0.8466877883777639 1:-0.057902056 2:-2.2993338 3:0.13805628 4:25.483795 
1 1:0.072380139 2:-2.2993338 3:0.13805628 4:25.483795 
1 1:0.20266233 2:-2.2993338 3:0.13805628 4:25.483795 
1 1:0.33294453 2:-2.2993338 3:0.13805628 4:25.483795 
-1 1:-0.1556137 2:-3.3617924 3:-0.20299283 4:-17.728991 
-1 1:-0.12304315 2:-3.3617924 3:-0.20299283 4:-17.728991 
-1 1:-0.090472604 2:-3.3617924 3:-0.20299283 4:-17.728991 
-1 1:-0.057902056 2:-3.3617924 3:-0.20299283 4:-17.728991 
-1 1:0.0072390414 2:2.0139351 3:-0.16509848 4:7.1510981 
-1 1:0.072380139 2:2.0139351 3:-0.16509848 4:7.1510981 
-1 1:0.13752124 2:2.0139351 3:-0.16509848 4:7.1510981 
-0.2994956659596431 1:0.0072390414 2:3.9186941 3:-0.16509848 4:32.031187 
1 1:0.10495069 2:3.9186941 3:-0.16509848 4:32.031187 
-1 1:0.20266233 2:3.9186941 3:-0.16509848 4:32.031187 
0.2642160257236301 1:0.30037398 2:3.9186941 3:-0.16509848 4:32.031187 
1 1:-0.12304315 2:-3.4320216 3:-0.12720414 4:5.0777574 
1 1:-0.057902056 2:-3.4320216 3:-0.12720414 4:5.0777574 
1 1:0.072380139 2:-3.4320216 3:-0.12720414 4:5.0777574 
1 1:0.13752124 2:-3.4320216 3:-0.12720414 4:5.0777574 
-1 1:-0.057902056 2:2.3766553 3:-0.16509848 4:7.1510981 
0.328273523506034 1:-0.057902056 2:0.37609619 3:0.024373246 4:33.586193 
-1 1:0.072380139 2:0.37609619 3:0.024373246 4:33.586193 
1 1:0.20266233 2:0.37609619 3:0.024373246 4:33.586193 
-0.3250429053108266 1:0.33294453 2:0.37609619 3:0.024373246 4:33.586193 
1 1:-0.12304315 2:2.4421243 3:0.28963366 4:-17.728991 
1 1:-0.090472604 2:2.4421243 3:0.28963366 4:-17.728991 
1 1:-0.057902056 2:2.4421243 3:0.28963366 4:-17.728991 
1 1:-0.025331507 2:2.4421243 3:0.28963366 4:-17.728991 
1 1:0.0072390414 2:-1.6456566 3:0.17595063 4:9.639107 
1 1:0.10495069 2:-1.6456566 3:0.17595063 4:9.639107 
1 1:0.20266233 2:-1.6456566 3:0.17595063 4:9.639107 
1 1:0.30037398 2:-1.6456566 3:0.17595063 4:9.639107 
-1 1:-0.12304315 2:-0.31064209 3:-0.12720414 4:5.0777574 
-1 1:-0.057902056 2:-0.31064209 3:-0.12720414 4:5.0777574 
-1 1:0.0072390414 2:-0.31064209 3:-0.12720414 4:5.0777574 
-1 1:0.072380139 2:-0.31064209 3:-0.12720414 4:5.0777574 
-1 1:-0.12304315 2:2.4536314 3:0.10016194 4:-2.524492 
-1 1:-0.057902056 2:2.4536314 3:0.10016194 4:-2.524492 
-1 1:0.0072390414 2:2.4536314 3:0.10016194 4:-2.524492 
-1 1:0.13752124 2:2.4536314 3:0.10016194 4:-2.524492 
-0.06305700688454935 1:-0.057902056 2:-1.9491662 3:-0.013521099 4:0.51640773 
-1 1:0.072380139 2:-1.9491662 3:-0.013521099 4:0.51640773 
-1 1:-0.12304315 2:0.58495954 3:0.024373246 4:-17.728991 
-1 1:-0.090472604 2:0.58495954 3:0.024373246 4:-17.728991 
-1 1:-0.057902056 2:0.58495954 3:0.024373246 4:-17.728991 
-1 1:-0.025331507 2:0.58495954 3:0.024373246 4:-17.728991 
-0.8435420377221161 1:-0.12304315 2:-1.0821537 3:-0.20299283 4:-17.728991 
-1 1:-0.090472604 2:-1.0821537 3:-0.20299283 4:-17.728991 
1 1:-0.12304315 2:-0.85053228 3:-0.08930979 4:3.3233921 
1 1:0.072380139 2:-0.85053228 3:-0.08930979 4:3.3233921 
0.0829957377266885 1:0.13752124 2:-0.85053228 3:-0.08930979 4:3.3233921 
1 1:0.0072390414 2:-1.5450981 3:-0.013521099 4:0.51640773 
-0.7828495777599251 1:-0.12304315 2:1.2014367 3:-0.12720414 4:-17.728991 
-0.8515963248825581 1:-0.090472604 2:1.2014367 3:-0.12720414 4:-17.728991 
-0.2107078779148975 1:-0.057902056 2:1.2014367 3:-0.12720414 4:-17.728991 
-1 1:-0.025331507 2:1.2014367 3:-0.12720414 4:-17.728991 
-1 1:0.0072390414 2:-1.6710005 3:-0.12720414 4:27.884506 
-1 1:0.10495069 2:-1.6710005 3:-0.12720414 4:27.884506 
-1 1:0.20266233 2:-1.6710005 3:-0.12720414 4:27.884506 
-1 1:0.30037398 2:-1.6710005 3:-0.12720414 4:27.884506 
1 1:-0.12304315 2:2.4536213 3:-0.20299283 4:9.639107 
1 1:0.0072390414 2:2.4536213 3:-0.20299283 4:9.639107 
1 1:0.072380139 2:2.4536213 3:-0.20299283 4:9.639107 
1 1:0.13752124 2:2.4536213 3:-0.20299283 4:9.639107 
1 1:-0.1556137 2:1.9312631 3:0.10016194 4:-17.728991 
1 1:-0.12304315 2:1.9312631 3:0.10016194 4:-17.728991 
1 1:-0.090472604 2:1.9312631 3:0.10016194 4:-17.728991 
1 1:-0.057902056 2:1.9312631 3:0.10016194 4:-17.728991 
-1 1:0.0072390414 2:1.0293434 3:-0.013521099 4:0.51640773 
-1 1:0.072380139 2:1.0293434 3:-0.013521099 4:0.51640773 
0.8576550039242059 1:0.10495069 2:-1.7804192 3:-0.08930979 4:24.375775 
-1 1:0.20266233 2:-1.7804192 3:-0.08930979 4:24.375775 
-0.4658353141246375 1:0.30037398 2:-1.7804192 3:-0.08930979 4:24.375775 
-0.7523178448638468 1:-0.12304315 2:-2.0448779 3:-0.12720414 4:5.0777574 
-1 1:-0.12304315 2:1.425954 3:-0.16509848 4:-17.728991 
-1 1:-0.057902056 2:1.425954 3:-0.16509848 4:-17.728991 
-1 1:-0.1556137 2:-1.7699009 3:-0.013521099 4:-17.728991 
-1 1:-0.090472604 2:-1.7699009 3:-0.013521099 4:-17.728991 
-1 1:-0.057902056 2:-1.7699009 3:-0.013521099 4:-17.728991 
-1 1:-0.025331507 2:-1.7699009 3:-0.013521099 4:-17.728991 
-1 1:-0.090472604 2:-1.7466254 3:-0.08930979 4:-17.728991 
-1 1:-0.090472604 2:-0.34863868 3:0.062267591 4:14.468771 
-1 1:0.10495069 2:-0.34863868 3:0.062267591 4:14.468771 
-0.7102939367906451 1:0.20266233 2:-0.34863868 3:0.062267591 4:14.468771 
-1 1:0.30037398 2:-0.34863868 3:0.062267591 4:14.468771 
-0.8185624341551339 1:-0.057902056 2:-2.4643725 3:-0.051415445 4:1.8196505 
-0.6376134061047339 1:0.13752124 2:-2.4643725 3:-0.051415445 4:1.8196505 
-1 1:-0.12304315 2:-0.85268655 3:0.10016194 4:-2.524492 
-0.9111823029653443 1:-0.057902056 2:-0.85268655 3:0.10016194 4:-2.524492 
-1 1:0.0072390414 2:-0.85268655 3:0.10016194 4:-2.524492 
-1 1:0.072380139 2:-0.85268655 3:0.10016194 4:-2.524492 
-1 1:-0.12304315 2:1.0168071 3:-0.20299283 4:9.639107 
-1 1:-0.057902056 2:1.0168071 3:-0.20299283 4:9.639107 
-1 1:0.072380139 2:1.0168071 3:-0.20299283 4:9.639107 
-1 1:0.13752124 2:1.0168071 3:-0.20299283 4:9.639107 
1 1:-0.1556137 2:2.2156011 3:0.28963366 4:-17.728991 
1 1:-0.12304315 2:2.2156011 3:0.28963366 4:-17.728991 
0.2798225626907163 1:-0.090472604 2:2.2156011 3:0.28963366 4:-17.728991 
1 1:-0.057902056 2:2.2156011 3:0.28963366 4:-17.728991 
1 1:0.13752124 2:-0.026608598 3:-0.16509848 4:7.1510981 
-0.9986314087642063 1:-0.12304315 2:0.064520082 3:-0.013521099 4:0.51640773 
0.8968183494470606 1:-0.057902056 2:0.064520082 3:-0.013521099 4:0.51640773 
1 1:0.0072390414 2:0.064520082 3:-0.013521099 4:0.51640773 
1 1:0.072380139 2:0.064520082 3:-0.013521099 4:0.51640773 
-0.2179031225436528 1:0.20266233 2:0.72504892 3:-0.051415445 4:21.368292 
-1 1:0.30037398 2:0.72504892 3:-0.051415445 4:21.368292 
1 1:-0.12304315 2:-1.4382119 3:-0.20299283 4:9.639107 
1 1:-0.057902056 2:-1.4382119 3:-0.20299283 4:9.639107 
1 1:0.0072390414 2:-1.4382119 3:-0.20299283 4:9.639107 
1 1:0.072380139 2:-1.4382119 3:-0.20299283 4:9.639107 
1 1:-0.12304315 2:2.7699862 3:0.28963366 4:-5.8298179 
-1 1:-0.057902056 2:2.7699862 3:0.28963366 4:-5.8298179 
-0.8537361776557786 1:0.0072390414 2:2.7699862 3:0.28963366 4:-5.8298179 
1 1:0.072380139 2:2.7699862 3:0.28963366 4:-5.8298179 
-1 1:0.13752124 2:2.7699862 3:0.28963366 4:-5.8298179 
-1 1:0.0072390414 2:-3.372176 3:-0.013521099 4:0.51640773 
-0.2240729867636051 1:0.072380139 2:-3.372176 3:-0.013521099 4:0.51640773 
-0.2285070017087574 1:0.13752124 2:-3.372176 3:-0.013521099 4:0.51640773 
-1 1:-0.025331507 2:-2.3351869 3:-0.08930979 4:-17.728991 
0.459246207812664 1:-0.12304315 2:-1.543657 3:0.024373246 4:-0.62392968 
0.9527595639669362 1:-0.1556137 2:2.6873005 3:0.13805628 4:-17.728991 
0.9269442901189607 1:-0.090472604 2:2.6873005 3:0.13805628 4:-17.728991 
-0.2450906475580017 1:-0.057902056 2:2.6873005 3:0.13805628 4:-17.728991 
-0.06810136983356241 1:-0.057902056 2:-2.3733509 3:-0.16509848 4:7.1510981 
-1 1:0.072380139 2:-2.3733509 3:-0.16509848 4:7.1510981 
-1 1:0.13752124 2:-2.3733509 3:-0.16509848 4:7.1510981 
-1 1:-0.090472604 2:-0.098797792 3:-0.16509848 4:32.031187 
-1 1:0.10495069 2:-0.098797792 3:-0.16509848 4:32.031187 
-1 1:0.20266233 2:-0.098797792 3:-0.16509848 4:32.031187 
-1 1:0.30037398 2:-0.098797792 3:-0.16509848 4:32.031187 
-0.3527716543512563 1:0.072380139 2:3.2953283 3:0.062267591 4:-1.6301097 
-1 1:0.13752124 2:3.2953283 3:0.062267591 4:-1.6301097 
-0.4387610331237308 1:-0.1556137 2:2.556913 3:0.062267591 4:-17.728991 
-1 1:-0.12304315 2:2.556913 3:0.062267591 4:-17.728991 
1 1:-0.090472604 2:2.556913 3:0.062267591 4:-17.728991 
1 1:-0.057902056 2:2.556913 3:0.062267591 4:-17.728991 
-1 1:-0.12304315 2:-3.2623239 3:0.17595063 4:-17.728991 
-1 1:-0.090472604 2:-3.2623239 3:0.17595063 4:-17.728991 
1 1:-0.12304315 2:0.41511866 3:-0.16509848 4:7.1510981 
1 1:0.0072390414 2:0.41511866 3:-0.16509848 4:7.1510981 
1 1:0.072380139 2:0.41511866 3:-0.16509848 4:7.1510981 
1 1:0.13752124 2:0.41511866 3:-0.16509848 4:7.1510981 
-0.9459166794685701 1:-0.090472604 2:3.8245664 3:0.25173932 4:-17.728991 
-1 1:-0.025331507 2:3.8245664 3:0.25173932 4:-17.728991 
1 1:-0.090472604 2:-2.9401348 3:0.024373246 4:16.481132 
1 1:0.0072390414 2:-2.9401348 3:0.024373246 4:16.481132 
1 1:0.10495069 2:-2.9401348 3:0.024373246 4:16.481132 
1 1:0.20266233 2:-2.9401348 3:0.024373246 4:16.481132 
-0.9442815809011135 1:-0.1556137 2:1.7237796 3:-0.16509848 4:-17.728991 
-1 1:-0.12304315 2:1.7237796 3:-0.16509848 4:-17.728991 
-1 1:-0.090472604 2:1.7237796 3:-0.16509848 4:-17.728991 
-1 1:-0.057902056 2:1.7237796 3:-0.16509848 4:-17.728991 
0.5039371959680055 1:-0.057902056 2:-0.53299774 3:-0.013521099 4:0.51640773 
-1 1:0.072380139 2:-0.53299774 3:-0.013521099 4:0.51640773 
-0.002395006732371188 1:0.13752124 2:-0.53299774 3:-0.013521099 4:0.51640773 
-1 1:-0.1556137 2:2.8526947 3:-0.013521099 4:-17.728991 
1 1:-0.090472604 2:2.8526947 3:-0.013521099 4:-17.728991 
1 1:-0.057902056 2:2.8526947 3:-0.013521099 4:-17.728991 
1 1:-0.025331507 2:2.8526947 3:-0.013521099 4:-17.728991 
0.6146098647227424 1:-0.12304315 2:-2.0819344 3:0.47910539 4:-17.728991 
-0.8872659269656276 1:-0.025331507 2:-2.0819344 3:0.47910539 4:-17.728991 
-1 1:-0.057902056 2:-3.0310868 3:0.062267591 4:-1.6301097 
-0.06158779685953389 1:0.0072390414 2:-3.0310868 3:0.062267591 4:-1.6301097 
-1 1:0.072380139 2:-3.0310868 3:0.062267591 4:-1.6301097 
0.3163717177778659 1:0.13752124 2:-3.0310868 3:0.062267591 4:-1.6301097 
-1 1:-0.1556137 2:-0.12524167 3:-0.16509848 4:-17.728991 
-1 1:-0.12304315 2:-0.12524167 3:-0.16509848 4:-17.728991 
-1 1:-0.057902056 2:-0.12524167 3:-0.16509848 4:-17.728991 
-1 1:-0.025331507 2:-0.12524167 3:-0.16509848 4:-17.728991 
-1 1:-0.12304315 2:-2.82908 3:-0.20299283 4:-17.728991 
-1 1:-0.057902056 2:-2.82908 3:-0.20299283 4:-17.728991 
-1 1:-0.025331507 2:1.0052191 3:-0.16509848 4:-17.728991 
1 1:-0.12304315 2:-2.6387896 3:-0.20299283 4:9.639107 
1 1:-0.057902056 2:-2.6387896 3:-0.20299283 4:9.639107 
0.2859293296792131 1:0.072380139 2:-2.6387896 3:-0.20299283 4:9.639107 
1 1:0.13752124 2:-2.6387896 3:-0.20299283 4:9.639107 
0.7224797200750164 1:-0.057902056 2:-2.3538246 3:-0.12720414 4:50.691254 
1 1:0.072380139 2:-2.3538246 3:-0.12720414 4:50.691254 
1 1:0.33294453 2:-2.3538246 3:-0.12720414 4:50.691254 
1 1:0.46322672 2:-2.3538246 3:-0.12720414 4:50.691254 
-1 1:0.13752124 2:0.91454407 3:-0.12720414 4:5.0777574 
-1 1:-0.1556137 2:2.5054721 3:0.21384497 4:-17.728991 
-1 1:-0.12304315 2:2.5054721 3:0.21384497 4:-17.728991 
-1 1:-0.057902056 2:2.5054721 3:0.21384497 4:-17.728991 
-0.04851021059956638 1:-0.1556137 2:0.85682802 3:-0.16509848 4:-17.728991 
-1 1:-0.12304315 2:0.85682802 3:-0.16509848 4:-17.728991 
1 1:-0.1556137 2:1.2122497 3:-0.16509848 4:-17.728991 
1 1:-0.12304315 2:1.2122497 3:-0.16509848 4:-17.728991 
1 1:-0.090472604 2:1.2122497 3:-0.16509848 4:-17.728991 
1 1:-0.057902056 2:1.2122497 3:-0.16509848 4:-17.728991 
-1 1:-0.057902056 2:-2.62424 3:-0.08930979 4:3.3233921 
-1 1:0.072380139 2:-2.62424 3:-0.08930979 4:3.3233921 
-1 1:-0.12304315 2:0.022787043 3:-0.013521099 4:0.51640773 
-1 1:-0.057902056 2:0.022787043 3:-0.013521099 4:0.51640773 
-1 1:0.0072390414 2:0.022787043 3:-0.013521099 4:0.51640773 
-1 1:0.13752124 2:0.022787043 3:-0.013521099 4:0.51640773 
-1 1:-0.12304315 2:-0.95236912 3:-0.16509848 4:7.1510981 
-1 1:0.0072390414 2:-0.95236912 3:-0.16509848 4:7.1510981 
-1 1:0.072380139 2:-0.95236912 3:-0.16509848 4:7.1510981 
-1 1:0.13752124 2:-0.95236912 3:-0.16509848 4:7.1510981 
-0.2971949837915102 1:-0.12304315 2:-0.18201244 3:-0.013521099 4:0.51640773 
1 1:-0.057902056 2:-0.18201244 3:-0.013521099 4:0.51640773 
1 1:0.072380139 2:-0.18201244 3:-0.013521099 4:0.51640773 
1 1:0.13752124 2:-0.18201244 3:-0.013521099 4:0.51640773 
-0.899622661852764 1:-0.1556137 2:-3.6899789 3:-0.12720414 4:-17.728991 
-1 1:-0.090472604 2:-3.6899789 3:-0.12720414 4:-17.728991 
-1 1:-0.057902056 2:-3.6899789 3:-0.12720414 4:-17.728991 
1 1:-0.12304315 2:-1.5205826 3:-0.24088717 4:12.680007 
1 1:0.0072390414 2:-1.5205826 3:-0.24088717 4:12.680007 
1 1:0.072380139 2:-1.5205826 3:-0.24088717 4:12.680007 
1 1:0.13752124 2:-1.5205826 3:-0.24088717 4:12.680007 
0.671668724025957 1:-0.090472604 2:0.84414092 3:-0.013521099 4:18.761806 
-1 1:0.0072390414 2:0.84414092 3:-0.013521099 4:18.761806 
-0.3495783853786653 1:0.30037398 2:0.84414092 3:-0.013521099 4:18.761806 
1 1:-0.090472604 2:3.4557316 3:0.4033167 4:-17.728991 
0.0624921489591428 1:-0.12304315 2:0.2702215 3:-0.20299283 4:9.639107 
0.8912294603033385 1:0.0072390414 2:0.2702215 3:-0.20299283 4:9.639107 
1 1:0.072380139 2:0.2702215 3:-0.20299283 4:9.639107 
1 1:0.13752124 2:0.2702215 3:-0.20299283 4:9.639107 
-1 1:-0.057902056 2:-0.53058407 3:-0.20299283 4:9.639107 
0.03745358531875075 1:0.13752124 2:-0.53058407 3:-0.20299283 4:9.639107 
-1 1:-0.1556137 2:-0.98102689 3:-0.12720414 4:-17.728991 
-1 1:-0.12304315 2:-0.98102689 3:-0.12720414 4:-17.728991 
-1 1:0.13752124 2:2.7740055 3:-0.013521099 4:0.51640773 
-0.2200065828466715 1:-0.057902056 2:-0.40812185 3:-0.16509848 4:-17.728991 
1 1:-0.090472604 2:-0.61928 3:-0.051415445 4:21.368292 
1 1:0.20266233 2:-0.61928 3:-0.051415445 4:21.368292 
1 1:0.30037398 2:-0.61928 3:-0.051415445 4:21.368292 
0.216543174052953 1:-0.12304315 2:3.8566751 3:0.85804884 4:-10.52686 
-1 1:-0.057902056 2:3.8566751 3:0.85804884 4:-10.52686 
1 1:0.0072390414 2:3.8566751 3:0.85804884 4:-10.52686 
0.09015277823244772 1:0.072380139 2:3.8566751 3:0.85804884 4:-10.52686 
-0.3148838192097776 1:0.13752124 2:3.8566751 3:0.85804884 4:-10.52686 
0.4997218293515998 1:-0.090472604 2:-2.1158768 3:-0.16509848 4:32.031187 
-1 1:0.0072390414 2:-2.1158768 3:-0.16509848 4:32.031187 
0.2362507820149322 1:0.30037398 2:-2.1158768 3:-0.16509848 4:32.031187 
1 1:-0.1556137 2:2.6732586 3:-0.20299283 4:-17.728991 
0.008381020034883639 1:-0.12304315 2:2.6732586 3:-0.20299283 4:-17.728991 
1 1:-0.090472604 2:2.6732586 3:-0.20299283 4:-17.728991 
1 1:-0.057902056 2:2.6732586 3:-0.20299283 4:-17.728991 
1 1:-0.12304315 2:-2.3110764 3:0.024373246 4:-0.62392968 
1 1:-0.057902056 2:-2.3110764 3:0.024373246 4:-0.62392968 
1 1:0.0072390414 2:-2.3110764 3:0.024373246 4:-0.62392968 
1 1:0.072380139 2:-2.3110764 3:0.024373246 4:-0.62392968 
0.4593083963716726 1:-0.12304315 2:-2.3695823 3:-0.16509848 4:7.1510981 
0.6217611496500671 1:0.0072390414 2:-2.3695823 3:-0.16509848 4:7.1510981 
-1 1:-0.12304315 2:2.9379865 3:-0.051415445 4:1.8196505 
1 1:-0.057902056 2:2.9379865 3:-0.051415445 4:1.8196505 
1 1:0.072380139 2:2.9379865 3:-0.051415445 4:1.8196505 
1 1:0.13752124 2:2.9379865 3:-0.051415445 4:1.8196505 
0.8070066296481749 1:-0.12304315 2:-0.50568084 3:-0.24088717 4:12.680007 
1 1:0.0072390414 2:-0.50568084 3:-0.24088717 4:12.680007 
-0.649889715990159 1:0.072380139 2:-0.50568084 3:-0.24088717 4:12.680007 
0.1338770077791183 1:0.13752124 2:-0.50568084 3:-0.24088717 4:12.680007 
0.5161057293429283 1:-0.057902056 2:-1.1091375 3:-0.08930979 4:45.428158 
-1 1:0.072380139 2:-1.1091375 3:-0.08930979 4:45.428158 
1 1:0.33294453 2:-1.1091375 3:-0.08930979 4:45.428158 
-0.5145637533338784 1:0.46322672 2:-1.1091375 3:-0.08930979 4:45.428158 
-0.6513832959433721 1:-0.12304315 2:3.4338236 3:-0.051415445 4:1.8196505 
-1 1:-0.057902056 2:3.4338236 3:-0.051415445 4:1.8196505 
-1 1:0.072380139 2:3.4338236 3:-0.051415445 4:1.8196505 
-1 1:0.13752124 2:3.4338236 3:-0.051415445 4:1.8196505 
-0.7343860111156277 1:-0.1556137 2:2.8145988 3:-0.051415445 4:-17.728991 
-0.3506443643939098 1:-0.090472604 2:2.8145988 3:-0.051415445 4:-17.728991 
0.1711958409386802 1:-0.057902056 2:2.8145988 3:-0.051415445 4:-17.728991 
1 1:-0.12304315 2:1.4784273 3:-0.051415445 4:-17.728991 
1 1:-0.057902056 2:1.4784273 3:-0.051415445 4:-17.728991 
1 1:-0.025331507 2:1.4784273 3:-0.051415445 4:-17.728991 
-0.3805423872519877 1:-0.057902056 2:-2.956152 3:-0.08930979 4:45.428158 
1 1:0.072380139 2:-2.956152 3:-0.08930979 4:45.428158 
-0.5968187111824045 1:0.20266233 2:-2.956152 3:-0.08930979 4:45.428158 
-0.05655875480736282 1:0.33294453 2:-2.956152 3:-0.08930979 4:45.428158 
1 1:-0.1556137 2:2.7424701 3:-0.051415445 4:-17.728991 
0.8634382157137397 1:-0.12304315 2:2.7424701 3:-0.051415445 4:-17.728991 
-1 1:-0.090472604 2:2.7424701 3:-0.051415445 4:-17.728991 
-1 1:-0.12304315 2:0.13971082 3:-0.20299283 4:-17.728991 
1 1:-0.090472604 2:0.13971082 3:-0.20299283 4:-17.728991 
1 1:-0.057902056 2:0.13971082 3:-0.20299283 4:-17.728991 
1 1:-0.025331507 2:0.13971082 3:-0.20299283 4:-17.728991 
1 1:-0.057902056 2:-2.6043164 3:-0.24088717 4:12.680007 
1 1:0.0072390414 2:-2.6043164 3:-0.24088717 4:12.680007 
-1 1:0.072380139 2:-2.6043164 3:-0.24088717 4:12.680007 
-0.8439503405718067 1:0.13752124 2:-2.6043164 3:-0.24088717 4:12.680007 
1 1:-0.1556137 2:1.9105034 3:0.024373246 4:-17.728991 
0.994021499535946 1:-0.090472604 2:1.9105034 3:0.024373246 4:-17.728991 
1 1:-0.057902056 2:1.9105034 3:0.024373246 4:-17.728991 
-1 1:-0.12304315 2:-2.8818593 3:-0.12720414 4:-17.728991 
-1 1:-0.090472604 2:-2.8818593 3:-0.12720414 4:-17.728991 
-1 1:-0.057902056 2:-2.8818593 3:-0.12720414 4:-17.728991 
-1 1:-0.090472604 2:-2.9217548 3:0.024373246 4:16.481132 
-1 1:0.10495069 2:-2.9217548 3:0.024373246 4:16.481132 
-1 1:0.20266233 2:-2.9217548 3:0.024373246 4:16.481132 
-1 1:0.30037398 2:-2.9217548 3:0.024373246 4:16.481132 
-1 1:-0.12304315 2:2.6251682 3:-0.20299283 4:9.639107 
-1 1:-0.057902056 2:2.6251682 3:-0.20299283 4:9.639107 
-1 1:0.072380139 2:2.6251682 3:-0.20299283 4:9.639107 
-1 1:0.13752124 2:2.6251682 3:-0.20299283 4:9.639107 
-1 1:-0.057902056 2:-0.15458684 3:-0.16509848 4:7.1510981 
-1 1:0.0072390414 2:-0.15458684 3:-0.16509848 4:7.1510981 
-1 1:0.072380139 2:-0.15458684 3:-0.16509848 4:7.1510981 
-1 1:0.13752124 2:-0.15458684 3:-0.16509848 4:7.1510981 
-1 1:-0.057902056 2:-0.15461137 3:0.10016194 4:-2.524492 
-0.595753020215903 1:0.13752124 2:-0.15461137 3:0.10016194 4:-2.524492 
-1 1:-0.1556137 2:2.9571356 3:-0.08930979 4:-17.728991 
-0.8829220072412786 1:-0.12304315 2:2.9571356 3:-0.08930979 4:-17.728991 
-1 1:-0.090472604 2:2.9571356 3:-0.08930979 4:-17.728991 
-1 1:0.13752124 2:2.9815727 3:-0.051415445 4:1.8196505 
-1 1:-0.057902056 2:0.42774446 3:-0.20299283 4:9.639107 
0.7291768877943478 1:0.13752124 2:0.42774446 3:-0.20299283 4:9.639107 
-1 1:-0.057902056 2:-1.9719014 3:-0.08930979 4:3.3233921 
-1 1:-0.057902056 2:-2.5060644 3:-0.16509848 4:-17.728991 
-0.04887573490005887 1:-0.090472604 2:-0.4664404 3:-0.24088717 4:43.089004 
-1 1:0.0072390414 2:-0.4664404 3:-0.24088717 4:43.089004 
-1 1:0.10495069 2:-0.4664404 3:-0.24088717 4:43.089004 
-1 1:0.30037398 2:-0.4664404 3:-0.24088717 4:43.089004 
1 1:-0.025331507 2:-1.4536404 3:-0.20299283 4:-17.728991 
0.9768785468381772 1:-0.057902056 2:1.5353682 3:0.21384497 4:-17.728991 
-1 1:-0.1556137 2:-0.3424074 3:-0.20299283 4:-17.728991 
-1 1:-0.12304315 2:-0.3424074 3:-0.20299283 4:-17.728991 
1 1:-0.090472604 2:-0.3424074 3:-0.20299283 4:-17.728991 
1 1:-0.090472604 2:1.1777653 3:-0.16509848 4:-17.728991 
1 1:-0.057902056 2:1.1777653 3:-0.16509848 4:-17.728991 
1 1:-0.025331507 2:1.1777653 3:-0.16509848 4:-17.728991 
-1 1:-0.12304315 2:-0.48376384 3:-0.16509848 4:-17.728991 
-1 1:-0.090472604 2:-0.48376384 3:-0.16509848 4:-17.728991 
-1 1:-0.057902056 2:-0.48376384 3:-0.16509848 4:-17.728991 
-1 1:-0.025331507 2:-0.48376384 3:-0.16509848 4:-17.728991 
0.8805169270229206 1:-0.090472604 2:-3.7962046 3:-0.12720414 4:27.884506 
0.1272926063720373 1:0.10495069 2:-3.7962046 3:-0.12720414 4:27.884506 
0.3145995318958039 1:0.20266233 2:-3.7962046 3:-0.12720414 4:27.884506 
1 1:0.30037398 2:-3.7962046 3:-0.12720414 4:27.884506 
1 1:-0.12304315 2:3.0114756 3:0.28963366 4:-5.8298179 
1 1:-0.057902056 2:3.0114756 3:0.28963366 4:-5.8298179 
-1 1:0.0072390414 2:3.0114756 3:0.28963366 4:-5.8298179 
-1 1:0.072380139 2:3.0114756 3:0.28963366 4:-5.8298179 
0.9849945972126063 1:0.13752124 2:3.0114756 3:0.28963366 4:-5.8298179 
-1 1:-0.12304315 2:-1.5442887 3:-0.051415445 4:-17.728991 
-1 1:-0.090472604 2:1.1571954 3:-0.051415445 4:-17.728991 
-1 1:-0.057902056 2:1.1571954 3:-0.051415445 4:-17.728991 
-1 1:-0.025331507 2:1.1571954 3:-0.051415445 4:-17.728991 
0.1953595146577639 1:-0.12304315 2:-1.0562363 3:-0.20299283 4:9.639107 
0.9683739531834258 1:0.0072390414 2:-1.0562363 3:-0.20299283 4:9.639107 
-0.3651828139344219 1:-0.12304315 2:-0.42801489 3:-0.20299283 4:9.639107 
-0.6324534479525254 1:-0.057902056 2:-0.42801489 3:-0.20299283 4:9.639107 
-1 1:0.072380139 2:-0.42801489 3:-0.20299283 4:9.639107 
-1 1:0.13752124 2:-0.42801489 3:-0.20299283 4:9.639107 
-0.583318204229566 1:-0.12304315 2:-2.5971957 3:-0.16509848 4:7.1510981 
-1 1:-0.057902056 2:-2.5971957 3:-0.16509848 4:7.1510981 
-1 1:-0.12304315 2:1.0328831 3:-0.24088717 4:-17.728991 
-1 1:-0.057902056 2:1.0328831 3:-0.24088717 4:-17.728991 
1 1:-0.1556137 2:-0.63794298 3:-0.12720414 4:-17.728991 
-1 1:-0.057902056 2:-0.63794298 3:-0.12720414 4:-17.728991 
1 1:0.13752124 2:-2.9874196 3:-0.12720414 4:5.0777574 
-0.7586068730211601 1:-0.12304315 2:1.1021772 3:-0.12720414 4:5.0777574 
-1 1:-0.12304315 2:-3.0425342 3:-0.20299283 4:9.639107 
-1 1:0.0072390414 2:-3.0425342 3:-0.20299283 4:9.639107 
-1 1:0.072380139 2:-3.0425342 3:-0.20299283 4:9.639107 
-1 1:0.13752124 2:-3.0425342 3:-0.20299283 4:9.639107 
-1 1:-0.057902056 2:-0.17189363 3:-0.16509848 4:7.1510981 
-1 1:0.072380139 2:-0.17189363 3:-0.16509848 4:7.1510981 
-1 1:0.13752124 2:-0.17189363 3:-0.16509848 4:7.1510981 
-1 1:-0.12304315 2:0.82825671 3:-0.12720414 4:5.0777574 
-1 1:-0.057902056 2:0.82825671 3:-0.12720414 4:5.0777574 
-1 1:0.0072390414 2:0.82825671 3:-0.12720414 4:5.0777574 
1 1:0.072380139 2:0.82825671 3:-0.12720414 4:5.0777574 
1 1:-0.057902056 2:-0.061277431 3:-0.08930979 4:3.3233921 
1 1:0.0072390414 2:-0.061277431 3:-0.08930979 4:3.3233921 
1 1:0.072380139 2:-0.061277431 3:-0.08930979 4:3.3233921 
-1 1:0.0072390414 2:-0.24765098 3:0.062267591 4:-1.6301097 
-1 1:0.072380139 2:-0.24765098 3:0.062267591 4:-1.6301097 
-1 1:0.13752124 2:-0.24765098 3:0.062267591 4:-1.6301097 
-1 1:-0.057902056 2:3.3982058 3:-0.013521099 4:0.51640773 
-1 1:0.072380139 2:3.3982058 3:-0.013521099 4:0.51640773 
-1 1:0.13752124 2:3.3982058 3:-0.013521099 4:0.51640773 
-1 1:-0.12304315 2:-0.59631392 3:-0.051415445 4:-17.728991 
-1 1:-0.090472604 2:-0.59631392 3:-0.051415445 4:-17.728991 
-1 1:-0.057902056 2:-1.0453426 3:-0.013521099 4:0.51640773 
-1 1:0.0072390414 2:-1.0453426 3:-0.013521099 4:0.51640773 
-1 1:0.072380139 2:-1.0453426 3:-0.013521099 4:0.51640773 
-1 1:-0.12304315 2:-3.2220076 3:-0.20299283 4:-17.728991 
1 1:-0.057902056 2:1.5133896 3:0.024373246 4:-0.62392968 
1 1:0.0072390414 2:1.5133896 3:0.024373246 4:-0.62392968 
0.5092026068116208 1:0.072380139 2:1.5133896 3:0.024373246 4:-0.62392968 
0.2065650298495007 1:0.13752124 2:1.5133896 3:0.024373246 4:-0.62392968 
1 1:-0.12304315 2:-1.6678155 3:-0.08930979 4:-17.728991 
1 1:-0.090472604 2:-1.6678155 3:-0.08930979 4:-17.728991 
1 1:-0.057902056 2:-1.6678155 3:-0.08930979 4:-17.728991 
0.827647236164765 1:-0.057902056 2:-0.89786843 3:0.10016194 4:-2.524492 
1 1:0.0072390414 2:-0.89786843 3:0.10016194 4:-2.524492 
1 1:0.072380139 2:-0.89786843 3:0.10016194 4:-2.524492 
1 1:0.13752124 2:-0.89786843 3:0.10016194 4:-2.524492 
-1 1:-0.057902056 2:-1.0202916 3:-0.16509848 4:7.1510981 
-1 1:0.0072390414 2:-1.0202916 3:-0.16509848 4:7.1510981 
-1 1:0.072380139 2:-1.0202916 3:-0.16509848 4:7.1510981 
-1 1:0.13752124 2:-1.0202916 3:-0.16509848 4:7.1510981 
0.9927482316974182 1:-0.12304315 2:-2.2178767 3:-0.08930979 4:3.3233921 
-0.03066689974536829 1:-0.057902056 2:-2.2178767 3:-0.08930979 4:3.3233921 
-0.5650969153500073 1:0.0072390414 2:-2.2178767 3:-0.08930979 4:3.3233921 
-1 1:0.13752124 2:-2.2178767 3:-0.08930979 4:3.3233921 
-1 1:-0.057902056 2:-0.8975176 3:-0.16509848 4:7.1510981 
0.2865465884684971 1:0.0072390414 2:-0.8975176 3:-0.16509848 4:7.1510981 
1 1:-0.057902056 2:-1.5541207 3:-0.20299283 4:9.639107 
1 1:0.0072390414 2:-1.5541207 3:-0.20299283 4:9.639107 
1 1:0.072380139 2:-1.5541207 3:-0.20299283 4:9.639107 
1 1:0.13752124 2:-1.5541207 3:-0.20299283 4:9.639107 
-0.4733605647224762 1:-0.12304315 2:-3.9004397 3:0.10016194 4:-17.728991 
-1 1:-0.090472604 2:-3.9004397 3:0.10016194 4:-17.728991 
-1 1:-0.057902056 2:-3.9004397 3:0.10016194 4:-17.728991 
-1 1:-0.025331507 2:-3.9004397 3:0.10016194 4:-17.728991 
-0.3988391057191881 1:-0.090472604 2:2.9498296 3:0.32752801 4:5.0777574 
0.9773628035362643 1:0.10495069 2:2.9498296 3:0.32752801 4:5.0777574 
1 1:0.20266233 2:2.9498296 3:0.32752801 4:5.0777574 
0.2576992891177045 1:0.30037398 2:2.9498296 3:0.32752801 4:5.0777574 
-0.285604822201325 1:0.13752124 2:-1.4046184 3:-0.051415445 4:1.8196505 
-0.396455544399437 1:-0.057902056 2:1.1133614 3:-0.24088717 4:12.680007 
1 1:0.0072390414 2:1.1133614 3:-0.24088717 4:12.680007 
1 1:0.072380139 2:1.1133614 3:-0.24088717 4:12.680007 
1 1:0.13752124 2:1.1133614 3:-0.24088717 4:12.680007 
-0.1841318634976133 1:0.13752124 2:-2.1344117 3:-0.08930979 4:3.3233921 
0.02564761342318593 1:-0.1556137 2:2.9601395 3:-0.013521099 4:-17.728991 
1 1:-0.12304315 2:2.9601395 3:-0.013521099 4:-17.728991 
-0.9900684549459119 1:-0.025331507 2:2.9601395 3:-0.013521099 4:-17.728991 
1 1:-0.1556137 2:-0.24050222 3:-0.24088717 4:-17.728991 
1 1:-0.090472604 2:-0.24050222 3:-0.24088717 4:-17.728991 
1 1:-0.12304315 2:2.9288983 3:0.024373246 4:-0.62392968 
1 1:0.0072390414 2:2.9288983 3:0.024373246 4:-0.62392968 
0.5303898089037078 1:0.072380139 2:2.9288983 3:0.024373246 4:-0.62392968 
-1 1:0.13752124 2:2.9288983 3:0.024373246 4:-0.62392968 
-1 1:-0.12304315 2:-3.1282299 3:-0.20299283 4:-17.728991 
-1 1:-0.090472604 2:-3.1282299 3:-0.20299283 4:-17.728991 
-1 1:-0.057902056 2:-3.1282299 3:-0.20299283 4:-17.728991 
1 1:-0.12304315 2:-1.5208813 3:-0.20299283 4:-17.728991 
1 1:-0.090472604 2:-1.5208813 3:-0.20299283 4:-17.728991 
1 1:-0.057902056 2:-1.5208813 3:-0.20299283 4:-17.728991 
1 1:-0.025331507 2:-1.5208813 3:-0.20299283 4:-17.728991 
1 1:-0.12304315 2:-2.0876424 3:-0.20299283 4:-17.728991 
1 1:-0.090472604 2:-2.0876424 3:-0.20299283 4:-17.728991 
1 1:-0.057902056 2:-2.0876424 3:-0.20299283 4:-17.728991 
-0.6691668546428313 1:-0.1556137 2:-0.57424166 3:-0.12720414 4:-17.728991 
-1 1:-0.12304315 2:-0.57424166 3:-0.12720414 4:-17.728991 
-1 1:-0.090472604 2:-0.57424166 3:-0.12720414 4:-17.728991 
-1 1:-0.025331507 2:-0.57424166 3:-0.12720414 4:-17.728991 
-1 1:0.10495069 2:-0.77354673 3:-0.16509848 4:32.031187 
-1 1:0.20266233 2:-0.77354673 3:-0.16509848 4:32.031187 
-1 1:0.30037398 2:-0.77354673 3:-0.16509848 4:32.031187 
0.09637232391217501 1:-0.057902056 2:-3.7370505 3:-0.12720414 4:5.0777574 
-0.7051984569156912 1:0.0072390414 2:-3.7370505 3:-0.12720414 4:5.0777574 
-0.157345940967402 1:0.13752124 2:-3.7370505 3:-0.12720414 4:5.0777574 
-0.8445357342551949 1:-0.090472604 2:-1.5101904 3:-0.12720414 4:-17.728991 
-1 1:-0.057902056 2:-1.7469493 3:-0.12720414 4:5.0777574 
-1 1:-0.12304315 2:1.7828012 3:0.21384497 4:-4.6965633 
-0.1916018336731546 1:-0.057902056 2:1.7828012 3:0.21384497 4:-4.6965633 
-1 1:0.0072390414 2:1.7828012 3:0.21384497 4:-4.6965633 
-0.9310622955363291 1:0.072380139 2:1.7828012 3:0.21384497 4:-4.6965633 
-1 1:0.13752124 2:1.7828012 3:0.21384497 4:-4.6965633 
1 1:-0.12304315 2:-2.3991648 3:-0.051415445 4:-17.728991 
1 1:-0.057902056 2:-2.3991648 3:-0.051415445 4:-17.728991 
1 1:-0.025331507 2:-2.3991648 3:-0.051415445 4:-17.728991 
-1 1:-0.090472604 2:-2.343596 3:-0.013521099 4:18.761806 
-0.4958342588756081 1:0.10495069 2:-2.343596 3:-0.013521099 4:18.761806 
-1 1:0.20266233 2:-2.343596 3:-0.013521099 4:18.761806 
-1 1:0.30037398 2:-2.343596 3:-0.013521099 4:18.761806 
-0.9596736479240766 1:-0.12304315 2:-3.2581796 3:-0.16509848 4:7.1510981 
1 1:0.0072390414 2:-3.2581796 3:-0.16509848 4:7.1510981 
-1 1:-0.057902056 2:1.904577 3:-0.013521099 4:0.51640773 
-0.2607098096028361 1:-0.12304315 2:-3.5985381 3:-0.12720414 4:5.0777574 
-1 1:-0.057902056 2:-3.5985381 3:-0.12720414 4:5.0777574 
-1 1:0.072380139 2:-3.5985381 3:-0.12720414 4:5.0777574 
-1 1:0.13752124 2:-3.5985381 3:-0.12720414 4:5.0777574 
1 1:0.072380139 2:-1.0098366 3:-0.16509848 4:7.1510981 
1 1:0.13752124 2:-1.0098366 3:-0.16509848 4:7.1510981 
-1 1:-0.12304315 2:-0.94147161 3:-0.08930979 4:-17.728991 
-1 1:-0.057902056 2:-0.94147161 3:-0.08930979 4:-17.728991 
-1 1:-0.057902056 2:0.14200676 3:-0.051415445 4:1.8196505 
-1 1:0.072380139 2:0.14200676 3:-0.051415445 4:1.8196505 
-1 1:0.13752124 2:0.14200676 3:-0.051415445 4:1.8196505 
-1 1:-0.12304315 2:-0.39193686 3:-0.12720414 4:5.0777574 
-1 1:-0.057902056 2:-0.39193686 3:-0.12720414 4:5.0777574 
-1 1:0.072380139 2:-0.39193686 3:-0.12720414 4:5.0777574 
-1 1:0.13752124 2:-0.39193686 3:-0.12720414 4:5.0777574 
0.05294226101077737 1:-0.12304315 2:-1.7622174 3:-0.20299283 4:9.639107 
1 1:0.0072390414 2:-1.7622174 3:-0.20299283 4:9.639107 
1 1:0.072380139 2:-1.7622174 3:-0.20299283 4:9.639107 
1 1:0.13752124 2:-1.7622174 3:-0.20299283 4:9.639107 
0.989880275904137 1:0.13752124 2:-3.3161186 3:-0.16509848 4:7.1510981 
-0.1544143425692968 1:-0.1556137 2:0.19802557 3:-0.20299283 4:-17.728991 
-1 1:-0.12304315 2:0.19802557 3:-0.20299283 4:-17.728991 
-1 1:-0.090472604 2:0.19802557 3:-0.20299283 4:-17.728991 
-1 1:-0.025331507 2:0.19802557 3:-0.20299283 4:-17.728991 
-0.9666808893760921 1:-0.12304315 2:-2.0485853 3:-0.20299283 4:-17.728991 
-1 1:-0.057902056 2:-2.0485853 3:-0.20299283 4:-17.728991 
-1 1:-0.057902056 2:-0.38866194 3:-0.16509848 4:7.1510981 
-0.338250763730585 1:0.0072390414 2:-0.38866194 3:-0.16509848 4:7.1510981 
-0.2295885635162679 1:0.072380139 2:-0.38866194 3:-0.16509848 4:7.1510981 
-1 1:-0.12304315 2:-3.4673164 3:0.28963366 4:-5.8298179 
0.7887760275453591 1:-0.057902056 2:-3.4673164 3:0.28963366 4:-5.8298179 
0.5040339703978383 1:0.0072390414 2:-3.4673164 3:0.28963366 4:-5.8298179 
0.678508872157203 1:0.072380139 2:-3.4673164 3:0.28963366 4:-5.8298179 
-1 1:0.13752124 2:-3.4673164 3:0.28963366 4:-5.8298179 
-0.3976901304384884 1:-0.057902056 2:-3.8918281 3:-0.051415445 4:40.916933 
0.9895924765016217 1:0.072380139 2:-3.8918281 3:-0.051415445 4:40.916933 
-1 1:0.33294453 2:-3.8918281 3:-0.051415445 4:40.916933 
0.8756864503440777 1:0.46322672 2:-3.8918281 3:-0.051415445 4:40.916933 
-1 1:-0.057902056 2:-0.32070326 3:-0.12720414 4:5.0777574 
-0.9575887995434009 1:0.13752124 2:-0.32070326 3:-0.12720414 4:5.0777574 
0.467847307661567 1:0.0072390414 2:-0.30886474 3:-0.16509848 4:7.1510981 
1 1:0.072380139 2:-0.30886474 3:-0.16509848 4:7.1510981 
1 1:0.13752124 2:-0.30886474 3:-0.16509848 4:7.1510981 
1 1:0.072380139 2:-2.4032601 3:-0.16509848 4:7.1510981 
1 1:0.13752124 2:-2.4032601 3:-0.16509848 4:7.1510981 
0.9967042767972707 1:-0.12304315 2:1.4277363 3:0.28963366 4:-5.8298179 
-0.5980340591266592 1:-0.057902056 2:1.4277363 3:0.28963366 4:-5.8298179 
-0.3080667323419499 1:0.0072390414 2:1.4277363 3:0.28963366 4:-5.8298179 
1 1:0.072380139 2:1.4277363 3:0.28963366 4:-5.8298179 
0.4240894517528859 1:0.13752124 2:1.4277363 3:0.28963366 4:-5.8298179 
0.08073689767654217 1:0.072380139 2:1.5970198 3:-0.16509848 4:7.1510981 
1 1:-0.1556137 2:-1.823391 3:-0.16509848 4:-17.728991 
1 1:-0.12304315 2:-1.823391 3:-0.16509848 4:-17.728991 
1 1:-0.057902056 2:-1.823391 3:-0.16509848 4:-17.728991 
-1 1:-0.090472604 2:-2.1349625 3:-0.16509848 4:-17.728991 
-1 1:-0.057902056 2:-2.1349625 3:-0.16509848 4:-17.728991 
1 1:-0.1556137 2:-2.791848 3:-0.12720414 4:-17.728991 
1 1:-0.090472604 2:-2.791848 3:-0.12720414 4:-17.728991 
1 1:-0.025331507 2:-2.791848 3:-0.12720414 4:-17.728991 
-1 1:-0.12304315 2:-2.8953804 3:-0.12720414 4:-17.728991 
1 1:-0.1556137 2:-2.7552923 3:-0.16509848 4:-17.728991 
1 1:-0.12304315 2:-2.7552923 3:-0.16509848 4:-17.728991 
1 1:-0.057902056 2:-2.7552923 3:-0.16509848 4:-17.728991 
-1 1:-0.057902056 2:-1.2986652 3:-0.20299283 4:9.639107 
-1 1:0.0072390414 2:-1.2986652 3:-0.20299283 4:9.639107 
-1 1:0.072380139 2:-1.2986652 3:-0.20299283 4:9.639107 
0.05957129078049424 1:0.0072390414 2:-1.3922366 3:-0.08930979 4:3.3233921 
1 1:-0.12304315 2:-1.2867218 3:-0.013521099 4:0.51640773 
0.9472425917373245 1:-0.057902056 2:-1.2867218 3:-0.013521099 4:0.51640773 
1 1:0.0072390414 2:-1.2867218 3:-0.013521099 4:0.51640773 
1 1:0.072380139 2:-1.2867218 3:-0.013521099 4:0.51640773 
-1 1:-0.12304315 2:-0.10604592 3:-0.08930979 4:3.3233921 
-1 1:-0.057902056 2:-0.10604592 3:-0.08930979 4:3.3233921 
-1 1:0.072380139 2:-0.10604592 3:-0.08930979 4:3.3233921 
-1 1:0.13752124 2:-0.10604592 3:-0.08930979 4:3.3233921 
-1 1:-0.057902056 2:-2.8055649 3:-0.20299283 4:9.639107 
-1 1:0.13752124 2:-2.8055649 3:-0.20299283 4:9.639107 
1 1:-0.090472604 2:-0.63071268 3:-0.20299283 4:-17.728991 
-0.3109643079686149 1:0.0072390414 2:-2.9716107 3:-0.16509848 4:32.031187 
1 1:0.10495069 2:-2.9716107 3:-0.16509848 4:32.031187 
0.3178327267102813 1:-0.057902056 2:1.2288744 3:0.32752801 4:16.481132 
-1 1:0.072380139 2:1.2288744 3:0.32752801 4:16.481132 
0.9932502794345034 1:0.20266233 2:1.2288744 3:0.32752801 4:16.481132 
-0.1185259349767281 1:0.33294453 2:1.2288744 3:0.32752801 4:16.481132 
-0.3070195526444071 1:0.46322672 2:1.2288744 3:0.32752801 4:16.481132 
0.1890684255887841 1:-0.090472604 2:-1.5588097 3:0.024373246 4:16.481132 
-1 1:-0.12304315 2:-1.8933138 3:-0.24088717 4:-17.728991 
-1 1:-0.090472604 2:-1.8933138 3:-0.24088717 4:-17.728991 
-1 1:-0.057902056 2:-1.8933138 3:-0.24088717 4:-17.728991 
-0.1534955317723655 1:-0.090472604 2:-3.8219021 3:-0.013521099 4:18.761806 
-0.4301510426261548 1:0.0072390414 2:-3.8219021 3:-0.013521099 4:18.761806 
1 1:0.10495069 2:-3.8219021 3:-0.013521099 4:18.761806 
-0.4335280456774896 1:0.20266233 2:-3.8219021 3:-0.013521099 4:18.761806 
0.7769474493968691 1:0.10495069 2:-1.1604936 3:-0.16509848 4:32.031187 
0.4507484381888877 1:0.30037398 2:-1.1604936 3:-0.16509848 4:32.031187 
-1 1:-0.057902056 2:-2.7831569 3:-0.16509848 4:7.1510981 
-1 1:0.072380139 2:-2.7831569 3:-0.16509848 4:7.1510981 
-1 1:0.13752124 2:-2.7831569 3:-0.16509848 4:7.1510981 
-0.5750269992601771 1:-0.12304315 2:-2.3026758 3:-0.24088717 4:12.680007 
-1 1:-0.057902056 2:-2.3026758 3:-0.24088717 4:12.680007 
-1 1:0.072380139 2:-2.3026758 3:-0.24088717 4:12.680007 
0.765242559011924 1:0.13752124 2:-2.3026758 3:-0.24088717 4:12.680007 
-1 1:-0.090472604 2:3.0402446 3:0.28963366 4:6.0693551 
-0.9987025479420575 1:0.0072390414 2:3.0402446 3:0.28963366 4:6.0693551 
-1 1:0.10495069 2:3.0402446 3:0.28963366 4:6.0693551 
1 1:0.20266233 2:3.0402446 3:0.28963366 4:6.0693551 
0.3290775862753084 1:0.30037398 2:3.0402446 3:0.28963366 4:6.0693551 
0.8085392467951721 1:-0.12304315 2:-1.081632 3:-0.24088717 4:-17.728991 
0.1465714965738447 1:-0.090472604 2:1.5276543 3:0.25173932 4:7.1510981 
1 1:0.0072390414 2:1.5276543 3:0.25173932 4:7.1510981 
0.2456117734414439 1:0.10495069 2:1.5276543 3:0.25173932 4:7.1510981 
1 1:0.20266233 2:1.5276543 3:0.25173932 4:7.1510981 
0.1282255349073156 1:0.30037398 2:1.5276543 3:0.25173932 4:7.1510981 
0.9874141396442889 1:-0.090472604 2:1.6150566 3:0.28963366 4:6.0693551 
-1 1:0.0072390414 2:1.6150566 3:0.28963366 4:6.0693551 
-1 1:0.10495069 2:1.6150566 3:0.28963366 4:6.0693551 
-1 1:0.20266233 2:1.6150566 3:0.28963366 4:6.0693551 
1 1:0.30037398 2:1.6150566 3:0.28963366 4:6.0693551 
-0.4798091248900541 1:-0.090472604 2:3.1599928 3:0.70647146 4:-1.6301097 
1 1:0.0072390414 2:3.1599928 3:0.70647146 4:-1.6301097 
-1 1:0.10495069 2:3.1599928 3:0.70647146 4:-1.6301097 
0.8850169396764697 1:0.20266233 2:3.1599928 3:0.70647146 4:-1.6301097 
-0.4235525160216644 1:0.30037398 2:3.1599928 3:0.70647146 4:-1.6301097 
0.9718711127631104 1:-0.090472604 2:2.738343 3:0.28963366 4:6.0693551 
1 1:0.0072390414 2:2.738343 3:0.28963366 4:6.0693551 
1 1:0.10495069 2:2.738343 3:0.28963366 4:6.0693551 
1 1:0.20266233 2:2.738343 3:0.28963366 4:6.0693551 
1 1:0.30037398 2:2.738343 3:0.28963366 4:6.0693551 
0.9331179405589859 1:-0.12304315 2:2.9101133 3:0.024373246 4:-0.62392968 
1 1:-0.057902056 2:2.9101133 3:0.024373246 4:-0.62392968 
0.469610191096292 1:0.072380139 2:2.9101133 3:0.024373246 4:-0.62392968 
1 1:0.13752124 2:2.9101133 3:0.024373246 4:-0.62392968 
0.2439952454407903 1:-0.12304315 2:3.5110083 3:0.47910539 4:-7.9546702 
1 1:-0.057902056 2:3.5110083 3:0.47910539 4:-7.9546702 
-0.8707947571292887 1:0.0072390414 2:3.5110083 3:0.47910539 4:-7.9546702 
0.1822302444874435 1:0.072380139 2:3.5110083 3:0.47910539 4:-7.9546702 
1 1:0.13752124 2:3.5110083 3:0.47910539 4:-7.9546702 
