svm_type nu_svr
kernel_type rbf
gamma 1
nr_class 2
total_sv 8165
rho -0.00117732
SV
-1 1:-0.11183827 2:-1.9296056 3:0.15781847 4:-15.461038 
-1 1:-0.083554486 2:-1.9296056 3:0.15781847 4:-15.461038 
-1 1:-0.055270701 2:-1.9296056 3:0.15781847 4:-15.461038 
1 1:-0.11183827 2:2.1915583 3:0.22212131 4:-5.4271923 
1 1:-0.055270701 2:2.1915583 3:0.22212131 4:-5.4271923 
1 1:0.0012968689 2:2.1915583 3:0.22212131 4:-5.4271923 
1 1:0.057864439 2:2.1915583 3:0.22212131 4:-5.4271923 
-0.9960246913030251 1:0.057864439 2:1.9719283 3:0.350727 4:10.181012 
1 1:0.17099958 2:1.9719283 3:0.350727 4:10.181012 
1 1:0.28413472 2:1.9719283 3:0.350727 4:10.181012 
-1 1:0.39726986 2:1.9719283 3:0.350727 4:10.181012 
-0.864732728170916 1:-0.11183827 2:0.2629273 3:0.25427273 4:-5.8452692 
-1 1:-0.055270701 2:0.2629273 3:0.25427273 4:-5.8452692 
0.2109700202100396 1:0.0012968689 2:0.2629273 3:0.25427273 4:-5.8452692 
-1 1:0.11443201 2:0.2629273 3:0.25427273 4:-5.8452692 
-1 1:0.0012968689 2:3.0518692 3:0.41502984 4:0.45471733 
-1 1:0.17099958 2:3.0518692 3:0.41502984 4:0.45471733 
0.3567128738505114 1:0.0012968689 2:-1.3803768 3:0.28642415 4:30.694653 
-1 1:0.17099958 2:-1.3803768 3:0.28642415 4:30.694653 
0.3631032660702299 1:0.34070229 2:-1.3803768 3:0.28642415 4:30.694653 
0.1709285831392647 1:0.510405 2:-1.3803768 3:0.28642415 4:30.694653 
1 1:-0.055270701 2:1.8850505 3:0.41502984 4:-7.5031604 
-0.8663087965353344 1:0.0012968689 2:1.8850505 3:0.41502984 4:-7.5031604 
0.7044341450091826 1:0.11443201 2:1.8850505 3:0.41502984 4:-7.5031604 
-1 1:-0.055270701 2:-0.62986493 3:0.029212785 4:-1.885835 
1 1:0.0012968689 2:-0.62986493 3:0.029212785 4:-1.885835 
-0.6196765152585914 1:0.057864439 2:-0.62986493 3:0.029212785 4:-1.885835 
1 1:0.11443201 2:-0.62986493 3:0.029212785 4:-1.885835 
-1 1:-0.14012206 2:-1.4692125 3:-0.067241479 4:-15.461038 
-1 1:-0.11183827 2:-1.4692125 3:-0.067241479 4:-15.461038 
-1 1:-0.055270701 2:-1.4692125 3:-0.067241479 4:-15.461038 
-1 1:-0.026986916 2:-1.4692125 3:-0.067241479 4:-15.461038 
1 1:-0.11183827 2:1.9995982 3:0.28642415 4:-6.2299 
0.1069975383565283 1:-0.055270701 2:1.9995982 3:0.28642415 4:-6.2299 
-0.01745370880291587 1:0.057864439 2:1.9995982 3:0.28642415 4:-6.2299 
1 1:0.11443201 2:1.9995982 3:0.28642415 4:-6.2299 
-0.2278122384315541 1:-0.055270701 2:-0.54122083 3:-0.0029386365 4:27.809922 
1 1:0.057864439 2:-0.54122083 3:-0.0029386365 4:27.809922 
-0.7588307112477384 1:0.17099958 2:-0.54122083 3:-0.0029386365 4:27.809922 
0.1542152512632406 1:0.39726986 2:-0.54122083 3:-0.0029386365 4:27.809922 
-0.6478301768042387 1:-0.11183827 2:3.5287834 3:-0.067241479 4:1.0231372 
-1 1:0.0012968689 2:3.5287834 3:-0.067241479 4:1.0231372 
0.6699221192846644 1:0.057864439 2:3.5287834 3:-0.067241479 4:1.0231372 
1 1:0.11443201 2:3.5287834 3:-0.067241479 4:1.0231372 
1 1:-0.11183827 2:2.4282365 3:-0.067241479 4:1.0231372 
1 1:0.0012968689 2:2.4282365 3:-0.067241479 4:1.0231372 
1 1:0.057864439 2:2.4282365 3:-0.067241479 4:1.0231372 
1 1:0.11443201 2:2.4282365 3:-0.067241479 4:1.0231372 
0.4763390199831162 1:-0.14012206 2:2.3649284 3:0.60793837 4:-15.461038 
1 1:-0.11183827 2:2.3649284 3:0.60793837 4:-15.461038 
0.3117818093402871 1:-0.11183827 2:3.9502119 3:0.22212131 4:-5.4271923 
-0.9811415580314596 1:-0.055270701 2:3.9502119 3:0.22212131 4:-5.4271923 
1 1:0.057864439 2:3.9502119 3:0.22212131 4:-5.4271923 
-0.1179784327058387 1:0.11443201 2:3.9502119 3:0.22212131 4:-5.4271923 
-1 1:-0.055270701 2:-0.50426163 3:-0.16369574 4:5.5188213 
-1 1:0.0012968689 2:-0.50426163 3:-0.16369574 4:5.5188213 
-1 1:0.057864439 2:-0.50426163 3:-0.16369574 4:5.5188213 
-1 1:0.11443201 2:-0.50426163 3:-0.16369574 4:5.5188213 
-0.2799166593468497 1:-0.11183827 2:0.96582742 3:0.22212131 4:-5.4271923 
0.4319879556264813 1:-0.055270701 2:0.96582742 3:0.22212131 4:-5.4271923 
0.1934947087276996 1:0.057864439 2:0.96582742 3:0.22212131 4:-5.4271923 
1 1:0.11443201 2:0.96582742 3:0.22212131 4:-5.4271923 
1 1:-0.11183827 2:3.4760091 3:0.12566705 4:-15.461038 
-1 1:-0.11183827 2:2.2849467 3:0.22212131 4:-5.4271923 
-1 1:-0.055270701 2:2.2849467 3:0.22212131 4:-5.4271923 
-1 1:0.0012968689 2:2.2849467 3:0.22212131 4:-5.4271923 
-1 1:-0.11183827 2:-0.94096389 3:-0.067241479 4:-15.461038 
-1 1:-0.083554486 2:-0.94096389 3:-0.067241479 4:-15.461038 
-1 1:-0.055270701 2:-0.94096389 3:-0.067241479 4:-15.461038 
-0.261254869907475 1:-0.055270701 2:-2.3663571 3:0.25427273 4:13.386269 
0.3833279764110806 1:0.057864439 2:-2.3663571 3:0.25427273 4:13.386269 
-0.1413283016411894 1:0.28413472 2:-2.3663571 3:0.25427273 4:13.386269 
-0.001246107298622217 1:0.0012968689 2:-0.59464934 3:0.47933268 4:-0.57210561 
-0.9977992797299912 1:0.0012968689 2:2.312173 3:0.093515627 4:8.8314307 
0.8984760320548691 1:0.086148224 2:2.312173 3:0.093515627 4:8.8314307 
-1 1:0.17099958 2:2.312173 3:0.093515627 4:8.8314307 
-0.9533557039736363 1:0.25585093 2:2.312173 3:0.093515627 4:8.8314307 
1 1:-0.11183827 2:2.2157159 3:0.18996989 4:-4.9711084 
-0.6331245224595151 1:-0.055270701 2:2.2157159 3:0.18996989 4:-4.9711084 
0.5470887748572298 1:0.0012968689 2:2.2157159 3:0.18996989 4:-4.9711084 
1 1:0.057864439 2:2.2157159 3:0.18996989 4:-4.9711084 
1 1:0.0012968689 2:-1.7595755 3:-0.19584716 4:30.694653 
1 1:0.086148224 2:-1.7595755 3:-0.19584716 4:30.694653 
1 1:0.17099958 2:-1.7595755 3:-0.19584716 4:30.694653 
1 1:0.25585093 2:-1.7595755 3:-0.19584716 4:30.694653 
0.3035337344880725 1:-0.055270701 2:-0.062119063 3:0.28642415 4:12.232376 
-1 1:0.057864439 2:-0.062119063 3:0.28642415 4:12.232376 
1 1:0.17099958 2:-0.062119063 3:0.28642415 4:12.232376 
-0.2881727370040256 1:0.28413472 2:-0.062119063 3:0.28642415 4:12.232376 
1 1:0.0012968689 2:-1.3093237 3:-0.13154432 4:3.7704997 
1 1:0.057864439 2:-1.3093237 3:-0.13154432 4:3.7704997 
1 1:0.11443201 2:-1.3093237 3:-0.13154432 4:3.7704997 
0.8543829672261271 1:-0.11183827 2:3.3530816 3:0.12566705 4:-3.9221154 
1 1:-0.055270701 2:3.3530816 3:0.12566705 4:-3.9221154 
0.9729930053982996 1:0.0012968689 2:3.3530816 3:0.12566705 4:-3.9221154 
1 1:0.11443201 2:3.3530816 3:0.12566705 4:-3.9221154 
-1 1:-0.11183827 2:3.0222355 3:-0.13154432 4:3.7704997 
-0.3691849108219817 1:-0.055270701 2:3.0222355 3:-0.13154432 4:3.7704997 
-1 1:0.0012968689 2:3.0222355 3:-0.13154432 4:3.7704997 
1 1:-0.14012206 2:-2.1485279 3:0.061364206 4:-15.461038 
1 1:-0.11183827 2:-2.1485279 3:0.061364206 4:-15.461038 
1 1:-0.083554486 2:-2.1485279 3:0.061364206 4:-15.461038 
1 1:-0.026986916 2:-2.1485279 3:0.061364206 4:-15.461038 
-1 1:-0.14012206 2:0.27601029 3:0.350727 4:-15.461038 
1 1:-0.055270701 2:0.27601029 3:0.350727 4:-15.461038 
-0.6167993760131606 1:-0.055270701 2:2.6687115 3:0.350727 4:10.181012 
1 1:0.057864439 2:2.6687115 3:0.350727 4:10.181012 
-0.6702705265947206 1:0.17099958 2:2.6687115 3:0.350727 4:10.181012 
0.1762181722958036 1:0.39726986 2:2.6687115 3:0.350727 4:10.181012 
1 1:-0.14012206 2:2.8328806 3:0.15781847 4:-15.461038 
0.9578525517620795 1:-0.11183827 2:2.8328806 3:0.15781847 4:-15.461038 
-0.4766381469364179 1:-0.026986916 2:2.8328806 3:0.15781847 4:-15.461038 
0.07321091600581625 1:-0.083554486 2:3.5854911 3:0.061364206 4:10.181012 
-0.7214551845219839 1:0.086148224 2:3.5854911 3:0.061364206 4:10.181012 
1 1:0.17099958 2:3.5854911 3:0.061364206 4:10.181012 
-0.66591711342352 1:0.25585093 2:3.5854911 3:0.061364206 4:10.181012 
-1 1:-0.055270701 2:0.4099784 3:-0.13154432 4:3.7704997 
-1 1:0.0012968689 2:0.4099784 3:-0.13154432 4:3.7704997 
-1 1:0.057864439 2:0.4099784 3:-0.13154432 4:3.7704997 
-1 1:0.11443201 2:0.4099784 3:-0.13154432 4:3.7704997 
-0.9934024439747681 1:0.0012968689 2:3.2718382 3:0.350727 4:-6.913688 
0.6936392260957206 1:0.057864439 2:3.2718382 3:0.350727 4:-6.913688 
1 1:0.11443201 2:3.2718382 3:0.350727 4:-6.913688 
-0.6402455774158901 1:-0.083554486 2:3.2632716 3:-0.0029386365 4:13.386269 
-0.9881015661855469 1:0.086148224 2:3.2632716 3:-0.0029386365 4:13.386269 
-1 1:0.17099958 2:3.2632716 3:-0.0029386365 4:13.386269 
-1 1:0.25585093 2:3.2632716 3:-0.0029386365 4:13.386269 
1 1:-0.083554486 2:-0.26942963 3:-0.0993929 4:20.043339 
-1 1:0.086148224 2:-0.26942963 3:-0.0993929 4:20.043339 
-1 1:0.17099958 2:-0.26942963 3:-0.0993929 4:20.043339 
-1 1:-0.055270701 2:2.5807092 3:0.350727 4:-6.913688 
-1 1:0.0012968689 2:2.5807092 3:0.350727 4:-6.913688 
-1 1:0.057864439 2:2.5807092 3:0.350727 4:-6.913688 
-1 1:0.11443201 2:2.5807092 3:0.350727 4:-6.913688 
1 1:-0.083554486 2:3.4717236 3:0.25427273 4:3.7704997 
1 1:0.0012968689 2:3.4717236 3:0.25427273 4:3.7704997 
0.7863127532142334 1:0.086148224 2:3.4717236 3:0.25427273 4:3.7704997 
1 1:0.17099958 2:3.4717236 3:0.25427273 4:3.7704997 
-1 1:-0.083554486 2:2.6593806 3:0.093515627 4:8.8314307 
-1 1:0.0012968689 2:2.6593806 3:0.093515627 4:8.8314307 
-1 1:0.086148224 2:2.6593806 3:0.093515627 4:8.8314307 
-1 1:0.17099958 2:2.6593806 3:0.093515627 4:8.8314307 
0.8492912241843573 1:-0.083554486 2:2.0131149 3:0.31857558 4:2.2911507 
-0.180329028792627 1:0.086148224 2:2.0131149 3:0.31857558 4:2.2911507 
-1 1:0.17099958 2:2.0131149 3:0.31857558 4:2.2911507 
-0.6880317509813689 1:0.0012968689 2:1.6555514 3:-0.16369574 4:26.498681 
0.5272274820821424 1:0.086148224 2:1.6555514 3:-0.16369574 4:26.498681 
1 1:0.17099958 2:1.6555514 3:-0.16369574 4:26.498681 
-0.6565467359916749 1:0.25585093 2:1.6555514 3:-0.16369574 4:26.498681 
-0.3085628866633646 1:-0.055270701 2:2.9428071 3:0.029212785 4:25.264571 
1 1:0.17099958 2:2.9428071 3:0.029212785 4:25.264571 
-0.8164316474401541 1:0.28413472 2:2.9428071 3:0.029212785 4:25.264571 
0.04470635305797518 1:0.39726986 2:2.9428071 3:0.029212785 4:25.264571 
-1 1:0.11443201 2:1.7194539 3:0.12566705 4:-3.9221154 
1 1:0.086148224 2:1.6252324 3:0.18996989 4:5.5188213 
1 1:0.17099958 2:1.6252324 3:0.18996989 4:5.5188213 
1 1:0.25585093 2:1.6252324 3:0.18996989 4:5.5188213 
1 1:-0.14012206 2:-0.023963444 3:0.12566705 4:-15.461038 
-0.9959293788822049 1:-0.083554486 2:-0.023963444 3:0.12566705 4:-15.461038 
0.2214144978773465 1:-0.083554486 2:2.067929 3:0.12566705 4:7.6168073 
-0.9268200996159631 1:0.0012968689 2:2.067929 3:0.12566705 4:7.6168073 
-0.9998178586559769 1:0.086148224 2:2.067929 3:0.12566705 4:7.6168073 
-1 1:0.17099958 2:2.067929 3:0.12566705 4:7.6168073 
0.1568811772891283 1:-0.11183827 2:2.7470157 3:0.12566705 4:-15.461038 
1 1:-0.055270701 2:2.7470157 3:0.12566705 4:-15.461038 
1 1:-0.026986916 2:2.7470157 3:0.12566705 4:-15.461038 
1 1:-0.14012206 2:-0.32389387 3:0.093515627 4:-15.461038 
-0.9494272343860983 1:-0.11183827 2:-0.32389387 3:0.093515627 4:-15.461038 
1 1:-0.083554486 2:-0.32389387 3:0.093515627 4:-15.461038 
1 1:-0.026986916 2:-0.32389387 3:0.093515627 4:-15.461038 
-0.9953987350027496 1:-0.055270701 2:-2.0425878 3:-0.0993929 4:2.2911507 
-1 1:0.0012968689 2:-2.0425878 3:-0.0993929 4:2.2911507 
-1 1:0.057864439 2:-2.0425878 3:-0.0993929 4:2.2911507 
-1 1:0.11443201 2:-2.0425878 3:-0.0993929 4:2.2911507 
-0.1030204054079258 1:-0.14012206 2:3.9034103 3:0.73654405 4:-15.461038 
0.9951148436489594 1:-0.11183827 2:3.9034103 3:0.73654405 4:-15.461038 
-1 1:-0.083554486 2:3.9034103 3:0.73654405 4:-15.461038 
-0.369009321907544 1:-0.055270701 2:3.9034103 3:0.73654405 4:-15.461038 
-0.6258673253641028 1:-0.083554486 2:-1.2418241 3:0.22212131 4:4.6066535 
1 1:0.0012968689 2:-1.2418241 3:0.22212131 4:4.6066535 
-1 1:0.086148224 2:-1.2418241 3:0.22212131 4:4.6066535 
-1 1:0.17099958 2:-1.2418241 3:0.22212131 4:4.6066535 
-0.01961924341122238 1:-0.11183827 2:3.5174443 3:0.44718126 4:-7.768423 
-1 1:-0.055270701 2:3.5174443 3:0.44718126 4:-7.768423 
-1 1:0.0012968689 2:3.5174443 3:0.44718126 4:-7.768423 
-1 1:0.057864439 2:3.5174443 3:0.44718126 4:-7.768423 
0.953993401487059 1:-0.11183827 2:3.2439628 3:0.15781847 4:-4.4715879 
-0.6053849938927935 1:-0.055270701 2:3.2439628 3:0.15781847 4:-4.4715879 
-1 1:0.0012968689 2:3.2439628 3:0.15781847 4:-4.4715879 
0.3171037402377065 1:0.11443201 2:3.2439628 3:0.15781847 4:-4.4715879 
-0.8966583003446947 1:-0.11183827 2:2.347924 3:0.093515627 4:-15.461038 
-1 1:-0.026986916 2:2.347924 3:0.093515627 4:-15.461038 
-0.2436635994962998 1:-0.083554486 2:3.8832134 3:0.31857558 4:2.2911507 
1 1:0.086148224 2:3.8832134 3:0.31857558 4:2.2911507 
-0.9795545648165341 1:0.17099958 2:3.8832134 3:0.31857558 4:2.2911507 
0.09746038133252889 1:0.25585093 2:3.8832134 3:0.31857558 4:2.2911507 
-1 1:-0.14012206 2:-1.0802705 3:-0.067241479 4:-15.461038 
1 1:-0.11183827 2:-1.0802705 3:-0.067241479 4:-15.461038 
1 1:-0.083554486 2:-1.0802705 3:-0.067241479 4:-15.461038 
1 1:-0.026986916 2:-1.0802705 3:-0.067241479 4:-15.461038 
0.4577822796160445 1:0.11443201 2:-1.3782673 3:-0.035090058 4:-0.075807858 
1 1:0.0012968689 2:2.6691278 3:0.18996989 4:-4.9711084 
-1 1:0.057864439 2:2.6691278 3:0.18996989 4:-4.9711084 
0.9592590575716787 1:0.11443201 2:2.6691278 3:0.18996989 4:-4.9711084 
-1 1:-0.083554486 2:-3.1849887 3:-0.035090058 4:15.309422 
-1 1:0.0012968689 2:-3.1849887 3:-0.035090058 4:15.309422 
-1 1:0.086148224 2:-3.1849887 3:-0.035090058 4:15.309422 
-1 1:0.17099958 2:-3.1849887 3:-0.035090058 4:15.309422 
1 1:-0.055270701 2:-2.3389186 3:0.18996989 4:16.008751 
-0.5972658330483056 1:0.057864439 2:-2.3389186 3:0.18996989 4:16.008751 
-1 1:0.17099958 2:-2.3389186 3:0.18996989 4:16.008751 
0.6488864544714467 1:0.39726986 2:-2.3389186 3:0.18996989 4:16.008751 
1 1:-0.11183827 2:1.8811109 3:0.061364206 4:-2.6400129 
1 1:-0.055270701 2:1.8811109 3:0.061364206 4:-2.6400129 
0.1958878662300605 1:0.057864439 2:1.8811109 3:0.061364206 4:-2.6400129 
0.04100336864932341 1:-0.083554486 2:1.8257924 3:0.15781847 4:6.5178623 
-0.5688357681670465 1:0.086148224 2:1.8257924 3:0.15781847 4:6.5178623 
1 1:0.17099958 2:1.8257924 3:0.15781847 4:6.5178623 
-0.4691182030911833 1:0.25585093 2:1.8257924 3:0.15781847 4:6.5178623 
1 1:-0.14012206 2:-2.0215887 3:-0.13154432 4:-15.461038 
1 1:-0.083554486 2:-2.0215887 3:-0.13154432 4:-15.461038 
-1 1:-0.055270701 2:3.9242973 3:0.15781847 4:-4.4715879 
-0.1280407535963501 1:0.0012968689 2:3.9242973 3:0.15781847 4:-4.4715879 
-0.9713498508190794 1:0.057864439 2:3.9242973 3:0.15781847 4:-4.4715879 
-1 1:0.11443201 2:3.9242973 3:0.15781847 4:-4.4715879 
0.965378935246342 1:-0.11183827 2:1.7965544 3:0.57578695 4:-8.6734366 
-0.1154052958872272 1:-0.055270701 2:1.7965544 3:0.57578695 4:-8.6734366 
-1 1:0.057864439 2:1.7965544 3:0.57578695 4:-8.6734366 
0.1615152913017847 1:0.11443201 2:1.7965544 3:0.57578695 4:-8.6734366 
-0.8243914279081728 1:-0.11183827 2:-0.9352265 3:0.061364206 4:-2.6400129 
-1 1:-0.055270701 2:-0.9352265 3:0.061364206 4:-2.6400129 
-1 1:0.0012968689 2:-0.9352265 3:0.061364206 4:-2.6400129 
-1 1:0.057864439 2:-0.9352265 3:0.061364206 4:-2.6400129 
0.6662330543949367 1:-0.11183827 2:-2.64558 3:-0.22799859 4:10.181012 
1 1:-0.055270701 2:-2.64558 3:-0.22799859 4:10.181012 
1 1:0.0012968689 2:-2.64558 3:-0.22799859 4:10.181012 
1 1:0.057864439 2:-2.64558 3:-0.22799859 4:10.181012 
-1 1:-0.14012206 2:-2.4801568 3:0.029212785 4:-15.461038 
1 1:-0.11183827 2:-2.4801568 3:0.029212785 4:-15.461038 
1 1:-0.083554486 2:-2.4801568 3:0.029212785 4:-15.461038 
1 1:-0.055270701 2:-2.4801568 3:0.029212785 4:-15.461038 
-0.2450407537788845 1:-0.083554486 2:2.028676 3:0.22212131 4:4.6066535 
-1 1:0.17099958 2:2.028676 3:0.22212131 4:4.6066535 
-1 1:0.25585093 2:2.028676 3:0.22212131 4:4.6066535 
0.3710237593882671 1:-0.055270701 2:2.9898951 3:0.28642415 4:12.232376 
-1 1:0.057864439 2:2.9898951 3:0.28642415 4:12.232376 
1 1:0.17099958 2:2.9898951 3:0.28642415 4:12.232376 
-0.3742681422615689 1:0.28413472 2:2.9898951 3:0.28642415 4:12.232376 
-1 1:-0.14012206 2:-0.25634185 3:-0.035090058 4:-15.461038 
-1 1:-0.083554486 2:-0.25634185 3:-0.035090058 4:-15.461038 
-1 1:-0.026986916 2:-0.25634185 3:-0.035090058 4:-15.461038 
1 1:-0.11183827 2:-2.215087 3:-0.19584716 4:-15.461038 
1 1:-0.055270701 2:-2.215087 3:-0.19584716 4:-15.461038 
1 1:-0.083554486 2:-3.5777024 3:-0.13154432 4:23.002038 
1 1:0.0012968689 2:-3.5777024 3:-0.13154432 4:23.002038 
-0.9063179773743014 1:0.086148224 2:-3.5777024 3:-0.13154432 4:23.002038 
1 1:0.25585093 2:-3.5777024 3:-0.13154432 4:23.002038 
1 1:-0.055270701 2:-3.5832915 3:-0.0993929 4:2.2911507 
1 1:0.0012968689 2:-3.5832915 3:-0.0993929 4:2.2911507 
1 1:0.057864439 2:-3.5832915 3:-0.0993929 4:2.2911507 
1 1:0.11443201 2:-3.5832915 3:-0.0993929 4:2.2911507 
-1 1:-0.083554486 2:3.3496636 3:0.18996989 4:5.5188213 
-0.07839176345484021 1:0.0012968689 2:3.3496636 3:0.18996989 4:5.5188213 
-1 1:0.086148224 2:3.3496636 3:0.18996989 4:5.5188213 
-0.9802592655730066 1:0.17099958 2:3.3496636 3:0.18996989 4:5.5188213 
0.801377050940826 1:0.057864439 2:-1.6301211 3:0.093515627 4:20.977665 
-0.5006193575428406 1:0.17099958 2:-1.6301211 3:0.093515627 4:20.977665 
-1 1:0.28413472 2:-1.6301211 3:0.093515627 4:20.977665 
0.8683734957866572 1:0.39726986 2:-1.6301211 3:0.093515627 4:20.977665 
-0.8593629787066673 1:-0.11183827 2:-0.77551087 3:0.093515627 4:-3.3148037 
-1 1:-0.055270701 2:-0.77551087 3:0.093515627 4:-3.3148037 
-1 1:0.0012968689 2:-0.77551087 3:0.093515627 4:-3.3148037 
-1 1:0.057864439 2:-0.77551087 3:0.093515627 4:-3.3148037 
0.2312457690661725 1:-0.083554486 2:-2.6549492 3:0.22212131 4:4.6066535 
-0.9460175559918885 1:0.086148224 2:-2.6549492 3:0.22212131 4:4.6066535 
0.9354057080735428 1:0.17099958 2:-2.6549492 3:0.22212131 4:4.6066535 
-0.2535415967904492 1:0.25585093 2:-2.6549492 3:0.22212131 4:4.6066535 
1 1:-0.14012206 2:-1.2611507 3:0.28642415 4:-15.461038 
-1 1:-0.083554486 2:-1.2611507 3:0.28642415 4:-15.461038 
-1 1:-0.055270701 2:-1.2611507 3:0.28642415 4:-15.461038 
-1 1:-0.026986916 2:-1.2611507 3:0.28642415 4:-15.461038 
-1 1:-0.083554486 2:-2.8374918 3:-0.16369574 4:-15.461038 
0.9535492111455963 1:-0.14012206 2:2.446265 3:-0.067241479 4:-15.461038 
1 1:-0.11183827 2:2.446265 3:-0.067241479 4:-15.461038 
1 1:-0.083554486 2:2.446265 3:-0.067241479 4:-15.461038 
1 1:-0.055270701 2:2.446265 3:-0.067241479 4:-15.461038 
1 1:-0.083554486 2:-0.66526572 3:-0.16369574 4:26.498681 
-0.4110237361469138 1:0.25585093 2:-0.66526572 3:-0.16369574 4:26.498681 
1 1:-0.11183827 2:1.1167156 3:-0.0029386365 4:-1.0373848 
1 1:-0.055270701 2:1.1167156 3:-0.0029386365 4:-1.0373848 
1 1:0.0012968689 2:1.1167156 3:-0.0029386365 4:-1.0373848 
1 1:0.11443201 2:1.1167156 3:-0.0029386365 4:-1.0373848 
1 1:-0.11183827 2:1.5817442 3:0.18996989 4:-4.9711084 
-1 1:-0.055270701 2:1.5817442 3:0.18996989 4:-4.9711084 
1 1:0.0012968689 2:1.5817442 3:0.18996989 4:-4.9711084 
1 1:0.057864439 2:1.5817442 3:0.18996989 4:-4.9711084 
-0.5411211718443559 1:-0.14012206 2:0.51601065 3:0.15781847 4:-15.461038 
-1 1:-0.083554486 2:0.51601065 3:0.15781847 4:-15.461038 
-1 1:-0.055270701 2:0.51601065 3:0.15781847 4:-15.461038 
-1 1:-0.026986916 2:0.51601065 3:0.15781847 4:-15.461038 
0.9694149126695943 1:-0.11183827 2:0.36363205 3:0.18996989 4:-4.9711084 
-0.8636113736363902 1:-0.055270701 2:0.36363205 3:0.18996989 4:-4.9711084 
1 1:0.0012968689 2:0.36363205 3:0.18996989 4:-4.9711084 
-0.924943169394967 1:0.11443201 2:0.36363205 3:0.18996989 4:-4.9711084 
0.7906660230108749 1:-0.14012206 2:2.9004493 3:-0.0029386365 4:-15.461038 
-1 1:-0.11183827 2:2.9004493 3:-0.0029386365 4:-15.461038 
0.02681964890825351 1:-0.026986916 2:2.9004493 3:-0.0029386365 4:-15.461038 
-0.4952310196386434 1:-0.11183827 2:2.5182436 3:0.57578695 4:-8.6734366 
-0.376709125591372 1:0.0012968689 2:2.5182436 3:0.57578695 4:-8.6734366 
0.9872890762580111 1:0.057864439 2:2.5182436 3:0.57578695 4:-8.6734366 
0.4110681453338617 1:-0.055270701 2:0.81125942 3:0.12566705 4:19.15573 
-0.9419921862462347 1:0.057864439 2:0.81125942 3:0.12566705 4:19.15573 
0.5440740788044236 1:0.17099958 2:0.81125942 3:0.12566705 4:19.15573 
-1 1:0.11443201 2:1.6944263 3:-0.0993929 4:2.2911507 
1 1:-0.083554486 2:-0.86719319 3:-0.19584716 4:30.694653 
1 1:0.0012968689 2:-0.86719319 3:-0.19584716 4:30.694653 
1 1:0.086148224 2:-0.86719319 3:-0.19584716 4:30.694653 
1 1:0.17099958 2:-0.86719319 3:-0.19584716 4:30.694653 
1 1:-0.11183827 2:-0.94104436 3:0.093515627 4:-3.3148037 
-0.9859105890328121 1:-0.055270701 2:-0.94104436 3:0.093515627 4:-3.3148037 
0.9883837472132463 1:0.057864439 2:-0.94104436 3:0.093515627 4:-3.3148037 
1 1:-0.11183827 2:-2.1491847 3:-0.067241479 4:1.0231372 
1 1:0.0012968689 2:-2.1491847 3:-0.067241479 4:1.0231372 
1 1:0.11443201 2:-2.1491847 3:-0.067241479 4:1.0231372 
-0.2589493218324449 1:0.0012968689 2:2.3564463 3:0.15781847 4:-4.4715879 
-1 1:0.057864439 2:2.3564463 3:0.15781847 4:-4.4715879 
-1 1:0.11443201 2:2.3564463 3:0.15781847 4:-4.4715879 
0.4818370653894847 1:-0.14012206 2:3.3067343 3:0.67224121 4:-15.461038 
0.2537831884660338 1:-0.083554486 2:3.3067343 3:0.67224121 4:-15.461038 
1 1:-0.055270701 2:3.3067343 3:0.67224121 4:-15.461038 
0.7758601491043982 1:-0.083554486 2:3.1840504 3:0.18996989 4:5.5188213 
1 1:0.086148224 2:3.1840504 3:0.18996989 4:5.5188213 
-1 1:0.17099958 2:3.1840504 3:0.18996989 4:5.5188213 
1 1:-0.055270701 2:-0.93384324 3:-0.067241479 4:-15.461038 
-1 1:-0.055270701 2:0.96779941 3:0.12566705 4:-15.461038 
1 1:-0.11183827 2:3.5187422 3:0.41502984 4:-7.5031604 
1 1:-0.055270701 2:3.5187422 3:0.41502984 4:-7.5031604 
1 1:0.0012968689 2:3.5187422 3:0.41502984 4:-7.5031604 
1 1:0.057864439 2:3.5187422 3:0.41502984 4:-7.5031604 
-0.2472163932017636 1:-0.055270701 2:2.9749318 3:0.12566705 4:19.15573 
0.9493117399766379 1:0.17099958 2:2.9749318 3:0.12566705 4:19.15573 
-1 1:0.28413472 2:2.9749318 3:0.12566705 4:19.15573 
0.2915143822691426 1:0.39726986 2:2.9749318 3:0.12566705 4:19.15573 
1 1:-0.083554486 2:-0.026525129 3:0.061364206 4:10.181012 
1 1:0.0012968689 2:-0.026525129 3:0.061364206 4:10.181012 
-0.8825911977339729 1:0.17099958 2:-0.026525129 3:0.061364206 4:10.181012 
-1 1:0.25585093 2:-0.026525129 3:0.061364206 4:10.181012 
-1 1:-0.083554486 2:-3.2374225 3:-0.19584716 4:30.694653 
-1 1:0.0012968689 2:-3.2374225 3:-0.19584716 4:30.694653 
-1 1:0.086148224 2:-3.2374225 3:-0.19584716 4:30.694653 
-1 1:0.25585093 2:-3.2374225 3:-0.19584716 4:30.694653 
0.1650492861924469 1:-0.11183827 2:-1.1016504 3:0.22212131 4:-5.4271923 
-1 1:-0.055270701 2:-1.1016504 3:0.22212131 4:-5.4271923 
0.915514871253466 1:0.0012968689 2:-1.1016504 3:0.22212131 4:-5.4271923 
-0.5252467878394524 1:0.057864439 2:-1.1016504 3:0.22212131 4:-5.4271923 
-1 1:-0.055270701 2:-2.6601289 3:0.061364206 4:-2.6400129 
0.6802955232465946 1:0.057864439 2:-2.6601289 3:0.061364206 4:-2.6400129 
1 1:-0.14012206 2:3.957912 3:0.061364206 4:-15.461038 
1 1:-0.11183827 2:3.957912 3:0.061364206 4:-15.461038 
-1 1:-0.083554486 2:3.957912 3:0.061364206 4:-15.461038 
1 1:-0.11183827 2:3.0280685 3:0.061364206 4:-15.461038 
1 1:-0.083554486 2:3.0280685 3:0.061364206 4:-15.461038 
0.4898070851723245 1:-0.083554486 2:-0.2119124 3:0.31857558 4:2.2911507 
-0.5074383674777214 1:0.0012968689 2:-0.2119124 3:0.31857558 4:2.2911507 
-0.2288340646504716 1:0.086148224 2:-0.2119124 3:0.31857558 4:2.2911507 
0.2733934525754186 1:0.25585093 2:-0.2119124 3:0.31857558 4:2.2911507 
-1 1:-0.11183827 2:3.9113932 3:0.25427273 4:-15.461038 
-0.1161116214440538 1:-0.055270701 2:2.3674459 3:0.12566705 4:19.15573 
0.7223817229733641 1:0.17099958 2:2.3674459 3:0.12566705 4:19.15573 
-0.9690861895057415 1:0.28413472 2:2.3674459 3:0.12566705 4:19.15573 
0.357454778870116 1:0.39726986 2:2.3674459 3:0.12566705 4:19.15573 
-0.4503398093790726 1:-0.055270701 2:0.94068227 3:0.38287842 4:9.2652248 
0.6921106302158651 1:0.057864439 2:0.94068227 3:0.38287842 4:9.2652248 
0.009169298745265798 1:0.39726986 2:0.94068227 3:0.38287842 4:9.2652248 
-0.7747259545389387 1:-0.083554486 2:-3.5471685 3:0.029212785 4:11.689368 
-1 1:0.0012968689 2:-3.5471685 3:0.029212785 4:11.689368 
1 1:0.17099958 2:-3.5471685 3:0.029212785 4:11.689368 
-1 1:0.25585093 2:-3.5471685 3:0.029212785 4:11.689368 
-0.2164159239340249 1:-0.083554486 2:-1.7542329 3:0.25427273 4:3.7704997 
0.9931278123062537 1:0.086148224 2:-1.7542329 3:0.25427273 4:3.7704997 
-0.7843828999910536 1:0.17099958 2:-1.7542329 3:0.25427273 4:3.7704997 
0.3150065604839496 1:-0.055270701 2:0.84332794 3:0.093515627 4:-3.3148037 
-1 1:0.0012968689 2:0.84332794 3:0.093515627 4:-3.3148037 
1 1:-0.11183827 2:1.0692864 3:-0.067241479 4:-15.461038 
1 1:-0.083554486 2:1.0692864 3:-0.067241479 4:-15.461038 
1 1:-0.055270701 2:1.0692864 3:-0.067241479 4:-15.461038 
1 1:-0.026986916 2:1.0692864 3:-0.067241479 4:-15.461038 
-1 1:0.057864439 2:2.2528671 3:-0.067241479 4:1.0231372 
-0.6647620919833468 1:0.11443201 2:2.2528671 3:-0.067241479 4:1.0231372 
0.54041164952881 1:-0.11183827 2:3.0530334 3:0.22212131 4:-15.461038 
1 1:-0.083554486 2:3.0530334 3:0.22212131 4:-15.461038 
1 1:-0.055270701 2:3.0530334 3:0.22212131 4:-15.461038 
0.2463459934785616 1:-0.026986916 2:3.0530334 3:0.22212131 4:-15.461038 
-1 1:-0.083554486 2:2.3249566 3:-0.0993929 4:-15.461038 
-1 1:-0.055270701 2:2.3249566 3:-0.0993929 4:-15.461038 
-1 1:-0.026986916 2:2.3249566 3:-0.0993929 4:-15.461038 
-1 1:0.086148224 2:-1.704101 3:-0.13154432 4:23.002038 
-1 1:0.17099958 2:-1.704101 3:-0.13154432 4:23.002038 
-1 1:0.25585093 2:-1.704101 3:-0.13154432 4:23.002038 
-1 1:-0.055270701 2:-0.65934935 3:0.029212785 4:-15.461038 
-1 1:0.0012968689 2:2.9163796 3:0.18996989 4:5.5188213 
1 1:0.086148224 2:2.9163796 3:0.18996989 4:5.5188213 
0.8050459228987753 1:0.17099958 2:2.9163796 3:0.18996989 4:5.5188213 
-1 1:0.25585093 2:2.9163796 3:0.18996989 4:5.5188213 
-0.9870337789270615 1:-0.11183827 2:3.2486225 3:0.44718126 4:-7.768423 
0.7703795774642348 1:-0.055270701 2:3.2486225 3:0.44718126 4:-7.768423 
1 1:0.057864439 2:3.2486225 3:0.44718126 4:-7.768423 
0.7451033914994677 1:0.11443201 2:3.2486225 3:0.44718126 4:-7.768423 
-0.3303241770586037 1:-0.11183827 2:2.0608886 3:-0.16369574 4:5.5188213 
-1 1:0.0012968689 2:2.0608886 3:-0.16369574 4:5.5188213 
-1 1:0.057864439 2:2.0608886 3:-0.16369574 4:5.5188213 
-0.1208196078315313 1:0.11443201 2:2.0608886 3:-0.16369574 4:5.5188213 
-1 1:-0.14012206 2:0.47105198 3:0.350727 4:-15.461038 
-1 1:-0.11183827 2:0.47105198 3:0.350727 4:-15.461038 
-1 1:-0.083554486 2:0.47105198 3:0.350727 4:-15.461038 
-1 1:-0.055270701 2:0.47105198 3:0.350727 4:-15.461038 
0.4944387749293911 1:-0.11183827 2:-2.9561857 3:0.093515627 4:-3.3148037 
-1 1:-0.055270701 2:-2.9561857 3:0.093515627 4:-3.3148037 
0.3807718543053427 1:0.0012968689 2:-2.9561857 3:0.093515627 4:-3.3148037 
0.08665102389975687 1:0.057864439 2:-2.9561857 3:0.093515627 4:-3.3148037 
1 1:-0.055270701 2:2.1190875 3:0.029212785 4:-15.461038 
1 1:-0.026986916 2:2.1190875 3:0.029212785 4:-15.461038 
1 1:0.057864439 2:-1.6867318 3:-0.035090058 4:-0.075807858 
-0.2163785930946564 1:-0.11183827 2:-1.2718335 3:0.029212785 4:-1.885835 
0.3879470958028058 1:0.0012968689 2:-1.2718335 3:0.029212785 4:-1.885835 
-0.4201404915369779 1:0.057864439 2:-1.2718335 3:0.029212785 4:-1.885835 
-1 1:-0.11183827 2:1.1324582 3:0.22212131 4:-15.461038 
1 1:-0.083554486 2:1.1324582 3:0.22212131 4:-15.461038 
1 1:-0.055270701 2:1.1324582 3:0.22212131 4:-15.461038 
-0.2828826808255227 1:-0.11183827 2:2.6154569 3:0.18996989 4:-4.9711084 
-1 1:-0.055270701 2:2.6154569 3:0.18996989 4:-4.9711084 
-0.4177843710911744 1:0.057864439 2:2.6154569 3:0.18996989 4:-4.9711084 
0.07404625712952753 1:-0.083554486 2:-0.71986824 3:0.22212131 4:4.6066535 
1 1:0.0012968689 2:-0.71986824 3:0.22212131 4:4.6066535 
1 1:0.086148224 2:-0.71986824 3:0.22212131 4:4.6066535 
1 1:0.25585093 2:-0.71986824 3:0.22212131 4:4.6066535 
-0.9531206321738286 1:-0.11183827 2:3.0511357 3:0.31857558 4:-6.5849438 
1 1:-0.055270701 2:3.0511357 3:0.31857558 4:-6.5849438 
0.9413393131459085 1:0.0012968689 2:3.0511357 3:0.31857558 4:-6.5849438 
-1 1:-0.11183827 2:0.38556192 3:-0.067241479 4:-15.461038 
1 1:-0.083554486 2:0.38556192 3:-0.067241479 4:-15.461038 
1 1:-0.026986916 2:0.38556192 3:-0.067241479 4:-15.461038 
1 1:-0.11183827 2:-2.0183148 3:0.029212785 4:-1.885835 
0.2374733281320646 1:-0.055270701 2:-2.0183148 3:0.029212785 4:-1.885835 
-0.9124330309291072 1:0.11443201 2:-2.0183148 3:0.029212785 4:-1.885835 
-1 1:-0.14012206 2:-2.6391361 3:-0.19584716 4:-15.461038 
-1 1:-0.083554486 2:-2.6391361 3:-0.19584716 4:-15.461038 
-1 1:-0.055270701 2:-2.6391361 3:-0.19584716 4:-15.461038 
-1 1:-0.026986916 2:-2.6391361 3:-0.19584716 4:-15.461038 
-0.4434892693850719 1:-0.083554486 2:0.83359406 3:0.350727 4:1.6336622 
0.03644184387073209 1:0.0012968689 2:0.83359406 3:0.350727 4:1.6336622 
1 1:0.086148224 2:0.83359406 3:0.350727 4:1.6336622 
-0.656106449385348 1:0.25585093 2:0.83359406 3:0.350727 4:1.6336622 
-1 1:-0.055270701 2:2.4715765 3:-0.035090058 4:-15.461038 
0.9174485168344448 1:-0.026986916 2:2.4715765 3:-0.035090058 4:-15.461038 
-1 1:-0.11183827 2:1.5027971 3:0.18996989 4:-4.9711084 
-1 1:-0.055270701 2:1.5027971 3:0.18996989 4:-4.9711084 
-1 1:0.0012968689 2:1.5027971 3:0.18996989 4:-4.9711084 
-1 1:0.057864439 2:1.5027971 3:0.18996989 4:-4.9711084 
-0.4047391609046313 1:0.0012968689 2:-0.036552046 3:-0.035090058 4:15.309422 
-0.8936561985741083 1:0.086148224 2:-0.036552046 3:-0.035090058 4:15.309422 
-1 1:0.25585093 2:-0.036552046 3:-0.035090058 4:15.309422 
-0.9993489805292868 1:-0.083554486 2:3.3045775 3:0.41502984 4:0.45471733 
-1 1:0.0012968689 2:3.3045775 3:0.41502984 4:0.45471733 
-0.9696043758900516 1:0.086148224 2:3.3045775 3:0.41502984 4:0.45471733 
0.8075066030010465 1:0.17099958 2:3.3045775 3:0.41502984 4:0.45471733 
0.7866435409770983 1:-0.083554486 2:-1.3830315 3:0.029212785 4:11.689368 
-0.9180409019859133 1:0.0012968689 2:-1.3830315 3:0.029212785 4:11.689368 
-1 1:0.086148224 2:-1.3830315 3:0.029212785 4:11.689368 
-1 1:0.17099958 2:-1.3830315 3:0.029212785 4:11.689368 
0.7410818572509552 1:-0.11183827 2:2.9419776 3:0.029212785 4:-1.885835 
-0.8810281992058425 1:-0.055270701 2:2.9419776 3:0.029212785 4:-1.885835 
1 1:0.057864439 2:2.9419776 3:0.029212785 4:-1.885835 
-1 1:-0.11183827 2:2.9730265 3:0.15781847 4:-15.461038 
-1 1:-0.026986916 2:2.9730265 3:0.15781847 4:-15.461038 
-0.536834540253972 1:-0.055270701 2:3.529472 3:0.28642415 4:12.232376 
1 1:0.057864439 2:3.529472 3:0.28642415 4:12.232376 
-0.9668112347466935 1:0.28413472 2:3.529472 3:0.28642415 4:12.232376 
0.5029952079932387 1:0.39726986 2:3.529472 3:0.28642415 4:12.232376 
-1 1:-0.14012206 2:0.9838939 3:-0.0993929 4:-15.461038 
1 1:-0.11183827 2:0.9838939 3:-0.0993929 4:-15.461038 
-1 1:-0.026986916 2:0.9838939 3:-0.0993929 4:-15.461038 
-0.0959209363940364 1:-0.11183827 2:3.5556043 3:0.25427273 4:-5.8452692 
-0.4441704985768145 1:-0.055270701 2:3.5556043 3:0.25427273 4:-5.8452692 
0.8518424397069206 1:0.057864439 2:3.5556043 3:0.25427273 4:-5.8452692 
-0.3335939393449679 1:0.11443201 2:3.5556043 3:0.25427273 4:-5.8452692 
-1 1:-0.11183827 2:-2.3935789 3:-0.035090058 4:-0.075807858 
-1 1:-0.055270701 2:-2.3935789 3:-0.035090058 4:-0.075807858 
-1 1:0.11443201 2:-2.3935789 3:-0.035090058 4:-0.075807858 
-0.9565928467418338 1:-0.11183827 2:0.25833957 3:0.093515627 4:-3.3148037 
-1 1:0.0012968689 2:0.25833957 3:0.093515627 4:-3.3148037 
0.1310776709555247 1:0.057864439 2:0.25833957 3:0.093515627 4:-3.3148037 
-1 1:0.11443201 2:0.25833957 3:0.093515627 4:-3.3148037 
-0.6426860368861093 1:-0.083554486 2:0.21741596 3:0.28642415 4:3.0012382 
1 1:0.086148224 2:0.21741596 3:0.28642415 4:3.0012382 
0.5858724243618176 1:0.17099958 2:0.21741596 3:0.28642415 4:3.0012382 
-1 1:0.25585093 2:0.21741596 3:0.28642415 4:3.0012382 
-1 1:-0.083554486 2:-2.2139861 3:0.093515627 4:-15.461038 
-0.4930028832726182 1:0.17099958 2:2.2626905 3:-0.0029386365 4:27.809922 
0.9680487117792328 1:0.28413472 2:2.2626905 3:-0.0029386365 4:27.809922 
-0.4867414638268172 1:0.39726986 2:2.2626905 3:-0.0029386365 4:27.809922 
1 1:-0.11183827 2:-0.83215802 3:0.28642415 4:-15.461038 
0.05479787681301802 1:-0.083554486 2:-0.83215802 3:0.28642415 4:-15.461038 
-0.7627614990648311 1:-0.026986916 2:-0.83215802 3:0.28642415 4:-15.461038 
0.6013352226401009 1:-0.11183827 2:2.9402588 3:0.22212131 4:-15.461038 
1 1:-0.083554486 2:2.9402588 3:0.22212131 4:-15.461038 
-1 1:-0.055270701 2:2.9402588 3:0.22212131 4:-15.461038 
-1 1:-0.026986916 2:2.9402588 3:0.22212131 4:-15.461038 
-1 1:-0.026986916 2:-1.812677 3:-0.16369574 4:-15.461038 
-1 1:-0.083554486 2:-2.9987785 3:-0.0993929 4:20.043339 
-1 1:0.0012968689 2:-2.9987785 3:-0.0993929 4:20.043339 
-1 1:0.086148224 2:-2.9987785 3:-0.0993929 4:20.043339 
-1 1:0.25585093 2:-2.9987785 3:-0.0993929 4:20.043339 
1 1:-0.11183827 2:1.9595324 3:0.029212785 4:-1.885835 
-1 1:-0.055270701 2:1.9595324 3:0.029212785 4:-1.885835 
-1 1:0.0012968689 2:1.9595324 3:0.029212785 4:-1.885835 
-1 1:0.057864439 2:1.9595324 3:0.029212785 4:-1.885835 
-1 1:-0.11183827 2:1.9104782 3:0.093515627 4:-3.3148037 
-1 1:-0.055270701 2:1.9104782 3:0.093515627 4:-3.3148037 
-1 1:0.0012968689 2:1.9104782 3:0.093515627 4:-3.3148037 
-1 1:0.057864439 2:1.9104782 3:0.093515627 4:-3.3148037 
-0.7546860704624012 1:-0.055270701 2:-1.8305571 3:0.029212785 4:25.264571 
-1 1:0.057864439 2:-1.8305571 3:0.029212785 4:25.264571 
-1 1:0.17099958 2:-1.8305571 3:0.029212785 4:25.264571 
0.4232127362626815 1:0.39726986 2:-1.8305571 3:0.029212785 4:25.264571 
1 1:-0.14012206 2:0.12641171 3:0.093515627 4:-15.461038 
1 1:-0.11183827 2:0.12641171 3:0.093515627 4:-15.461038 
-0.08166083105479982 1:-0.14012206 2:-2.8615378 3:0.061364206 4:-15.461038 
-1 1:-0.11183827 2:1.411709 3:0.5114841 4:-8.2492115 
0.1611893024528668 1:0.0012968689 2:1.411709 3:0.5114841 4:-8.2492115 
-1 1:0.057864439 2:1.411709 3:0.5114841 4:-8.2492115 
-1 1:-0.11183827 2:3.131849 3:0.029212785 4:-1.885835 
-1 1:0.0012968689 2:3.131849 3:0.029212785 4:-1.885835 
-1 1:0.057864439 2:3.131849 3:0.029212785 4:-1.885835 
1 1:0.11443201 2:3.131849 3:0.029212785 4:-1.885835 
0.0816775868578431 1:-0.14012206 2:3.3617798 3:0.350727 4:-15.461038 
-1 1:-0.11183827 2:3.3617798 3:0.350727 4:-15.461038 
1 1:-0.055270701 2:3.3617798 3:0.350727 4:-15.461038 
1 1:-0.026986916 2:3.3617798 3:0.350727 4:-15.461038 
0.8973187719593853 1:0.086148224 2:3.4586283 3:0.41502984 4:0.45471733 
-1 1:0.17099958 2:3.4586283 3:0.41502984 4:0.45471733 
-1 1:0.25585093 2:3.4586283 3:0.41502984 4:0.45471733 
0.4903154184920576 1:-0.11183827 2:-1.5520371 3:0.15781847 4:-4.4715879 
-1 1:-0.055270701 2:-1.5520371 3:0.15781847 4:-4.4715879 
1 1:0.0012968689 2:-1.5520371 3:0.15781847 4:-4.4715879 
0.4113726256776903 1:0.11443201 2:-1.5520371 3:0.15781847 4:-4.4715879 
0.3961228730477953 1:-0.026986916 2:0.88895296 3:0.093515627 4:33.1239 
-1 1:0.11443201 2:0.88895296 3:0.093515627 4:33.1239 
0.7339570385885864 1:0.25585093 2:0.88895296 3:0.093515627 4:33.1239 
-0.0966670010794532 1:0.53868878 2:0.88895296 3:0.093515627 4:33.1239 
-1 1:-0.083554486 2:0.20641698 3:-0.067241479 4:17.507313 
-1 1:0.0012968689 2:0.20641698 3:-0.067241479 4:17.507313 
-1 1:0.086148224 2:0.20641698 3:-0.067241479 4:17.507313 
-1 1:0.25585093 2:0.20641698 3:-0.067241479 4:17.507313 
-0.3572965757593083 1:0.11443201 2:-1.6537503 3:-0.0993929 4:55.547717 
1 1:0.25585093 2:-1.6537503 3:-0.0993929 4:55.547717 
-0.9832230624205932 1:0.39726986 2:-1.6537503 3:-0.0993929 4:55.547717 
0.3397585968995799 1:0.53868878 2:-1.6537503 3:-0.0993929 4:55.547717 
-1 1:-0.083554486 2:2.1833919 3:0.31857558 4:-15.461038 
-1 1:-0.055270701 2:2.1833919 3:0.31857558 4:-15.461038 
-1 1:-0.026986916 2:2.1833919 3:0.31857558 4:-15.461038 
1 1:-0.14012206 2:-0.98556234 3:-0.067241479 4:-15.461038 
1 1:-0.11183827 2:-0.98556234 3:-0.067241479 4:-15.461038 
1 1:-0.083554486 2:-0.98556234 3:-0.067241479 4:-15.461038 
1 1:-0.055270701 2:-0.98556234 3:-0.067241479 4:-15.461038 
0.5604865088536428 1:-0.083554486 2:1.5995496 3:0.38287842 4:1.0231372 
-1 1:0.0012968689 2:1.5995496 3:0.38287842 4:1.0231372 
0.4535523800878012 1:0.17099958 2:1.5995496 3:0.38287842 4:1.0231372 
0.3147607436719754 1:-0.083554486 2:-0.27837292 3:0.64008979 4:-2.6400129 
-1 1:0.086148224 2:-0.27837292 3:0.64008979 4:-2.6400129 
0.9151093540386447 1:0.17099958 2:-0.27837292 3:0.64008979 4:-2.6400129 
-0.2218839098783724 1:0.25585093 2:-0.27837292 3:0.64008979 4:-2.6400129 
-1 1:-0.14012206 2:1.307263 3:0.12566705 4:-15.461038 
1 1:-0.083554486 2:1.307263 3:0.12566705 4:-15.461038 
-1 1:-0.055270701 2:1.307263 3:0.12566705 4:-15.461038 
-1 1:-0.026986916 2:1.307263 3:0.12566705 4:-15.461038 
1 1:-0.11183827 2:1.266255 3:0.18996989 4:-4.9711084 
-1 1:-0.055270701 2:1.266255 3:0.18996989 4:-4.9711084 
1 1:0.0012968689 2:1.266255 3:0.18996989 4:-4.9711084 
-1 1:0.11443201 2:1.266255 3:0.18996989 4:-4.9711084 
1 1:-0.11183827 2:1.2286018 3:0.093515627 4:-15.461038 
1 1:-0.083554486 2:1.2286018 3:0.093515627 4:-15.461038 
1 1:-0.055270701 2:1.2286018 3:0.093515627 4:-15.461038 
1 1:-0.026986916 2:1.2286018 3:0.093515627 4:-15.461038 
-1 1:-0.11183827 2:1.9655372 3:0.12566705 4:-15.461038 
-0.7614987034856752 1:-0.083554486 2:-2.9175287 3:0.25427273 4:3.7704997 
0.2382958792278271 1:0.0012968689 2:-2.9175287 3:0.25427273 4:3.7704997 
-0.07402422414570145 1:0.25585093 2:-2.9175287 3:0.25427273 4:3.7704997 
-0.7679358131140013 1:-0.055270701 2:1.3102773 3:0.029212785 4:25.264571 
1 1:0.057864439 2:1.3102773 3:0.029212785 4:25.264571 
0.7111110966864909 1:0.17099958 2:1.3102773 3:0.029212785 4:25.264571 
-1 1:0.28413472 2:1.3102773 3:0.029212785 4:25.264571 
-1 1:-0.083554486 2:0.96662266 3:-0.0029386365 4:13.386269 
-1 1:0.0012968689 2:0.96662266 3:-0.0029386365 4:13.386269 
-1 1:0.086148224 2:0.96662266 3:-0.0029386365 4:13.386269 
-1 1:0.25585093 2:0.96662266 3:-0.0029386365 4:13.386269 
1 1:-0.055270701 2:1.1705742 3:0.22212131 4:14.640499 
1 1:0.057864439 2:1.1705742 3:0.22212131 4:14.640499 
1 1:0.17099958 2:1.1705742 3:0.22212131 4:14.640499 
1 1:0.28413472 2:1.1705742 3:0.22212131 4:14.640499 
-1 1:-0.11183827 2:-0.21997069 3:0.25427273 4:-5.8452692 
-1 1:0.0012968689 2:-0.21997069 3:0.25427273 4:-5.8452692 
-1 1:0.057864439 2:-0.21997069 3:0.25427273 4:-5.8452692 
-1 1:0.11443201 2:-0.21997069 3:0.25427273 4:-5.8452692 
1 1:0.086148224 2:-2.4988493 3:-0.19584716 4:30.694653 
1 1:0.17099958 2:-2.4988493 3:-0.19584716 4:30.694653 
1 1:0.25585093 2:-2.4988493 3:-0.19584716 4:30.694653 
-1 1:-0.11183827 2:1.4484869 3:0.18996989 4:-4.9711084 
-1 1:-0.055270701 2:1.4484869 3:0.18996989 4:-4.9711084 
-1 1:0.0012968689 2:1.4484869 3:0.18996989 4:-4.9711084 
-1 1:0.057864439 2:1.4484869 3:0.18996989 4:-4.9711084 
-0.3728523784403099 1:0.17099958 2:3.6044857 3:0.44718126 4:23.002038 
1 1:0.34070229 2:3.6044857 3:0.44718126 4:23.002038 
-0.9410899023295736 1:0.510405 2:3.6044857 3:0.44718126 4:23.002038 
0.2924448925241797 1:0.68010771 2:3.6044857 3:0.44718126 4:23.002038 
0.2128207539925302 1:-0.055270701 2:1.3917169 3:0.18996989 4:16.008751 
-1 1:0.057864439 2:1.3917169 3:0.18996989 4:16.008751 
0.9875154952385288 1:0.17099958 2:1.3917169 3:0.18996989 4:16.008751 
-0.1953406005967231 1:0.39726986 2:1.3917169 3:0.18996989 4:16.008751 
-1 1:-0.11183827 2:0.46711563 3:-0.0029386365 4:-1.0373848 
-0.4070401009936124 1:-0.055270701 2:0.46711563 3:-0.0029386365 4:-1.0373848 
-1 1:0.0012968689 2:0.46711563 3:-0.0029386365 4:-1.0373848 
1 1:0.11443201 2:0.46711563 3:-0.0029386365 4:-1.0373848 
-0.2933103462925036 1:-0.11183827 2:0.0039784075 3:-0.19584716 4:7.6168073 
-1 1:0.11443201 2:0.0039784075 3:-0.19584716 4:7.6168073 
-0.761005870909696 1:0.39726986 2:-2.8311958 3:-0.035090058 4:30.694653 
-1 1:-0.11183827 2:0.6107373 3:-0.22799859 4:-15.461038 
-1 1:-0.083554486 2:0.6107373 3:-0.22799859 4:-15.461038 
-1 1:-0.026986916 2:0.6107373 3:-0.22799859 4:-15.461038 
1 1:-0.11183827 2:3.9419663 3:0.44718126 4:-7.768423 
-0.3185155878616789 1:-0.055270701 2:3.9419663 3:0.44718126 4:-7.768423 
1 1:0.0012968689 2:3.9419663 3:0.44718126 4:-7.768423 
0.9031649866921312 1:0.11443201 2:3.9419663 3:0.44718126 4:-7.768423 
1 1:-0.11183827 2:-0.5031608 3:0.093515627 4:-3.3148037 
1 1:-0.055270701 2:-0.5031608 3:0.093515627 4:-3.3148037 
1 1:0.0012968689 2:-0.5031608 3:0.093515627 4:-3.3148037 
1 1:0.11443201 2:-0.5031608 3:0.093515627 4:-3.3148037 
0.819133312755853 1:-0.083554486 2:-3.0668436 3:0.25427273 4:3.7704997 
1 1:0.0012968689 2:-3.0668436 3:0.25427273 4:3.7704997 
0.5744593564825452 1:0.17099958 2:-3.0668436 3:0.25427273 4:3.7704997 
-1 1:-0.11183827 2:3.0037453 3:0.061364206 4:-2.6400129 
-1 1:-0.055270701 2:3.0037453 3:0.061364206 4:-2.6400129 
-1 1:0.057864439 2:3.0037453 3:0.061364206 4:-2.6400129 
-1 1:0.11443201 2:3.0037453 3:0.061364206 4:-2.6400129 
-1 1:-0.11183827 2:3.9531015 3:0.38287842 4:-7.2189505 
-0.6659166038954054 1:-0.055270701 2:3.9531015 3:0.38287842 4:-7.2189505 
0.6343034490805278 1:0.0012968689 2:3.9531015 3:0.38287842 4:-7.2189505 
0.1463103268699633 1:0.057864439 2:3.9531015 3:0.38287842 4:-7.2189505 
0.2277052706579119 1:-0.14012206 2:-0.65690254 3:0.18996989 4:-15.461038 
1 1:-0.11183827 2:-0.65690254 3:0.18996989 4:-15.461038 
1 1:-0.083554486 2:-0.65690254 3:0.18996989 4:-15.461038 
1 1:-0.055270701 2:-0.65690254 3:0.18996989 4:-15.461038 
0.808709317125985 1:-0.11183827 2:3.492511 3:0.41502984 4:-7.5031604 
1 1:0.0012968689 2:3.492511 3:0.41502984 4:-7.5031604 
1 1:0.057864439 2:3.492511 3:0.41502984 4:-7.5031604 
-0.9916567927295105 1:0.11443201 2:3.492511 3:0.41502984 4:-7.5031604 
-1 1:0.086148224 2:-1.8877041 3:-0.19584716 4:30.694653 
-1 1:0.17099958 2:-1.8877041 3:-0.19584716 4:30.694653 
-0.0303150271497459 1:-0.11183827 2:-2.5562255 3:0.029212785 4:-1.885835 
-1 1:-0.055270701 2:-2.5562255 3:0.029212785 4:-1.885835 
-1 1:0.0012968689 2:-2.5562255 3:0.029212785 4:-1.885835 
-0.7841981875918655 1:0.11443201 2:-2.5562255 3:0.029212785 4:-1.885835 
-0.147990400198204 1:-0.083554486 2:3.9074433 3:0.18996989 4:5.5188213 
0.7733920165236358 1:0.0012968689 2:3.9074433 3:0.18996989 4:5.5188213 
-0.4068684038183654 1:0.086148224 2:3.9074433 3:0.18996989 4:5.5188213 
-0.04743271288429773 1:0.25585093 2:3.9074433 3:0.18996989 4:5.5188213 
1 1:-0.14012206 2:-1.0258885 3:0.28642415 4:-15.461038 
0.3258688092664898 1:-0.11183827 2:-1.0258885 3:0.28642415 4:-15.461038 
1 1:-0.083554486 2:-1.0258885 3:0.28642415 4:-15.461038 
1 1:-0.055270701 2:-1.0258885 3:0.28642415 4:-15.461038 
-1 1:-0.026986916 2:-0.89029532 3:-0.0993929 4:-15.461038 
-0.7747479220467247 1:-0.055270701 2:-1.6996871 3:0.093515627 4:20.977665 
1 1:0.057864439 2:-1.6996871 3:0.093515627 4:20.977665 
-0.2198968526410064 1:0.17099958 2:-1.6996871 3:0.093515627 4:20.977665 
-0.1637412844733279 1:0.39726986 2:-1.6996871 3:0.093515627 4:20.977665 
-0.7309033827338451 1:-0.083554486 2:3.5879549 3:0.41502984 4:0.45471733 
0.7932918780756789 1:0.0012968689 2:3.5879549 3:0.41502984 4:0.45471733 
-0.9678594616646192 1:0.17099958 2:3.5879549 3:0.41502984 4:0.45471733 
0.9258305383784303 1:0.25585093 2:3.5879549 3:0.41502984 4:0.45471733 
-0.9656753629959339 1:0.0012968689 2:3.5143061 3:0.38287842 4:1.0231372 
0.94939276351961 1:0.086148224 2:3.5143061 3:0.38287842 4:1.0231372 
-0.2155573498944012 1:0.25585093 2:3.5143061 3:0.38287842 4:1.0231372 
1 1:-0.14012206 2:3.3949507 3:-0.035090058 4:-15.461038 
1 1:-0.11183827 2:3.3949507 3:-0.035090058 4:-15.461038 
1 1:-0.055270701 2:3.3949507 3:-0.035090058 4:-15.461038 
1 1:-0.026986916 2:3.3949507 3:-0.035090058 4:-15.461038 
-1 1:-0.11183827 2:3.207245 3:0.061364206 4:-2.6400129 
-1 1:0.0012968689 2:3.207245 3:0.061364206 4:-2.6400129 
-1 1:0.057864439 2:3.207245 3:0.061364206 4:-2.6400129 
-1 1:0.11443201 2:3.207245 3:0.061364206 4:-2.6400129 
0.9851186532599682 1:-0.11183827 2:3.5107604 3:-0.0029386365 4:-1.0373848 
-1 1:-0.055270701 2:3.5107604 3:-0.0029386365 4:-1.0373848 
-1 1:0.057864439 2:3.5107604 3:-0.0029386365 4:-1.0373848 
-1 1:0.11443201 2:3.5107604 3:-0.0029386365 4:-1.0373848 
1 1:-0.083554486 2:1.8873733 3:-0.0993929 4:20.043339 
-0.4132678794642134 1:0.0012968689 2:1.8873733 3:-0.0993929 4:20.043339 
-1 1:0.086148224 2:1.8873733 3:-0.0993929 4:20.043339 
0.5329890057542551 1:0.17099958 2:1.8873733 3:-0.0993929 4:20.043339 
-1 1:-0.11183827 2:-3.6860092 3:-0.035090058 4:-0.075807858 
-1 1:-0.055270701 2:-3.6860092 3:-0.035090058 4:-0.075807858 
-1 1:0.0012968689 2:-3.6860092 3:-0.035090058 4:-0.075807858 
-1 1:0.11443201 2:-3.6860092 3:-0.035090058 4:-0.075807858 
1 1:-0.14012206 2:2.6520385 3:0.67224121 4:-15.461038 
1 1:-0.083554486 2:2.6520385 3:0.67224121 4:-15.461038 
-1 1:-0.055270701 2:2.6520385 3:0.67224121 4:-15.461038 
-1 1:-0.026986916 2:2.6520385 3:0.67224121 4:-15.461038 
-1 1:-0.11183827 2:3.3558416 3:0.350727 4:-6.913688 
-1 1:-0.055270701 2:3.3558416 3:0.350727 4:-6.913688 
-0.9900185121575105 1:0.0012968689 2:3.3558416 3:0.350727 4:-6.913688 
0.9961196486944699 1:0.057864439 2:3.3558416 3:0.350727 4:-6.913688 
-1 1:-0.11183827 2:-2.1139055 3:-0.0993929 4:-15.461038 
-1 1:-0.083554486 2:-2.1139055 3:-0.0993929 4:-15.461038 
-0.9597665020305796 1:-0.055270701 2:-2.0846072 3:-0.16369574 4:5.5188213 
-1 1:0.0012968689 2:-2.0846072 3:-0.16369574 4:5.5188213 
-1 1:0.057864439 2:-2.0846072 3:-0.16369574 4:5.5188213 
-1 1:0.11443201 2:-2.0846072 3:-0.16369574 4:5.5188213 
0.4294133795134573 1:-0.11183827 2:3.0781941 3:0.22212131 4:-5.4271923 
0.3381670535722113 1:0.0012968689 2:3.0781941 3:0.22212131 4:-5.4271923 
-1 1:0.057864439 2:3.0781941 3:0.22212131 4:-5.4271923 
-1 1:0.11443201 2:3.0781941 3:0.22212131 4:-5.4271923 
1 1:-0.055270701 2:2.7687295 3:0.12566705 4:-3.9221154 
1 1:0.0012968689 2:2.7687295 3:0.12566705 4:-3.9221154 
1 1:0.057864439 2:2.7687295 3:0.12566705 4:-3.9221154 
0.3051035838305124 1:0.11443201 2:2.7687295 3:0.12566705 4:-3.9221154 
1 1:-0.11183827 2:3.442473 3:0.18996989 4:-4.9711084 
-0.9992624021509933 1:0.0012968689 2:3.442473 3:0.18996989 4:-4.9711084 
1 1:0.057864439 2:3.442473 3:0.18996989 4:-4.9711084 
-1 1:0.11443201 2:3.442473 3:0.18996989 4:-4.9711084 
-1 1:-0.083554486 2:-1.4758949 3:-0.13154432 4:23.002038 
0.6582884664060711 1:0.17099958 2:-1.4758949 3:-0.13154432 4:23.002038 
1 1:0.25585093 2:-1.4758949 3:-0.13154432 4:23.002038 
1 1:-0.11183827 2:-1.2850055 3:-0.0029386365 4:-1.0373848 
0.5638359374326496 1:-0.055270701 2:-1.2850055 3:-0.0029386365 4:-1.0373848 
1 1:0.0012968689 2:-1.2850055 3:-0.0029386365 4:-1.0373848 
1 1:0.057864439 2:-1.2850055 3:-0.0029386365 4:-1.0373848 
-0.06003458292331254 1:-0.11183827 2:-0.30085735 3:-0.067241479 4:1.0231372 
-1 1:0.0012968689 2:-0.30085735 3:-0.067241479 4:1.0231372 
0.65001747840122 1:0.057864439 2:-0.30085735 3:-0.067241479 4:1.0231372 
0.09807737281959346 1:0.057864439 2:2.9800937 3:0.64008979 4:3.7704997 
-0.4366370870859756 1:0.28413472 2:2.9800937 3:0.64008979 4:3.7704997 
0.319128500433265 1:0.39726986 2:2.9800937 3:0.64008979 4:3.7704997 
-1 1:-0.11183827 2:-1.0219524 3:-0.16369574 4:-15.461038 
0.6911916175441256 1:-0.11183827 2:2.4383276 3:0.12566705 4:-3.9221154 
-1 1:-0.055270701 2:2.4383276 3:0.12566705 4:-3.9221154 
-1 1:0.0012968689 2:2.4383276 3:0.12566705 4:-3.9221154 
-1 1:0.057864439 2:2.4383276 3:0.12566705 4:-3.9221154 
-1 1:-0.055270701 2:2.1155262 3:0.15781847 4:-4.4715879 
-1 1:0.0012968689 2:2.1155262 3:0.15781847 4:-4.4715879 
-1 1:0.057864439 2:2.1155262 3:0.15781847 4:-4.4715879 
-1 1:0.11443201 2:2.1155262 3:0.15781847 4:-4.4715879 
-1 1:-0.055270701 2:1.2509756 3:-0.035090058 4:-0.075807858 
-1 1:0.057864439 2:1.2509756 3:-0.035090058 4:-0.075807858 
-1 1:0.11443201 2:1.2509756 3:-0.035090058 4:-0.075807858 
-0.9810112399081062 1:-0.14012206 2:3.5099996 3:0.38287842 4:-15.461038 
1 1:-0.11183827 2:3.5099996 3:0.38287842 4:-15.461038 
-1 1:-0.083554486 2:3.5099996 3:0.38287842 4:-15.461038 
-1 1:-0.026986916 2:3.5099996 3:0.38287842 4:-15.461038 
0.9918562075579677 1:0.086148224 2:-1.3882969 3:0.029212785 4:11.689368 
0.9930202596409473 1:0.17099958 2:-1.3882969 3:0.029212785 4:11.689368 
1 1:-0.11183827 2:-0.52515496 3:0.22212131 4:-5.4271923 
-1 1:-0.055270701 2:-0.52515496 3:0.22212131 4:-5.4271923 
0.8450317607173629 1:0.0012968689 2:-0.52515496 3:0.22212131 4:-5.4271923 
1 1:0.11443201 2:-0.52515496 3:0.22212131 4:-5.4271923 
-1 1:-0.11183827 2:2.428956 3:0.31857558 4:-6.5849438 
-1 1:-0.055270701 2:2.428956 3:0.31857558 4:-6.5849438 
-1 1:0.0012968689 2:2.428956 3:0.31857558 4:-6.5849438 
-1 1:0.057864439 2:2.428956 3:0.31857558 4:-6.5849438 
1 1:-0.11183827 2:-0.20488821 3:0.12566705 4:-3.9221154 
0.4708490053848811 1:-0.055270701 2:-0.20488821 3:0.12566705 4:-3.9221154 
-0.01118116566984848 1:0.0012968689 2:-0.20488821 3:0.12566705 4:-3.9221154 
-1 1:0.11443201 2:-0.20488821 3:0.12566705 4:-3.9221154 
-0.6432339337088436 1:-0.11183827 2:2.9630354 3:0.15781847 4:-4.4715879 
-1 1:-0.055270701 2:2.9630354 3:0.15781847 4:-4.4715879 
-1 1:0.057864439 2:2.9630354 3:0.15781847 4:-4.4715879 
-1 1:0.11443201 2:2.9630354 3:0.15781847 4:-4.4715879 
1 1:-0.11183827 2:2.1309366 3:-0.0993929 4:-15.461038 
1 1:-0.083554486 2:2.1309366 3:-0.0993929 4:-15.461038 
1 1:-0.055270701 2:2.1309366 3:-0.0993929 4:-15.461038 
1 1:-0.026986916 2:2.1309366 3:-0.0993929 4:-15.461038 
0.1730863038020396 1:-0.11183827 2:-0.61980854 3:0.31857558 4:-6.5849438 
-0.6815488101228083 1:0.0012968689 2:-0.61980854 3:0.31857558 4:-6.5849438 
1 1:0.057864439 2:-0.61980854 3:0.31857558 4:-6.5849438 
-0.2464886843616043 1:0.11443201 2:-0.61980854 3:0.31857558 4:-6.5849438 
1 1:-0.055270701 2:-1.2066609 3:-0.0029386365 4:-1.0373848 
-1 1:0.0012968689 2:-1.2066609 3:-0.0029386365 4:-1.0373848 
-1 1:0.057864439 2:-1.2066609 3:-0.0029386365 4:-1.0373848 
-1 1:0.11443201 2:-1.2066609 3:-0.0029386365 4:-1.0373848 
-1 1:-0.11183827 2:-2.7565331 3:-0.16369574 4:5.5188213 
-1 1:-0.055270701 2:-2.7565331 3:-0.16369574 4:5.5188213 
-1 1:0.057864439 2:-2.7565331 3:-0.16369574 4:5.5188213 
-1 1:0.11443201 2:-2.7565331 3:-0.16369574 4:5.5188213 
-1 1:-0.11183827 2:-2.2445908 3:-0.16369574 4:5.5188213 
-1 1:-0.055270701 2:-2.2445908 3:-0.16369574 4:5.5188213 
-1 1:0.11443201 2:-2.2445908 3:-0.16369574 4:5.5188213 
1 1:0.17099958 2:-0.50079292 3:0.15781847 4:17.507313 
0.909414347764476 1:0.28413472 2:-0.50079292 3:0.15781847 4:17.507313 
1 1:0.39726986 2:-0.50079292 3:0.15781847 4:17.507313 
-0.5618098291141338 1:-0.055270701 2:2.4778438 3:0.093515627 4:20.977665 
1 1:0.057864439 2:2.4778438 3:0.093515627 4:20.977665 
-0.8260664178041711 1:0.28413472 2:2.4778438 3:0.093515627 4:20.977665 
0.3758621136281474 1:0.39726986 2:2.4778438 3:0.093515627 4:20.977665 
-1 1:-0.055270701 2:3.3301418 3:0.12566705 4:-3.9221154 
-0.9977416101599155 1:0.0012968689 2:3.3301418 3:0.12566705 4:-3.9221154 
0.9028220383878215 1:0.11443201 2:3.3301418 3:0.12566705 4:-3.9221154 
-1 1:-0.083554486 2:1.605001 3:0.061364206 4:-15.461038 
-1 1:-0.055270701 2:1.605001 3:0.061364206 4:-15.461038 
-1 1:-0.026986916 2:1.605001 3:0.061364206 4:-15.461038 
1 1:-0.11183827 2:-0.17271236 3:-0.0993929 4:2.2911507 
1 1:-0.055270701 2:-0.17271236 3:-0.0993929 4:2.2911507 
1 1:0.0012968689 2:-0.17271236 3:-0.0993929 4:2.2911507 
-1 1:0.11443201 2:-0.17271236 3:-0.0993929 4:2.2911507 
0.7489596234413897 1:-0.083554486 2:1.5776081 3:0.41502984 4:0.45471733 
-0.9953485576193665 1:0.0012968689 2:1.5776081 3:0.41502984 4:0.45471733 
0.07789236420133237 1:0.086148224 2:1.5776081 3:0.41502984 4:0.45471733 
0.1741562867977533 1:0.25585093 2:1.5776081 3:0.41502984 4:0.45471733 
0.7311623585990531 1:-0.11183827 2:2.3867651 3:0.15781847 4:-4.4715879 
1 1:0.0012968689 2:2.3867651 3:0.15781847 4:-4.4715879 
1 1:0.057864439 2:2.3867651 3:0.15781847 4:-4.4715879 
1 1:0.11443201 2:2.3867651 3:0.15781847 4:-4.4715879 
-0.7054113852997653 1:-0.14012206 2:3.2528187 3:0.57578695 4:-15.461038 
-1 1:-0.11183827 2:3.2528187 3:0.57578695 4:-15.461038 
-1 1:-0.055270701 2:3.2528187 3:0.57578695 4:-15.461038 
-1 1:-0.026986916 2:3.2528187 3:0.57578695 4:-15.461038 
1 1:-0.055270701 2:0.45302992 3:0.12566705 4:-3.9221154 
1 1:0.057864439 2:0.45302992 3:0.12566705 4:-3.9221154 
1 1:0.11443201 2:0.45302992 3:0.12566705 4:-3.9221154 
1 1:-0.055270701 2:0.81322901 3:-0.035090058 4:-15.461038 
1 1:-0.026986916 2:0.81322901 3:-0.035090058 4:-15.461038 
-1 1:-0.083554486 2:3.43536 3:0.18996989 4:5.5188213 
-0.5023266857587227 1:0.0012968689 2:3.43536 3:0.18996989 4:5.5188213 
-0.3134911495187395 1:0.086148224 2:3.43536 3:0.18996989 4:5.5188213 
-0.8659652280856632 1:0.17099958 2:3.43536 3:0.18996989 4:5.5188213 
0.01193454081980453 1:0.057864439 2:0.38781779 3:0.12566705 4:19.15573 
-0.167635082713619 1:0.17099958 2:0.38781779 3:0.12566705 4:19.15573 
0.4117233563109066 1:0.28413472 2:0.38781779 3:0.12566705 4:19.15573 
-0.2684581125467831 1:0.39726986 2:0.38781779 3:0.12566705 4:19.15573 
1 1:-0.055270701 2:-0.16057636 3:0.350727 4:-6.913688 
1 1:0.0012968689 2:-0.16057636 3:0.350727 4:-6.913688 
1 1:0.057864439 2:-0.16057636 3:0.350727 4:-6.913688 
0.9072029940276357 1:0.11443201 2:-0.16057636 3:0.350727 4:-6.913688 
0.009820193269165499 1:-0.11183827 2:2.0204695 3:0.25427273 4:-5.8452692 
-1 1:-0.055270701 2:2.0204695 3:0.25427273 4:-5.8452692 
0.9797050581220322 1:0.0012968689 2:2.0204695 3:0.25427273 4:-5.8452692 
-0.5806461302595237 1:0.11443201 2:2.0204695 3:0.25427273 4:-5.8452692 
-1 1:-0.14012206 2:-0.36769104 3:-0.067241479 4:-15.461038 
-1 1:-0.11183827 2:-0.36769104 3:-0.067241479 4:-15.461038 
-1 1:-0.083554486 2:-0.36769104 3:-0.067241479 4:-15.461038 
-1 1:-0.026986916 2:-0.36769104 3:-0.067241479 4:-15.461038 
1 1:-0.14012206 2:3.0768898 3:0.061364206 4:-15.461038 
1 1:-0.11183827 2:3.0768898 3:0.061364206 4:-15.461038 
1 1:-0.083554486 2:3.0768898 3:0.061364206 4:-15.461038 
1 1:-0.026986916 2:3.0768898 3:0.061364206 4:-15.461038 
0.02055120671332878 1:-0.083554486 2:-0.53635471 3:0.22212131 4:4.6066535 
-0.9609810715114522 1:0.0012968689 2:-0.53635471 3:0.22212131 4:4.6066535 
-1 1:0.086148224 2:-0.53635471 3:0.22212131 4:4.6066535 
-0.8855049457283828 1:0.25585093 2:-0.53635471 3:0.22212131 4:4.6066535 
0.8026768398444862 1:-0.055270701 2:-3.5610912 3:0.061364206 4:-2.6400129 
1 1:0.057864439 2:-3.5610912 3:0.061364206 4:-2.6400129 
-0.6525414385785144 1:0.11443201 2:-3.5610912 3:0.061364206 4:-2.6400129 
1 1:-0.11183827 2:2.2035346 3:-0.16369574 4:5.5188213 
1 1:-0.055270701 2:2.2035346 3:-0.16369574 4:5.5188213 
1 1:0.057864439 2:2.2035346 3:-0.16369574 4:5.5188213 
1 1:0.11443201 2:2.2035346 3:-0.16369574 4:5.5188213 
-1 1:-0.083554486 2:-0.51263207 3:-0.0029386365 4:-15.461038 
1 1:-0.11183827 2:0.24852491 3:0.093515627 4:-3.3148037 
1 1:-0.055270701 2:0.24852491 3:0.093515627 4:-3.3148037 
1 1:0.057864439 2:0.24852491 3:0.093515627 4:-3.3148037 
1 1:0.11443201 2:0.24852491 3:0.093515627 4:-3.3148037 
1 1:-0.11183827 2:-3.3489003 3:-0.035090058 4:-15.461038 
1 1:-0.083554486 2:-3.3489003 3:-0.035090058 4:-15.461038 
1 1:-0.055270701 2:-3.3489003 3:-0.035090058 4:-15.461038 
1 1:-0.026986916 2:-3.3489003 3:-0.035090058 4:-15.461038 
-1 1:-0.14012206 2:1.033024 3:0.029212785 4:-15.461038 
-1 1:-0.11183827 2:1.033024 3:0.029212785 4:-15.461038 
-1 1:-0.055270701 2:-0.63860757 3:-0.0029386365 4:-1.0373848 
0.9727926822287107 1:0.086148224 2:-0.65215941 3:0.12566705 4:7.6168073 
1 1:0.17099958 2:-0.65215941 3:0.12566705 4:7.6168073 
1 1:0.25585093 2:-0.65215941 3:0.12566705 4:7.6168073 
1 1:0.0012968689 2:-0.66416419 3:-0.0029386365 4:13.386269 
1 1:0.086148224 2:-0.66416419 3:-0.0029386365 4:13.386269 
1 1:0.17099958 2:-0.66416419 3:-0.0029386365 4:13.386269 
1 1:0.25585093 2:-0.66416419 3:-0.0029386365 4:13.386269 
-1 1:-0.055270701 2:-0.83542901 3:0.15781847 4:-4.4715879 
-1 1:0.0012968689 2:-0.83542901 3:0.15781847 4:-4.4715879 
-0.3147502822161778 1:0.11443201 2:-0.83542901 3:0.15781847 4:-4.4715879 
-1 1:-0.055270701 2:3.1022182 3:-0.0029386365 4:-1.0373848 
0.5229264391401963 1:0.0012968689 2:3.1022182 3:-0.0029386365 4:-1.0373848 
-1 1:0.057864439 2:3.1022182 3:-0.0029386365 4:-1.0373848 
1 1:0.11443201 2:3.1022182 3:-0.0029386365 4:-1.0373848 
1 1:-0.083554486 2:2.7745484 3:0.093515627 4:8.8314307 
1 1:0.086148224 2:2.7745484 3:0.093515627 4:8.8314307 
-0.9577154072267463 1:0.17099958 2:2.7745484 3:0.093515627 4:8.8314307 
1 1:0.25585093 2:2.7745484 3:0.093515627 4:8.8314307 
1 1:-0.083554486 2:1.0346039 3:-0.0029386365 4:13.386269 
0.6561122276738358 1:0.0012968689 2:1.0346039 3:-0.0029386365 4:13.386269 
1 1:0.17099958 2:1.0346039 3:-0.0029386365 4:13.386269 
0.8897335869302934 1:0.25585093 2:1.0346039 3:-0.0029386365 4:13.386269 
-1 1:-0.11183827 2:2.0066865 3:-0.0029386365 4:-1.0373848 
0.9106539168616615 1:0.0012968689 2:2.0066865 3:-0.0029386365 4:-1.0373848 
-0.08766797525065741 1:0.057864439 2:2.0066865 3:-0.0029386365 4:-1.0373848 
-1 1:-0.11183827 2:-0.5733138 3:-0.16369574 4:5.5188213 
1 1:0.0012968689 2:-0.5733138 3:-0.16369574 4:5.5188213 
1 1:0.057864439 2:-0.5733138 3:-0.16369574 4:5.5188213 
1 1:0.11443201 2:-0.5733138 3:-0.16369574 4:5.5188213 
-1 1:-0.14012206 2:0.42203226 3:-0.0029386365 4:-15.461038 
-1 1:-0.11183827 2:0.42203226 3:-0.0029386365 4:-15.461038 
-1 1:-0.083554486 2:0.42203226 3:-0.0029386365 4:-15.461038 
-1 1:-0.055270701 2:0.42203226 3:-0.0029386365 4:-15.461038 
0.9895860852216946 1:0.0012968689 2:2.3167189 3:0.093515627 4:8.8314307 
1 1:0.086148224 2:2.3167189 3:0.093515627 4:8.8314307 
1 1:0.17099958 2:2.3167189 3:0.093515627 4:8.8314307 
1 1:0.25585093 2:2.3167189 3:0.093515627 4:8.8314307 
1 1:-0.11183827 2:-0.99869665 3:0.15781847 4:-15.461038 
1 1:-0.055270701 2:-0.99869665 3:0.15781847 4:-15.461038 
1 1:-0.026986916 2:-0.99869665 3:0.15781847 4:-15.461038 
0.7599325358171753 1:-0.11183827 2:-1.0217187 3:0.029212785 4:-1.885835 
1 1:-0.055270701 2:-1.0217187 3:0.029212785 4:-1.885835 
-1 1:0.0012968689 2:-1.0217187 3:0.029212785 4:-1.885835 
0.8379373635704427 1:0.057864439 2:-1.0217187 3:0.029212785 4:-1.885835 
-0.8683832440013505 1:-0.11183827 2:3.5434216 3:-0.0029386365 4:-1.0373848 
-1 1:0.0012968689 2:3.5434216 3:-0.0029386365 4:-1.0373848 
-1 1:0.057864439 2:3.5434216 3:-0.0029386365 4:-1.0373848 
-1 1:0.11443201 2:3.5434216 3:-0.0029386365 4:-1.0373848 
1 1:-0.055270701 2:3.2993486 3:0.38287842 4:-7.2189505 
1 1:0.0012968689 2:3.2993486 3:0.38287842 4:-7.2189505 
-1 1:0.11443201 2:3.2993486 3:0.38287842 4:-7.2189505 
1 1:-0.11183827 2:-0.24293978 3:0.029212785 4:-1.885835 
1 1:-0.055270701 2:-0.24293978 3:0.029212785 4:-1.885835 
0.7982963153381342 1:0.0012968689 2:-0.24293978 3:0.029212785 4:-1.885835 
-0.7536873681965289 1:-0.11183827 2:1.9496704 3:-0.067241479 4:1.0231372 
0.9560175831879416 1:-0.055270701 2:1.9496704 3:-0.067241479 4:1.0231372 
-1 1:0.0012968689 2:1.9496704 3:-0.067241479 4:1.0231372 
-1 1:0.057864439 2:1.9496704 3:-0.067241479 4:1.0231372 
1 1:-0.083554486 2:-3.223859 3:-0.0029386365 4:-15.461038 
1 1:-0.055270701 2:-3.223859 3:-0.0029386365 4:-15.461038 
1 1:-0.026986916 2:-3.223859 3:-0.0029386365 4:-15.461038 
-0.9907027190886318 1:-0.11183827 2:3.0479986 3:-0.0029386365 4:-15.461038 
1 1:-0.11183827 2:-1.2382344 3:-0.22799859 4:10.181012 
1 1:-0.055270701 2:-1.2382344 3:-0.22799859 4:10.181012 
1 1:0.057864439 2:-1.2382344 3:-0.22799859 4:10.181012 
1 1:0.11443201 2:-1.2382344 3:-0.22799859 4:10.181012 
1 1:-0.083554486 2:-1.2532746 3:-0.035090058 4:15.309422 
1 1:0.0012968689 2:-1.2532746 3:-0.035090058 4:15.309422 
1 1:0.17099958 2:-1.2532746 3:-0.035090058 4:15.309422 
1 1:0.25585093 2:-1.2532746 3:-0.035090058 4:15.309422 
-0.2213734878752179 1:-0.11183827 2:3.5731295 3:-0.16369574 4:5.5188213 
-1 1:-0.055270701 2:3.5731295 3:-0.16369574 4:5.5188213 
-0.1356077880586414 1:0.0012968689 2:3.5731295 3:-0.16369574 4:5.5188213 
-0.6913277590002753 1:0.11443201 2:3.5731295 3:-0.16369574 4:5.5188213 
0.431968153075043 1:-0.083554486 2:3.0120048 3:0.350727 4:1.6336622 
0.3314820449614744 1:0.086148224 2:3.0120048 3:0.350727 4:1.6336622 
0.703915257886226 1:0.17099958 2:3.0120048 3:0.350727 4:1.6336622 
1 1:0.25585093 2:3.0120048 3:0.350727 4:1.6336622 
1 1:0.0012968689 2:-0.92467038 3:0.12566705 4:-3.9221154 
-0.5513702107233771 1:0.057864439 2:-0.92467038 3:0.12566705 4:-3.9221154 
0.1221519949339626 1:0.11443201 2:-0.92467038 3:0.12566705 4:-3.9221154 
1 1:0.086148224 2:0.52381181 3:0.061364206 4:10.181012 
1 1:-0.11183827 2:2.9788861 3:0.31857558 4:-6.5849438 
1 1:-0.055270701 2:2.9788861 3:0.31857558 4:-6.5849438 
1 1:0.0012968689 2:2.9788861 3:0.31857558 4:-6.5849438 
1 1:0.11443201 2:2.9788861 3:0.31857558 4:-6.5849438 
-1 1:-0.14012206 2:0.20393512 3:0.31857558 4:-15.461038 
-1 1:-0.083554486 2:0.20393512 3:0.31857558 4:-15.461038 
-1 1:-0.055270701 2:0.20393512 3:0.31857558 4:-15.461038 
-1 1:-0.026986916 2:0.20393512 3:0.31857558 4:-15.461038 
-0.5046074964720129 1:-0.11183827 2:2.803694 3:0.15781847 4:-4.4715879 
-1 1:-0.055270701 2:2.803694 3:0.15781847 4:-4.4715879 
0.3242756246731072 1:0.057864439 2:2.803694 3:0.15781847 4:-4.4715879 
-1 1:0.11443201 2:2.803694 3:0.15781847 4:-4.4715879 
0.1652848695801622 1:-0.083554486 2:2.1187871 3:-0.035090058 4:15.309422 
0.6930545359844029 1:0.0012968689 2:2.1187871 3:-0.035090058 4:15.309422 
-1 1:0.086148224 2:2.1187871 3:-0.035090058 4:15.309422 
-0.6667224342048285 1:0.25585093 2:2.1187871 3:-0.035090058 4:15.309422 
-1 1:-0.11183827 2:-3.2405902 3:-0.13154432 4:-15.461038 
-1 1:-0.083554486 2:-3.2405902 3:-0.13154432 4:-15.461038 
-1 1:-0.055270701 2:-3.2405902 3:-0.13154432 4:-15.461038 
-1 1:-0.026986916 2:-3.2405902 3:-0.13154432 4:-15.461038 
1 1:0.086148224 2:2.8140199 3:0.029212785 4:11.689368 
-0.4993105648157871 1:-0.11183827 2:-2.31782 3:0.15781847 4:-4.4715879 
1 1:-0.055270701 2:-2.31782 3:0.15781847 4:-4.4715879 
-1 1:0.057864439 2:-2.31782 3:0.15781847 4:-4.4715879 
0.4592130005992861 1:0.11443201 2:-2.31782 3:0.15781847 4:-4.4715879 
0.1761577443987298 1:-0.083554486 2:-2.511081 3:0.12566705 4:7.6168073 
-0.08084302684354207 1:0.25585093 2:-2.511081 3:0.12566705 4:7.6168073 
-0.2681359631044632 1:-0.11183827 2:2.5715339 3:0.061364206 4:-15.461038 
-1 1:-0.083554486 2:2.5715339 3:0.061364206 4:-15.461038 
-1 1:-0.055270701 2:2.5715339 3:0.061364206 4:-15.461038 
-0.7840453647157137 1:-0.11183827 2:-1.1896839 3:-0.0993929 4:2.2911507 
1 1:-0.055270701 2:-1.1896839 3:-0.0993929 4:2.2911507 
1 1:0.0012968689 2:-1.1896839 3:-0.0993929 4:2.2911507 
0.2626398675583547 1:0.057864439 2:-1.1896839 3:-0.0993929 4:2.2911507 
-0.09052636118186819 1:0.057864439 2:3.8733415 3:0.25427273 4:13.386269 
0.7473003524941647 1:0.17099958 2:3.8733415 3:0.25427273 4:13.386269 
1 1:0.28413472 2:3.8733415 3:0.25427273 4:13.386269 
-0.9991180710762232 1:0.39726986 2:3.8733415 3:0.25427273 4:13.386269 
1 1:-0.14012206 2:-0.20546757 3:-0.067241479 4:-15.461038 
-1 1:-0.11183827 2:-0.20546757 3:-0.067241479 4:-15.461038 
-1 1:-0.083554486 2:-0.20546757 3:-0.067241479 4:-15.461038 
-1 1:-0.055270701 2:-0.20546757 3:-0.067241479 4:-15.461038 
0.700169151076405 1:-0.083554486 2:2.9189956 3:0.12566705 4:7.6168073 
-1 1:0.0012968689 2:2.9189956 3:0.12566705 4:7.6168073 
-0.8710728793803689 1:0.17099958 2:2.9189956 3:0.12566705 4:7.6168073 
0.01897168179984699 1:0.25585093 2:2.9189956 3:0.12566705 4:7.6168073 
1 1:-0.11183827 2:3.1373135 3:0.38287842 4:-15.461038 
1 1:-0.083554486 2:3.1373135 3:0.38287842 4:-15.461038 
0.9715893026956484 1:-0.055270701 2:3.1373135 3:0.38287842 4:-15.461038 
0.5640537657026596 1:0.0012968689 2:-2.3663972 3:-0.067241479 4:17.507313 
1 1:0.25585093 2:-2.3663972 3:-0.067241479 4:17.507313 
-1 1:0.0012968689 2:1.858726 3:-0.067241479 4:1.0231372 
-1 1:0.057864439 2:1.858726 3:-0.067241479 4:1.0231372 
-1 1:0.11443201 2:1.858726 3:-0.067241479 4:1.0231372 
-1 1:-0.11183827 2:-0.20755471 3:0.061364206 4:-2.6400129 
-1 1:-0.055270701 2:-0.20755471 3:0.061364206 4:-2.6400129 
-1 1:0.0012968689 2:-0.20755471 3:0.061364206 4:-2.6400129 
-1 1:0.057864439 2:-0.20755471 3:0.061364206 4:-2.6400129 
-0.988174973131849 1:-0.055270701 2:-3.4395776 3:-0.0029386365 4:27.809922 
-1 1:0.057864439 2:-3.4395776 3:-0.0029386365 4:27.809922 
-1 1:0.17099958 2:-3.4395776 3:-0.0029386365 4:27.809922 
-1 1:0.28413472 2:-3.4395776 3:-0.0029386365 4:27.809922 
-1 1:-0.11183827 2:-1.0826205 3:-0.0029386365 4:-1.0373848 
-1 1:-0.055270701 2:-1.0826205 3:-0.0029386365 4:-1.0373848 
-1 1:0.0012968689 2:-1.0826205 3:-0.0029386365 4:-1.0373848 
-1 1:0.057864439 2:-1.0826205 3:-0.0029386365 4:-1.0373848 
-0.09809785806016723 1:-0.055270701 2:0.45171705 3:-0.16369574 4:5.5188213 
-1 1:0.0012968689 2:0.45171705 3:-0.16369574 4:5.5188213 
1 1:0.057864439 2:0.45171705 3:-0.16369574 4:5.5188213 
-1 1:-0.11183827 2:3.2347762 3:0.18996989 4:-4.9711084 
0.07108195182377378 1:0.0012968689 2:3.2347762 3:0.18996989 4:-4.9711084 
0.8449421867312866 1:0.11443201 2:3.2347762 3:0.18996989 4:-4.9711084 
-1 1:0.0012968689 2:-2.1104798 3:-0.13154432 4:23.002038 
0.9649902859689741 1:0.086148224 2:-2.1104798 3:-0.13154432 4:23.002038 
-1 1:0.17099958 2:-2.1104798 3:-0.13154432 4:23.002038 
0.9950496744609821 1:0.25585093 2:-2.1104798 3:-0.13154432 4:23.002038 
1 1:-0.11183827 2:3.3544286 3:0.38287842 4:-7.2189505 
-1 1:-0.055270701 2:3.3544286 3:0.38287842 4:-7.2189505 
-0.1064603045066775 1:0.0012968689 2:3.3544286 3:0.38287842 4:-7.2189505 
-1 1:0.057864439 2:3.3544286 3:0.38287842 4:-7.2189505 
-1 1:-0.11183827 2:3.7073447 3:0.28642415 4:-6.2299 
1 1:-0.055270701 2:3.7073447 3:0.28642415 4:-6.2299 
0.04836492339399685 1:0.0012968689 2:3.7073447 3:0.28642415 4:-6.2299 
-0.9733005350284588 1:0.057864439 2:3.7073447 3:0.28642415 4:-6.2299 
-1 1:0.0012968689 2:-1.325971 3:-0.067241479 4:17.507313 
0.3917433213286087 1:0.17099958 2:-1.325971 3:-0.067241479 4:17.507313 
0.8384504806355753 1:-0.083554486 2:3.2655522 3:-0.0029386365 4:-15.461038 
1 1:-0.11183827 2:0.95196539 3:-0.16369574 4:-15.461038 
1 1:-0.083554486 2:0.95196539 3:-0.16369574 4:-15.461038 
1 1:-0.055270701 2:0.95196539 3:-0.16369574 4:-15.461038 
1 1:-0.026986916 2:0.95196539 3:-0.16369574 4:-15.461038 
1 1:-0.055270701 2:-1.0100806 3:-0.13154432 4:3.7704997 
-0.1609257975500909 1:-0.083554486 2:2.6012284 3:-0.067241479 4:17.507313 
-0.2848685876135818 1:0.0012968689 2:2.6012284 3:-0.067241479 4:17.507313 
0.9850535798552817 1:0.086148224 2:2.6012284 3:-0.067241479 4:17.507313 
-0.5060388254916114 1:0.17099958 2:2.6012284 3:-0.067241479 4:17.507313 
1 1:0.11443201 2:2.8203771 3:0.061364206 4:-2.6400129 
1 1:-0.083554486 2:3.887685 3:0.57578695 4:-1.885835 
-0.3574084727951781 1:0.0012968689 2:3.887685 3:0.57578695 4:-1.885835 
-1 1:0.17099958 2:3.887685 3:0.57578695 4:-1.885835 
-1 1:0.25585093 2:3.887685 3:0.57578695 4:-1.885835 
-1 1:-0.11183827 2:-1.6149322 3:-0.16369574 4:-15.461038 
-1 1:-0.055270701 2:-1.6149322 3:-0.16369574 4:-15.461038 
-1 1:-0.026986916 2:-1.6149322 3:-0.16369574 4:-15.461038 
1 1:-0.055270701 2:-0.91415981 3:0.061364206 4:-2.6400129 
1 1:0.057864439 2:-0.91415981 3:0.061364206 4:-2.6400129 
1 1:0.11443201 2:-0.91415981 3:0.061364206 4:-2.6400129 
-1 1:-0.11183827 2:0.22477158 3:0.22212131 4:-15.461038 
-1 1:-0.083554486 2:0.22477158 3:0.22212131 4:-15.461038 
-1 1:-0.11183827 2:1.5869776 3:0.029212785 4:-15.461038 
-1 1:-0.083554486 2:1.5869776 3:0.029212785 4:-15.461038 
-0.6710013647254124 1:-0.11183827 2:3.1916317 3:0.12566705 4:-3.9221154 
-0.8758508770885955 1:-0.055270701 2:3.1916317 3:0.12566705 4:-3.9221154 
-1 1:0.11443201 2:3.1916317 3:0.12566705 4:-3.9221154 
1 1:-0.14012206 2:2.859359 3:0.5114841 4:-15.461038 
1 1:-0.11183827 2:2.859359 3:0.5114841 4:-15.461038 
1 1:-0.083554486 2:2.859359 3:0.5114841 4:-15.461038 
1 1:-0.055270701 2:2.859359 3:0.5114841 4:-15.461038 
1 1:-0.11183827 2:-0.64980792 3:-0.035090058 4:-0.075807858 
1 1:-0.055270701 2:-0.64980792 3:-0.035090058 4:-0.075807858 
-1 1:0.0012968689 2:-0.64980792 3:-0.035090058 4:-0.075807858 
-1 1:0.057864439 2:-0.64980792 3:-0.035090058 4:-0.075807858 
-1 1:-0.14012206 2:2.2419497 3:0.25427273 4:-15.461038 
-0.9850190255797805 1:-0.083554486 2:2.2419497 3:0.25427273 4:-15.461038 
-1 1:-0.055270701 2:2.2419497 3:0.25427273 4:-15.461038 
-1 1:-0.083554486 2:1.5366909 3:-0.0993929 4:20.043339 
1 1:0.086148224 2:1.5366909 3:-0.0993929 4:20.043339 
-0.532623949639065 1:0.25585093 2:1.5366909 3:-0.0993929 4:20.043339 
-0.8362315310401324 1:0.0012968689 2:-2.4991906 3:-0.0993929 4:20.043339 
-1 1:0.086148224 2:-2.4991906 3:-0.0993929 4:20.043339 
-1 1:0.17099958 2:-2.4991906 3:-0.0993929 4:20.043339 
-0.6587983908082993 1:0.25585093 2:-2.4991906 3:-0.0993929 4:20.043339 
1 1:-0.11183827 2:3.1694758 3:0.061364206 4:-2.6400129 
1 1:0.0012968689 2:3.1694758 3:0.061364206 4:-2.6400129 
1 1:0.057864439 2:3.1694758 3:0.061364206 4:-2.6400129 
1 1:0.11443201 2:3.1694758 3:0.061364206 4:-2.6400129 
1 1:-0.11183827 2:2.933138 3:0.41502984 4:-15.461038 
-1 1:-0.083554486 2:2.933138 3:0.41502984 4:-15.461038 
-0.5483963941921323 1:-0.055270701 2:2.933138 3:0.41502984 4:-15.461038 
1 1:-0.11183827 2:-0.39043477 3:0.061364206 4:-2.6400129 
1 1:-0.055270701 2:-0.39043477 3:0.061364206 4:-2.6400129 
1 1:0.0012968689 2:-0.39043477 3:0.061364206 4:-2.6400129 
-1 1:0.11443201 2:-0.39043477 3:0.061364206 4:-2.6400129 
1 1:-0.11183827 2:1.1128985 3:0.15781847 4:-4.4715879 
1 1:-0.055270701 2:1.1128985 3:0.15781847 4:-4.4715879 
1 1:0.0012968689 2:1.1128985 3:0.15781847 4:-4.4715879 
1 1:0.057864439 2:1.1128985 3:0.15781847 4:-4.4715879 
1 1:-0.14012206 2:2.5727464 3:-0.13154432 4:-15.461038 
-1 1:-0.083554486 2:2.5727464 3:-0.13154432 4:-15.461038 
-0.6226908451854273 1:-0.026986916 2:2.5727464 3:-0.13154432 4:-15.461038 
1 1:-0.11183827 2:0.89648174 3:-0.0029386365 4:-15.461038 
1 1:-0.083554486 2:0.89648174 3:-0.0029386365 4:-15.461038 
1 1:-0.055270701 2:0.89648174 3:-0.0029386365 4:-15.461038 
1 1:-0.026986916 2:0.89648174 3:-0.0029386365 4:-15.461038 
-0.7096482943307922 1:-0.083554486 2:1.2870385 3:0.12566705 4:7.6168073 
1 1:0.086148224 2:1.2870385 3:0.12566705 4:7.6168073 
1 1:0.17099958 2:1.2870385 3:0.12566705 4:7.6168073 
0.5653627664570215 1:0.25585093 2:1.2870385 3:0.12566705 4:7.6168073 
-1 1:-0.11183827 2:0.31707125 3:0.18996989 4:-15.461038 
1 1:-0.083554486 2:0.31707125 3:0.18996989 4:-15.461038 
1 1:-0.055270701 2:0.31707125 3:0.18996989 4:-15.461038 
0.6323693530977574 1:-0.11183827 2:1.2804993 3:-0.0029386365 4:-1.0373848 
0.6971522509448199 1:0.0012968689 2:1.2804993 3:-0.0029386365 4:-1.0373848 
-1 1:0.057864439 2:1.2804993 3:-0.0029386365 4:-1.0373848 
1 1:0.11443201 2:1.2804993 3:-0.0029386365 4:-1.0373848 
-1 1:-0.14012206 2:-3.4203215 3:-0.13154432 4:-15.461038 
-1 1:-0.11183827 2:-3.4203215 3:-0.13154432 4:-15.461038 
-1 1:-0.083554486 2:-3.4203215 3:-0.13154432 4:-15.461038 
-1 1:0.0012968689 2:-0.15681201 3:-0.16369574 4:5.5188213 
-1 1:0.11443201 2:-0.15681201 3:-0.16369574 4:5.5188213 
-0.7288934328131053 1:-0.11183827 2:1.902623 3:-0.035090058 4:-0.075807858 
0.2102292138399305 1:-0.055270701 2:1.902623 3:-0.035090058 4:-0.075807858 
-0.07829341008162377 1:0.11443201 2:1.902623 3:-0.035090058 4:-0.075807858 
0.7334351142012725 1:-0.083554486 2:0.95386241 3:0.22212131 4:4.6066535 
-1 1:0.0012968689 2:0.95386241 3:0.22212131 4:4.6066535 
0.5236188381806308 1:0.086148224 2:0.95386241 3:0.22212131 4:4.6066535 
0.04052822400256654 1:0.17099958 2:0.95386241 3:0.22212131 4:4.6066535 
1 1:-0.14012206 2:3.4332829 3:0.76869547 4:-15.461038 
-0.8616554890058077 1:-0.083554486 2:3.4332829 3:0.76869547 4:-15.461038 
0.9718477219359354 1:-0.055270701 2:3.4332829 3:0.76869547 4:-15.461038 
0.9597609103262031 1:-0.14012206 2:3.0182841 3:0.12566705 4:-15.461038 
-0.4790366488080132 1:-0.11183827 2:3.0182841 3:0.12566705 4:-15.461038 
1 1:-0.055270701 2:3.0182841 3:0.12566705 4:-15.461038 
0.4466242200409274 1:-0.026986916 2:3.0182841 3:0.12566705 4:-15.461038 
0.6045480238841524 1:-0.14012206 2:-1.7336665 3:-0.067241479 4:-15.461038 
1 1:-0.11183827 2:-1.7336665 3:-0.067241479 4:-15.461038 
1 1:-0.055270701 2:-1.7336665 3:-0.067241479 4:-15.461038 
1 1:-0.026986916 2:-1.7336665 3:-0.067241479 4:-15.461038 
-1 1:-0.11183827 2:0.19905269 3:-0.0029386365 4:-15.461038 
-1 1:-0.11183827 2:1.7307029 3:-0.0029386365 4:-15.461038 
-1 1:-0.055270701 2:1.7307029 3:-0.0029386365 4:-15.461038 
1 1:-0.11183827 2:0.76858035 3:-0.19584716 4:7.6168073 
1 1:-0.055270701 2:0.76858035 3:-0.19584716 4:7.6168073 
1 1:0.0012968689 2:0.76858035 3:-0.19584716 4:7.6168073 
1 1:0.11443201 2:0.76858035 3:-0.19584716 4:7.6168073 
1 1:-0.14012206 2:0.13677957 3:-0.22799859 4:-15.461038 
1 1:-0.11183827 2:0.13677957 3:-0.22799859 4:-15.461038 
1 1:-0.055270701 2:0.13677957 3:-0.22799859 4:-15.461038 
1 1:-0.026986916 2:0.13677957 3:-0.22799859 4:-15.461038 
1 1:0.0012968689 2:-0.77449461 3:-0.035090058 4:15.309422 
1 1:0.086148224 2:-0.77449461 3:-0.035090058 4:15.309422 
1 1:0.17099958 2:-0.77449461 3:-0.035090058 4:15.309422 
1 1:0.25585093 2:-0.77449461 3:-0.035090058 4:15.309422 
-1 1:-0.083554486 2:0.22197263 3:-0.035090058 4:15.309422 
-1 1:0.0012968689 2:0.22197263 3:-0.035090058 4:15.309422 
0.5278773888012885 1:0.086148224 2:0.22197263 3:-0.035090058 4:15.309422 
0.340595448498858 1:0.25585093 2:0.22197263 3:-0.035090058 4:15.309422 
-0.3016403540150864 1:-0.083554486 2:-3.3624029 3:-0.13154432 4:23.002038 
1 1:0.0012968689 2:-3.3624029 3:-0.13154432 4:23.002038 
-1 1:0.086148224 2:-3.3624029 3:-0.13154432 4:23.002038 
-1 1:0.17099958 2:-3.3624029 3:-0.13154432 4:23.002038 
-1 1:-0.11183827 2:-1.5885475 3:-0.0993929 4:-15.461038 
-1 1:-0.083554486 2:-1.5885475 3:-0.0993929 4:-15.461038 
-1 1:-0.026986916 2:-1.5885475 3:-0.0993929 4:-15.461038 
0.8234201007649856 1:-0.083554486 2:-1.4356561 3:-0.0993929 4:20.043339 
-1 1:0.0012968689 2:-1.4356561 3:-0.0993929 4:20.043339 
-1 1:0.086148224 2:-1.4356561 3:-0.0993929 4:20.043339 
-1 1:0.25585093 2:-1.4356561 3:-0.0993929 4:20.043339 
1 1:0.057864439 2:0.77413651 3:-0.035090058 4:-0.075807858 
0.03316542559853305 1:0.11443201 2:0.77413651 3:-0.035090058 4:-0.075807858 
-1 1:-0.14012206 2:2.4660467 3:0.061364206 4:-15.461038 
1 1:-0.11183827 2:2.4660467 3:0.061364206 4:-15.461038 
1 1:-0.083554486 2:2.4660467 3:0.061364206 4:-15.461038 
1 1:-0.055270701 2:2.4660467 3:0.061364206 4:-15.461038 
0.4106053954953764 1:-0.055270701 2:-0.46307493 3:-0.035090058 4:30.694653 
-0.995559573730127 1:0.057864439 2:-0.46307493 3:-0.035090058 4:30.694653 
-0.2093670063197415 1:0.28413472 2:-0.46307493 3:-0.035090058 4:30.694653 
0.8287495414006451 1:-0.083554486 2:3.3210142 3:-0.035090058 4:15.309422 
1 1:0.086148224 2:3.3210142 3:-0.035090058 4:15.309422 
-1 1:0.17099958 2:3.3210142 3:-0.035090058 4:15.309422 
0.6684961409622027 1:0.25585093 2:3.3210142 3:-0.035090058 4:15.309422 
1 1:-0.11183827 2:-2.0312826 3:-0.0993929 4:2.2911507 
1 1:0.0012968689 2:-2.0312826 3:-0.0993929 4:2.2911507 
1 1:0.057864439 2:-2.0312826 3:-0.0993929 4:2.2911507 
1 1:0.11443201 2:-2.0312826 3:-0.0993929 4:2.2911507 
-0.338472715056458 1:0.0012968689 2:-1.5028652 3:-0.067241479 4:17.507313 
-1 1:0.25585093 2:-1.5028652 3:-0.067241479 4:17.507313 
1 1:-0.055270701 2:1.4478033 3:0.12566705 4:-3.9221154 
1 1:0.0012968689 2:1.4478033 3:0.12566705 4:-3.9221154 
1 1:0.057864439 2:1.4478033 3:0.12566705 4:-3.9221154 
1 1:0.11443201 2:1.4478033 3:0.12566705 4:-3.9221154 
-1 1:0.0012968689 2:1.7240847 3:0.093515627 4:8.8314307 
-1 1:0.086148224 2:1.7240847 3:0.093515627 4:8.8314307 
-1 1:0.17099958 2:1.7240847 3:0.093515627 4:8.8314307 
-1 1:0.25585093 2:1.7240847 3:0.093515627 4:8.8314307 
0.06997379527143857 1:-0.055270701 2:-2.7625466 3:-0.19584716 4:53.772498 
-0.1211519074685536 1:0.057864439 2:-2.7625466 3:-0.19584716 4:53.772498 
-0.292176302366995 1:0.28413472 2:-2.7625466 3:-0.19584716 4:53.772498 
0.04550508011948518 1:0.39726986 2:-2.7625466 3:-0.19584716 4:53.772498 
1 1:-0.083554486 2:3.5458189 3:0.31857558 4:-15.461038 
1 1:-0.055270701 2:3.5458189 3:0.31857558 4:-15.461038 
1 1:-0.026986916 2:3.5458189 3:0.31857558 4:-15.461038 
-0.6199168878968576 1:-0.11183827 2:1.2319641 3:-0.22799859 4:10.181012 
-1 1:0.0012968689 2:1.2319641 3:-0.22799859 4:10.181012 
1 1:0.057864439 2:1.2319641 3:-0.22799859 4:10.181012 
0.8398527858813338 1:0.11443201 2:1.2319641 3:-0.22799859 4:10.181012 
-1 1:-0.14012206 2:3.3338568 3:0.18996989 4:-15.461038 
-1 1:-0.11183827 2:3.3338568 3:0.18996989 4:-15.461038 
1 1:-0.083554486 2:3.3338568 3:0.18996989 4:-15.461038 
-1 1:-0.11183827 2:-2.2484156 3:-0.0029386365 4:-1.0373848 
-1 1:0.0012968689 2:-2.2484156 3:-0.0029386365 4:-1.0373848 
-1 1:0.057864439 2:-2.2484156 3:-0.0029386365 4:-1.0373848 
-1 1:-0.11183827 2:3.549212 3:0.029212785 4:-1.885835 
0.09664220502384761 1:0.0012968689 2:3.549212 3:0.029212785 4:-1.885835 
-1 1:0.057864439 2:3.549212 3:0.029212785 4:-1.885835 
-0.9692882730241741 1:0.11443201 2:3.549212 3:0.029212785 4:-1.885835 
0.9428529612627388 1:-0.083554486 2:-3.1004295 3:0.061364206 4:10.181012 
1 1:0.0012968689 2:-3.1004295 3:0.061364206 4:10.181012 
1 1:0.086148224 2:-3.1004295 3:0.061364206 4:10.181012 
1 1:0.17099958 2:-3.1004295 3:0.061364206 4:10.181012 
0.796835366878284 1:0.0012968689 2:3.4134884 3:-0.13154432 4:3.7704997 
-0.7279743623074773 1:0.057864439 2:3.4134884 3:-0.13154432 4:3.7704997 
0.5495068476092543 1:0.11443201 2:3.4134884 3:-0.13154432 4:3.7704997 
-1 1:-0.11183827 2:-0.074634871 3:0.18996989 4:-4.9711084 
-1 1:-0.055270701 2:-0.074634871 3:0.18996989 4:-4.9711084 
-0.9682160207179932 1:0.0012968689 2:-0.074634871 3:0.18996989 4:-4.9711084 
1 1:0.057864439 2:-0.074634871 3:0.18996989 4:-4.9711084 
-1 1:-0.14012206 2:-1.3933888 3:-0.13154432 4:-15.461038 
-1 1:-0.083554486 2:-1.3933888 3:-0.13154432 4:-15.461038 
-1 1:-0.055270701 2:-1.3933888 3:-0.13154432 4:-15.461038 
-1 1:-0.11183827 2:1.6905087 3:-0.035090058 4:-15.461038 
-1 1:-0.055270701 2:1.6905087 3:-0.035090058 4:-15.461038 
-1 1:-0.026986916 2:1.6905087 3:-0.035090058 4:-15.461038 
-1 1:-0.14012206 2:-1.0498135 3:-0.19584716 4:-15.461038 
1 1:-0.055270701 2:-1.0498135 3:-0.19584716 4:-15.461038 
1 1:-0.14012206 2:3.3692673 3:0.093515627 4:-15.461038 
1 1:-0.11183827 2:3.3692673 3:0.093515627 4:-15.461038 
1 1:-0.026986916 2:3.3692673 3:0.093515627 4:-15.461038 
-0.9971257124639524 1:-0.083554486 2:-0.68398001 3:-0.22799859 4:35.823063 
-1 1:0.086148224 2:-0.68398001 3:-0.22799859 4:35.823063 
-1 1:0.17099958 2:-0.68398001 3:-0.22799859 4:35.823063 
-1 1:0.25585093 2:-0.68398001 3:-0.22799859 4:35.823063 
0.01223634066505885 1:-0.083554486 2:-2.6721199 3:-0.16369574 4:26.498681 
-1 1:0.086148224 2:-2.6721199 3:-0.16369574 4:26.498681 
-1 1:0.17099958 2:-2.6721199 3:-0.16369574 4:26.498681 
-1 1:0.25585093 2:-2.6721199 3:-0.16369574 4:26.498681 
-0.5989342515687516 1:-0.11183827 2:3.9702183 3:0.15781847 4:-4.4715879 
1 1:-0.055270701 2:3.9702183 3:0.15781847 4:-4.4715879 
0.9956530327635373 1:0.0012968689 2:3.9702183 3:0.15781847 4:-4.4715879 
1 1:0.057864439 2:3.9702183 3:0.15781847 4:-4.4715879 
1 1:-0.11183827 2:-0.34404753 3:-0.22799859 4:10.181012 
1 1:-0.055270701 2:-0.34404753 3:-0.22799859 4:10.181012 
0.2788737969832756 1:0.0012968689 2:-0.34404753 3:-0.22799859 4:10.181012 
-1 1:0.11443201 2:-0.34404753 3:-0.22799859 4:10.181012 
1 1:-0.11183827 2:2.9029688 3:-0.035090058 4:-15.461038 
1 1:-0.055270701 2:2.9029688 3:-0.035090058 4:-15.461038 
1 1:-0.026986916 2:2.9029688 3:-0.035090058 4:-15.461038 
0.07584791078089022 1:-0.11183827 2:-2.4987802 3:-0.0993929 4:2.2911507 
0.03375970343164049 1:-0.055270701 2:-2.4987802 3:-0.0993929 4:2.2911507 
0.9688105233498101 1:-0.083554486 2:1.0862602 3:-0.035090058 4:15.309422 
-0.4103314625528824 1:0.0012968689 2:1.0862602 3:-0.035090058 4:15.309422 
-1 1:0.086148224 2:1.0862602 3:-0.035090058 4:15.309422 
-1 1:0.25585093 2:1.0862602 3:-0.035090058 4:15.309422 
1 1:-0.14012206 2:3.6400393 3:0.093515627 4:-15.461038 
1 1:-0.11183827 2:3.6400393 3:0.093515627 4:-15.461038 
1 1:-0.083554486 2:3.6400393 3:0.093515627 4:-15.461038 
1 1:-0.055270701 2:3.6400393 3:0.093515627 4:-15.461038 
-1 1:-0.11183827 2:3.2188671 3:-0.0029386365 4:-1.0373848 
-1 1:0.0012968689 2:3.2188671 3:-0.0029386365 4:-1.0373848 
0.9975673338878316 1:0.057864439 2:3.2188671 3:-0.0029386365 4:-1.0373848 
-1 1:0.11443201 2:3.2188671 3:-0.0029386365 4:-1.0373848 
-1 1:-0.11183827 2:2.3182788 3:-0.035090058 4:-0.075807858 
1 1:-0.055270701 2:2.3182788 3:-0.035090058 4:-0.075807858 
1 1:0.0012968689 2:2.3182788 3:-0.035090058 4:-0.075807858 
-1 1:0.057864439 2:2.3182788 3:-0.035090058 4:-0.075807858 
1 1:-0.11183827 2:1.6947098 3:0.22212131 4:-5.4271923 
1 1:0.0012968689 2:1.6947098 3:0.22212131 4:-5.4271923 
0.200858424330865 1:0.057864439 2:1.6947098 3:0.22212131 4:-5.4271923 
-1 1:0.11443201 2:1.6947098 3:0.22212131 4:-5.4271923 
-1 1:-0.083554486 2:-1.2162772 3:-0.035090058 4:15.309422 
-1 1:0.0012968689 2:-1.2162772 3:-0.035090058 4:15.309422 
-1 1:0.086148224 2:-1.2162772 3:-0.035090058 4:15.309422 
-1 1:0.17099958 2:-1.2162772 3:-0.035090058 4:15.309422 
-1 1:-0.083554486 2:-1.8275711 3:-0.0993929 4:20.043339 
-1 1:0.0012968689 2:-1.8275711 3:-0.0993929 4:20.043339 
-0.7715257561454197 1:0.086148224 2:-1.8275711 3:-0.0993929 4:20.043339 
0.8362090214736995 1:-0.11183827 2:0.34052416 3:-0.067241479 4:1.0231372 
1 1:0.057864439 2:0.34052416 3:-0.067241479 4:1.0231372 
-0.1572417988479592 1:-0.083554486 2:-0.87442801 3:-0.067241479 4:17.507313 
-1 1:0.0012968689 2:-0.87442801 3:-0.067241479 4:17.507313 
1 1:0.17099958 2:-0.87442801 3:-0.067241479 4:17.507313 
1 1:0.25585093 2:-0.87442801 3:-0.067241479 4:17.507313 
1 1:-0.11183827 2:0.67134067 3:-0.0993929 4:-15.461038 
1 1:-0.083554486 2:0.67134067 3:-0.0993929 4:-15.461038 
0.999105131149428 1:-0.11183827 2:-3.397151 3:0.061364206 4:-2.6400129 
-1 1:-0.055270701 2:-3.397151 3:0.061364206 4:-2.6400129 
1 1:0.0012968689 2:-3.397151 3:0.061364206 4:-2.6400129 
1 1:0.057864439 2:-3.397151 3:0.061364206 4:-2.6400129 
-1 1:0.0012968689 2:-2.0332736 3:-0.0029386365 4:13.386269 
1 1:0.086148224 2:-2.0332736 3:-0.0029386365 4:13.386269 
1 1:0.17099958 2:-2.0332736 3:-0.0029386365 4:13.386269 
1 1:0.25585093 2:-2.0332736 3:-0.0029386365 4:13.386269 
1 1:-0.14012206 2:-1.2339067 3:-0.067241479 4:-15.461038 
1 1:-0.11183827 2:-1.2339067 3:-0.067241479 4:-15.461038 
-1 1:-0.055270701 2:-1.2339067 3:-0.067241479 4:-15.461038 
-1 1:-0.11183827 2:-3.1493492 3:-0.19584716 4:7.6168073 
-1 1:-0.055270701 2:-3.1493492 3:-0.19584716 4:7.6168073 
1 1:0.057864439 2:-3.1493492 3:-0.19584716 4:7.6168073 
-1 1:0.11443201 2:-3.1493492 3:-0.19584716 4:7.6168073 
-1 1:-0.11183827 2:2.3583409 3:-0.16369574 4:5.5188213 
-0.3606236171690387 1:0.0012968689 2:2.3583409 3:-0.16369574 4:5.5188213 
-1 1:0.11443201 2:2.3583409 3:-0.16369574 4:5.5188213 
-0.9089838136977875 1:-0.14012206 2:-0.60731656 3:0.029212785 4:-15.461038 
1 1:-0.11183827 2:0.86724443 3:-0.19584716 4:7.6168073 
1 1:-0.055270701 2:0.86724443 3:-0.19584716 4:7.6168073 
1 1:0.0012968689 2:0.86724443 3:-0.19584716 4:7.6168073 
1 1:0.057864439 2:0.86724443 3:-0.19584716 4:7.6168073 
1 1:-0.083554486 2:-0.47494777 3:-0.067241479 4:17.507313 
1 1:0.086148224 2:-0.47494777 3:-0.067241479 4:17.507313 
1 1:0.17099958 2:-0.47494777 3:-0.067241479 4:17.507313 
1 1:0.25585093 2:-0.47494777 3:-0.067241479 4:17.507313 
-1 1:-0.026986916 2:0.0086614416 3:-0.16369574 4:-15.461038 
1 1:-0.026986916 2:-1.3933545 3:-0.22799859 4:-15.461038 
-1 1:-0.14012206 2:2.7908972 3:0.38287842 4:-15.461038 
1 1:-0.083554486 2:2.7908972 3:0.38287842 4:-15.461038 
1 1:-0.055270701 2:2.7908972 3:0.38287842 4:-15.461038 
1 1:-0.026986916 2:2.7908972 3:0.38287842 4:-15.461038 
-1 1:0.057864439 2:-0.80824682 3:-0.035090058 4:-0.075807858 
-1 1:0.11443201 2:-0.80824682 3:-0.035090058 4:-0.075807858 
1 1:-0.11183827 2:3.5327158 3:0.029212785 4:-1.885835 
1 1:-0.055270701 2:3.5327158 3:0.029212785 4:-1.885835 
-0.7520271698574558 1:0.057864439 2:3.5327158 3:0.029212785 4:-1.885835 
-0.9970008211107744 1:-0.14012206 2:3.5244596 3:-0.0029386365 4:-15.461038 
-1 1:-0.083554486 2:3.5244596 3:-0.0029386365 4:-15.461038 
-0.9829381240111089 1:-0.055270701 2:3.5244596 3:-0.0029386365 4:-15.461038 
-0.5804674380699224 1:-0.11183827 2:-0.81886208 3:-0.19584716 4:7.6168073 
-1 1:-0.055270701 2:-0.81886208 3:-0.19584716 4:7.6168073 
-1 1:0.0012968689 2:-0.81886208 3:-0.19584716 4:7.6168073 
-1 1:0.11443201 2:-0.81886208 3:-0.19584716 4:7.6168073 
0.9977233143599374 1:-0.11183827 2:3.163154 3:0.029212785 4:-1.885835 
1 1:-0.055270701 2:3.163154 3:0.029212785 4:-1.885835 
0.07637932880226087 1:0.0012968689 2:3.163154 3:0.029212785 4:-1.885835 
-1 1:0.057864439 2:3.163154 3:0.029212785 4:-1.885835 
1 1:-0.14012206 2:-1.2276647 3:-0.0993929 4:-15.461038 
1 1:-0.11183827 2:-1.2276647 3:-0.0993929 4:-15.461038 
1 1:-0.083554486 2:-1.2276647 3:-0.0993929 4:-15.461038 
1 1:-0.055270701 2:-1.2276647 3:-0.0993929 4:-15.461038 
0.7354408213867323 1:-0.083554486 2:-2.3018233 3:-0.13154432 4:23.002038 
-1 1:0.0012968689 2:-2.3018233 3:-0.13154432 4:23.002038 
1 1:0.086148224 2:-2.3018233 3:-0.13154432 4:23.002038 
1 1:0.17099958 2:-2.3018233 3:-0.13154432 4:23.002038 
-0.8085571661214714 1:-0.083554486 2:0.71437998 3:-0.035090058 4:15.309422 
-1 1:0.0012968689 2:0.71437998 3:-0.035090058 4:15.309422 
-0.9514433065041186 1:0.086148224 2:0.71437998 3:-0.035090058 4:15.309422 
-1 1:0.25585093 2:0.71437998 3:-0.035090058 4:15.309422 
1 1:-0.14012206 2:-1.1586394 3:-0.16369574 4:-15.461038 
1 1:-0.11183827 2:0.35241225 3:-0.0993929 4:2.2911507 
0.7444183800194529 1:-0.055270701 2:0.35241225 3:-0.0993929 4:2.2911507 
1 1:0.0012968689 2:0.35241225 3:-0.0993929 4:2.2911507 
1 1:0.057864439 2:0.35241225 3:-0.0993929 4:2.2911507 
-1 1:-0.055270701 2:-1.1851415 3:-0.19584716 4:7.6168073 
-1 1:0.0012968689 2:-1.1851415 3:-0.19584716 4:7.6168073 
-1 1:0.057864439 2:-1.1851415 3:-0.19584716 4:7.6168073 
-1 1:-0.083554486 2:2.3007992 3:-0.0029386365 4:-15.461038 
-1 1:-0.11183827 2:-1.2401303 3:0.061364206 4:-2.6400129 
-0.3046312253131039 1:-0.055270701 2:-1.2401303 3:0.061364206 4:-2.6400129 
0.995762414364719 1:0.0012968689 2:-1.2401303 3:0.061364206 4:-2.6400129 
0.5274469817664899 1:0.057864439 2:-1.2401303 3:0.061364206 4:-2.6400129 
1 1:-0.14012206 2:-3.0957494 3:-0.13154432 4:-15.461038 
-0.6809732727814073 1:-0.055270701 2:-0.82279503 3:-0.13154432 4:42.233576 
0.3522014681804856 1:0.17099958 2:-0.82279503 3:-0.13154432 4:42.233576 
1 1:0.28413472 2:-0.82279503 3:-0.13154432 4:42.233576 
-0.4690473089533516 1:0.39726986 2:-0.82279503 3:-0.13154432 4:42.233576 
1 1:-0.11183827 2:2.6483152 3:0.029212785 4:-15.461038 
1 1:-0.055270701 2:2.6483152 3:0.029212785 4:-15.461038 
1 1:-0.026986916 2:2.6483152 3:0.029212785 4:-15.461038 
0.8887967597452788 1:-0.083554486 2:-1.3493078 3:-0.0029386365 4:13.386269 
0.9536328793812056 1:0.086148224 2:-1.3493078 3:-0.0029386365 4:13.386269 
1 1:0.17099958 2:-1.3493078 3:-0.0029386365 4:13.386269 
1 1:0.25585093 2:-1.3493078 3:-0.0029386365 4:13.386269 
-1 1:-0.11183827 2:-2.5171752 3:-0.035090058 4:-15.461038 
-1 1:-0.083554486 2:-2.5171752 3:-0.035090058 4:-15.461038 
-1 1:-0.055270701 2:-2.5171752 3:-0.035090058 4:-15.461038 
-1 1:0.0012968689 2:-0.3045979 3:-0.067241479 4:17.507313 
0.008433624230959318 1:0.086148224 2:-0.3045979 3:-0.067241479 4:17.507313 
-1 1:0.25585093 2:-0.3045979 3:-0.067241479 4:17.507313 
1 1:-0.14012206 2:-0.31087251 3:-0.0993929 4:-15.461038 
1 1:-0.11183827 2:-0.31087251 3:-0.0993929 4:-15.461038 
0.004844025352745437 1:-0.083554486 2:-0.31087251 3:-0.0993929 4:-15.461038 
1 1:-0.055270701 2:-0.31087251 3:-0.0993929 4:-15.461038 
0.9791477999069862 1:-0.14012206 2:2.4647611 3:0.12566705 4:-15.461038 
-1 1:-0.055270701 2:2.4647611 3:0.12566705 4:-15.461038 
1 1:-0.026986916 2:2.4647611 3:0.12566705 4:-15.461038 
-1 1:-0.11183827 2:3.2681813 3:0.029212785 4:-1.885835 
1 1:0.057864439 2:3.2681813 3:0.029212785 4:-1.885835 
1 1:-0.11183827 2:2.8659033 3:0.15781847 4:-4.4715879 
1 1:-0.055270701 2:2.8659033 3:0.15781847 4:-4.4715879 
1 1:0.0012968689 2:2.8659033 3:0.15781847 4:-4.4715879 
1 1:0.057864439 2:2.8659033 3:0.15781847 4:-4.4715879 
-1 1:-0.14012206 2:-2.0684927 3:-0.0029386365 4:-15.461038 
-1 1:-0.026986916 2:-2.0684927 3:-0.0029386365 4:-15.461038 
-1 1:-0.14012206 2:-3.8064589 3:-0.22799859 4:-15.461038 
-1 1:-0.083554486 2:-3.8064589 3:-0.22799859 4:-15.461038 
-1 1:-0.055270701 2:-3.8064589 3:-0.22799859 4:-15.461038 
-1 1:-0.026986916 2:-3.8064589 3:-0.22799859 4:-15.461038 
-0.9797840869035065 1:-0.055270701 2:-0.45619802 3:0.029212785 4:25.264571 
-1 1:0.057864439 2:-0.45619802 3:0.029212785 4:25.264571 
-1 1:0.17099958 2:-0.45619802 3:0.029212785 4:25.264571 
-1 1:0.39726986 2:-0.45619802 3:0.029212785 4:25.264571 
-0.9259571332359804 1:-0.083554486 2:-0.42371537 3:0.093515627 4:8.8314307 
0.8500510162936015 1:0.0012968689 2:-0.42371537 3:0.093515627 4:8.8314307 
0.4350265928026599 1:0.086148224 2:-0.42371537 3:0.093515627 4:8.8314307 
-1 1:0.25585093 2:-0.42371537 3:0.093515627 4:8.8314307 
-1 1:-0.055270701 2:-2.1866408 3:-0.16369574 4:5.5188213 
-0.6859134248007174 1:0.0012968689 2:-2.1866408 3:-0.16369574 4:5.5188213 
-1 1:0.11443201 2:-2.1866408 3:-0.16369574 4:5.5188213 
-1 1:-0.055270701 2:-0.55171883 3:-0.16369574 4:5.5188213 
-1 1:0.0012968689 2:-0.55171883 3:-0.16369574 4:5.5188213 
-1 1:0.057864439 2:-0.55171883 3:-0.16369574 4:5.5188213 
-1 1:0.11443201 2:-0.55171883 3:-0.16369574 4:5.5188213 
-0.9446709457271261 1:-0.14012206 2:2.3033624 3:0.28642415 4:-15.461038 
-1 1:-0.11183827 2:2.3033624 3:0.28642415 4:-15.461038 
-1 1:-0.083554486 2:2.3033624 3:0.28642415 4:-15.461038 
-1 1:-0.026986916 2:2.3033624 3:0.28642415 4:-15.461038 
1 1:0.0012968689 2:-3.0813216 3:-0.19584716 4:7.6168073 
0.9643684728925133 1:0.11443201 2:-3.0813216 3:-0.19584716 4:7.6168073 
-0.2031234107353305 1:-0.11183827 2:3.3318305 3:0.061364206 4:-2.6400129 
1 1:-0.055270701 2:3.3318305 3:0.061364206 4:-2.6400129 
0.791832993119895 1:0.0012968689 2:3.3318305 3:0.061364206 4:-2.6400129 
1 1:0.057864439 2:3.3318305 3:0.061364206 4:-2.6400129 
0.9979137235528621 1:-0.11183827 2:3.3466147 3:-0.067241479 4:1.0231372 
-0.8544223553129316 1:-0.055270701 2:3.3466147 3:-0.067241479 4:1.0231372 
-1 1:0.11443201 2:3.3466147 3:-0.067241479 4:1.0231372 
-1 1:-0.055270701 2:-0.69058622 3:-0.22799859 4:10.181012 
-1 1:0.0012968689 2:-0.69058622 3:-0.22799859 4:10.181012 
-1 1:0.057864439 2:-0.69058622 3:-0.22799859 4:10.181012 
-1 1:0.11443201 2:-0.69058622 3:-0.22799859 4:10.181012 
-1 1:-0.14012206 2:-0.15758716 3:-0.035090058 4:-15.461038 
1 1:-0.083554486 2:-0.15758716 3:-0.035090058 4:-15.461038 
1 1:-0.055270701 2:-0.15758716 3:-0.035090058 4:-15.461038 
-0.2988612823819679 1:-0.11183827 2:1.6710314 3:0.12566705 4:-3.9221154 
-1 1:-0.055270701 2:1.6710314 3:0.12566705 4:-3.9221154 
-1 1:0.0012968689 2:1.6710314 3:0.12566705 4:-3.9221154 
-1 1:0.11443201 2:1.6710314 3:0.12566705 4:-3.9221154 
-0.01899779430389802 1:-0.055270701 2:-1.1208743 3:-0.13154432 4:3.7704997 
1 1:-0.11183827 2:-3.5868982 3:-0.0993929 4:2.2911507 
1 1:-0.055270701 2:-3.5868982 3:-0.0993929 4:2.2911507 
1 1:0.057864439 2:-3.5868982 3:-0.0993929 4:2.2911507 
1 1:0.11443201 2:-3.5868982 3:-0.0993929 4:2.2911507 
-1 1:-0.14012206 2:0.4070086 3:-0.067241479 4:-15.461038 
-1 1:-0.11183827 2:0.4070086 3:-0.067241479 4:-15.461038 
-1 1:-0.083554486 2:0.4070086 3:-0.067241479 4:-15.461038 
-1 1:-0.055270701 2:0.4070086 3:-0.067241479 4:-15.461038 
-1 1:-0.11183827 2:2.8614631 3:0.18996989 4:-15.461038 
-0.9826812946805 1:-0.083554486 2:2.8614631 3:0.18996989 4:-15.461038 
-1 1:-0.026986916 2:2.8614631 3:0.18996989 4:-15.461038 
-1 1:-0.055270701 2:-0.18902559 3:-0.067241479 4:1.0231372 
-1 1:0.0012968689 2:-0.18902559 3:-0.067241479 4:1.0231372 
-1 1:0.11443201 2:-0.18902559 3:-0.067241479 4:1.0231372 
1 1:-0.11183827 2:-0.30250278 3:0.12566705 4:-3.9221154 
0.6262213375675559 1:-0.055270701 2:-0.30250278 3:0.12566705 4:-3.9221154 
1 1:0.0012968689 2:-0.30250278 3:0.12566705 4:-3.9221154 
1 1:0.057864439 2:-0.30250278 3:0.12566705 4:-3.9221154 
-1 1:-0.055270701 2:-1.221034 3:0.093515627 4:-3.3148037 
0.3868593398836791 1:0.0012968689 2:-1.221034 3:0.093515627 4:-3.3148037 
-1 1:-0.11183827 2:-1.5459326 3:-0.0993929 4:-15.461038 
-1 1:-0.083554486 2:-1.5459326 3:-0.0993929 4:-15.461038 
-1 1:0.0012968689 2:-1.1274154 3:-0.0993929 4:2.2911507 
-1 1:0.057864439 2:-1.1274154 3:-0.0993929 4:2.2911507 
1 1:0.11443201 2:-1.1274154 3:-0.0993929 4:2.2911507 
-0.1530744115059912 1:0.086148224 2:2.5840679 3:0.029212785 4:11.689368 
0.6871538941241957 1:0.17099958 2:2.5840679 3:0.029212785 4:11.689368 
0.262910935952898 1:0.25585093 2:2.5840679 3:0.029212785 4:11.689368 
-0.9905519042849763 1:-0.11183827 2:-2.1623075 3:-0.16369574 4:5.5188213 
-1 1:-0.055270701 2:-2.1623075 3:-0.16369574 4:5.5188213 
1 1:-0.055270701 2:-2.9263004 3:-0.0993929 4:2.2911507 
1 1:0.0012968689 2:-2.9263004 3:-0.0993929 4:2.2911507 
1 1:0.057864439 2:-2.9263004 3:-0.0993929 4:2.2911507 
1 1:0.11443201 2:-2.9263004 3:-0.0993929 4:2.2911507 
-1 1:-0.14012206 2:-0.52249443 3:-0.035090058 4:-15.461038 
-1 1:-0.11183827 2:-0.52249443 3:-0.035090058 4:-15.461038 
-1 1:-0.055270701 2:-0.52249443 3:-0.035090058 4:-15.461038 
-1 1:-0.026986916 2:-0.52249443 3:-0.035090058 4:-15.461038 
1 1:-0.11183827 2:-3.1979159 3:-0.19584716 4:7.6168073 
0.7845314863963807 1:0.0012968689 2:-3.1979159 3:-0.19584716 4:7.6168073 
1 1:0.11443201 2:-3.1979159 3:-0.19584716 4:7.6168073 
-0.9556561269713578 1:-0.083554486 2:0.48630957 3:-0.0029386365 4:13.386269 
-1 1:0.0012968689 2:0.48630957 3:-0.0029386365 4:13.386269 
1 1:0.086148224 2:0.48630957 3:-0.0029386365 4:13.386269 
0.5657954298677269 1:0.25585093 2:0.48630957 3:-0.0029386365 4:13.386269 
0.8255640169794178 1:-0.14012206 2:-0.55914495 3:0.70439263 4:-15.461038 
-0.5182065992940955 1:-0.11183827 2:-0.55914495 3:0.70439263 4:-15.461038 
1 1:-0.055270701 2:-0.55914495 3:0.70439263 4:-15.461038 
-0.5383019445227371 1:-0.083554486 2:-2.9717355 3:-0.19584716 4:-15.461038 
-1 1:-0.026986916 2:-2.9717355 3:-0.19584716 4:-15.461038 
-1 1:0.057864439 2:-1.654526 3:-0.067241479 4:1.0231372 
-1 1:0.11443201 2:-1.654526 3:-0.067241479 4:1.0231372 
1 1:-0.026986916 2:-0.88517911 3:-0.19584716 4:-15.461038 
-0.747013970832713 1:-0.11183827 2:2.0267371 3:0.22212131 4:-5.4271923 
-1 1:-0.055270701 2:2.0267371 3:0.22212131 4:-5.4271923 
-1 1:0.0012968689 2:2.0267371 3:0.22212131 4:-5.4271923 
-0.4262837732376428 1:0.11443201 2:2.0267371 3:0.22212131 4:-5.4271923 
0.5493215220770636 1:-0.11183827 2:-2.4612183 3:-0.0029386365 4:-1.0373848 
-1 1:-0.055270701 2:-2.4612183 3:-0.0029386365 4:-1.0373848 
-1 1:0.0012968689 2:-2.4612183 3:-0.0029386365 4:-1.0373848 
-0.2917087572592638 1:0.11443201 2:-2.4612183 3:-0.0029386365 4:-1.0373848 
0.3727030345641073 1:-0.11183827 2:-0.57405837 3:0.18996989 4:-4.9711084 
-0.9993120767914583 1:-0.055270701 2:-0.57405837 3:0.18996989 4:-4.9711084 
-1 1:0.0012968689 2:-0.57405837 3:0.18996989 4:-4.9711084 
-1 1:0.11443201 2:-0.57405837 3:0.18996989 4:-4.9711084 
-0.8847922702619604 1:-0.055270701 2:3.0051891 3:-0.0029386365 4:-1.0373848 
-1 1:0.057864439 2:3.0051891 3:-0.0029386365 4:-1.0373848 
-1 1:0.11443201 2:3.0051891 3:-0.0029386365 4:-1.0373848 
1 1:-0.055270701 2:-1.0075023 3:-0.19584716 4:7.6168073 
-1 1:-0.055270701 2:1.3408518 3:-0.0993929 4:-15.461038 
1 1:-0.11183827 2:0.015274668 3:-0.035090058 4:-15.461038 
0.8793778747433085 1:-0.083554486 2:0.015274668 3:-0.035090058 4:-15.461038 
1 1:-0.11183827 2:-1.2490495 3:0.093515627 4:-15.461038 
0.4280045502911751 1:-0.083554486 2:-1.2490495 3:0.093515627 4:-15.461038 
0.04228836489700036 1:-0.055270701 2:-1.2490495 3:0.093515627 4:-15.461038 
-1 1:-0.14012206 2:-1.5593057 3:-0.0993929 4:-15.461038 
-1 1:-0.11183827 2:-1.5593057 3:-0.0993929 4:-15.461038 
-1 1:-0.055270701 2:-1.5593057 3:-0.0993929 4:-15.461038 
-1 1:-0.026986916 2:-1.5593057 3:-0.0993929 4:-15.461038 
-0.04682094620474647 1:-0.11183827 2:-3.3062746 3:-0.035090058 4:-0.075807858 
-1 1:-0.055270701 2:-3.3062746 3:-0.035090058 4:-0.075807858 
0.4958472807979242 1:0.0012968689 2:-3.3062746 3:-0.035090058 4:-0.075807858 
-1 1:0.057864439 2:-3.3062746 3:-0.035090058 4:-0.075807858 
-1 1:-0.11183827 2:-1.2470029 3:-0.0993929 4:-15.461038 
-1 1:-0.083554486 2:-1.2470029 3:-0.0993929 4:-15.461038 
-0.2480124957380608 1:-0.026986916 2:-1.2470029 3:-0.0993929 4:-15.461038 
1 1:-0.11183827 2:1.7143031 3:0.093515627 4:-3.3148037 
0.9546688267884189 1:-0.055270701 2:1.7143031 3:0.093515627 4:-3.3148037 
1 1:0.0012968689 2:1.7143031 3:0.093515627 4:-3.3148037 
1 1:0.11443201 2:1.7143031 3:0.093515627 4:-3.3148037 
1 1:-0.14012206 2:-3.2397004 3:-0.0993929 4:-15.461038 
1 1:-0.11183827 2:-3.2397004 3:-0.0993929 4:-15.461038 
1 1:-0.083554486 2:-3.2397004 3:-0.0993929 4:-15.461038 
1 1:-0.055270701 2:-3.2397004 3:-0.0993929 4:-15.461038 
-1 1:-0.11183827 2:-0.11400751 3:0.18996989 4:-15.461038 
1 1:-0.11183827 2:2.9829795 3:-0.0029386365 4:-1.0373848 
1 1:-0.055270701 2:2.9829795 3:-0.0029386365 4:-1.0373848 
1 1:-0.14012206 2:1.2794896 3:-0.0993929 4:-15.461038 
1 1:-0.083554486 2:1.2794896 3:-0.0993929 4:-15.461038 
1 1:-0.055270701 2:1.2794896 3:-0.0993929 4:-15.461038 
1 1:-0.026986916 2:1.2794896 3:-0.0993929 4:-15.461038 
-1 1:-0.14012206 2:0.41326502 3:-0.0993929 4:-15.461038 
-1 1:-0.055270701 2:0.41326502 3:-0.0993929 4:-15.461038 
-1 1:-0.14012206 2:-1.7189608 3:-0.16369574 4:-15.461038 
-1 1:-0.11183827 2:-1.7189608 3:-0.16369574 4:-15.461038 
-0.9779549896825447 1:-0.083554486 2:-1.7189608 3:-0.16369574 4:-15.461038 
-1 1:-0.026986916 2:-1.7189608 3:-0.16369574 4:-15.461038 
-1 1:0.0012968689 2:3.4807545 3:-0.0993929 4:2.2911507 
1 1:0.057864439 2:3.4807545 3:-0.0993929 4:2.2911507 
-1 1:0.11443201 2:3.4807545 3:-0.0993929 4:2.2911507 
1 1:-0.083554486 2:-0.59180737 3:-0.22799859 4:35.823063 
0.9312860567079837 1:0.086148224 2:-0.59180737 3:-0.22799859 4:35.823063 
1 1:0.17099958 2:-0.59180737 3:-0.22799859 4:35.823063 
1 1:0.25585093 2:-0.59180737 3:-0.22799859 4:35.823063 
0.9987225505264276 1:-0.083554486 2:-0.58025732 3:0.093515627 4:8.8314307 
-0.9978576325296337 1:0.0012968689 2:-0.58025732 3:0.093515627 4:8.8314307 
0.08400875558907425 1:0.17099958 2:-0.58025732 3:0.093515627 4:8.8314307 
0.4579534249841686 1:0.25585093 2:-0.58025732 3:0.093515627 4:8.8314307 
0.2065352779435939 1:0.11443201 2:-0.65524657 3:-0.16369574 4:5.5188213 
-1 1:-0.11183827 2:-2.8298338 3:-0.16369574 4:5.5188213 
-1 1:-0.055270701 2:-2.8298338 3:-0.16369574 4:5.5188213 
-1 1:0.0012968689 2:-2.8298338 3:-0.16369574 4:5.5188213 
-1 1:0.057864439 2:-2.8298338 3:-0.16369574 4:5.5188213 
-1 1:-0.055270701 2:-1.4359428 3:-0.13154432 4:-15.461038 
-1 1:-0.026986916 2:-1.4359428 3:-0.13154432 4:-15.461038 
-1 1:-0.055270701 2:3.3715319 3:-0.0993929 4:2.2911507 
-0.7077270493168885 1:0.057864439 2:3.3715319 3:-0.0993929 4:2.2911507 
-1 1:0.11443201 2:3.3715319 3:-0.0993929 4:2.2911507 
-0.3502854293416575 1:0.0012968689 2:2.9305165 3:-0.035090058 4:-0.075807858 
-1 1:0.057864439 2:2.9305165 3:-0.035090058 4:-0.075807858 
-0.8368976820148109 1:-0.11183827 2:3.6886895 3:-0.0029386365 4:-1.0373848 
-1 1:-0.055270701 2:3.6886895 3:-0.0029386365 4:-1.0373848 
0.6064210833641139 1:0.0012968689 2:3.6886895 3:-0.0029386365 4:-1.0373848 
-0.8468414918476103 1:0.057864439 2:3.6886895 3:-0.0029386365 4:-1.0373848 
1 1:-0.11183827 2:0.13242619 3:-0.13154432 4:3.7704997 
1 1:0.0012968689 2:0.13242619 3:-0.13154432 4:3.7704997 
-1 1:-0.055270701 2:0.0037057709 3:-0.22799859 4:10.181012 
0.9834288554138158 1:0.0012968689 2:0.0037057709 3:-0.22799859 4:10.181012 
1 1:0.057864439 2:0.0037057709 3:-0.22799859 4:10.181012 
1 1:0.11443201 2:0.0037057709 3:-0.22799859 4:10.181012 
1 1:-0.055270701 2:-0.45664333 3:-0.16369574 4:-15.461038 
-0.3294600290625909 1:0.0012968689 2:0.10192576 3:0.029212785 4:11.689368 
-0.7295882725892995 1:0.25585093 2:0.10192576 3:0.029212785 4:11.689368 
-1 1:-0.11183827 2:2.7405034 3:-0.067241479 4:1.0231372 
-1 1:-0.055270701 2:2.7405034 3:-0.067241479 4:1.0231372 
0.4218353033608735 1:0.0012968689 2:-1.9173962 3:-0.13154432 4:3.7704997 
1 1:0.057864439 2:-1.9173962 3:-0.13154432 4:3.7704997 
-0.5053874022253598 1:-0.055270701 2:-1.2667732 3:-0.0993929 4:2.2911507 
1 1:0.0012968689 2:-1.2667732 3:-0.0993929 4:2.2911507 
-0.3551893684181205 1:0.11443201 2:-1.2667732 3:-0.0993929 4:2.2911507 
-1 1:-0.14012206 2:3.2242292 3:-0.0993929 4:-15.461038 
-1 1:-0.11183827 2:3.2242292 3:-0.0993929 4:-15.461038 
-0.2280593950593685 1:-0.083554486 2:3.2242292 3:-0.0993929 4:-15.461038 
-1 1:-0.055270701 2:3.2242292 3:-0.0993929 4:-15.461038 
