svm_type nu_svr
kernel_type rbf
gamma 1
nr_class 2
total_sv 21519
rho -0.000963948
SV
1 1:-0.1699806 2:-0.6655184 3:0.02660277 4:-17.950054 5:-4.4329398 
1 1:-0.12875587 2:-0.6655184 3:0.02660277 4:-17.950054 5:-4.4329398 
1 1:-0.087531144 2:-0.6655184 3:0.02660277 4:-17.950054 5:-4.4329398 
1 1:-0.046306415 2:-0.6655184 3:0.02660277 4:-17.950054 5:-4.4329398 
1 1:-0.0050816864 2:-0.6655184 3:0.02660277 4:-17.950054 5:-4.4329398 
0.5734662952151326 1:-0.12875587 2:3.0689896 3:0.12209135 4:0.84683639 5:-4.041849 
0.05084285780181264 1:-0.046306415 2:3.0689896 3:0.12209135 4:0.84683639 5:-4.041849 
-1 1:0.036143042 2:3.0689896 3:0.12209135 4:0.84683639 5:-4.041849 
1 1:0.1185925 2:3.0689896 3:0.12209135 4:0.84683639 5:-4.041849 
0.2338012472644454 1:0.20104196 2:3.0689896 3:0.12209135 4:0.84683639 5:-4.041849 
-1 1:-0.1699806 2:-1.4893422 3:-0.19620391 4:-17.950054 5:4.7186198 
1 1:-0.12875587 2:-1.4893422 3:-0.19620391 4:-17.950054 5:4.7186198 
0.2579330311117676 1:-0.087531144 2:-1.4893422 3:-0.19620391 4:-17.950054 5:4.7186198 
-0.4541990615847382 1:-0.046306415 2:-1.4893422 3:-0.19620391 4:-17.950054 5:4.7186198 
0.216490402296232 1:-0.0050816864 2:-1.4893422 3:-0.19620391 4:-17.950054 5:4.7186198 
-0.003843894457294494 1:-0.12875587 2:-3.8271867 3:0.34489803 4:-4.0264315 5:-6.0037724 
0.003073171095648308 1:0.036143042 2:-3.8271867 3:0.34489803 4:-4.0264315 5:-6.0037724 
1 1:-0.12875587 2:3.7408221 3:-0.13254486 4:13.378097 5:-7.0965778 
0.9550364200438919 1:-0.046306415 2:3.7408221 3:-0.13254486 4:13.378097 5:-7.0965778 
1 1:0.036143042 2:3.7408221 3:-0.13254486 4:13.378097 5:-7.0965778 
1 1:0.1185925 2:3.7408221 3:-0.13254486 4:13.378097 5:-7.0965778 
1 1:0.20104196 2:3.7408221 3:-0.13254486 4:13.378097 5:-7.0965778 
-1 1:-0.1699806 2:2.3816783 3:-0.13254486 4:-17.950054 5:-4.2823739 
-1 1:-0.12875587 2:2.3816783 3:-0.13254486 4:-17.950054 5:-4.2823739 
-1 1:-0.087531144 2:2.3816783 3:-0.13254486 4:-17.950054 5:-4.2823739 
-1 1:-0.046306415 2:2.3816783 3:-0.13254486 4:-17.950054 5:-4.2823739 
-1 1:-0.0050816864 2:2.3816783 3:-0.13254486 4:-17.950054 5:-4.2823739 
-0.8407851220729393 1:-0.12875587 2:-1.0569668 3:-0.0052267558 4:5.546059 5:-3.2101574 
-1 1:-0.046306415 2:-1.0569668 3:-0.0052267558 4:5.546059 5:-3.2101574 
-0.6701878201633015 1:0.036143042 2:-1.0569668 3:-0.0052267558 4:5.546059 5:-3.2101574 
-0.4106056416301185 1:0.1185925 2:-1.0569668 3:-0.0052267558 4:5.546059 5:-3.2101574 
-0.9046671359563414 1:0.20104196 2:-1.0569668 3:-0.0052267558 4:5.546059 5:-3.2101574 
1 1:-0.1699806 2:-0.45561862 3:-0.19620391 4:-17.950054 5:-0.87326815 
-1 1:-0.046306415 2:-0.45561862 3:-0.19620391 4:-17.950054 5:-0.87326815 
-1 1:-0.0050816864 2:-0.45561862 3:-0.19620391 4:-17.950054 5:-0.87326815 
-1 1:-0.1699806 2:0.21974481 3:-0.16437438 4:-17.950054 5:-2.3920557 
-1 1:-0.12875587 2:0.21974481 3:-0.16437438 4:-17.950054 5:-2.3920557 
-1 1:-0.087531144 2:0.21974481 3:-0.16437438 4:-17.950054 5:-2.3920557 
-1 1:-0.046306415 2:0.21974481 3:-0.16437438 4:-17.950054 5:-2.3920557 
-1 1:-0.0050816864 2:0.21974481 3:-0.16437438 4:-17.950054 5:-2.3920557 
1 1:-0.087531144 2:-0.16665954 3:-0.0052267558 4:-17.950054 5:-6.9729795 
0.2897431429203406 1:-0.046306415 2:-0.16665954 3:-0.0052267558 4:-17.950054 5:-6.9729795 
1 1:0.036143042 2:-1.2553311 3:-0.0052267558 4:5.546059 5:-4.9371079 
1 1:0.1185925 2:-1.2553311 3:-0.0052267558 4:5.546059 5:-4.9371079 
1 1:0.20104196 2:-1.2553311 3:-0.0052267558 4:5.546059 5:-4.9371079 
0.3897021607423756 1:-0.1699806 2:-3.4983061 3:-0.19620391 4:-17.950054 5:-6.4932608 
1 1:-0.12875587 2:-3.4983061 3:-0.19620391 4:-17.950054 5:-6.4932608 
1 1:-0.087531144 2:-3.4983061 3:-0.19620391 4:-17.950054 5:-6.4932608 
1 1:-0.046306415 2:-3.4983061 3:-0.19620391 4:-17.950054 5:-6.4932608 
1 1:-0.0050816864 2:-3.4983061 3:-0.19620391 4:-17.950054 5:-6.4932608 
0.5367471690560205 1:-0.12875587 2:2.5926301 3:0.21757992 4:-1.6049319 5:-4.7020593 
-1 1:-0.046306415 2:2.5926301 3:0.21757992 4:-1.6049319 5:-4.7020593 
-1 1:0.036143042 2:2.5926301 3:0.21757992 4:-1.6049319 5:-4.7020593 
-0.620481290707112 1:0.1185925 2:2.5926301 3:0.21757992 4:-1.6049319 5:-4.7020593 
-0.292543173084198 1:-0.087531144 2:1.5249495 3:-0.037056282 4:32.174987 5:3.0119513 
0.5703708695617367 1:0.036143042 2:1.5249495 3:-0.037056282 4:32.174987 5:3.0119513 
-0.5869754443061694 1:0.28349142 2:1.5249495 3:-0.037056282 4:32.174987 5:3.0119513 
0.3082451803230967 1:0.4071656 2:1.5249495 3:-0.037056282 4:32.174987 5:3.0119513 
0.3532561720810173 1:-0.087531144 2:2.871771 3:0.34489803 4:9.897191 5:-4.7578014 
-1 1:0.036143042 2:2.871771 3:0.34489803 4:9.897191 5:-4.7578014 
0.811388791574401 1:0.15981723 2:2.871771 3:0.34489803 4:9.897191 5:-4.7578014 
-0.1675477575571545 1:0.4071656 2:2.871771 3:0.34489803 4:9.897191 5:-4.7578014 
0.9990643671683761 1:-0.1699806 2:3.635493 3:-0.10071533 4:-17.950054 5:-4.3428317 
-0.1802916321543466 1:-0.12875587 2:3.635493 3:-0.10071533 4:-17.950054 5:-4.3428317 
-1 1:-0.087531144 2:3.635493 3:-0.10071533 4:-17.950054 5:-4.3428317 
0.7449840844420857 1:-0.0050816864 2:3.635493 3:-0.10071533 4:-17.950054 5:-4.3428317 
1 1:-0.12875587 2:0.031513907 3:-0.0052267558 4:5.546059 5:-7.0987051 
-1 1:-0.046306415 2:0.031513907 3:-0.0052267558 4:5.546059 5:-7.0987051 
1 1:0.036143042 2:0.031513907 3:-0.0052267558 4:5.546059 5:-7.0987051 
1 1:0.1185925 2:0.031513907 3:-0.0052267558 4:5.546059 5:-7.0987051 
-0.6840977759951917 1:0.20104196 2:0.031513907 3:-0.0052267558 4:5.546059 5:-7.0987051 
-0.2058029717905877 1:-0.087531144 2:-0.28353903 3:-0.0052267558 4:29.042172 5:-1.2323414 
0.2053136103253594 1:0.036143042 2:-0.28353903 3:-0.0052267558 4:29.042172 5:-1.2323414 
0.0648345669916025 1:0.15981723 2:-0.28353903 3:-0.0052267558 4:29.042172 5:-1.2323414 
-0.07509430779025039 1:0.4071656 2:-0.28353903 3:-0.0052267558 4:29.042172 5:-1.2323414 
0.8747858454158596 1:-0.12875587 2:-1.5927074 3:-0.16437438 4:-17.950054 5:-0.8424787 
1 1:-0.087531144 2:-1.5927074 3:-0.16437438 4:-17.950054 5:-0.8424787 
1 1:-0.0050816864 2:-1.5927074 3:-0.16437438 4:-17.950054 5:-0.8424787 
0.2110147737958698 1:-0.12875587 2:-3.7395706 3:-0.16437438 4:16.22611 5:-6.2947508 
0.1789831860047022 1:0.036143042 2:-3.7395706 3:-0.16437438 4:16.22611 5:-6.2947508 
0.5477427697563229 1:0.1185925 2:-3.7395706 3:-0.16437438 4:16.22611 5:-6.2947508 
-1 1:0.20104196 2:-3.7395706 3:-0.16437438 4:16.22611 5:-6.2947508 
1 1:-0.1699806 2:0.45441584 3:-0.037056282 4:-17.950054 5:-6.9192446 
1 1:-0.087531144 2:0.45441584 3:-0.037056282 4:-17.950054 5:-6.9192446 
1 1:-0.046306415 2:0.45441584 3:-0.037056282 4:-17.950054 5:-6.9192446 
1 1:-0.0050816864 2:0.45441584 3:-0.037056282 4:-17.950054 5:-6.9192446 
1 1:-0.12875587 2:-0.33369606 3:-0.10071533 4:10.968239 5:-4.5983368 
1 1:-0.046306415 2:-0.33369606 3:-0.10071533 4:10.968239 5:-4.5983368 
1 1:0.036143042 2:-0.33369606 3:-0.10071533 4:10.968239 5:-4.5983368 
1 1:0.1185925 2:-0.33369606 3:-0.10071533 4:10.968239 5:-4.5983368 
1 1:0.20104196 2:-0.33369606 3:-0.10071533 4:10.968239 5:-4.5983368 
0.8839043298833588 1:-0.087531144 2:0.75025458 3:0.058432296 4:23.820814 5:-0.3420442 
-1 1:0.036143042 2:0.75025458 3:0.058432296 4:23.820814 5:-0.3420442 
-0.3970387936915912 1:0.15981723 2:0.75025458 3:0.058432296 4:23.820814 5:-0.3420442 
0.7415180098886995 1:0.28349142 2:0.75025458 3:0.058432296 4:23.820814 5:-0.3420442 
-0.2207492046790099 1:0.4071656 2:0.75025458 3:0.058432296 4:23.820814 5:-0.3420442 
0.9582113005562585 1:-0.12875587 2:1.8503961 3:-0.037056282 4:7.1124665 5:-2.927392 
1 1:-0.046306415 2:1.8503961 3:-0.037056282 4:7.1124665 5:-2.927392 
-1 1:0.036143042 2:1.8503961 3:-0.037056282 4:7.1124665 5:-2.927392 
0.3195258516616142 1:0.1185925 2:1.8503961 3:-0.037056282 4:7.1124665 5:-2.927392 
1 1:0.20104196 2:1.8503961 3:-0.037056282 4:7.1124665 5:-2.927392 
0.4151679259773609 1:-0.12875587 2:4.0262327 3:0.058432296 4:2.9353798 5:-5.1724965 
-1 1:-0.046306415 2:4.0262327 3:0.058432296 4:2.9353798 5:-5.1724965 
0.5944725971233257 1:0.036143042 2:4.0262327 3:0.058432296 4:2.9353798 5:-5.1724965 
-0.9647675508814093 1:0.1185925 2:4.0262327 3:0.058432296 4:2.9353798 5:-5.1724965 
0.9190786546475436 1:0.20104196 2:4.0262327 3:0.058432296 4:2.9353798 5:-5.1724965 
-1 1:-0.12875587 2:-0.0044531536 3:-0.13254486 4:13.378097 5:-4.3068727 
-1 1:-0.046306415 2:-0.0044531536 3:-0.13254486 4:13.378097 5:-4.3068727 
-1 1:0.036143042 2:-0.0044531536 3:-0.13254486 4:13.378097 5:-4.3068727 
-0.9506184350325148 1:0.1185925 2:-0.0044531536 3:-0.13254486 4:13.378097 5:-4.3068727 
-0.3896177366656848 1:-0.046306415 2:-0.77112095 3:-0.13254486 4:13.378097 5:-3.0445128 
0.4995647976780932 1:0.036143042 2:-0.77112095 3:-0.13254486 4:13.378097 5:-3.0445128 
0.3492649283665699 1:0.1185925 2:-0.77112095 3:-0.13254486 4:13.378097 5:-3.0445128 
0.2052125051899674 1:0.20104196 2:-0.77112095 3:-0.13254486 4:13.378097 5:-3.0445128 
1 1:-0.1699806 2:-3.142382 3:0.02660277 4:-17.950054 5:-3.8053681 
-0.01023303060125225 1:-0.087531144 2:2.1371701 3:0.12209135 4:19.643727 5:-4.4392485 
-0.2102060496280141 1:0.036143042 2:2.1371701 3:0.12209135 4:19.643727 5:-4.4392485 
1 1:0.15981723 2:2.1371701 3:0.12209135 4:19.643727 5:-4.4392485 
0.8433410350990865 1:0.28349142 2:2.1371701 3:0.12209135 4:19.643727 5:-4.4392485 
1 1:0.036143042 2:-2.0233305 3:-0.16437438 4:16.22611 5:-2.9539076 
0.063282994913145 1:0.1185925 2:-2.0233305 3:-0.16437438 4:16.22611 5:-2.9539076 
-1 1:-0.046306415 2:-1.8708866 3:-0.16437438 4:16.22611 5:-5.0982534 
-1 1:-0.1699806 2:1.3350702 3:0.090261821 4:-17.950054 5:-4.7652128 
1 1:-0.046306415 2:1.3350702 3:0.090261821 4:-17.950054 5:-4.7652128 
-0.5758671415520363 1:-0.12875587 2:1.8470305 3:0.21757992 4:-1.6049319 5:-6.6215621 
-1 1:-0.12875587 2:2.8663222 3:0.28123898 4:-2.9125417 5:-1.8599963 
-1 1:-0.046306415 2:2.8663222 3:0.28123898 4:-2.9125417 5:-1.8599963 
0.1608361687700611 1:0.036143042 2:2.8663222 3:0.28123898 4:-2.9125417 5:-1.8599963 
1 1:0.1185925 2:2.8663222 3:0.28123898 4:-2.9125417 5:-1.8599963 
1 1:0.20104196 2:2.8663222 3:0.28123898 4:-2.9125417 5:-1.8599963 
-0.117894131345145 1:-0.087531144 2:-0.0030043319 3:-0.13254486 4:44.706247 5:-3.0602328 
0.3906927210022048 1:0.036143042 2:-0.0030043319 3:-0.13254486 4:44.706247 5:-3.0602328 
-1 1:0.15981723 2:-0.0030043319 3:-0.13254486 4:44.706247 5:-3.0602328 
1 1:0.28349142 2:-0.0030043319 3:-0.13254486 4:44.706247 5:-3.0602328 
-0.08315610685799812 1:0.4071656 2:-0.0030043319 3:-0.13254486 4:44.706247 5:-3.0602328 
-1 1:-0.1699806 2:-3.8599537 3:-0.10071533 4:-17.950054 5:-7.5442869 
-1 1:-0.087531144 2:-3.8599537 3:-0.10071533 4:-17.950054 5:-7.5442869 
-1 1:-0.0050816864 2:-3.8599537 3:-0.10071533 4:-17.950054 5:-7.5442869 
-0.08437471919794381 1:-0.12875587 2:2.1203502 3:0.66319329 4:-7.7895727 5:-4.0294023 
-0.1731826622626441 1:-0.046306415 2:2.1203502 3:0.66319329 4:-7.7895727 5:-4.0294023 
0.6619049243951436 1:0.036143042 2:2.1203502 3:0.66319329 4:-7.7895727 5:-4.0294023 
-0.4957753089301546 1:0.1185925 2:2.1203502 3:0.66319329 4:-7.7895727 5:-4.0294023 
0.0857029173020788 1:0.20104196 2:2.1203502 3:0.66319329 4:-7.7895727 5:-4.0294023 
-0.07748919566543122 1:-0.12875587 2:3.4929562 3:0.090261821 4:1.8361464 5:-7.6461719 
-0.9709138427193191 1:-0.046306415 2:-0.93598365 3:-0.19620391 4:19.643727 5:0.64252617 
1 1:0.036143042 2:-0.93598365 3:-0.19620391 4:19.643727 5:0.64252617 
0.8991225278093633 1:0.1185925 2:-0.93598365 3:-0.19620391 4:19.643727 5:0.64252617 
-0.9274868131780841 1:0.20104196 2:-0.93598365 3:-0.19620391 4:19.643727 5:0.64252617 
-1 1:-0.0050816864 2:-3.3209164 3:0.02660277 4:-17.950054 5:-4.5537649 
0.0731049605282984 1:-0.12875587 2:-1.8208382 3:0.02660277 4:4.1639347 5:-3.2899279 
-1 1:-0.046306415 2:-1.8208382 3:0.02660277 4:4.1639347 5:-3.2899279 
1 1:0.036143042 2:-1.8208382 3:0.02660277 4:4.1639347 5:-3.2899279 
-0.07378377997175456 1:0.1185925 2:-1.8208382 3:0.02660277 4:4.1639347 5:-3.2899279 
-0.04115867337549062 1:0.20104196 2:-1.8208382 3:0.02660277 4:4.1639347 5:-3.2899279 
-0.3726800530031283 1:-0.087531144 2:-2.9511663 3:-0.037056282 4:32.174987 5:-6.0422035 
0.4030150656110011 1:0.15981723 2:-2.9511663 3:-0.037056282 4:32.174987 5:-6.0422035 
0.05981464461757602 1:0.28349142 2:-2.9511663 3:-0.037056282 4:32.174987 5:-6.0422035 
-0.6681851862825717 1:0.4071656 2:-2.9511663 3:-0.037056282 4:32.174987 5:-6.0422035 
-1 1:-0.1699806 2:-0.79422019 3:0.058432296 4:-17.950054 5:-3.5170099 
-1 1:-0.12875587 2:-0.79422019 3:0.058432296 4:-17.950054 5:-3.5170099 
-0.9930701604022721 1:-0.0050816864 2:-0.79422019 3:0.058432296 4:-17.950054 5:-3.5170099 
-1 1:-0.1699806 2:-0.37799731 3:-0.13254486 4:-17.950054 5:-3.2446246 
-1 1:-0.12875587 2:-0.37799731 3:-0.13254486 4:-17.950054 5:-3.2446246 
-1 1:-0.087531144 2:-0.37799731 3:-0.13254486 4:-17.950054 5:-3.2446246 
-1 1:-0.046306415 2:-0.37799731 3:-0.13254486 4:-17.950054 5:-3.2446246 
0.01697134691722332 1:-0.12875587 2:-1.2675857 3:-0.19620391 4:19.643727 5:-3.8908737 
-1 1:-0.046306415 2:-1.2675857 3:-0.19620391 4:19.643727 5:-3.8908737 
-0.534680164875508 1:0.036143042 2:-1.2675857 3:-0.19620391 4:19.643727 5:-3.8908737 
-1 1:0.1185925 2:-1.2675857 3:-0.19620391 4:19.643727 5:-3.8908737 
-1 1:0.20104196 2:-1.2675857 3:-0.19620391 4:19.643727 5:-3.8908737 
0.6822183464137507 1:-0.12875587 2:-1.2661312 3:0.1857504 4:-0.86197183 5:-2.6357397 
-1 1:-0.046306415 2:-1.2661312 3:0.1857504 4:-0.86197183 5:-2.6357397 
0.281461291932407 1:0.036143042 2:-1.2661312 3:0.1857504 4:-0.86197183 5:-2.6357397 
-0.121643313075515 1:0.1185925 2:-1.2661312 3:0.1857504 4:-0.86197183 5:-2.6357397 
-0.02941744704639937 1:0.20104196 2:-1.2661312 3:0.1857504 4:-0.86197183 5:-2.6357397 
-0.9291863088967283 1:-0.087531144 2:3.3049772 3:-0.10071533 4:-17.950054 5:-4.3925155 
-1 1:-0.046306415 2:3.3049772 3:-0.10071533 4:-17.950054 5:-4.3925155 
-1 1:-0.0050816864 2:3.3049772 3:-0.10071533 4:-17.950054 5:-4.3925155 
1 1:-0.1699806 2:-1.6274647 3:0.058432296 4:-17.950054 5:-3.410471 
0.9973345437927825 1:-0.12875587 2:-1.6274647 3:0.058432296 4:-17.950054 5:-3.410471 
1 1:-0.087531144 2:-1.6274647 3:0.058432296 4:-17.950054 5:-3.410471 
1 1:-0.046306415 2:-1.6274647 3:0.058432296 4:-17.950054 5:-3.410471 
1 1:-0.0050816864 2:-1.6274647 3:0.058432296 4:-17.950054 5:-3.410471 
0.9790998193554956 1:-0.12875587 2:-1.9867567 3:-0.10071533 4:10.968239 5:-4.9437383 
-1 1:-0.046306415 2:-1.9867567 3:-0.10071533 4:10.968239 5:-4.9437383 
-0.9669007612165577 1:0.036143042 2:-1.9867567 3:-0.10071533 4:10.968239 5:-4.9437383 
-0.2361643067240014 1:0.1185925 2:-1.9867567 3:-0.10071533 4:10.968239 5:-4.9437383 
-1 1:0.20104196 2:-1.9867567 3:-0.10071533 4:10.968239 5:-4.9437383 
0.009488734578552482 1:-0.1699806 2:1.6605743 3:-0.037056282 4:-17.950054 5:11.951676 
-0.37457907840223 1:-0.1699806 2:-3.2548992 3:-0.19620391 4:-17.950054 5:0.070467003 
-1 1:-0.12875587 2:-3.2548992 3:-0.19620391 4:-17.950054 5:0.070467003 
-0.4719882950764957 1:-0.087531144 2:-3.2548992 3:-0.19620391 4:-17.950054 5:0.070467003 
1 1:-0.046306415 2:-3.2548992 3:-0.19620391 4:-17.950054 5:0.070467003 
1 1:-0.0050816864 2:-3.2548992 3:-0.19620391 4:-17.950054 5:0.070467003 
-0.7222456438127955 1:-0.12875587 2:3.0246493 3:-0.037056282 4:7.1124665 5:-5.9208419 
-1 1:0.20104196 2:3.0246493 3:-0.037056282 4:7.1124665 5:-5.9208419 
-1 1:-0.1699806 2:0.18180686 3:0.058432296 4:-17.950054 5:0.1026339 
-0.3408937626269266 1:-0.12875587 2:0.18180686 3:0.058432296 4:-17.950054 5:0.1026339 
-1 1:-0.087531144 2:0.18180686 3:0.058432296 4:-17.950054 5:0.1026339 
-1 1:-0.046306415 2:0.18180686 3:0.058432296 4:-17.950054 5:0.1026339 
-1 1:-0.0050816864 2:0.18180686 3:0.058432296 4:-17.950054 5:0.1026339 
0.237253089662896 1:-0.12875587 2:3.4213116 3:-0.16437438 4:16.22611 5:-3.8231418 
-1 1:-0.046306415 2:3.4213116 3:-0.16437438 4:16.22611 5:-3.8231418 
1 1:0.036143042 2:3.4213116 3:-0.16437438 4:16.22611 5:-3.8231418 
0.1073386273544761 1:0.1185925 2:3.4213116 3:-0.16437438 4:16.22611 5:-3.8231418 
-0.4494152587717374 1:0.20104196 2:3.4213116 3:-0.16437438 4:16.22611 5:-3.8231418 
-1 1:-0.1699806 2:-0.0857745 3:0.28123898 4:-17.950054 5:-6.2396598 
-1 1:-0.12875587 2:-0.0857745 3:0.28123898 4:-17.950054 5:-6.2396598 
-0.5729133222233094 1:-0.087531144 2:-0.0857745 3:0.28123898 4:-17.950054 5:-6.2396598 
-0.5965223196302913 1:-0.046306415 2:-0.0857745 3:0.28123898 4:-17.950054 5:-6.2396598 
0.5830538222699402 1:0.036143042 2:1.7189359 3:0.24940945 4:13.378097 5:-5.2356993 
-0.8310040330523459 1:0.15981723 2:1.7189359 3:0.24940945 4:13.378097 5:-5.2356993 
0.4250222374827703 1:0.28349142 2:1.7189359 3:0.24940945 4:13.378097 5:-5.2356993 
-0.082588741938459 1:0.4071656 2:1.7189359 3:0.24940945 4:13.378097 5:-5.2356993 
0.009752144190852796 1:-0.0050816864 2:-3.4844861 3:-0.13254486 4:107.36255 5:-4.7835199 
-0.01440522101878938 1:0.20104196 2:-3.4844861 3:-0.13254486 4:107.36255 5:-4.7835199 
0.008071542019523203 1:0.4071656 2:-3.4844861 3:-0.13254486 4:107.36255 5:-4.7835199 
-0.01442656308364942 1:0.61328925 2:-3.4844861 3:-0.13254486 4:107.36255 5:-4.7835199 
0.0168735281030703 1:0.81941289 2:-3.4844861 3:-0.13254486 4:107.36255 5:-4.7835199 
1 1:-0.1699806 2:-2.0687289 3:-0.10071533 4:-17.950054 5:-4.4096958 
1 1:-0.12875587 2:-2.0687289 3:-0.10071533 4:-17.950054 5:-4.4096958 
1 1:-0.087531144 2:-2.0687289 3:-0.10071533 4:-17.950054 5:-4.4096958 
1 1:-0.046306415 2:-2.0687289 3:-0.10071533 4:-17.950054 5:-4.4096958 
1 1:-0.0050816864 2:-2.0687289 3:-0.10071533 4:-17.950054 5:-4.4096958 
0.4359975259017571 1:-0.12875587 2:0.28251196 3:-0.068885807 4:-17.950054 5:284.44589 
-0.4428755306314122 1:-0.0050816864 2:0.28251196 3:-0.068885807 4:-17.950054 5:284.44589 
0.8210865062812706 1:-0.12875587 2:0.78120246 3:0.1857504 4:-0.86197183 5:-5.966271 
-1 1:-0.046306415 2:0.78120246 3:0.1857504 4:-0.86197183 5:-5.966271 
-0.2330744732512676 1:0.036143042 2:0.78120246 3:0.1857504 4:-0.86197183 5:-5.966271 
-0.09663187526684169 1:0.1185925 2:0.78120246 3:0.1857504 4:-0.86197183 5:-5.966271 
-1 1:0.20104196 2:0.78120246 3:0.1857504 4:-0.86197183 5:-5.966271 
1 1:0.036143042 2:-0.56202036 3:-0.13254486 4:13.378097 5:-4.2857365 
0.9285382535540846 1:0.1185925 2:-0.56202036 3:-0.13254486 4:13.378097 5:-4.2857365 
-0.007501687359771636 1:-0.12875587 2:-0.23622789 3:0.63136376 4:-7.5073371 5:-4.7748201 
-0.02542166589471506 1:-0.046306415 2:-0.23622789 3:0.63136376 4:-7.5073371 5:-4.7748201 
0.06812975380890984 1:0.1185925 2:-0.23622789 3:0.63136376 4:-7.5073371 5:-4.7748201 
-0.03533778009676569 1:0.20104196 2:-0.23622789 3:0.63136376 4:-7.5073371 5:-4.7748201 
0.1918191756274457 1:-0.087531144 2:2.3509114 3:0.1857504 4:16.22611 5:-3.9776749 
-0.2675478081654348 1:0.036143042 2:2.3509114 3:0.1857504 4:16.22611 5:-3.9776749 
0.06878198118536522 1:0.15981723 2:2.3509114 3:0.1857504 4:16.22611 5:-3.9776749 
0.009438431732714442 1:0.4071656 2:2.3509114 3:0.1857504 4:16.22611 5:-3.9776749 
0.9255210511068638 1:-0.1699806 2:-1.0285386 3:0.090261821 4:-17.950054 5:-4.9126516 
1 1:-0.12875587 2:-1.0285386 3:0.090261821 4:-17.950054 5:-4.9126516 
1 1:-0.087531144 2:-1.0285386 3:0.090261821 4:-17.950054 5:-4.9126516 
1 1:-0.046306415 2:-1.0285386 3:0.090261821 4:-17.950054 5:-4.9126516 
1 1:-0.0050816864 2:-1.0285386 3:0.090261821 4:-17.950054 5:-4.9126516 
0.368770433458418 1:-0.087531144 2:1.7263131 3:0.40855708 4:7.9766914 5:-0.98631837 
-1 1:0.036143042 2:1.7263131 3:0.40855708 4:7.9766914 5:-0.98631837 
1 1:0.15981723 2:1.7263131 3:0.40855708 4:7.9766914 5:-0.98631837 
-0.4244234786580847 1:0.28349142 2:1.7263131 3:0.40855708 4:7.9766914 5:-0.98631837 
0.05513794220978718 1:0.4071656 2:1.7263131 3:0.40855708 4:7.9766914 5:-0.98631837 
0.1817522830090358 1:-0.046306415 2:-3.3223372 3:-0.16437438 4:-17.950054 5:-4.8985407 
1 1:-0.12875587 2:-1.7532161 3:-0.037056282 4:7.1124665 5:-5.0567066 
-1 1:-0.046306415 2:-1.7532161 3:-0.037056282 4:7.1124665 5:-5.0567066 
1 1:0.036143042 2:-1.7532161 3:-0.037056282 4:7.1124665 5:-5.0567066 
-0.2677984069669133 1:0.1185925 2:-1.7532161 3:-0.037056282 4:7.1124665 5:-5.0567066 
-0.5592860029567833 1:0.20104196 2:-1.7532161 3:-0.037056282 4:7.1124665 5:-5.0567066 
1 1:-0.12875587 2:-0.49962417 3:-0.068885807 4:8.9026466 5:-5.2894967 
1 1:-0.046306415 2:-0.49962417 3:-0.068885807 4:8.9026466 5:-5.2894967 
1 1:0.036143042 2:-0.49962417 3:-0.068885807 4:8.9026466 5:-5.2894967 
1 1:0.1185925 2:-0.49962417 3:-0.068885807 4:8.9026466 5:-5.2894967 
1 1:0.20104196 2:-0.49962417 3:-0.068885807 4:8.9026466 5:-5.2894967 
-1 1:-0.12875587 2:-0.75632797 3:-0.16437438 4:16.22611 5:-6.0908236 
0.8129828858501967 1:-0.046306415 2:-0.75632797 3:-0.16437438 4:16.22611 5:-6.0908236 
1 1:0.036143042 2:-0.75632797 3:-0.16437438 4:16.22611 5:-6.0908236 
-0.8785957333750484 1:0.1185925 2:-0.75632797 3:-0.16437438 4:16.22611 5:-6.0908236 
-0.6875748031934892 1:0.20104196 2:-0.75632797 3:-0.16437438 4:16.22611 5:-6.0908236 
-0.3459443794822846 1:-0.12875587 2:0.87592933 3:0.59953423 4:-7.2089738 5:8.9867041 
1 1:-0.046306415 2:0.87592933 3:0.59953423 4:-7.2089738 5:8.9867041 
-0.3359738213014821 1:0.036143042 2:0.87592933 3:0.59953423 4:-7.2089738 5:8.9867041 
-1 1:0.1185925 2:0.87592933 3:0.59953423 4:-7.2089738 5:8.9867041 
0.6909110378417154 1:0.20104196 2:0.87592933 3:0.59953423 4:-7.2089738 5:8.9867041 
-1 1:-0.1699806 2:0.30538542 3:-0.068885807 4:-17.950054 5:-7.8627653 
-0.1601480413710426 1:-0.12875587 2:0.30538542 3:-0.068885807 4:-17.950054 5:-7.8627653 
-0.9862999491783593 1:-0.087531144 2:0.30538542 3:-0.068885807 4:-17.950054 5:-7.8627653 
1 1:-0.046306415 2:0.30538542 3:-0.068885807 4:-17.950054 5:-7.8627653 
1 1:-0.0050816864 2:0.30538542 3:-0.068885807 4:-17.950054 5:-7.8627653 
-1 1:-0.1699806 2:-0.21805829 3:0.24940945 4:-17.950054 5:-3.5890994 
0.9773260379823989 1:-0.12875587 2:-0.21805829 3:0.24940945 4:-17.950054 5:-3.5890994 
-0.7008554159827244 1:-0.087531144 2:-0.21805829 3:0.24940945 4:-17.950054 5:-3.5890994 
-1 1:-0.046306415 2:-0.21805829 3:0.24940945 4:-17.950054 5:-3.5890994 
-1 1:-0.0050816864 2:-0.21805829 3:0.24940945 4:-17.950054 5:-3.5890994 
-1 1:-0.12875587 2:3.5284514 3:0.1857504 4:-17.950054 5:-7.2850194 
-1 1:-0.087531144 2:3.5284514 3:0.1857504 4:-17.950054 5:-7.2850194 
0.786361268117284 1:0.20104196 2:0.015759627 3:0.090261821 4:1.8361464 5:-6.9911142 
0.5042226473359912 1:-0.12875587 2:2.1892639 3:0.15392087 4:-0.048253629 5:-3.6512385 
-0.9901958129088206 1:0.036143042 2:2.1892639 3:0.15392087 4:-0.048253629 5:-3.6512385 
1 1:0.1185925 2:2.1892639 3:0.15392087 4:-0.048253629 5:-3.6512385 
-1 1:0.20104196 2:2.1892639 3:0.15392087 4:-0.048253629 5:-3.6512385 
0.5094276114159931 1:-0.087531144 2:3.8274018 3:-0.10071533 4:-17.950054 5:-4.251699 
0.1394176781252256 1:-0.0050816864 2:3.8274018 3:-0.10071533 4:-17.950054 5:-4.251699 
-0.05567492503620719 1:0.1185925 2:2.7471782 3:0.12209135 4:0.84683639 5:-1.2339809 
1 1:-0.1699806 2:-2.8197267 3:-0.16437438 4:-17.950054 5:-4.421905 
-1 1:-0.046306415 2:-2.8197267 3:-0.16437438 4:-17.950054 5:-4.421905 
-0.9264123010600359 1:-0.0050816864 2:-2.8197267 3:-0.16437438 4:-17.950054 5:-4.421905 
1 1:-0.12875587 2:-1.5211823 3:-0.13254486 4:13.378097 5:-5.2492791 
-1 1:0.1185925 2:-1.5211823 3:-0.13254486 4:13.378097 5:-5.2492791 
-0.9954999192286266 1:0.20104196 2:-1.5211823 3:-0.13254486 4:13.378097 5:-5.2492791 
-1 1:-0.12875587 2:0.62795191 3:-0.068885807 4:-17.950054 5:-1.2517298 
-1 1:-0.087531144 2:0.62795191 3:-0.068885807 4:-17.950054 5:-1.2517298 
-1 1:-0.046306415 2:0.62795191 3:-0.068885807 4:-17.950054 5:-1.2517298 
-1 1:-0.0050816864 2:0.62795191 3:-0.068885807 4:-17.950054 5:-1.2517298 
-0.4391521235179044 1:-0.1699806 2:-4.092177 3:0.02660277 4:-17.950054 5:0.18224509 
1 1:-0.12875587 2:-4.092177 3:0.02660277 4:-17.950054 5:0.18224509 
-1 1:-0.087531144 2:-4.092177 3:0.02660277 4:-17.950054 5:0.18224509 
1 1:-0.046306415 2:-4.092177 3:0.02660277 4:-17.950054 5:0.18224509 
-0.5571786024809791 1:-0.0050816864 2:-4.092177 3:0.02660277 4:-17.950054 5:0.18224509 
0.1397102314831129 1:-0.1699806 2:0.25620546 3:0.56770471 4:-17.950054 5:-4.9433647 
-0.9402416921347984 1:-0.12875587 2:0.25620546 3:0.56770471 4:-17.950054 5:-4.9433647 
0.92652760679684 1:-0.087531144 2:0.25620546 3:0.56770471 4:-17.950054 5:-4.9433647 
-0.9925393720671096 1:-0.0050816864 2:0.25620546 3:0.56770471 4:-17.950054 5:-4.9433647 
0.4730431675053729 1:-0.1699806 2:0.72278191 3:0.34489803 4:-17.950054 5:-2.9110062 
1 1:-0.12875587 2:0.72278191 3:0.34489803 4:-17.950054 5:-2.9110062 
-0.4696524695306979 1:-0.046306415 2:0.72278191 3:0.34489803 4:-17.950054 5:-2.9110062 
0.4945571148772989 1:-0.0050816864 2:0.72278191 3:0.34489803 4:-17.950054 5:-2.9110062 
-0.07857003979925448 1:-0.087531144 2:-0.79193618 3:-0.10071533 4:39.886532 5:-4.7642177 
-0.6161559446508459 1:0.036143042 2:-0.79193618 3:-0.10071533 4:39.886532 5:-4.7642177 
1 1:0.15981723 2:-0.79193618 3:-0.10071533 4:39.886532 5:-4.7642177 
0.04590592910907076 1:0.28349142 2:-0.79193618 3:-0.10071533 4:39.886532 5:-4.7642177 
-0.4127225735886952 1:0.4071656 2:-0.79193618 3:-0.10071533 4:39.886532 5:-4.7642177 
-0.4337607777519609 1:0.20104196 2:-1.1514992 3:-0.0052267558 4:5.546059 5:-6.7416542 
0.3798856262061556 1:-0.046306415 2:-0.28859601 3:0.34489803 4:23.820814 5:-3.9544196 
-1 1:0.1185925 2:-0.28859601 3:0.34489803 4:23.820814 5:-3.9544196 
1 1:0.28349142 2:-0.28859601 3:0.34489803 4:23.820814 5:-3.9544196 
-0.5318944600806204 1:0.44839033 2:-0.28859601 3:0.34489803 4:23.820814 5:-3.9544196 
0.1216219438992834 1:0.61328925 2:-0.28859601 3:0.34489803 4:23.820814 5:-3.9544196 
1 1:-0.12875587 2:1.6450967 3:0.21757992 4:-1.6049319 5:-2.4437197 
-0.8478144787092916 1:-0.046306415 2:1.6450967 3:0.21757992 4:-1.6049319 5:-2.4437197 
-1 1:0.036143042 2:1.6450967 3:0.21757992 4:-1.6049319 5:-2.4437197 
0.6886751231643093 1:0.1185925 2:1.6450967 3:0.21757992 4:-1.6049319 5:-2.4437197 
0.02926969212251962 1:0.20104196 2:1.6450967 3:0.21757992 4:-1.6049319 5:-2.4437197 
-0.1400465396746203 1:-0.12875587 2:0.77914131 3:-0.16437438 4:16.22611 5:2.4195199 
1 1:-0.046306415 2:0.77914131 3:-0.16437438 4:16.22611 5:2.4195199 
-0.8160027742791025 1:0.036143042 2:0.77914131 3:-0.16437438 4:16.22611 5:2.4195199 
-1 1:0.1185925 2:0.77914131 3:-0.16437438 4:16.22611 5:2.4195199 
1 1:0.20104196 2:0.77914131 3:-0.16437438 4:16.22611 5:2.4195199 
-1 1:-0.12875587 2:0.037690218 3:0.02660277 4:-17.950054 5:-5.2169244 
-1 1:-0.087531144 2:0.037690218 3:0.02660277 4:-17.950054 5:-5.2169244 
-1 1:-0.087531144 2:3.5175806 3:0.12209135 4:-17.950054 5:-6.763408 
-1 1:-0.046306415 2:3.5175806 3:0.12209135 4:-17.950054 5:-6.763408 
1 1:-0.12875587 2:-1.8427895 3:-0.13254486 4:13.378097 5:-5.183867 
0.9766904375331316 1:-0.046306415 2:-1.8427895 3:-0.13254486 4:13.378097 5:-5.183867 
0.9828895018902782 1:0.036143042 2:-1.8427895 3:-0.13254486 4:13.378097 5:-5.183867 
-0.5238633652302185 1:-0.12875587 2:-2.4852329 3:-0.22803344 4:23.820814 5:-3.4328641 
1 1:0.1185925 2:-2.4852329 3:-0.22803344 4:23.820814 5:-3.4328641 
-0.4497674816159666 1:0.20104196 2:-2.4852329 3:-0.22803344 4:23.820814 5:-3.4328641 
-1 1:-0.087531144 2:2.3278303 3:0.090261821 4:-17.950054 5:-2.8489066 
-1 1:-0.046306415 2:2.3278303 3:0.090261821 4:-17.950054 5:-2.8489066 
-0.5873806301206235 1:-0.046306415 2:-1.2111708 3:-0.10071533 4:-17.950054 5:-5.1343824 
0.1205886300169429 1:-0.12875587 2:2.6945734 3:0.21757992 4:-1.6049319 5:-6.3080849 
-0.3953778539436064 1:0.036143042 2:2.6945734 3:0.21757992 4:-1.6049319 5:-6.3080849 
-0.5116700375783525 1:-0.046306415 2:2.5370139 3:0.15392087 4:-0.048253629 5:-2.7645233 
-1 1:0.036143042 2:2.5370139 3:0.15392087 4:-0.048253629 5:-2.7645233 
-0.4247262992176013 1:0.1185925 2:2.5370139 3:0.15392087 4:-0.048253629 5:-2.7645233 
-0.9321584509123482 1:0.20104196 2:2.5370139 3:0.15392087 4:-0.048253629 5:-2.7645233 
1 1:-0.1699806 2:-0.66916811 3:-0.037056282 4:-17.950054 5:-3.6132409 
1 1:-0.12875587 2:-0.66916811 3:-0.037056282 4:-17.950054 5:-3.6132409 
1 1:-0.087531144 2:-0.66916811 3:-0.037056282 4:-17.950054 5:-3.6132409 
1 1:-0.046306415 2:-0.66916811 3:-0.037056282 4:-17.950054 5:-3.6132409 
1 1:-0.0050816864 2:-0.66916811 3:-0.037056282 4:-17.950054 5:-3.6132409 
-0.8233301132875579 1:-0.12875587 2:0.51007724 3:-0.068885807 4:8.9026466 5:-2.5637531 
0.4471200817496424 1:-0.046306415 2:0.51007724 3:-0.068885807 4:8.9026466 5:-2.5637531 
1 1:0.036143042 2:0.51007724 3:-0.068885807 4:8.9026466 5:-2.5637531 
1 1:0.1185925 2:0.51007724 3:-0.068885807 4:8.9026466 5:-2.5637531 
-0.5982538892129327 1:0.20104196 2:0.51007724 3:-0.068885807 4:8.9026466 5:-2.5637531 
1 1:0.036143042 2:-0.040107079 3:-0.068885807 4:8.9026466 5:-3.8639731 
1 1:0.1185925 2:-0.040107079 3:-0.068885807 4:8.9026466 5:-3.8639731 
-0.8552293024558446 1:-0.12875587 2:0.41009468 3:-0.19620391 4:19.643727 5:-5.4360121 
-1 1:-0.046306415 2:0.41009468 3:-0.19620391 4:19.643727 5:-5.4360121 
-1 1:0.20104196 2:0.41009468 3:-0.19620391 4:19.643727 5:-5.4360121 
0.3472622878910325 1:-0.12875587 2:0.78465027 3:0.3130685 4:-3.4909076 5:-5.8837596 
-1 1:-0.046306415 2:0.78465027 3:0.3130685 4:-3.4909076 5:-5.8837596 
0.759894814503311 1:0.036143042 2:0.78465027 3:0.3130685 4:-3.4909076 5:-5.8837596 
0.06913077656371247 1:0.1185925 2:0.78465027 3:0.3130685 4:-3.4909076 5:-5.8837596 
-0.1392999828401813 1:0.20104196 2:0.78465027 3:0.3130685 4:-3.4909076 5:-5.8837596 
-1 1:-0.1699806 2:1.4948834 3:-0.037056282 4:-17.950054 5:17.150194 
0.8937964014159474 1:-0.12875587 2:1.4948834 3:-0.037056282 4:-17.950054 5:17.150194 
0.1131819721945827 1:-0.087531144 2:1.4948834 3:-0.037056282 4:-17.950054 5:17.150194 
1 1:-0.046306415 2:1.4948834 3:-0.037056282 4:-17.950054 5:17.150194 
-1 1:-0.0050816864 2:1.4948834 3:-0.037056282 4:-17.950054 5:17.150194 
-0.003820174143296384 1:-0.046306415 2:-1.6912392 3:0.02660277 4:48.391912 5:-5.3842856 
-0.008763592966273936 1:0.1185925 2:-1.6912392 3:0.02660277 4:48.391912 5:-5.3842856 
0.01487497834084439 1:0.28349142 2:-1.6912392 3:0.02660277 4:48.391912 5:-5.3842856 
-0.001234758197836472 1:0.61328925 2:-1.6912392 3:0.02660277 4:48.391912 5:-5.3842856 
0.244263432009014 1:-0.12875587 2:2.3424346 3:0.090261821 4:1.8361464 5:-7.0829216 
-0.06370434328969887 1:-0.12875587 2:-0.9878162 3:-0.19620391 4:19.643727 5:-0.55700765 
1 1:-0.046306415 2:-0.9878162 3:-0.19620391 4:19.643727 5:-0.55700765 
-0.9400481192529951 1:0.036143042 2:-0.9878162 3:-0.19620391 4:19.643727 5:-0.55700765 
-0.8399645354869598 1:0.1185925 2:-0.9878162 3:-0.19620391 4:19.643727 5:-0.55700765 
1 1:0.20104196 2:-0.9878162 3:-0.19620391 4:19.643727 5:-0.55700765 
1 1:-0.1699806 2:1.2827617 3:-0.037056282 4:-17.950054 5:-0.85522002 
1 1:-0.12875587 2:1.2827617 3:-0.037056282 4:-17.950054 5:-0.85522002 
1 1:-0.046306415 2:1.2827617 3:-0.037056282 4:-17.950054 5:-0.85522002 
0.01360123839883607 1:-0.0050816864 2:1.2827617 3:-0.037056282 4:-17.950054 5:-0.85522002 
-1 1:-0.12875587 2:-2.527869 3:-0.13254486 4:13.378097 5:-4.8724217 
-1 1:-0.046306415 2:-2.527869 3:-0.13254486 4:13.378097 5:-4.8724217 
-1 1:0.036143042 2:-2.527869 3:-0.13254486 4:13.378097 5:-4.8724217 
-0.3400653065621823 1:-0.1699806 2:-1.0443902 3:0.1857504 4:-17.950054 5:-7.6228353 
-0.4274254014685397 1:-0.12875587 2:-1.0443902 3:0.1857504 4:-17.950054 5:-7.6228353 
-0.6097355376729903 1:-0.087531144 2:-1.0443902 3:0.1857504 4:-17.950054 5:-7.6228353 
-0.5696255014011782 1:-0.12875587 2:2.8474864 3:0.090261821 4:1.8361464 5:-7.2167608 
0.9712434258156486 1:-0.046306415 2:2.8474864 3:0.090261821 4:1.8361464 5:-7.2167608 
-0.06817829624660077 1:-0.087531144 2:-1.3148403 3:-0.10071533 4:39.886532 5:-5.6035952 
0.1720871151589249 1:0.15981723 2:-1.3148403 3:-0.10071533 4:39.886532 5:-5.6035952 
0.1877639664388332 1:0.4071656 2:-1.3148403 3:-0.10071533 4:39.886532 5:-5.6035952 
0.3112622965427004 1:-0.12875587 2:-0.1812649 3:-0.19620391 4:19.643727 5:-6.5632261 
1 1:-0.046306415 2:-0.1812649 3:-0.19620391 4:19.643727 5:-6.5632261 
1 1:0.036143042 2:-0.1812649 3:-0.19620391 4:19.643727 5:-6.5632261 
0.2183107580339556 1:0.1185925 2:-0.1812649 3:-0.19620391 4:19.643727 5:-6.5632261 
1 1:0.20104196 2:-0.1812649 3:-0.19620391 4:19.643727 5:-6.5632261 
-1 1:-0.1699806 2:-1.3563805 3:-0.16437438 4:-17.950054 5:-0.15610352 
-0.3963938770577549 1:-0.087531144 2:-0.93713791 3:-0.16437438 4:50.402275 5:0.42209916 
1 1:0.036143042 2:-0.93713791 3:-0.16437438 4:50.402275 5:0.42209916 
-0.6542071684939361 1:0.15981723 2:-0.93713791 3:-0.16437438 4:50.402275 5:0.42209916 
-0.1880150456410546 1:0.28349142 2:-0.93713791 3:-0.16437438 4:50.402275 5:0.42209916 
0.2435213101425991 1:0.4071656 2:-0.93713791 3:-0.16437438 4:50.402275 5:0.42209916 
0.9100482319547298 1:-0.1699806 2:3.4792613 3:-0.037056282 4:-17.950054 5:83.519202 
-1 1:-0.12875587 2:3.4792613 3:-0.037056282 4:-17.950054 5:83.519202 
-0.9043687364408556 1:-0.087531144 2:3.4792613 3:-0.037056282 4:-17.950054 5:83.519202 
1 1:-0.046306415 2:3.4792613 3:-0.037056282 4:-17.950054 5:83.519202 
-1 1:-0.046306415 2:3.3326148 3:-0.13254486 4:13.378097 5:-6.2235678 
0.06933098498639481 1:0.036143042 2:3.3326148 3:-0.13254486 4:13.378097 5:-6.2235678 
-0.4378275537448723 1:0.1185925 2:3.3326148 3:-0.13254486 4:13.378097 5:-6.2235678 
0.3129930314206578 1:0.20104196 2:3.3326148 3:-0.13254486 4:13.378097 5:-6.2235678 
-0.2186026601813187 1:-0.087531144 2:-3.4653295 3:-0.0052267558 4:29.042172 5:-6.5940913 
1 1:-0.1699806 2:0.4710474 3:-0.037056282 4:-17.950054 5:-6.0094355 
0.5673959956592133 1:-0.046306415 2:0.4710474 3:-0.037056282 4:-17.950054 5:-6.0094355 
1 1:-0.0050816864 2:0.4710474 3:-0.037056282 4:-17.950054 5:-6.0094355 
1 1:-0.12875587 2:0.61028635 3:0.090261821 4:-17.950054 5:-5.1435372 
0.7955964384245066 1:-0.087531144 2:0.61028635 3:0.090261821 4:-17.950054 5:-5.1435372 
0.0412715318715865 1:-0.12875587 2:2.8999515 3:0.21757992 4:-1.6049319 5:-1.5645545 
-0.001033284091555231 1:0.1185925 2:2.8999515 3:0.21757992 4:-1.6049319 5:-1.5645545 
-0.7270031825014629 1:-0.12875587 2:3.1584476 3:-0.13254486 4:-17.950054 5:-1.63 
0.8200548469684121 1:-0.087531144 2:3.1584476 3:-0.13254486 4:-17.950054 5:-1.63 
1 1:-0.046306415 2:3.1584476 3:-0.13254486 4:-17.950054 5:-1.63 
1 1:-0.0050816864 2:3.1584476 3:-0.13254486 4:-17.950054 5:-1.63 
-0.1398376291943021 1:-0.12875587 2:3.1400533 3:0.1857504 4:-0.86197183 5:-2.1989346 
0.1028395643998938 1:-0.12875587 2:2.2959756 3:-0.16437438 4:16.22611 5:-6.034884 
-0.3831855545985324 1:0.1185925 2:2.2959756 3:-0.16437438 4:16.22611 5:-6.034884 
-0.1849354782656318 1:0.20104196 2:2.2959756 3:-0.16437438 4:16.22611 5:-6.034884 
0.9649706944686363 1:-0.12875587 2:-1.4213515 3:-0.0052267558 4:5.546059 5:-5.2386392 
1 1:0.1185925 2:-1.4213515 3:-0.0052267558 4:5.546059 5:-5.2386392 
-0.215872967831819 1:-0.12875587 2:-0.69413288 3:0.058432296 4:2.9353798 5:-3.5238297 
-1 1:-0.046306415 2:-0.69413288 3:0.058432296 4:2.9353798 5:-3.5238297 
1 1:0.036143042 2:-0.69413288 3:0.058432296 4:2.9353798 5:-3.5238297 
0.2491056592969879 1:0.1185925 2:-0.69413288 3:0.058432296 4:2.9353798 5:-3.5238297 
0.973774470480274 1:0.20104196 2:-0.69413288 3:0.058432296 4:2.9353798 5:-3.5238297 
0.8221294072808465 1:0.1185925 2:-0.27293273 3:-0.13254486 4:13.378097 5:-0.54396156 
-0.9992745615366456 1:0.20104196 2:-0.27293273 3:-0.13254486 4:13.378097 5:-0.54396156 
-0.0004189473431259749 1:-0.12875587 2:-3.3096156 3:-0.068885807 4:8.9026466 5:-3.8257152 
-1 1:-0.046306415 2:-3.3096156 3:-0.068885807 4:8.9026466 5:-3.8257152 
1 1:0.036143042 2:-3.3096156 3:-0.068885807 4:8.9026466 5:-3.8257152 
0.9145974197775157 1:0.1185925 2:-3.3096156 3:-0.068885807 4:8.9026466 5:-3.8257152 
-0.8596819430152923 1:0.20104196 2:-3.3096156 3:-0.068885807 4:8.9026466 5:-3.8257152 
-0.277486811916872 1:-0.12875587 2:1.8562712 3:0.058432296 4:2.9353798 5:-4.5775946 
-1 1:-0.046306415 2:1.8562712 3:0.058432296 4:2.9353798 5:-4.5775946 
-0.994665319641065 1:0.036143042 2:1.8562712 3:0.058432296 4:2.9353798 5:-4.5775946 
-1 1:0.1185925 2:1.8562712 3:0.058432296 4:2.9353798 5:-4.5775946 
-1 1:0.20104196 2:1.8562712 3:0.058432296 4:2.9353798 5:-4.5775946 
-1 1:-0.1699806 2:-2.9017795 3:-0.068885807 4:-17.950054 5:-5.5364733 
-1 1:-0.12875587 2:-2.9017795 3:-0.068885807 4:-17.950054 5:-5.5364733 
-1 1:-0.087531144 2:-2.9017795 3:-0.068885807 4:-17.950054 5:-5.5364733 
-1 1:-0.046306415 2:-2.9017795 3:-0.068885807 4:-17.950054 5:-5.5364733 
-1 1:-0.0050816864 2:-2.9017795 3:-0.068885807 4:-17.950054 5:-5.5364733 
-0.6089687121841011 1:0.036143042 2:-1.854875 3:-0.19620391 4:19.643727 5:-4.8237455 
0.9815109992430709 1:0.1185925 2:-1.854875 3:-0.19620391 4:19.643727 5:-4.8237455 
0.3139056233240211 1:-0.087531144 2:0.71375892 3:-0.037056282 4:32.174987 5:-4.6625779 
-0.07718197405540206 1:0.036143042 2:0.71375892 3:-0.037056282 4:32.174987 5:-4.6625779 
0.0111641081978221 1:0.1185925 2:3.6317905 3:-0.22803344 4:23.820814 5:-7.2750462 
-0.01119661747546474 1:0.20104196 2:3.6317905 3:-0.22803344 4:23.820814 5:-7.2750462 
-0.09402317706351106 1:-0.12875587 2:1.6013046 3:0.12209135 4:0.84683639 5:-4.2846385 
-0.0697682087870426 1:-0.046306415 2:1.6013046 3:0.12209135 4:0.84683639 5:-4.2846385 
-1 1:0.036143042 2:1.6013046 3:0.12209135 4:0.84683639 5:-4.2846385 
-1 1:0.1185925 2:1.6013046 3:0.12209135 4:0.84683639 5:-4.2846385 
-0.02662348854741775 1:-0.12875587 2:0.21566091 3:-0.19620391 4:19.643727 5:-5.4463065 
1 1:-0.046306415 2:0.21566091 3:-0.19620391 4:19.643727 5:-5.4463065 
1 1:0.036143042 2:0.21566091 3:-0.19620391 4:19.643727 5:-5.4463065 
-1 1:0.20104196 2:0.21566091 3:-0.19620391 4:19.643727 5:-5.4463065 
0.4364157276660039 1:-0.12875587 2:1.3966411 3:0.02660277 4:4.1639347 5:-4.2057895 
-1 1:-0.046306415 2:1.3966411 3:0.02660277 4:4.1639347 5:-4.2057895 
-0.2143059257891186 1:0.036143042 2:1.3966411 3:0.02660277 4:4.1639347 5:-4.2057895 
-1 1:0.20104196 2:1.3966411 3:0.02660277 4:4.1639347 5:-4.2057895 
0.2819789121079527 1:-0.12875587 2:-2.7258295 3:0.02660277 4:4.1639347 5:-2.0081689 
-1 1:-0.046306415 2:-2.7258295 3:0.02660277 4:4.1639347 5:-2.0081689 
1 1:0.036143042 2:-2.7258295 3:0.02660277 4:4.1639347 5:-2.0081689 
-0.1556849729589286 1:0.1185925 2:-2.7258295 3:0.02660277 4:4.1639347 5:-2.0081689 
-0.1157074985665674 1:0.20104196 2:-2.7258295 3:0.02660277 4:4.1639347 5:-2.0081689 
0.1530130686471713 1:-0.087531144 2:-0.25220112 3:0.058432296 4:23.820814 5:-7.1867602 
-0.7695924288776094 1:0.15981723 2:-0.25220112 3:0.058432296 4:23.820814 5:-7.1867602 
1 1:0.28349142 2:-0.25220112 3:0.058432296 4:23.820814 5:-7.1867602 
-0.3419232662884943 1:0.4071656 2:-0.25220112 3:0.058432296 4:23.820814 5:-7.1867602 
1 1:-0.1699806 2:-0.27805395 3:-0.068885807 4:-17.950054 5:2.817754 
0.2268532994181126 1:-0.12875587 2:-0.27805395 3:-0.068885807 4:-17.950054 5:2.817754 
1 1:-0.087531144 2:-0.27805395 3:-0.068885807 4:-17.950054 5:2.817754 
-1 1:-0.046306415 2:-0.27805395 3:-0.068885807 4:-17.950054 5:2.817754 
-1 1:-0.0050816864 2:-0.27805395 3:-0.068885807 4:-17.950054 5:2.817754 
-1 1:-0.12875587 2:1.2475385 3:-0.13254486 4:13.378097 5:1.0948011 
0.1914809229789017 1:-0.046306415 2:1.2475385 3:-0.13254486 4:13.378097 5:1.0948011 
1 1:0.1185925 2:1.2475385 3:-0.13254486 4:13.378097 5:1.0948011 
-0.589563899398602 1:-0.12875587 2:-3.5709999 3:-0.16437438 4:16.22611 5:-7.3348745 
-1 1:-0.046306415 2:-3.5709999 3:-0.16437438 4:16.22611 5:-7.3348745 
0.5821501906482743 1:0.036143042 2:-3.5709999 3:-0.16437438 4:16.22611 5:-7.3348745 
-1 1:0.1185925 2:-3.5709999 3:-0.16437438 4:16.22611 5:-7.3348745 
-0.9989355798391388 1:0.20104196 2:-3.5709999 3:-0.16437438 4:16.22611 5:-7.3348745 
0.8849652981229408 1:-0.1699806 2:1.6606889 3:0.058432296 4:-17.950054 5:0.25989057 
0.5846536240812723 1:-0.12875587 2:-0.97037426 3:-0.0052267558 4:5.546059 5:-4.7668254 
0.4368221404203756 1:-0.046306415 2:-0.97037426 3:-0.0052267558 4:5.546059 5:-4.7668254 
1 1:0.036143042 2:-0.97037426 3:-0.0052267558 4:5.546059 5:-4.7668254 
-0.2135874144766081 1:0.1185925 2:-0.97037426 3:-0.0052267558 4:5.546059 5:-4.7668254 
-0.6810956520914158 1:0.20104196 2:-0.97037426 3:-0.0052267558 4:5.546059 5:-4.7668254 
0.3905023527846795 1:-0.087531144 2:3.1094544 3:0.37672755 4:8.9026466 5:-4.2754276 
-0.9215336658961525 1:0.036143042 2:3.1094544 3:0.37672755 4:8.9026466 5:-4.2754276 
1 1:0.15981723 2:3.1094544 3:0.37672755 4:8.9026466 5:-4.2754276 
-0.783160050215706 1:0.28349142 2:3.1094544 3:0.37672755 4:8.9026466 5:-4.2754276 
0.2774081638597503 1:0.4071656 2:3.1094544 3:0.37672755 4:8.9026466 5:-4.2754276 
0.5582557850202239 1:-0.12875587 2:0.9411869 3:0.21757992 4:-1.6049319 5:-1.1106515 
-1 1:-0.046306415 2:0.9411869 3:0.21757992 4:-1.6049319 5:-1.1106515 
0.9533924296584182 1:0.1185925 2:0.9411869 3:0.21757992 4:-1.6049319 5:-1.1106515 
-0.4294369026101973 1:0.20104196 2:0.9411869 3:0.21757992 4:-1.6049319 5:-1.1106515 
0.004794321558482917 1:0.81941289 2:-3.2265884 3:-0.037056282 4:82.300028 5:-6.4405967 
0.06304618521551708 1:0.1185925 2:3.3451843 3:0.3130685 4:-3.4909076 5:-5.4841269 
-0.07780597147082358 1:0.20104196 2:3.3451843 3:0.3130685 4:-3.4909076 5:-5.4841269 
-0.03663115392863237 1:-0.12875587 2:1.3382738 3:-0.22803344 4:23.820814 5:-4.594924 
0.3930328856078223 1:-0.046306415 2:1.3382738 3:-0.22803344 4:23.820814 5:-4.594924 
-1 1:0.036143042 2:1.3382738 3:-0.22803344 4:23.820814 5:-4.594924 
1 1:0.1185925 2:1.3382738 3:-0.22803344 4:23.820814 5:-4.594924 
-0.4183084900766213 1:0.20104196 2:1.3382738 3:-0.22803344 4:23.820814 5:-4.594924 
0.2257105474667515 1:-0.12875587 2:-0.36798113 3:-0.0052267558 4:5.546059 5:-6.4023082 
-0.5228893012939053 1:-0.046306415 2:-0.36798113 3:-0.0052267558 4:5.546059 5:-6.4023082 
-1 1:0.036143042 2:-0.36798113 3:-0.0052267558 4:5.546059 5:-6.4023082 
0.2137628516835064 1:0.1185925 2:-0.36798113 3:-0.0052267558 4:5.546059 5:-6.4023082 
-0.2845873425389308 1:0.20104196 2:-0.36798113 3:-0.0052267558 4:5.546059 5:-6.4023082 
1 1:-0.1699806 2:2.2251974 3:0.090261821 4:-17.950054 5:-6.9698292 
1 1:-0.12875587 2:2.2251974 3:0.090261821 4:-17.950054 5:-6.9698292 
1 1:-0.087531144 2:2.2251974 3:0.090261821 4:-17.950054 5:-6.9698292 
-0.5992801231653233 1:-0.1699806 2:2.7437982 3:0.3130685 4:-17.950054 5:-8.6827276 
0.6040129463063988 1:-0.12875587 2:2.7437982 3:0.3130685 4:-17.950054 5:-8.6827276 
-0.09507188414246259 1:-0.087531144 2:-3.9912757 3:-0.10071533 4:39.886532 5:-7.0927731 
0.6847998266796618 1:0.15981723 2:-3.9912757 3:-0.10071533 4:39.886532 5:-7.0927731 
-1 1:0.28349142 2:-3.9912757 3:-0.10071533 4:39.886532 5:-7.0927731 
0.5859502164262115 1:0.4071656 2:-3.9912757 3:-0.10071533 4:39.886532 5:-7.0927731 
0.09254378313315345 1:-0.1699806 2:0.28651356 3:-0.037056282 4:-17.950054 5:-3.8904053 
-0.6261230071342109 1:-0.12875587 2:0.28651356 3:-0.037056282 4:-17.950054 5:-3.8904053 
-1 1:-0.1699806 2:1.6612879 3:0.21757992 4:-17.950054 5:-0.29037395 
-0.2601867677345285 1:-0.12875587 2:1.6612879 3:0.21757992 4:-17.950054 5:-0.29037395 
-1 1:-0.087531144 2:1.6612879 3:0.21757992 4:-17.950054 5:-0.29037395 
0.6138220848083971 1:-0.046306415 2:1.6612879 3:0.21757992 4:-17.950054 5:-0.29037395 
-0.7397703682780551 1:-0.0050816864 2:1.6612879 3:0.21757992 4:-17.950054 5:-0.29037395 
-1 1:-0.12875587 2:1.9437868 3:-0.037056282 4:7.1124665 5:-2.9787027 
-0.3430282827070479 1:-0.046306415 2:1.9437868 3:-0.037056282 4:7.1124665 5:-2.9787027 
-0.3400409047460097 1:0.036143042 2:1.9437868 3:-0.037056282 4:7.1124665 5:-2.9787027 
-0.4288193880118144 1:0.1185925 2:1.9437868 3:-0.037056282 4:7.1124665 5:-2.9787027 
-0.2551316404694504 1:0.20104196 2:1.9437868 3:-0.037056282 4:7.1124665 5:-2.9787027 
-0.1598198689653345 1:-0.12875587 2:-0.36320333 3:-0.16437438 4:16.22611 5:-4.6657765 
-1 1:-0.046306415 2:-0.36320333 3:-0.16437438 4:16.22611 5:-4.6657765 
-0.6347307914680114 1:0.036143042 2:-0.36320333 3:-0.16437438 4:16.22611 5:-4.6657765 
0.9627523882654473 1:0.1185925 2:-0.36320333 3:-0.16437438 4:16.22611 5:-4.6657765 
-0.789749243758134 1:0.20104196 2:-0.36320333 3:-0.16437438 4:16.22611 5:-4.6657765 
-0.6406608187782404 1:-0.0050816864 2:-1.1124043 3:-0.0052267558 4:-17.950054 5:-5.6471385 
-0.00263368961151722 1:-0.046306415 2:-0.96253279 3:-0.16437438 4:16.22611 5:3.3573478 
1 1:-0.1699806 2:3.7478393 3:0.50404566 4:-17.950054 5:57.711642 
-0.4175620279911969 1:-0.12875587 2:3.7478393 3:0.50404566 4:-17.950054 5:57.711642 
-1 1:-0.087531144 2:3.7478393 3:0.50404566 4:-17.950054 5:57.711642 
-0.5744975855919716 1:-0.046306415 2:3.7478393 3:0.50404566 4:-17.950054 5:57.711642 
1 1:-0.0050816864 2:3.7478393 3:0.50404566 4:-17.950054 5:57.711642 
-0.1523281356376798 1:-0.12875587 2:2.3368225 3:0.1857504 4:-0.86197183 5:-2.8575389 
-1 1:-0.046306415 2:2.3368225 3:0.1857504 4:-0.86197183 5:-2.8575389 
0.9940620210271384 1:0.036143042 2:2.3368225 3:0.1857504 4:-0.86197183 5:-2.8575389 
0.2302978600304288 1:0.1185925 2:2.3368225 3:0.1857504 4:-0.86197183 5:-2.8575389 
0.1950312443759833 1:0.20104196 2:2.3368225 3:0.1857504 4:-0.86197183 5:-2.8575389 
1 1:-0.1699806 2:-2.2163754 3:-0.16437438 4:-17.950054 5:-7.3588932 
0.566585207097839 1:-0.12875587 2:-2.2163754 3:-0.16437438 4:-17.950054 5:-7.3588932 
-0.5109265790767862 1:-0.046306415 2:-2.2163754 3:-0.16437438 4:-17.950054 5:-7.3588932 
-1 1:-0.0050816864 2:-2.2163754 3:-0.16437438 4:-17.950054 5:-7.3588932 
-0.5564301394223831 1:-0.12875587 2:-2.2102031 3:-0.10071533 4:-17.950054 5:-5.4106392 
-0.5645742722736629 1:-0.0050816864 2:-2.2102031 3:-0.10071533 4:-17.950054 5:-5.4106392 
0.05955028195849832 1:-0.087531144 2:-2.8077802 3:-0.16437438 4:50.402275 5:-4.9865756 
0.7647483263528709 1:0.036143042 2:-2.8077802 3:-0.16437438 4:50.402275 5:-4.9865756 
-1 1:0.15981723 2:-2.8077802 3:-0.16437438 4:50.402275 5:-4.9865756 
-0.5753063748467862 1:0.28349142 2:-2.8077802 3:-0.16437438 4:50.402275 5:-4.9865756 
0.9493926841300897 1:0.4071656 2:-2.8077802 3:-0.16437438 4:50.402275 5:-4.9865756 
-0.07475580136363202 1:-0.046306415 2:2.7188906 3:-0.0052267558 4:5.546059 5:127.79412 
0.06774809302872076 1:0.1185925 2:2.7188906 3:-0.0052267558 4:5.546059 5:127.79412 
-1 1:-0.12875587 2:0.67975485 3:0.02660277 4:-17.950054 5:-7.1427498 
1 1:-0.087531144 2:0.67975485 3:0.02660277 4:-17.950054 5:-7.1427498 
1 1:-0.046306415 2:0.67975485 3:0.02660277 4:-17.950054 5:-7.1427498 
1 1:-0.0050816864 2:0.67975485 3:0.02660277 4:-17.950054 5:-7.1427498 
0.8871476932378259 1:-0.12875587 2:0.25411581 3:-0.037056282 4:7.1124665 5:-4.4237395 
-0.9758197974237806 1:-0.046306415 2:0.25411581 3:-0.037056282 4:7.1124665 5:-4.4237395 
0.9092058604894255 1:0.036143042 2:0.25411581 3:-0.037056282 4:7.1124665 5:-4.4237395 
-1 1:0.1185925 2:0.25411581 3:-0.037056282 4:7.1124665 5:-4.4237395 
-0.180283459217652 1:0.20104196 2:0.25411581 3:-0.037056282 4:7.1124665 5:-4.4237395 
0.3138659378169663 1:-0.1699806 2:1.9389271 3:0.4403866 4:-17.950054 5:-3.5143335 
0.4390274518924379 1:-0.046306415 2:1.9389271 3:0.4403866 4:-17.950054 5:-3.5143335 
0.09751986624124681 1:-0.0050816864 2:1.9389271 3:0.4403866 4:-17.950054 5:-3.5143335 
0.8674615548749557 1:-0.12875587 2:-3.0333945 3:-0.16437438 4:16.22611 5:-3.9015447 
0.2969131090830344 1:-0.046306415 2:-3.0333945 3:-0.16437438 4:16.22611 5:-3.9015447 
1 1:0.036143042 2:-3.0333945 3:-0.16437438 4:16.22611 5:-3.9015447 
1 1:0.1185925 2:-3.0333945 3:-0.16437438 4:16.22611 5:-3.9015447 
1 1:0.20104196 2:-3.0333945 3:-0.16437438 4:16.22611 5:-3.9015447 
-0.5166542672422517 1:-0.1699806 2:0.90449851 3:-0.10071533 4:-17.950054 5:-5.1539548 
-0.7488239445280755 1:-0.12875587 2:0.90449851 3:-0.10071533 4:-17.950054 5:-5.1539548 
0.6759482486239211 1:-0.087531144 2:0.90449851 3:-0.10071533 4:-17.950054 5:-5.1539548 
0.8373633735880335 1:-0.046306415 2:0.90449851 3:-0.10071533 4:-17.950054 5:-5.1539548 
0.0001058472865814061 1:-0.0050816864 2:0.90449851 3:-0.10071533 4:-17.950054 5:-5.1539548 
-1 1:-0.12875587 2:-1.7915185 3:-0.13254486 4:-17.950054 5:-2.8312615 
-0.08811162459629357 1:-0.1699806 2:-0.13702602 3:-0.037056282 4:-17.950054 5:-2.7499627 
-1 1:-0.12875587 2:-0.13702602 3:-0.037056282 4:-17.950054 5:-2.7499627 
-1 1:-0.087531144 2:-0.13702602 3:-0.037056282 4:-17.950054 5:-2.7499627 
-1 1:-0.046306415 2:-0.13702602 3:-0.037056282 4:-17.950054 5:-2.7499627 
0.003294241588631897 1:-0.087531144 2:-2.5547534 3:-0.0052267558 4:29.042172 5:-3.9934838 
-0.006403258876561568 1:0.4071656 2:-2.5547534 3:-0.0052267558 4:29.042172 5:-3.9934838 
-1 1:-0.1699806 2:-3.8416914 3:-0.13254486 4:-17.950054 5:-7.3975809 
-1 1:-0.046306415 2:-3.8416914 3:-0.13254486 4:-17.950054 5:-7.3975809 
-1 1:-0.0050816864 2:-3.8416914 3:-0.13254486 4:-17.950054 5:-7.3975809 
-0.01707484134533011 1:-0.1699806 2:2.9300608 3:-0.037056282 4:-17.950054 5:-9.0110517 
-1 1:-0.12875587 2:2.9300608 3:-0.037056282 4:-17.950054 5:-9.0110517 
1 1:-0.087531144 2:2.9300608 3:-0.037056282 4:-17.950054 5:-9.0110517 
-1 1:-0.087531144 2:-1.3852442 3:0.058432296 4:-17.950054 5:-7.3578998 
-0.5160779668966057 1:-0.087531144 2:3.4971053 3:0.12209135 4:19.643727 5:-4.7760498 
0.1596056966495502 1:0.036143042 2:3.4971053 3:0.12209135 4:19.643727 5:-4.7760498 
1 1:0.15981723 2:3.4971053 3:0.12209135 4:19.643727 5:-4.7760498 
-0.60434377088828 1:0.28349142 2:3.4971053 3:0.12209135 4:19.643727 5:-4.7760498 
-0.03244361445441601 1:0.4071656 2:3.4971053 3:0.12209135 4:19.643727 5:-4.7760498 
0.2476084175052313 1:-0.087531144 2:0.1776666 3:0.058432296 4:23.820814 5:-3.2669438 
-1 1:0.036143042 2:0.1776666 3:0.058432296 4:23.820814 5:-3.2669438 
0.9589265003018924 1:0.15981723 2:0.1776666 3:0.058432296 4:23.820814 5:-3.2669438 
-0.358602965227149 1:0.28349142 2:0.1776666 3:0.058432296 4:23.820814 5:-3.2669438 
-0.4544419615870143 1:0.4071656 2:0.1776666 3:0.058432296 4:23.820814 5:-3.2669438 
1 1:-0.087531144 2:-1.4439289 3:-0.13254486 4:44.706247 5:-4.7559828 
-0.2223240135905956 1:0.036143042 2:-1.4439289 3:-0.13254486 4:44.706247 5:-4.7559828 
-1 1:0.15981723 2:-1.4439289 3:-0.13254486 4:44.706247 5:-4.7559828 
-0.6222542668566216 1:0.28349142 2:-1.4439289 3:-0.13254486 4:44.706247 5:-4.7559828 
-0.2224836868605951 1:0.4071656 2:-1.4439289 3:-0.13254486 4:44.706247 5:-4.7559828 
-0.9620655554046476 1:-0.12875587 2:0.93796783 3:-0.19620391 4:-17.950054 5:-3.6903301 
1 1:-0.12875587 2:1.4137425 3:-0.13254486 4:13.378097 5:-2.9807634 
-0.7961889174355058 1:-0.046306415 2:1.4137425 3:-0.13254486 4:13.378097 5:-2.9807634 
1 1:0.036143042 2:1.4137425 3:-0.13254486 4:13.378097 5:-2.9807634 
-0.4911933859612841 1:0.1185925 2:1.4137425 3:-0.13254486 4:13.378097 5:-2.9807634 
-1 1:0.20104196 2:1.4137425 3:-0.13254486 4:13.378097 5:-2.9807634 
0.2730331347879343 1:-0.12875587 2:1.0846766 3:-0.16437438 4:16.22611 5:-4.7254805 
-1 1:-0.046306415 2:1.0846766 3:-0.16437438 4:16.22611 5:-4.7254805 
0.298187847100539 1:0.036143042 2:1.0846766 3:-0.16437438 4:16.22611 5:-4.7254805 
1 1:0.1185925 2:1.0846766 3:-0.16437438 4:16.22611 5:-4.7254805 
0.5481941118749728 1:0.20104196 2:1.0846766 3:-0.16437438 4:16.22611 5:-4.7254805 
-0.5004126644779612 1:-0.12875587 2:1.509614 3:0.28123898 4:-2.9125417 5:-0.20351473 
1 1:-0.046306415 2:1.509614 3:0.28123898 4:-2.9125417 5:-0.20351473 
-0.02909798350790671 1:0.036143042 2:1.509614 3:0.28123898 4:-2.9125417 5:-0.20351473 
-1 1:0.1185925 2:1.509614 3:0.28123898 4:-2.9125417 5:-0.20351473 
0.5266020496529585 1:0.20104196 2:1.509614 3:0.28123898 4:-2.9125417 5:-0.20351473 
-0.4875069716566822 1:0.1185925 2:-2.7311521 3:-0.22803344 4:23.820814 5:-2.1048469 
0.4195010033726299 1:0.20104196 2:-2.7311521 3:-0.22803344 4:23.820814 5:-2.1048469 
0.9976688715178654 1:-0.1699806 2:3.4653968 3:0.090261821 4:-17.950054 5:-5.8031906 
0.9967199060033654 1:-0.087531144 2:3.4653968 3:0.090261821 4:-17.950054 5:-5.8031906 
1 1:-0.046306415 2:3.4653968 3:0.090261821 4:-17.950054 5:-5.8031906 
1 1:-0.0050816864 2:3.4653968 3:0.090261821 4:-17.950054 5:-5.8031906 
-0.008039991667979418 1:0.20104196 2:2.2427754 3:0.4403866 4:-5.4187938 5:140.25958 
0.8622326306314045 1:-0.12875587 2:3.0283172 3:0.12209135 4:0.84683639 5:-4.8286978 
1 1:-0.046306415 2:3.0283172 3:0.12209135 4:0.84683639 5:-4.8286978 
-1 1:0.1185925 2:3.0283172 3:0.12209135 4:0.84683639 5:-4.8286978 
-1 1:0.20104196 2:3.0283172 3:0.12209135 4:0.84683639 5:-4.8286978 
0.1355136662826766 1:-0.1699806 2:-2.7282124 3:-0.037056282 4:-17.950054 5:-1.1588992 
1 1:-0.12875587 2:-2.7282124 3:-0.037056282 4:-17.950054 5:-1.1588992 
0.1129238186552372 1:-0.087531144 2:-2.7282124 3:-0.037056282 4:-17.950054 5:-1.1588992 
1 1:-0.046306415 2:-2.7282124 3:-0.037056282 4:-17.950054 5:-1.1588992 
1 1:-0.0050816864 2:-2.7282124 3:-0.037056282 4:-17.950054 5:-1.1588992 
0.4371922612723078 1:-0.087531144 2:0.62727709 3:-0.0052267558 4:29.042172 5:-4.1912763 
-1 1:0.036143042 2:0.62727709 3:-0.0052267558 4:29.042172 5:-4.1912763 
1 1:0.15981723 2:0.62727709 3:-0.0052267558 4:29.042172 5:-4.1912763 
0.3443456703672106 1:0.28349142 2:0.62727709 3:-0.0052267558 4:29.042172 5:-4.1912763 
-1 1:0.4071656 2:0.62727709 3:-0.0052267558 4:29.042172 5:-4.1912763 
0.9527930135046282 1:-0.1699806 2:2.4064567 3:0.12209135 4:-17.950054 5:-9.0622181 
-1 1:-0.12875587 2:2.4064567 3:0.12209135 4:-17.950054 5:-9.0622181 
-0.01354893421289138 1:0.036143042 2:1.0915577 3:0.058432296 4:23.820814 5:21.099125 
0.01600866137372325 1:0.28349142 2:1.0915577 3:0.058432296 4:23.820814 5:21.099125 
0.01038498609227512 1:-0.046306415 2:1.9646544 3:0.47221613 4:18.431024 5:-3.2293339 
-0.0202112615481258 1:0.1185925 2:1.9646544 3:0.47221613 4:18.431024 5:-3.2293339 
0.0161260948191817 1:0.28349142 2:1.9646544 3:0.47221613 4:18.431024 5:-3.2293339 
-0.008168081443349795 1:0.44839033 2:1.9646544 3:0.47221613 4:18.431024 5:-3.2293339 
0.00074025262080335 1:0.61328925 2:1.9646544 3:0.47221613 4:18.431024 5:-3.2293339 
-1 1:-0.12875587 2:-0.54986474 3:-0.19620391 4:-17.950054 5:-4.8480753 
-1 1:-0.087531144 2:-0.54986474 3:-0.19620391 4:-17.950054 5:-4.8480753 
-1 1:-0.046306415 2:-0.54986474 3:-0.19620391 4:-17.950054 5:-4.8480753 
-1 1:-0.0050816864 2:-0.54986474 3:-0.19620391 4:-17.950054 5:-4.8480753 
-1 1:-0.1699806 2:-3.8133932 3:0.058432296 4:-17.950054 5:-6.1324982 
-1 1:-0.12875587 2:-3.8133932 3:0.058432296 4:-17.950054 5:-6.1324982 
-1 1:-0.087531144 2:-3.8133932 3:0.058432296 4:-17.950054 5:-6.1324982 
-1 1:-0.0050816864 2:-3.8133932 3:0.058432296 4:-17.950054 5:-6.1324982 
-1 1:-0.1699806 2:-0.63322625 3:0.02660277 4:-17.950054 5:-3.5784102 
-1 1:-0.12875587 2:-0.63322625 3:0.02660277 4:-17.950054 5:-3.5784102 
1 1:-0.046306415 2:-0.63322625 3:0.02660277 4:-17.950054 5:-3.5784102 
-1 1:-0.046306415 2:-2.6000954 3:-0.16437438 4:16.22611 5:-6.1955954 
-1 1:0.036143042 2:-2.6000954 3:-0.16437438 4:16.22611 5:-6.1955954 
-1 1:0.1185925 2:-2.6000954 3:-0.16437438 4:16.22611 5:-6.1955954 
-0.5482988472337194 1:0.20104196 2:-2.6000954 3:-0.16437438 4:16.22611 5:-6.1955954 
-0.1067220505920337 1:-0.12875587 2:3.173656 3:0.21757992 4:-1.6049319 5:-4.9733471 
-1 1:-0.046306415 2:3.173656 3:0.21757992 4:-1.6049319 5:-4.9733471 
-0.8577931049210725 1:0.036143042 2:3.173656 3:0.21757992 4:-1.6049319 5:-4.9733471 
-1 1:0.1185925 2:3.173656 3:0.21757992 4:-1.6049319 5:-4.9733471 
-0.8472096056884201 1:0.20104196 2:3.173656 3:0.21757992 4:-1.6049319 5:-4.9733471 
1 1:-0.1699806 2:-1.4697957 3:-0.22803344 4:-17.950054 5:-5.12295 
1 1:-0.12875587 2:-1.4697957 3:-0.22803344 4:-17.950054 5:-5.12295 
1 1:-0.087531144 2:-1.4697957 3:-0.22803344 4:-17.950054 5:-5.12295 
1 1:-0.046306415 2:-1.4697957 3:-0.22803344 4:-17.950054 5:-5.12295 
1 1:-0.0050816864 2:-1.4697957 3:-0.22803344 4:-17.950054 5:-5.12295 
0.6597196229058853 1:-0.12875587 2:-0.82430118 3:-0.22803344 4:23.820814 5:-3.5456667 
-1 1:-0.046306415 2:-0.82430118 3:-0.22803344 4:23.820814 5:-3.5456667 
-0.03059217894608524 1:0.036143042 2:-0.82430118 3:-0.22803344 4:23.820814 5:-3.5456667 
1 1:0.1185925 2:-0.82430118 3:-0.22803344 4:23.820814 5:-3.5456667 
-0.2807458892445931 1:0.20104196 2:-0.82430118 3:-0.22803344 4:23.820814 5:-3.5456667 
0.1726570104661282 1:0.28349142 2:-0.51496748 3:-0.068885807 4:35.755347 5:-6.2659522 
-0.1404759265724304 1:0.4071656 2:-0.51496748 3:-0.068885807 4:35.755347 5:-6.2659522 
0.2965537505809881 1:-0.12875587 2:3.4294151 3:-0.16437438 4:16.22611 5:-5.5885185 
-0.8830268442745934 1:-0.046306415 2:3.4294151 3:-0.16437438 4:16.22611 5:-5.5885185 
1 1:0.036143042 2:3.4294151 3:-0.16437438 4:16.22611 5:-5.5885185 
-0.5031504134045479 1:0.1185925 2:3.4294151 3:-0.16437438 4:16.22611 5:-5.5885185 
-1 1:0.20104196 2:3.4294151 3:-0.16437438 4:16.22611 5:-5.5885185 
0.7251491788623241 1:-0.12875587 2:3.0247127 3:0.090261821 4:1.8361464 5:-4.8331506 
-1 1:0.1185925 2:3.0247127 3:0.090261821 4:1.8361464 5:-4.8331506 
0.05355761023144934 1:0.20104196 2:3.0247127 3:0.090261821 4:1.8361464 5:-4.8331506 
-1 1:-0.1699806 2:1.0796499 3:-0.19620391 4:-17.950054 5:-3.3590204 
-1 1:-0.12875587 2:1.0796499 3:-0.19620391 4:-17.950054 5:-3.3590204 
-0.8628507110985698 1:-0.046306415 2:1.0796499 3:-0.19620391 4:-17.950054 5:-3.3590204 
0.4816752061531806 1:-0.0050816864 2:1.0796499 3:-0.19620391 4:-17.950054 5:-3.3590204 
-1 1:-0.1699806 2:3.7496239 3:0.63136376 4:-17.950054 5:124.18042 
1 1:-0.12875587 2:3.7496239 3:0.63136376 4:-17.950054 5:124.18042 
0.8699730579209205 1:-0.087531144 2:3.7496239 3:0.63136376 4:-17.950054 5:124.18042 
-1 1:-0.046306415 2:3.7496239 3:0.63136376 4:-17.950054 5:124.18042 
0.1239272320411251 1:-0.0050816864 2:3.7496239 3:0.63136376 4:-17.950054 5:124.18042 
0.2331203132165771 1:-0.12875587 2:-0.97766055 3:-0.16437438 4:16.22611 5:-1.9623022 
-1 1:-0.046306415 2:-0.97766055 3:-0.16437438 4:16.22611 5:-1.9623022 
-0.4161409631415552 1:0.036143042 2:-0.97766055 3:-0.16437438 4:16.22611 5:-1.9623022 
1 1:0.1185925 2:-0.97766055 3:-0.16437438 4:16.22611 5:-1.9623022 
0.04088696806015291 1:0.20104196 2:-0.97766055 3:-0.16437438 4:16.22611 5:-1.9623022 
-0.203432860788143 1:-0.12875587 2:-3.9560009 3:-0.0052267558 4:5.546059 5:-6.869214 
1 1:-0.046306415 2:-3.9560009 3:-0.0052267558 4:5.546059 5:-6.869214 
-1 1:0.036143042 2:-3.9560009 3:-0.0052267558 4:5.546059 5:-6.869214 
-0.04388055468109442 1:0.1185925 2:-3.9560009 3:-0.0052267558 4:5.546059 5:-6.869214 
0.341167753455591 1:0.20104196 2:-3.9560009 3:-0.0052267558 4:5.546059 5:-6.869214 
0.6994026618653351 1:-0.087531144 2:1.0251994 3:0.12209135 4:19.643727 5:-4.0629075 
-1 1:0.036143042 2:1.0251994 3:0.12209135 4:19.643727 5:-4.0629075 
0.2524471246138653 1:0.15981723 2:1.0251994 3:0.12209135 4:19.643727 5:-4.0629075 
-0.1652451350800738 1:0.28349142 2:1.0251994 3:0.12209135 4:19.643727 5:-4.0629075 
0.3626795519241309 1:0.4071656 2:1.0251994 3:0.12209135 4:19.643727 5:-4.0629075 
1 1:-0.12875587 2:-2.6590611 3:-0.19620391 4:19.643727 5:-4.7303861 
1 1:-0.046306415 2:-2.6590611 3:-0.19620391 4:19.643727 5:-4.7303861 
1 1:0.036143042 2:-2.6590611 3:-0.19620391 4:19.643727 5:-4.7303861 
1 1:0.1185925 2:-2.6590611 3:-0.19620391 4:19.643727 5:-4.7303861 
1 1:0.20104196 2:-2.6590611 3:-0.19620391 4:19.643727 5:-4.7303861 
-0.8964202532712195 1:-0.1699806 2:2.3179977 3:-0.10071533 4:-17.950054 5:147.56563 
1 1:-0.12875587 2:2.3179977 3:-0.10071533 4:-17.950054 5:147.56563 
-0.100322529183559 1:-0.0050816864 2:2.3179977 3:-0.10071533 4:-17.950054 5:147.56563 
-1 1:-0.12875587 2:-1.6203199 3:0.058432296 4:2.9353798 5:-4.4829038 
1 1:-0.046306415 2:-1.6203199 3:0.058432296 4:2.9353798 5:-4.4829038 
1 1:0.036143042 2:-1.6203199 3:0.058432296 4:2.9353798 5:-4.4829038 
0.2137204188023429 1:-0.12875587 2:-1.6246504 3:-0.22803344 4:23.820814 5:0.66420751 
-0.8824713330076215 1:-0.046306415 2:-1.6246504 3:-0.22803344 4:23.820814 5:0.66420751 
1 1:0.036143042 2:-1.6246504 3:-0.22803344 4:23.820814 5:0.66420751 
-0.2854967732083841 1:0.1185925 2:-1.6246504 3:-0.22803344 4:23.820814 5:0.66420751 
-0.04645638439229616 1:0.20104196 2:-1.6246504 3:-0.22803344 4:23.820814 5:0.66420751 
-0.1002824178105829 1:-0.087531144 2:-3.558338 3:-0.0052267558 4:29.042172 5:-6.7458492 
1 1:0.036143042 2:-3.558338 3:-0.0052267558 4:29.042172 5:-6.7458492 
-1 1:0.15981723 2:-3.558338 3:-0.0052267558 4:29.042172 5:-6.7458492 
-0.5850993684845682 1:0.28349142 2:-3.558338 3:-0.0052267558 4:29.042172 5:-6.7458492 
1 1:0.4071656 2:-3.558338 3:-0.0052267558 4:29.042172 5:-6.7458492 
1 1:-0.1699806 2:0.15113839 3:-0.16437438 4:-17.950054 5:-2.5684195 
1 1:-0.12875587 2:0.15113839 3:-0.16437438 4:-17.950054 5:-2.5684195 
1 1:-0.087531144 2:0.15113839 3:-0.16437438 4:-17.950054 5:-2.5684195 
1 1:-0.046306415 2:0.15113839 3:-0.16437438 4:-17.950054 5:-2.5684195 
1 1:-0.0050816864 2:0.15113839 3:-0.16437438 4:-17.950054 5:-2.5684195 
1 1:-0.1699806 2:-1.3743965 3:-0.037056282 4:-17.950054 5:0.91143764 
0.02584914141324545 1:-0.12875587 2:-1.3743965 3:-0.037056282 4:-17.950054 5:0.91143764 
-1 1:-0.087531144 2:-1.3743965 3:-0.037056282 4:-17.950054 5:0.91143764 
-1 1:-0.046306415 2:-1.3743965 3:-0.037056282 4:-17.950054 5:0.91143764 
1 1:-0.0050816864 2:-1.3743965 3:-0.037056282 4:-17.950054 5:0.91143764 
0.005231837182900212 1:-0.0050816864 2:-0.0028775689 3:0.3130685 4:39.886532 5:0.72005774 
-0.05342619751727107 1:0.20104196 2:-0.0028775689 3:0.3130685 4:39.886532 5:0.72005774 
0.09540184975109911 1:0.4071656 2:-0.0028775689 3:0.3130685 4:39.886532 5:0.72005774 
-0.07067879133518329 1:0.61328925 2:-0.0028775689 3:0.3130685 4:39.886532 5:0.72005774 
0.02702019524351351 1:0.81941289 2:-0.0028775689 3:0.3130685 4:39.886532 5:0.72005774 
-0.5994801046437752 1:-0.12875587 2:3.6880104 3:0.28123898 4:-17.950054 5:-6.4207075 
-0.2252101258333594 1:-0.0050816864 2:3.6880104 3:0.28123898 4:-17.950054 5:-6.4207075 
1 1:-0.1699806 2:-3.0082441 3:-0.19620391 4:-17.950054 5:-4.9365391 
1 1:-0.12875587 2:-3.0082441 3:-0.19620391 4:-17.950054 5:-4.9365391 
1 1:-0.087531144 2:-3.0082441 3:-0.19620391 4:-17.950054 5:-4.9365391 
1 1:-0.046306415 2:-3.0082441 3:-0.19620391 4:-17.950054 5:-4.9365391 
1 1:-0.0050816864 2:-3.0082441 3:-0.19620391 4:-17.950054 5:-4.9365391 
-1 1:-0.1699806 2:3.655127 3:0.15392087 4:-17.950054 5:-5.6241857 
-1 1:-0.046306415 2:3.655127 3:0.15392087 4:-17.950054 5:-5.6241857 
-0.1340104214834535 1:-0.1699806 2:3.1451274 3:0.21757992 4:-17.950054 5:-2.1538616 
1 1:-0.12875587 2:3.1451274 3:0.21757992 4:-17.950054 5:-2.1538616 
1 1:-0.087531144 2:3.1451274 3:0.21757992 4:-17.950054 5:-2.1538616 
1 1:-0.046306415 2:3.1451274 3:0.21757992 4:-17.950054 5:-2.1538616 
1 1:-0.0050816864 2:3.1451274 3:0.21757992 4:-17.950054 5:-2.1538616 
0.695227966303843 1:-0.12875587 2:-2.246048 3:-0.10071533 4:-17.950054 5:9.0809821 
-1 1:-0.087531144 2:-2.246048 3:-0.10071533 4:-17.950054 5:9.0809821 
0.3066968250302974 1:-0.046306415 2:-2.246048 3:-0.10071533 4:-17.950054 5:9.0809821 
-0.001115676599398707 1:-0.12875587 2:-1.8939344 3:-0.13254486 4:13.378097 5:4.6526103 
-0.4136426922983405 1:-0.12875587 2:3.7125054 3:0.34489803 4:-4.0264315 5:253.94495 
0.2360683360772808 1:-0.046306415 2:3.7125054 3:0.34489803 4:-4.0264315 5:253.94495 
1 1:0.036143042 2:3.7125054 3:0.34489803 4:-4.0264315 5:253.94495 
-1 1:0.1185925 2:3.7125054 3:0.34489803 4:-4.0264315 5:253.94495 
0.1629926584183958 1:0.20104196 2:3.7125054 3:0.34489803 4:-4.0264315 5:253.94495 
0.3821280685183653 1:-0.087531144 2:-1.7463767 3:-0.0052267558 4:29.042172 5:-3.8329378 
-1 1:0.036143042 2:-1.7463767 3:-0.0052267558 4:29.042172 5:-3.8329378 
1 1:0.15981723 2:-1.7463767 3:-0.0052267558 4:29.042172 5:-3.8329378 
-0.4107749031246349 1:0.28349142 2:-1.7463767 3:-0.0052267558 4:29.042172 5:-3.8329378 
0.03168312659072658 1:0.4071656 2:-1.7463767 3:-0.0052267558 4:29.042172 5:-3.8329378 
-0.8882232647605759 1:-0.12875587 2:-0.9250173 3:-0.19620391 4:19.643727 5:-4.508289 
-1 1:-0.046306415 2:-0.9250173 3:-0.19620391 4:19.643727 5:-4.508289 
-1 1:0.036143042 2:-0.9250173 3:-0.19620391 4:19.643727 5:-4.508289 
-1 1:0.1185925 2:-0.9250173 3:-0.19620391 4:19.643727 5:-4.508289 
-1 1:0.20104196 2:-0.9250173 3:-0.19620391 4:19.643727 5:-4.508289 
-1 1:-0.1699806 2:1.9414467 3:-0.037056282 4:-17.950054 5:-3.7346854 
-1 1:-0.12875587 2:1.9414467 3:-0.037056282 4:-17.950054 5:-3.7346854 
-1 1:-0.087531144 2:1.9414467 3:-0.037056282 4:-17.950054 5:-3.7346854 
-1 1:-0.046306415 2:1.9414467 3:-0.037056282 4:-17.950054 5:-3.7346854 
-1 1:-0.0050816864 2:1.9414467 3:-0.037056282 4:-17.950054 5:-3.7346854 
-1 1:-0.12875587 2:2.1064653 3:0.090261821 4:1.8361464 5:-4.4034268 
-1 1:-0.046306415 2:2.1064653 3:0.090261821 4:1.8361464 5:-4.4034268 
0.3776993887740588 1:0.036143042 2:2.1064653 3:0.090261821 4:1.8361464 5:-4.4034268 
-0.4118072713797327 1:0.1185925 2:2.1064653 3:0.090261821 4:1.8361464 5:-4.4034268 
1 1:0.20104196 2:2.1064653 3:0.090261821 4:1.8361464 5:-4.4034268 
0.002135239365418151 1:0.20104196 2:-0.18664047 3:0.28123898 4:-2.9125417 5:56.814677 
1 1:-0.1699806 2:-0.99595644 3:-0.13254486 4:-17.950054 5:-4.9123564 
1 1:-0.12875587 2:-0.99595644 3:-0.13254486 4:-17.950054 5:-4.9123564 
1 1:-0.087531144 2:-0.99595644 3:-0.13254486 4:-17.950054 5:-4.9123564 
1 1:-0.046306415 2:-0.99595644 3:-0.13254486 4:-17.950054 5:-4.9123564 
1 1:-0.0050816864 2:-0.99595644 3:-0.13254486 4:-17.950054 5:-4.9123564 
0.949675425178667 1:-0.1699806 2:-3.0744812 3:-0.037056282 4:-17.950054 5:-0.92411857 
-1 1:-0.12875587 2:-3.0744812 3:-0.037056282 4:-17.950054 5:-0.92411857 
1 1:-0.087531144 2:-3.0744812 3:-0.037056282 4:-17.950054 5:-0.92411857 
-0.2093282376328104 1:-0.046306415 2:-3.0744812 3:-0.037056282 4:-17.950054 5:-0.92411857 
-1 1:-0.0050816864 2:-3.0744812 3:-0.037056282 4:-17.950054 5:-0.92411857 
1 1:-0.1699806 2:-1.5605034 3:-0.19620391 4:-17.950054 5:-5.1505026 
-0.8726279246621472 1:-0.12875587 2:-1.5605034 3:-0.19620391 4:-17.950054 5:-5.1505026 
-1 1:-0.087531144 2:-1.5605034 3:-0.19620391 4:-17.950054 5:-5.1505026 
-1 1:-0.046306415 2:-1.5605034 3:-0.19620391 4:-17.950054 5:-5.1505026 
-1 1:-0.0050816864 2:-1.5605034 3:-0.19620391 4:-17.950054 5:-5.1505026 
0.6346943718282689 1:-0.12875587 2:-0.40887913 3:-0.068885807 4:8.9026466 5:-0.18812365 
-1 1:-0.046306415 2:-0.40887913 3:-0.068885807 4:8.9026466 5:-0.18812365 
-0.03567940820048765 1:0.036143042 2:-0.40887913 3:-0.068885807 4:8.9026466 5:-0.18812365 
0.6503435291398054 1:0.1185925 2:-0.40887913 3:-0.068885807 4:8.9026466 5:-0.18812365 
-0.2483443722718558 1:0.20104196 2:-0.40887913 3:-0.068885807 4:8.9026466 5:-0.18812365 
-0.6229177907590248 1:-0.1699806 2:2.4519942 3:0.058432296 4:-17.950054 5:2.8102592 
1 1:-0.12875587 2:2.4519942 3:0.058432296 4:-17.950054 5:2.8102592 
-1 1:-0.087531144 2:2.4519942 3:0.058432296 4:-17.950054 5:2.8102592 
1 1:-0.046306415 2:2.4519942 3:0.058432296 4:-17.950054 5:2.8102592 
-0.9652589719410752 1:-0.0050816864 2:2.4519942 3:0.058432296 4:-17.950054 5:2.8102592 
1 1:-0.12875587 2:-1.819744 3:-0.16437438 4:16.22611 5:-5.8857477 
0.9179504653538073 1:-0.046306415 2:-1.819744 3:-0.16437438 4:16.22611 5:-5.8857477 
1 1:0.036143042 2:-1.819744 3:-0.16437438 4:16.22611 5:-5.8857477 
1 1:0.1185925 2:-1.819744 3:-0.16437438 4:16.22611 5:-5.8857477 
0.2251189993798997 1:0.20104196 2:-1.819744 3:-0.16437438 4:16.22611 5:-5.8857477 
-1 1:0.036143042 2:2.0506748 3:-0.10071533 4:10.968239 5:-5.795054 
0.9656429143160193 1:0.1185925 2:2.0506748 3:-0.10071533 4:10.968239 5:-5.795054 
0.7022281221940941 1:-0.087531144 2:-2.4124229 3:-0.13254486 4:44.706247 5:-5.3520211 
-0.6118166410342993 1:0.036143042 2:-2.4124229 3:-0.13254486 4:44.706247 5:-5.3520211 
0.6139284565421893 1:0.15981723 2:-2.4124229 3:-0.13254486 4:44.706247 5:-5.3520211 
1 1:0.4071656 2:-2.4124229 3:-0.13254486 4:44.706247 5:-5.3520211 
-0.1879055848526965 1:-0.0050816864 2:-3.0480783 3:0.090261821 4:61.194748 5:-3.8719752 
0.3847232444892892 1:0.20104196 2:-3.0480783 3:0.090261821 4:61.194748 5:-3.8719752 
-0.1919137231932676 1:0.4071656 2:-3.0480783 3:0.090261821 4:61.194748 5:-3.8719752 
-0.1006619288240468 1:0.61328925 2:-3.0480783 3:0.090261821 4:61.194748 5:-3.8719752 
0.09863965726491686 1:0.81941289 2:-3.0480783 3:0.090261821 4:61.194748 5:-3.8719752 
-0.04315962238687528 1:-0.1699806 2:-2.75847 3:-0.13254486 4:-17.950054 5:-6.7124203 
-0.5234193607785825 1:0.036143042 2:-1.6550129 3:-0.19620391 4:19.643727 5:-5.4831427 
-0.3189754583332706 1:0.20104196 2:-1.6550129 3:-0.19620391 4:19.643727 5:-5.4831427 
0.3142025831630509 1:-0.1699806 2:1.2880295 3:0.058432296 4:-17.950054 5:-5.0468195 
-0.9433507931523614 1:-0.087531144 2:1.2880295 3:0.058432296 4:-17.950054 5:-5.0468195 
-1 1:-0.046306415 2:1.2880295 3:0.058432296 4:-17.950054 5:-5.0468195 
-0.124196724768543 1:-0.0050816864 2:1.2880295 3:0.058432296 4:-17.950054 5:-5.0468195 
-0.9565044989537299 1:-0.1699806 2:-1.2814008 3:-0.19620391 4:-17.950054 5:-3.2803921 
-1 1:-0.087531144 2:-1.2814008 3:-0.19620391 4:-17.950054 5:-3.2803921 
-0.9534783684026088 1:-0.046306415 2:-1.2814008 3:-0.19620391 4:-17.950054 5:-3.2803921 
-0.9849975308349047 1:-0.12875587 2:-0.024363643 3:-0.13254486 4:-17.950054 5:-3.1929306 
-1 1:-0.0050816864 2:-0.024363643 3:-0.13254486 4:-17.950054 5:-3.1929306 
0.05827751677536175 1:-0.12875587 2:-1.0941142 3:-0.22803344 4:23.820814 5:-7.1193953 
-0.1690657868602834 1:-0.087531144 2:1.8669854 3:0.21757992 4:14.74019 5:-5.1806628 
0.6482443534304121 1:0.036143042 2:1.8669854 3:0.21757992 4:14.74019 5:-5.1806628 
-1 1:0.15981723 2:1.8669854 3:0.21757992 4:14.74019 5:-5.1806628 
0.7402032029755026 1:0.28349142 2:1.8669854 3:0.21757992 4:14.74019 5:-5.1806628 
-0.2169954157032398 1:0.4071656 2:1.8669854 3:0.21757992 4:14.74019 5:-5.1806628 
-1 1:-0.12875587 2:-0.46856884 3:-0.13254486 4:13.378097 5:-5.3951932 
-0.4192249264046597 1:-0.046306415 2:-0.46856884 3:-0.13254486 4:13.378097 5:-5.3951932 
-0.0002109415701838297 1:0.036143042 2:-0.46856884 3:-0.13254486 4:13.378097 5:-5.3951932 
-0.2498276649491377 1:0.1185925 2:-0.46856884 3:-0.13254486 4:13.378097 5:-5.3951932 
0.2717837441562285 1:0.20104196 2:-0.46856884 3:-0.13254486 4:13.378097 5:-5.3951932 
-0.1951510183293578 1:-0.12875587 2:2.9100027 3:-0.068885807 4:8.9026466 5:-7.3260566 
0.2995105217319276 1:-0.046306415 2:2.9100027 3:-0.068885807 4:8.9026466 5:-7.3260566 
0.03906819089898661 1:0.20104196 2:2.9100027 3:-0.068885807 4:8.9026466 5:-7.3260566 
-1 1:-0.046306415 2:0.82237144 3:-0.10071533 4:-17.950054 5:-5.3321847 
-0.07162890586735653 1:-0.087531144 2:3.2349454 3:0.3130685 4:10.968239 5:-5.7098915 
0.2268240005989086 1:0.036143042 2:3.2349454 3:0.3130685 4:10.968239 5:-5.7098915 
-0.1664311238298721 1:0.15981723 2:3.2349454 3:0.3130685 4:10.968239 5:-5.7098915 
1 1:-0.1699806 2:0.5656141 3:0.12209135 4:-17.950054 5:5.7356348 
-0.2370447730651656 1:-0.12875587 2:0.5656141 3:0.12209135 4:-17.950054 5:5.7356348 
-1 1:-0.046306415 2:0.5656141 3:0.12209135 4:-17.950054 5:5.7356348 
1 1:-0.12875587 2:0.37625753 3:-0.13254486 4:13.378097 5:-2.1489207 
1 1:-0.046306415 2:0.37625753 3:-0.13254486 4:13.378097 5:-2.1489207 
1 1:0.036143042 2:0.37625753 3:-0.13254486 4:13.378097 5:-2.1489207 
1 1:0.1185925 2:0.37625753 3:-0.13254486 4:13.378097 5:-2.1489207 
1 1:0.20104196 2:0.37625753 3:-0.13254486 4:13.378097 5:-2.1489207 
0.8128027859877219 1:-0.1699806 2:-0.72695183 3:-0.13254486 4:-17.950054 5:-3.4301318 
1 1:-0.12875587 2:-0.72695183 3:-0.13254486 4:-17.950054 5:-3.4301318 
1 1:-0.087531144 2:-0.72695183 3:-0.13254486 4:-17.950054 5:-3.4301318 
-1 1:-0.046306415 2:-0.72695183 3:-0.13254486 4:-17.950054 5:-3.4301318 
-1 1:-0.0050816864 2:-0.72695183 3:-0.13254486 4:-17.950054 5:-3.4301318 
1 1:-0.1699806 2:1.3442158 3:0.02660277 4:-17.950054 5:-6.953105 
-0.987458542221222 1:-0.12875587 2:1.3442158 3:0.02660277 4:-17.950054 5:-6.953105 
1 1:-0.087531144 2:1.3442158 3:0.02660277 4:-17.950054 5:-6.953105 
1 1:-0.12875587 2:-0.7674258 3:-0.16437438 4:16.22611 5:-4.6334546 
1 1:0.036143042 2:-0.7674258 3:-0.16437438 4:16.22611 5:-4.6334546 
1 1:0.20104196 2:-0.7674258 3:-0.16437438 4:16.22611 5:-4.6334546 
0.377700460945456 1:-0.12875587 2:-1.7294531 3:-0.037056282 4:7.1124665 5:-4.2998388 
-1 1:-0.046306415 2:-1.7294531 3:-0.037056282 4:7.1124665 5:-4.2998388 
1 1:0.036143042 2:-1.7294531 3:-0.037056282 4:7.1124665 5:-4.2998388 
1 1:0.1185925 2:-1.7294531 3:-0.037056282 4:7.1124665 5:-4.2998388 
0.2988303461566328 1:0.20104196 2:-1.7294531 3:-0.037056282 4:7.1124665 5:-4.2998388 
0.487123450745889 1:-0.087531144 2:2.0278774 3:0.02660277 4:26.277923 5:-3.8250632 
-1 1:0.036143042 2:2.0278774 3:0.02660277 4:26.277923 5:-3.8250632 
0.1605681060043921 1:0.15981723 2:2.0278774 3:0.02660277 4:26.277923 5:-3.8250632 
1 1:0.28349142 2:2.0278774 3:0.02660277 4:26.277923 5:-3.8250632 
-0.6577438679977121 1:0.4071656 2:2.0278774 3:0.02660277 4:26.277923 5:-3.8250632 
-0.1630670469957526 1:-0.1699806 2:3.8217134 3:0.12209135 4:-17.950054 5:1.5796987 
1 1:-0.087531144 2:-1.7271689 3:-0.13254486 4:-17.950054 5:-3.8820898 
1 1:-0.046306415 2:-1.7271689 3:-0.13254486 4:-17.950054 5:-3.8820898 
1 1:-0.0050816864 2:-1.7271689 3:-0.13254486 4:-17.950054 5:-3.8820898 
-1 1:-0.1699806 2:3.4898921 3:0.090261821 4:-17.950054 5:-0.6374759 
1 1:-0.12875587 2:3.4898921 3:0.090261821 4:-17.950054 5:-0.6374759 
-0.295701623107346 1:-0.087531144 2:3.4898921 3:0.090261821 4:-17.950054 5:-0.6374759 
1 1:-0.046306415 2:3.4898921 3:0.090261821 4:-17.950054 5:-0.6374759 
-0.4352572152790429 1:-0.0050816864 2:3.4898921 3:0.090261821 4:-17.950054 5:-0.6374759 
-1 1:-0.1699806 2:-3.5290903 3:-0.16437438 4:-17.950054 5:-6.8436192 
-1 1:-0.12875587 2:-3.5290903 3:-0.16437438 4:-17.950054 5:-6.8436192 
1 1:-0.046306415 2:-3.5290903 3:-0.16437438 4:-17.950054 5:-6.8436192 
1 1:-0.0050816864 2:-3.5290903 3:-0.16437438 4:-17.950054 5:-6.8436192 
-0.3327759495080317 1:-0.087531144 2:-3.4206452 3:-0.068885807 4:35.755347 5:-4.026878 
1 1:0.036143042 2:-3.4206452 3:-0.068885807 4:35.755347 5:-4.026878 
-1 1:0.15981723 2:-3.4206452 3:-0.068885807 4:35.755347 5:-4.026878 
0.1244805184950319 1:0.28349142 2:-3.4206452 3:-0.068885807 4:35.755347 5:-4.026878 
0.1208147503251192 1:0.4071656 2:-3.4206452 3:-0.068885807 4:35.755347 5:-4.026878 
-0.8075259379658136 1:-0.1699806 2:-1.060399 3:-0.13254486 4:-17.950054 5:-2.4316175 
-1 1:-0.12875587 2:-1.060399 3:-0.13254486 4:-17.950054 5:-2.4316175 
-0.3225993259136896 1:-0.0050816864 2:-1.060399 3:-0.13254486 4:-17.950054 5:-2.4316175 
0.2644254575337894 1:-0.12875587 2:0.81898931 3:0.1857504 4:-0.86197183 5:-2.4676794 
-1 1:-0.046306415 2:0.81898931 3:0.1857504 4:-0.86197183 5:-2.4676794 
1 1:0.036143042 2:0.81898931 3:0.1857504 4:-0.86197183 5:-2.4676794 
-0.6743483375767696 1:0.1185925 2:0.81898931 3:0.1857504 4:-0.86197183 5:-2.4676794 
0.0188684966822934 1:0.20104196 2:0.81898931 3:0.1857504 4:-0.86197183 5:-2.4676794 
1 1:-0.12875587 2:2.9665309 3:0.02660277 4:4.1639347 5:-1.9939656 
-0.548512997105029 1:-0.046306415 2:2.9665309 3:0.02660277 4:4.1639347 5:-1.9939656 
1 1:0.036143042 2:2.9665309 3:0.02660277 4:4.1639347 5:-1.9939656 
1 1:0.1185925 2:2.9665309 3:0.02660277 4:4.1639347 5:-1.9939656 
-1 1:-0.1699806 2:0.3369288 3:-0.068885807 4:-17.950054 5:-5.4090452 
1 1:-0.087531144 2:0.3369288 3:-0.068885807 4:-17.950054 5:-5.4090452 
1 1:-0.046306415 2:0.3369288 3:-0.068885807 4:-17.950054 5:-5.4090452 
1 1:-0.0050816864 2:0.3369288 3:-0.068885807 4:-17.950054 5:-5.4090452 
-0.998102472516609 1:-0.12875587 2:-2.8249244 3:-0.22803344 4:23.820814 5:-6.4655758 
1 1:0.036143042 2:-2.8249244 3:-0.22803344 4:23.820814 5:-6.4655758 
-0.06791977459034293 1:0.1185925 2:-2.8249244 3:-0.22803344 4:23.820814 5:-6.4655758 
-0.7853512362692809 1:0.20104196 2:-2.8249244 3:-0.22803344 4:23.820814 5:-6.4655758 
0.7392615765247528 1:-0.12875587 2:0.24022166 3:-0.16437438 4:-17.950054 5:-4.9235574 
0.2898344560730324 1:-0.12875587 2:1.610485 3:-0.037056282 4:7.1124665 5:-3.5448025 
-1 1:-0.046306415 2:1.610485 3:-0.037056282 4:7.1124665 5:-3.5448025 
1 1:0.036143042 2:1.610485 3:-0.037056282 4:7.1124665 5:-3.5448025 
0.5626468005256927 1:0.1185925 2:1.610485 3:-0.037056282 4:7.1124665 5:-3.5448025 
-0.6256362667822422 1:0.20104196 2:1.610485 3:-0.037056282 4:7.1124665 5:-3.5448025 
0.3705391027523032 1:-0.087531144 2:-1.2138887 3:-0.16437438 4:50.402275 5:-3.2677686 
-1 1:0.036143042 2:-1.2138887 3:-0.16437438 4:50.402275 5:-3.2677686 
0.858074280421827 1:0.15981723 2:-1.2138887 3:-0.16437438 4:50.402275 5:-3.2677686 
0.1449087860566662 1:0.28349142 2:-1.2138887 3:-0.16437438 4:50.402275 5:-3.2677686 
-0.08930197742648138 1:0.4071656 2:-1.2138887 3:-0.16437438 4:50.402275 5:-3.2677686 
1 1:-0.12875587 2:-0.91253668 3:-0.19620391 4:19.643727 5:-4.1768787 
1 1:-0.046306415 2:-0.91253668 3:-0.19620391 4:19.643727 5:-4.1768787 
1 1:0.036143042 2:-0.91253668 3:-0.19620391 4:19.643727 5:-4.1768787 
1 1:0.1185925 2:-0.91253668 3:-0.19620391 4:19.643727 5:-4.1768787 
1 1:0.20104196 2:-0.91253668 3:-0.19620391 4:19.643727 5:-4.1768787 
0.03968387379680982 1:-0.1699806 2:2.198127 3:0.058432296 4:-17.950054 5:168.22875 
-0.2115499235897728 1:-0.087531144 2:2.198127 3:0.058432296 4:-17.950054 5:168.22875 
0.1765511153304385 1:-0.046306415 2:2.198127 3:0.058432296 4:-17.950054 5:168.22875 
-1 1:-0.12875587 2:-3.1850503 3:-0.19620391 4:19.643727 5:-6.7084571 
-1 1:-0.046306415 2:-3.1850503 3:-0.19620391 4:19.643727 5:-6.7084571 
-1 1:0.036143042 2:-3.1850503 3:-0.19620391 4:19.643727 5:-6.7084571 
-1 1:0.1185925 2:-3.1850503 3:-0.19620391 4:19.643727 5:-6.7084571 
-0.9414182160505975 1:0.20104196 2:-3.1850503 3:-0.19620391 4:19.643727 5:-6.7084571 
0.1356461090275144 1:-0.087531144 2:-0.20103047 3:-0.10071533 4:39.886532 5:-5.0506338 
-0.6135202642821647 1:0.036143042 2:-0.20103047 3:-0.10071533 4:39.886532 5:-5.0506338 
1 1:0.15981723 2:-0.20103047 3:-0.10071533 4:39.886532 5:-5.0506338 
-0.1070183437199372 1:0.28349142 2:-0.20103047 3:-0.10071533 4:39.886532 5:-5.0506338 
-0.9230966853497625 1:0.4071656 2:-0.20103047 3:-0.10071533 4:39.886532 5:-5.0506338 
-0.2885230892056306 1:-0.1699806 2:-3.6289465 3:-0.19620391 4:-17.950054 5:-6.3034341 
0.8185060151350046 1:-0.046306415 2:-3.6289465 3:-0.19620391 4:-17.950054 5:-6.3034341 
1 1:-0.0050816864 2:-3.6289465 3:-0.19620391 4:-17.950054 5:-6.3034341 
-0.5157276905771169 1:-0.12875587 2:0.9634099 3:0.3130685 4:-3.4909076 5:-5.3314206 
1 1:-0.046306415 2:0.9634099 3:0.3130685 4:-3.4909076 5:-5.3314206 
-0.5590711663298451 1:0.036143042 2:0.9634099 3:0.3130685 4:-3.4909076 5:-5.3314206 
0.03425672212845443 1:0.1185925 2:0.9634099 3:0.3130685 4:-3.4909076 5:-5.3314206 
-0.01651737965659261 1:0.20104196 2:0.9634099 3:0.3130685 4:-3.4909076 5:-5.3314206 
-0.002855083269170611 1:-0.046306415 2:-0.98256873 3:-0.0052267558 4:52.538285 5:-5.1497049 
0.001721563376343327 1:0.61328925 2:-0.98256873 3:-0.0052267558 4:52.538285 5:-5.1497049 
0.2038792841978767 1:-0.12875587 2:1.7571373 3:-0.10071533 4:10.968239 5:-1.6604547 
1 1:-0.046306415 2:1.7571373 3:-0.10071533 4:10.968239 5:-1.6604547 
1 1:0.036143042 2:1.7571373 3:-0.10071533 4:10.968239 5:-1.6604547 
1 1:0.1185925 2:1.7571373 3:-0.10071533 4:10.968239 5:-1.6604547 
-0.9821610880376599 1:0.036143042 2:-2.7338911 3:-0.10071533 4:10.968239 5:-5.5082912 
-1 1:-0.1699806 2:3.8565318 3:0.1857504 4:-17.950054 5:-8.2863816 
0.9564682849826003 1:-0.087531144 2:3.8565318 3:0.1857504 4:-17.950054 5:-8.2863816 
1 1:-0.046306415 2:3.8565318 3:0.1857504 4:-17.950054 5:-8.2863816 
-0.9779115439696908 1:-0.0050816864 2:3.8565318 3:0.1857504 4:-17.950054 5:-8.2863816 
-1 1:-0.12875587 2:-1.0628466 3:-0.13254486 4:13.378097 5:-4.0962312 
-0.9604083260529864 1:0.1185925 2:-1.0628466 3:-0.13254486 4:13.378097 5:-4.0962312 
0.8971010246945413 1:0.20104196 2:-1.0628466 3:-0.13254486 4:13.378097 5:-4.0962312 
-1 1:-0.1699806 2:2.2776733 3:-0.068885807 4:-17.950054 5:0.12665736 
0.5725405728046906 1:-0.087531144 2:2.2776733 3:-0.068885807 4:-17.950054 5:0.12665736 
-0.866277744336478 1:-0.046306415 2:2.2776733 3:-0.068885807 4:-17.950054 5:0.12665736 
1 1:-0.0050816864 2:2.2776733 3:-0.068885807 4:-17.950054 5:0.12665736 
-0.4008407512795485 1:-0.1699806 2:-3.6436764 3:-0.19620391 4:-17.950054 5:-6.6916787 
-0.6343876493917013 1:-0.087531144 2:-3.6436764 3:-0.19620391 4:-17.950054 5:-6.6916787 
-1 1:-0.046306415 2:-3.6436764 3:-0.19620391 4:-17.950054 5:-6.6916787 
-1 1:-0.0050816864 2:-3.6436764 3:-0.19620391 4:-17.950054 5:-6.6916787 
0.60003012349548 1:-0.1699806 2:2.7532103 3:0.1857504 4:-17.950054 5:-4.7267833 
-0.001240926441232882 1:-0.087531144 2:2.7532103 3:0.1857504 4:-17.950054 5:-4.7267833 
-1 1:-0.0050816864 2:2.7532103 3:0.1857504 4:-17.950054 5:-4.7267833 
1 1:-0.046306415 2:0.018552424 3:-0.0052267558 4:5.546059 5:-3.3316563 
1 1:0.036143042 2:0.018552424 3:-0.0052267558 4:5.546059 5:-3.3316563 
0.5486752037366586 1:-0.12875587 2:-2.7591278 3:-0.037056282 4:7.1124665 5:-5.8367259 
1 1:-0.046306415 2:-2.7591278 3:-0.037056282 4:7.1124665 5:-5.8367259 
-1 1:0.036143042 2:-2.7591278 3:-0.037056282 4:7.1124665 5:-5.8367259 
-1 1:0.1185925 2:-2.7591278 3:-0.037056282 4:7.1124665 5:-5.8367259 
0.6300851243394816 1:0.20104196 2:-2.7591278 3:-0.037056282 4:7.1124665 5:-5.8367259 
-0.01822537568930593 1:-0.12875587 2:1.0641235 3:0.40855708 4:-4.9866813 5:-3.8863991 
0.3982164670056265 1:0.036143042 2:1.0641235 3:0.40855708 4:-4.9866813 5:-3.8863991 
-1 1:0.1185925 2:1.0641235 3:0.40855708 4:-4.9866813 5:-3.8863991 
0.6827049941253894 1:0.20104196 2:1.0641235 3:0.40855708 4:-4.9866813 5:-3.8863991 
0.02853695887875107 1:-0.12875587 2:-1.6428211 3:-0.0052267558 4:5.546059 5:16.642782 
-1 1:-0.046306415 2:-1.6428211 3:-0.0052267558 4:5.546059 5:16.642782 
1 1:0.036143042 2:-1.6428211 3:-0.0052267558 4:5.546059 5:16.642782 
0.7746495099509711 1:0.1185925 2:-1.6428211 3:-0.0052267558 4:5.546059 5:16.642782 
-0.823081736415035 1:0.20104196 2:-1.6428211 3:-0.0052267558 4:5.546059 5:16.642782 
0.09925890681683214 1:-0.12875587 2:3.430916 3:0.24940945 4:-2.2859787 5:-5.9279101 
1 1:-0.046306415 2:3.430916 3:0.24940945 4:-2.2859787 5:-5.9279101 
-1 1:0.036143042 2:3.430916 3:0.24940945 4:-2.2859787 5:-5.9279101 
-0.9668421424306415 1:0.1185925 2:3.430916 3:0.24940945 4:-2.2859787 5:-5.9279101 
0.7741200611238226 1:0.20104196 2:3.430916 3:0.24940945 4:-2.2859787 5:-5.9279101 
0.107172697925039 1:-0.12875587 2:-0.94900524 3:-0.0052267558 4:5.546059 5:-4.546851 
-1 1:-0.046306415 2:-0.94900524 3:-0.0052267558 4:5.546059 5:-4.546851 
-1 1:0.036143042 2:-0.94900524 3:-0.0052267558 4:5.546059 5:-4.546851 
-1 1:0.1185925 2:-0.94900524 3:-0.0052267558 4:5.546059 5:-4.546851 
-1 1:0.20104196 2:-0.94900524 3:-0.0052267558 4:5.546059 5:-4.546851 
-0.2443826752459971 1:-0.12875587 2:2.1600089 3:-0.16437438 4:16.22611 5:4.0479687 
0.2247738054704115 1:-0.046306415 2:2.1600089 3:-0.16437438 4:16.22611 5:4.0479687 
-0.3648849492089825 1:0.036143042 2:2.1600089 3:-0.16437438 4:16.22611 5:4.0479687 
1 1:0.1185925 2:2.1600089 3:-0.16437438 4:16.22611 5:4.0479687 
-0.6292566225314535 1:0.20104196 2:2.1600089 3:-0.16437438 4:16.22611 5:4.0479687 
0.2921525754133942 1:-0.12875587 2:1.2453711 3:0.090261821 4:1.8361464 5:4.451135 
-1 1:-0.046306415 2:1.2453711 3:0.090261821 4:1.8361464 5:4.451135 
1 1:0.036143042 2:1.2453711 3:0.090261821 4:1.8361464 5:4.451135 
-0.02116814291022884 1:0.1185925 2:1.2453711 3:0.090261821 4:1.8361464 5:4.451135 
-0.2839187729572112 1:0.20104196 2:1.2453711 3:0.090261821 4:1.8361464 5:4.451135 
-1 1:-0.1699806 2:-3.8027942 3:-0.13254486 4:-17.950054 5:-5.0817087 
-1 1:-0.12875587 2:-3.8027942 3:-0.13254486 4:-17.950054 5:-5.0817087 
-1 1:-0.087531144 2:-3.8027942 3:-0.13254486 4:-17.950054 5:-5.0817087 
-1 1:-0.12875587 2:-3.8362936 3:-0.19620391 4:-17.950054 5:-6.9644517 
-1 1:-0.087531144 2:-3.8362936 3:-0.19620391 4:-17.950054 5:-6.9644517 
-0.3245122767970101 1:-0.046306415 2:-3.8362936 3:-0.19620391 4:-17.950054 5:-6.9644517 
-0.7487188641609389 1:-0.0050816864 2:-3.8362936 3:-0.19620391 4:-17.950054 5:-6.9644517 
0.1352696326756569 1:-0.12875587 2:3.0440434 3:-0.16437438 4:16.22611 5:-1.5703665 
-1 1:-0.046306415 2:3.0440434 3:-0.16437438 4:16.22611 5:-1.5703665 
1 1:0.036143042 2:3.0440434 3:-0.16437438 4:16.22611 5:-1.5703665 
0.2925828607487272 1:0.1185925 2:3.0440434 3:-0.16437438 4:16.22611 5:-1.5703665 
-0.3762694481938461 1:0.20104196 2:3.0440434 3:-0.16437438 4:16.22611 5:-1.5703665 
0.810209489140439 1:-0.1699806 2:2.9905481 3:0.02660277 4:-17.950054 5:-6.723606 
1 1:-0.12875587 2:2.9905481 3:0.02660277 4:-17.950054 5:-6.723606 
1 1:-0.087531144 2:2.9905481 3:0.02660277 4:-17.950054 5:-6.723606 
0.1001278501599185 1:-0.046306415 2:2.9905481 3:0.02660277 4:-17.950054 5:-6.723606 
-0.7009867621248902 1:-0.12875587 2:1.2542931 3:-0.16437438 4:16.22611 5:1.598982 
1 1:-0.046306415 2:1.2542931 3:-0.16437438 4:16.22611 5:1.598982 
-0.08681254656805515 1:0.036143042 2:1.2542931 3:-0.16437438 4:16.22611 5:1.598982 
-0.02070429382142747 1:0.1185925 2:1.2542931 3:-0.16437438 4:16.22611 5:1.598982 
-0.2186391845158572 1:0.20104196 2:1.2542931 3:-0.16437438 4:16.22611 5:1.598982 
0.5288343351989087 1:-0.12875587 2:2.6787561 3:0.090261821 4:1.8361464 5:0.03852671 
-1 1:-0.046306415 2:2.6787561 3:0.090261821 4:1.8361464 5:0.03852671 
0.201564555807075 1:0.036143042 2:2.6787561 3:0.090261821 4:1.8361464 5:0.03852671 
0.4767235920793175 1:0.1185925 2:2.6787561 3:0.090261821 4:1.8361464 5:0.03852671 
-0.187550271274208 1:0.20104196 2:2.6787561 3:0.090261821 4:1.8361464 5:0.03852671 
1 1:0.036143042 2:-3.3253366 3:-0.16437438 4:16.22611 5:-6.4552946 
1 1:0.1185925 2:-3.3253366 3:-0.16437438 4:16.22611 5:-6.4552946 
1 1:0.20104196 2:-3.3253366 3:-0.16437438 4:16.22611 5:-6.4552946 
0.2436001099160769 1:-0.12875587 2:2.9814121 3:0.3130685 4:-3.4909076 5:0.74276893 
-1 1:-0.046306415 2:2.9814121 3:0.3130685 4:-3.4909076 5:0.74276893 
1 1:0.036143042 2:2.9814121 3:0.3130685 4:-3.4909076 5:0.74276893 
0.006825425352938064 1:0.1185925 2:2.9814121 3:0.3130685 4:-3.4909076 5:0.74276893 
-0.2488464402201344 1:0.20104196 2:2.9814121 3:0.3130685 4:-3.4909076 5:0.74276893 
-0.3914036790891275 1:-0.12875587 2:-2.0172469 3:0.090261821 4:1.8361464 5:-4.6888347 
0.04109213978698179 1:-0.046306415 2:-2.0172469 3:0.090261821 4:1.8361464 5:-4.6888347 
1 1:0.036143042 2:-2.0172469 3:0.090261821 4:1.8361464 5:-4.6888347 
-1 1:0.1185925 2:-2.0172469 3:0.090261821 4:1.8361464 5:-4.6888347 
0.2589041894858613 1:0.20104196 2:-2.0172469 3:0.090261821 4:1.8361464 5:-4.6888347 
-1 1:-0.1699806 2:0.23170608 3:0.12209135 4:-17.950054 5:-2.0851745 
-1 1:-0.046306415 2:0.23170608 3:0.12209135 4:-17.950054 5:-2.0851745 
0.4926042404535539 1:-0.12875587 2:-2.2098987 3:-0.037056282 4:7.1124665 5:-5.0668327 
-0.07243484026102798 1:-0.046306415 2:-2.2098987 3:-0.037056282 4:7.1124665 5:-5.0668327 
1 1:0.036143042 2:-2.2098987 3:-0.037056282 4:7.1124665 5:-5.0668327 
1 1:0.1185925 2:-2.2098987 3:-0.037056282 4:7.1124665 5:-5.0668327 
0.9280664526880319 1:0.20104196 2:-2.2098987 3:-0.037056282 4:7.1124665 5:-5.0668327 
1 1:-0.1699806 2:-0.68407712 3:-0.0052267558 4:-17.950054 5:-5.1345131 
1 1:-0.12875587 2:-0.68407712 3:-0.0052267558 4:-17.950054 5:-5.1345131 
1 1:-0.087531144 2:-0.68407712 3:-0.0052267558 4:-17.950054 5:-5.1345131 
1 1:-0.046306415 2:-0.68407712 3:-0.0052267558 4:-17.950054 5:-5.1345131 
1 1:-0.0050816864 2:-0.68407712 3:-0.0052267558 4:-17.950054 5:-5.1345131 
-0.001163892100028319 1:0.1185925 2:1.3587898 3:-0.037056282 4:7.1124665 5:214.08841 
-0.08972510119249 1:-0.12875587 2:-3.0280063 3:-0.10071533 4:10.968239 5:-4.6876676 
1 1:-0.046306415 2:-3.0280063 3:-0.10071533 4:10.968239 5:-4.6876676 
-1 1:0.036143042 2:-3.0280063 3:-0.10071533 4:10.968239 5:-4.6876676 
1 1:0.1185925 2:-3.0280063 3:-0.10071533 4:10.968239 5:-4.6876676 
1 1:0.20104196 2:-3.0280063 3:-0.10071533 4:10.968239 5:-4.6876676 
0.5644732003386387 1:-0.12875587 2:-2.0854934 3:-0.19620391 4:-17.950054 5:-5.4089113 
1 1:-0.046306415 2:-2.0854934 3:-0.19620391 4:-17.950054 5:-5.4089113 
1 1:-0.0050816864 2:-2.0854934 3:-0.19620391 4:-17.950054 5:-5.4089113 
-0.5358333040944036 1:-0.12875587 2:0.041734819 3:-0.037056282 4:7.1124665 5:-3.2296123 
-1 1:-0.046306415 2:0.041734819 3:-0.037056282 4:7.1124665 5:-3.2296123 
-0.8854852928231538 1:0.036143042 2:0.041734819 3:-0.037056282 4:7.1124665 5:-3.2296123 
-0.4764925649301224 1:0.20104196 2:0.041734819 3:-0.037056282 4:7.1124665 5:-3.2296123 
-1 1:-0.046306415 2:-2.4828502 3:0.02660277 4:-17.950054 5:-7.8249707 
-1 1:-0.0050816864 2:-2.4828502 3:0.02660277 4:-17.950054 5:-7.8249707 
0.8390241929181199 1:-0.0050816864 2:-3.8537862 3:-0.22803344 4:-17.950054 5:-6.9148657 
0.2738417381441056 1:-0.12875587 2:1.178185 3:-0.037056282 4:7.1124665 5:-5.3313807 
-1 1:-0.046306415 2:1.178185 3:-0.037056282 4:7.1124665 5:-5.3313807 
1 1:0.036143042 2:1.178185 3:-0.037056282 4:7.1124665 5:-5.3313807 
0.07128109430197005 1:0.1185925 2:1.178185 3:-0.037056282 4:7.1124665 5:-5.3313807 
-0.9316308489373635 1:0.20104196 2:1.178185 3:-0.037056282 4:7.1124665 5:-5.3313807 
-1 1:-0.12875587 2:3.9112109 3:0.34489803 4:-4.0264315 5:98.105795 
1 1:-0.046306415 2:3.9112109 3:0.34489803 4:-4.0264315 5:98.105795 
0.9126703015410206 1:0.036143042 2:3.9112109 3:0.34489803 4:-4.0264315 5:98.105795 
-1 1:0.1185925 2:3.9112109 3:0.34489803 4:-4.0264315 5:98.105795 
0.06813761059878243 1:0.20104196 2:3.9112109 3:0.34489803 4:-4.0264315 5:98.105795 
-0.00470896264316123 1:-0.087531144 2:2.4543192 3:-0.13254486 4:44.706247 5:-3.8470637 
0.008217851929874342 1:0.4071656 2:2.4543192 3:-0.13254486 4:44.706247 5:-3.8470637 
0.3439559969408366 1:0.036143042 2:2.1390715 3:-0.13254486 4:13.378097 5:-4.5528328 
-1 1:0.1185925 2:2.1390715 3:-0.13254486 4:13.378097 5:-4.5528328 
0.4577314800158309 1:0.20104196 2:2.1390715 3:-0.13254486 4:13.378097 5:-4.5528328 
-1 1:-0.046306415 2:-2.0298586 3:-0.16437438 4:-17.950054 5:-5.0880203 
-1 1:-0.0050816864 2:-2.0298586 3:-0.16437438 4:-17.950054 5:-5.0880203 
-0.0005604385012247803 1:-0.12875587 2:0.55693451 3:-0.10071533 4:10.968239 5:21.638464 
0.1732046404370391 1:-0.12875587 2:4.1791255 3:0.1857504 4:-0.86197183 5:7.1291973 
-1 1:-0.046306415 2:4.1791255 3:0.1857504 4:-0.86197183 5:7.1291973 
0.6642840048371286 1:0.036143042 2:4.1791255 3:0.1857504 4:-0.86197183 5:7.1291973 
1 1:0.1185925 2:4.1791255 3:0.1857504 4:-0.86197183 5:7.1291973 
-0.8563754070496155 1:0.20104196 2:4.1791255 3:0.1857504 4:-0.86197183 5:7.1291973 
-1 1:-0.046306415 2:3.1557792 3:0.058432296 4:-17.950054 5:-2.1377718 
-1 1:-0.0050816864 2:3.1557792 3:0.058432296 4:-17.950054 5:-2.1377718 
-1 1:-0.1699806 2:-3.6105537 3:-0.22803344 4:-17.950054 5:-6.6219401 
-1 1:-0.12875587 2:-3.6105537 3:-0.22803344 4:-17.950054 5:-6.6219401 
-1 1:-0.087531144 2:-3.6105537 3:-0.22803344 4:-17.950054 5:-6.6219401 
-1 1:-0.046306415 2:-3.6105537 3:-0.22803344 4:-17.950054 5:-6.6219401 
-1 1:-0.0050816864 2:-3.6105537 3:-0.22803344 4:-17.950054 5:-6.6219401 
0.1597578394434963 1:-0.087531144 2:3.8694414 3:0.02660277 4:26.277923 5:-3.7050069 
-0.02997548819752693 1:0.036143042 2:3.8694414 3:0.02660277 4:26.277923 5:-3.7050069 
-0.7704519362345507 1:0.15981723 2:3.8694414 3:0.02660277 4:26.277923 5:-3.7050069 
1 1:0.28349142 2:3.8694414 3:0.02660277 4:26.277923 5:-3.7050069 
-0.3529123493397825 1:0.4071656 2:3.8694414 3:0.02660277 4:26.277923 5:-3.7050069 
0.2161880258125722 1:-0.12875587 2:3.8738293 3:0.3130685 4:-3.4909076 5:-4.4846776 
-0.3549052586788501 1:-0.046306415 2:3.8738293 3:0.3130685 4:-3.4909076 5:-4.4846776 
0.1446138725414791 1:0.036143042 2:3.8738293 3:0.3130685 4:-3.4909076 5:-4.4846776 
0.1472318364015789 1:0.1185925 2:3.8738293 3:0.3130685 4:-3.4909076 5:-4.4846776 
-0.0798343415208207 1:0.20104196 2:3.8738293 3:0.3130685 4:-3.4909076 5:-4.4846776 
0.8918235054931072 1:-0.12875587 2:3.152805 3:0.02660277 4:4.1639347 5:-3.8360769 
0.9810393495717249 1:-0.046306415 2:3.152805 3:0.02660277 4:4.1639347 5:-3.8360769 
-0.8052061256776637 1:0.036143042 2:3.152805 3:0.02660277 4:4.1639347 5:-3.8360769 
1 1:0.1185925 2:3.152805 3:0.02660277 4:4.1639347 5:-3.8360769 
1 1:0.20104196 2:3.152805 3:0.02660277 4:4.1639347 5:-3.8360769 
0.2309808413339719 1:-0.12875587 2:-2.7775521 3:-0.13254486 4:13.378097 5:-3.5341144 
-0.7652314542698733 1:-0.046306415 2:-2.7775521 3:-0.13254486 4:13.378097 5:-3.5341144 
0.0239542896649522 1:0.1185925 2:-2.7775521 3:-0.13254486 4:13.378097 5:-3.5341144 
-0.9804346474605551 1:0.20104196 2:-2.7775521 3:-0.13254486 4:13.378097 5:-3.5341144 
-0.930936271142046 1:-0.1699806 2:0.22737822 3:0.34489803 4:-17.950054 5:-2.6664888 
-1 1:-0.12875587 2:0.22737822 3:0.34489803 4:-17.950054 5:-2.6664888 
-1 1:-0.087531144 2:0.22737822 3:0.34489803 4:-17.950054 5:-2.6664888 
-0.99652040838933 1:-0.046306415 2:0.22737822 3:0.34489803 4:-17.950054 5:-2.6664888 
-1 1:-0.0050816864 2:0.22737822 3:0.34489803 4:-17.950054 5:-2.6664888 
-0.6242543780242332 1:-0.12875587 2:-1.7421334 3:-0.068885807 4:8.9026466 5:-4.7587278 
-1 1:-0.046306415 2:-1.7421334 3:-0.068885807 4:8.9026466 5:-4.7587278 
-0.8336384396242386 1:-0.12875587 2:1.409945 3:-0.0052267558 4:-17.950054 5:-2.133342 
0.8696916951582123 1:-0.087531144 2:1.409945 3:-0.0052267558 4:-17.950054 5:-2.133342 
0.774784537253282 1:-0.0050816864 2:1.409945 3:-0.0052267558 4:-17.950054 5:-2.133342 
0.006724192565470521 1:0.4071656 2:-1.719863 3:-0.0052267558 4:29.042172 5:-6.2922254 
0.5537075201384052 1:-0.087531144 2:2.0892611 3:0.24940945 4:13.378097 5:0.13644178 
-1 1:0.036143042 2:2.0892611 3:0.24940945 4:13.378097 5:0.13644178 
-0.09053040627504771 1:0.15981723 2:2.0892611 3:0.24940945 4:13.378097 5:0.13644178 
1 1:0.28349142 2:2.0892611 3:0.24940945 4:13.378097 5:0.13644178 
-0.4585111466012343 1:0.4071656 2:2.0892611 3:0.24940945 4:13.378097 5:0.13644178 
-0.03867926762397117 1:-0.12875587 2:3.8861092 3:-0.037056282 4:7.1124665 5:-5.9998968 
-1 1:-0.046306415 2:3.8861092 3:-0.037056282 4:7.1124665 5:-5.9998968 
0.4577892917199229 1:0.036143042 2:3.8861092 3:-0.037056282 4:7.1124665 5:-5.9998968 
-1 1:0.1185925 2:3.8861092 3:-0.037056282 4:7.1124665 5:-5.9998968 
-0.9420098298213141 1:0.20104196 2:3.8861092 3:-0.037056282 4:7.1124665 5:-5.9998968 
0.1202199085163864 1:-0.12875587 2:2.0210876 3:-0.10071533 4:10.968239 5:1.0683527 
-1 1:-0.046306415 2:2.0210876 3:-0.10071533 4:10.968239 5:1.0683527 
1 1:0.036143042 2:2.0210876 3:-0.10071533 4:10.968239 5:1.0683527 
0.2133190838947839 1:0.1185925 2:2.0210876 3:-0.10071533 4:10.968239 5:1.0683527 
-0.3464588181732842 1:0.20104196 2:2.0210876 3:-0.10071533 4:10.968239 5:1.0683527 
-0.1948365948278279 1:-0.12875587 2:0.65231892 3:-0.068885807 4:8.9026466 5:2.8038351 
-0.2687414373851862 1:-0.046306415 2:0.65231892 3:-0.068885807 4:8.9026466 5:2.8038351 
1 1:0.036143042 2:0.65231892 3:-0.068885807 4:8.9026466 5:2.8038351 
-0.5196112937231084 1:0.1185925 2:0.65231892 3:-0.068885807 4:8.9026466 5:2.8038351 
-0.02632999033506445 1:0.20104196 2:0.65231892 3:-0.068885807 4:8.9026466 5:2.8038351 
-1 1:-0.1699806 2:-1.2093382 3:0.15392087 4:-17.950054 5:-3.0734926 
-1 1:-0.12875587 2:-1.2093382 3:0.15392087 4:-17.950054 5:-3.0734926 
-0.9764175833279376 1:-0.087531144 2:-1.2093382 3:0.15392087 4:-17.950054 5:-3.0734926 
-0.9942485593811927 1:-0.046306415 2:-1.2093382 3:0.15392087 4:-17.950054 5:-3.0734926 
1 1:-0.1699806 2:-3.1607407 3:-0.13254486 4:-17.950054 5:-6.3446125 
0.9867931109572725 1:-0.12875587 2:-3.4253763 3:-0.037056282 4:7.1124665 5:-5.8147491 
-0.6316716407098553 1:-0.046306415 2:-3.4253763 3:-0.037056282 4:7.1124665 5:-5.8147491 
-0.7605749845014635 1:0.036143042 2:-3.4253763 3:-0.037056282 4:7.1124665 5:-5.8147491 
1 1:0.1185925 2:-3.4253763 3:-0.037056282 4:7.1124665 5:-5.8147491 
-0.02489769525549512 1:0.20104196 2:-3.4253763 3:-0.037056282 4:7.1124665 5:-5.8147491 
-0.8815753020070562 1:-0.12875587 2:-0.14449177 3:0.1857504 4:-0.86197183 5:216.73702 
1 1:-0.046306415 2:-0.14449177 3:0.1857504 4:-0.86197183 5:216.73702 
-0.2070203271678335 1:0.036143042 2:-0.14449177 3:0.1857504 4:-0.86197183 5:216.73702 
1 1:0.1185925 2:-0.14449177 3:0.1857504 4:-0.86197183 5:216.73702 
-0.9466360370750213 1:0.20104196 2:-0.14449177 3:0.1857504 4:-0.86197183 5:216.73702 
1 1:-0.1699806 2:1.2011405 3:0.058432296 4:-17.950054 5:-6.1777292 
0.7730591006148388 1:-0.12875587 2:1.2011405 3:0.058432296 4:-17.950054 5:-6.1777292 
1 1:-0.087531144 2:1.2011405 3:0.058432296 4:-17.950054 5:-6.1777292 
1 1:-0.046306415 2:1.2011405 3:0.058432296 4:-17.950054 5:-6.1777292 
1 1:-0.0050816864 2:1.2011405 3:0.058432296 4:-17.950054 5:-6.1777292 
0.1954962729694771 1:-0.12875587 2:-2.0913881 3:-0.10071533 4:10.968239 5:-4.6326635 
-0.8902731913185052 1:0.20104196 2:-2.0913881 3:-0.10071533 4:10.968239 5:-4.6326635 
-0.5758929255228185 1:-0.12875587 2:-1.4040396 3:-0.10071533 4:10.968239 5:-3.6511623 
-0.196712496947598 1:-0.046306415 2:-1.4040396 3:-0.10071533 4:10.968239 5:-3.6511623 
1 1:0.1185925 2:-1.4040396 3:-0.10071533 4:10.968239 5:-3.6511623 
0.9757139639632119 1:0.20104196 2:-1.4040396 3:-0.10071533 4:10.968239 5:-3.6511623 
0.001632099061644854 1:0.4071656 2:-4.1196397 3:-0.13254486 4:44.706247 5:-3.0101569 
0.6777094664854481 1:-0.12875587 2:-1.9169815 3:-0.037056282 4:7.1124665 5:-3.6851731 
0.257113669779946 1:-0.046306415 2:-1.9169815 3:-0.037056282 4:7.1124665 5:-3.6851731 
1 1:0.1185925 2:-1.9169815 3:-0.037056282 4:7.1124665 5:-3.6851731 
0.03038650446959964 1:0.20104196 2:-1.9169815 3:-0.037056282 4:7.1124665 5:-3.6851731 
-0.467005599076437 1:-0.1699806 2:-0.8292174 3:-0.13254486 4:-17.950054 5:-2.3010176 
1 1:-0.087531144 2:-0.8292174 3:-0.13254486 4:-17.950054 5:-2.3010176 
0.9923307539775308 1:-0.046306415 2:-0.8292174 3:-0.13254486 4:-17.950054 5:-2.3010176 
1 1:-0.0050816864 2:-0.8292174 3:-0.13254486 4:-17.950054 5:-2.3010176 
-1 1:-0.12875587 2:-0.51672482 3:-0.22803344 4:-17.950054 5:-3.548933 
-0.8966463845112854 1:-0.046306415 2:-0.51672482 3:-0.22803344 4:-17.950054 5:-3.548933 
0.3698952572382082 1:-0.0050816864 2:-0.51672482 3:-0.22803344 4:-17.950054 5:-3.548933 
-1 1:-0.12875587 2:-3.9100055 3:-0.037056282 4:-17.950054 5:-5.9808965 
-1 1:-0.087531144 2:-3.9100055 3:-0.037056282 4:-17.950054 5:-5.9808965 
-1 1:-0.046306415 2:-3.9100055 3:-0.037056282 4:-17.950054 5:-5.9808965 
-1 1:-0.0050816864 2:-3.9100055 3:-0.037056282 4:-17.950054 5:-5.9808965 
0.6063729555433116 1:-0.12875587 2:-0.3470881 3:-0.19620391 4:19.643727 5:-5.0012452 
1 1:-0.046306415 2:-0.3470881 3:-0.19620391 4:19.643727 5:-5.0012452 
1 1:0.036143042 2:-0.3470881 3:-0.19620391 4:19.643727 5:-5.0012452 
0.9697614169750982 1:0.1185925 2:-0.3470881 3:-0.19620391 4:19.643727 5:-5.0012452 
0.8569718874441444 1:0.20104196 2:-0.3470881 3:-0.19620391 4:19.643727 5:-5.0012452 
0.3280941126723467 1:-0.087531144 2:2.7360757 3:-0.068885807 4:35.755347 5:-0.93985254 
-1 1:0.036143042 2:2.7360757 3:-0.068885807 4:35.755347 5:-0.93985254 
1 1:0.15981723 2:2.7360757 3:-0.068885807 4:35.755347 5:-0.93985254 
-0.2996625691875686 1:0.28349142 2:2.7360757 3:-0.068885807 4:35.755347 5:-0.93985254 
-0.02929792605502057 1:0.4071656 2:2.7360757 3:-0.068885807 4:35.755347 5:-0.93985254 
0.6721332968399004 1:0.036143042 2:0.43600583 3:-0.0052267558 4:5.546059 5:-5.1764391 
1 1:0.1185925 2:0.43600583 3:-0.0052267558 4:5.546059 5:-5.1764391 
1 1:0.20104196 2:0.43600583 3:-0.0052267558 4:5.546059 5:-5.1764391 
-0.9701666318073385 1:-0.087531144 2:3.95987 3:-0.10071533 4:-17.950054 5:-6.1378462 
0.2010623674289224 1:-0.0050816864 2:3.95987 3:-0.10071533 4:-17.950054 5:-6.1378462 
0.4814936959120596 1:-0.12875587 2:-2.0528233 3:-0.19620391 4:19.643727 5:-5.3114946 
0.8217082971359181 1:-0.046306415 2:-2.0528233 3:-0.19620391 4:19.643727 5:-5.3114946 
1 1:0.036143042 2:-2.0528233 3:-0.19620391 4:19.643727 5:-5.3114946 
1 1:0.1185925 2:-2.0528233 3:-0.19620391 4:19.643727 5:-5.3114946 
0.8634518811704119 1:0.20104196 2:-2.0528233 3:-0.19620391 4:19.643727 5:-5.3114946 
-0.6361256667988242 1:-0.12875587 2:1.4462904 3:0.21757992 4:-1.6049319 5:-4.0740999 
1 1:-0.046306415 2:1.4462904 3:0.21757992 4:-1.6049319 5:-4.0740999 
-0.2097006971553522 1:0.1185925 2:1.4462904 3:0.21757992 4:-1.6049319 5:-4.0740999 
-0.3811610945365895 1:0.20104196 2:1.4462904 3:0.21757992 4:-1.6049319 5:-4.0740999 
0.4481582871177318 1:-0.12875587 2:0.061288905 3:0.02660277 4:4.1639347 5:-1.7065735 
