svm_type nu_svr
kernel_type rbf
gamma 0.25
nr_class 2
total_sv 5398
rho -0.000850625
SV
-0.1 1:-0.45935936 2:-1.4315657 3:-0.75227299 4:0.3456755 
0.1 1:0.067154218 2:-1.4315657 3:-0.75227299 4:0.3456755 
-0.1 1:-0.98587293 2:-0.95171716 3:-1.3635022 4:0.6779685 
-0.1 1:-0.45935936 2:-0.95171716 3:-1.3635022 4:0.6779685 
-0.1 1:0.59366779 2:-0.95171716 3:-1.3635022 4:0.6779685 
-0.1 1:1.1201814 2:-0.95171716 3:-1.3635022 4:0.6779685 
-0.1 1:0.59366779 2:-1.1063429 3:-0.75227299 4:0.3456755 
-0.03199793259524813 1:0.59366779 2:0.12564907 3:-0.14104378 4:0.1156265 
-0.1 1:0.067154218 2:0.63713469 3:1.0814146 4:-0.18208397 
-0.1 1:-0.98587293 2:-0.35568161 3:-0.44665838 4:0.22106563 
-0.1 1:-0.45935936 2:-0.35568161 3:-0.44665838 4:0.22106563 
-0.1 1:0.59366779 2:-0.35568161 3:-0.44665838 4:0.22106563 
-0.1 1:1.1201814 2:-0.35568161 3:-0.44665838 4:0.22106563 
0.05389745344559784 1:-1.2491297 2:0.97884088 3:0.77580004 4:-1.149643 
0.1 1:2.6997221 2:1.0197972 3:-0.14104378 4:2.6461655 
0.1 1:-0.72261614 2:-0.074980128 3:-0.44665838 4:1.5917743 
0.1 1:0.067154218 2:-0.074980128 3:-0.44665838 4:1.5917743 
0.1 1:0.85692458 2:-0.074980128 3:-0.44665838 4:1.5917743 
0.1 1:1.6466949 2:-0.074980128 3:-0.44665838 4:1.5917743 
0.1 1:2.4364653 2:-0.074980128 3:-0.44665838 4:1.5917743 
0.1 1:0.067154218 2:1.2859303 3:-0.14104378 4:0.1156265 
0.1 1:0.59366779 2:1.2859303 3:-0.14104378 4:0.1156265 
0.1 1:1.1201814 2:1.2859303 3:-0.14104378 4:0.1156265 
0.1 1:0.067154218 2:1.7105757 3:1.6926439 4:-0.28393229 
0.1 1:0.59366779 2:1.7105757 3:1.6926439 4:-0.28393229 
0.1 1:1.1201814 2:1.7105757 3:1.6926439 4:-0.28393229 
-0.1 1:-0.45935936 2:1.1120398 3:0.77580004 4:-0.12161153 
-0.1 1:-0.45935936 2:0.33102651 3:0.16457083 4:0.02525011 
-0.1 1:0.59366779 2:0.33102651 3:0.16457083 4:0.02525011 
-0.1 1:1.1201814 2:0.33102651 3:0.16457083 4:0.02525011 
0.1 1:-0.98587293 2:1.0936185 3:1.6926439 4:-0.28393229 
0.1 1:-0.45935936 2:1.0936185 3:1.6926439 4:-0.28393229 
0.1 1:0.067154218 2:1.0936185 3:1.6926439 4:-0.28393229 
0.1 1:1.6466949 2:0.64159461 3:0.16457083 4:1.2001432 
0.1 1:-0.98587293 2:0.53619036 3:-0.75227299 4:-1.149643 
0.1 1:-0.45935936 2:0.53619036 3:-0.75227299 4:-1.149643 
-0.1 1:-0.98587293 2:-1.184717 3:1.0814146 4:-1.149643 
-0.02270454498656899 1:-0.72261614 2:1.0396147 3:0.47018543 4:-1.149643 
-0.1 1:-0.19610257 2:1.0396147 3:0.47018543 4:-1.149643 
0.1 1:-0.72261614 2:0.70408238 3:-0.14104378 4:1.380896 
0.1 1:0.067154218 2:0.70408238 3:-0.14104378 4:1.380896 
0.1 1:0.85692458 2:0.70408238 3:-0.14104378 4:1.380896 
0.1 1:1.6466949 2:0.70408238 3:-0.14104378 4:1.380896 
0.1 1:2.4364653 2:0.70408238 3:-0.14104378 4:1.380896 
0.1 1:-0.98587293 2:-0.86032086 3:-0.44665838 4:0.22106563 
0.1 1:-0.45935936 2:-0.86032086 3:-0.44665838 4:0.22106563 
-0.0997437836583691 1:0.067154218 2:-0.86032086 3:-0.44665838 4:0.22106563 
-0.1 1:0.59366779 2:-0.8551579 3:-0.75227299 4:0.3456755 
-0.1 1:1.1201814 2:-0.8551579 3:-0.75227299 4:0.3456755 
0.1 1:-0.98587293 2:-1.1908069 3:-0.14104378 4:-1.149643 
0.1 1:-0.72261614 2:-1.1908069 3:-0.14104378 4:-1.149643 
0.1 1:-0.45935936 2:-1.1908069 3:-0.14104378 4:-1.149643 
-0.07240707683932188 1:1.1201814 2:0.14758009 3:2.6094877 4:-0.40198375 
0.1 1:-0.98587293 2:-1.0968743 3:-0.75227299 4:-1.149643 
0.1 1:-0.45935936 2:-1.0968743 3:-0.75227299 4:-1.149643 
0.1 1:-0.19610257 2:-1.0968743 3:-0.75227299 4:-1.149643 
-0.1 1:0.85692458 2:0.07513787 3:1.6926439 4:0.58177842 
-0.04494657913617409 1:1.6466949 2:0.07513787 3:1.6926439 4:0.58177842 
0.1 1:1.1201814 2:-0.23354051 3:-0.44665838 4:0.22106563 
-0.1 1:-0.98587293 2:-0.20768705 3:0.16457083 4:-1.149643 
-0.1 1:-0.72261614 2:-0.20768705 3:0.16457083 4:-1.149643 
-0.1 1:-0.45935936 2:-0.20768705 3:0.16457083 4:-1.149643 
-0.1 1:-0.19610257 2:-0.20768705 3:0.16457083 4:-1.149643 
0.1 1:-0.72261614 2:-1.2455115 3:-1.0578876 4:2.1400577 
0.1 1:0.067154218 2:-1.2455115 3:-1.0578876 4:2.1400577 
0.1 1:0.85692458 2:-1.2455115 3:-1.0578876 4:2.1400577 
0.1 1:1.6466949 2:-1.2455115 3:-1.0578876 4:2.1400577 
0.1 1:2.4364653 2:-1.2455115 3:-1.0578876 4:2.1400577 
-0.1 1:-0.45935936 2:0.025018284 3:-0.14104378 4:0.1156265 
-0.1 1:0.067154218 2:0.025018284 3:-0.14104378 4:0.1156265 
-0.1 1:0.59366779 2:0.025018284 3:-0.14104378 4:0.1156265 
0.1 1:0.067154218 2:-0.76587353 3:-0.75227299 4:0.3456755 
0.1 1:0.59366779 2:-0.76587353 3:-0.75227299 4:0.3456755 
0.1 1:1.1201814 2:-0.76587353 3:-0.75227299 4:0.3456755 
0.1 1:-1.2491297 2:-0.94621724 3:1.0814146 4:-1.149643 
0.1 1:-0.98587293 2:-0.94621724 3:1.0814146 4:-1.149643 
0.1 1:-0.45935936 2:-0.94621724 3:1.0814146 4:-1.149643 
0.1 1:-0.19610257 2:-0.94621724 3:1.0814146 4:-1.149643 
-0.1 1:-1.2491297 2:-0.78392524 3:-0.44665838 4:-1.149643 
-0.1 1:-0.98587293 2:-0.78392524 3:-0.44665838 4:-1.149643 
-0.1 1:-0.72261614 2:-0.78392524 3:-0.44665838 4:-1.149643 
0.07637044173285074 1:1.1201814 2:1.5249221 3:1.0814146 4:-0.18208397 
0.1 1:0.067154218 2:0.5616317 3:-0.75227299 4:0.3456755 
-0.1 1:-0.72261614 2:0.10932896 3:-1.0578876 4:2.1400577 
-0.1 1:0.067154218 2:0.10932896 3:-1.0578876 4:2.1400577 
-0.1 1:0.85692458 2:0.10932896 3:-1.0578876 4:2.1400577 
-0.1 1:1.6466949 2:0.10932896 3:-1.0578876 4:2.1400577 
-0.1 1:2.4364653 2:0.10932896 3:-1.0578876 4:2.1400577 
-0.1 1:-1.2491297 2:1.4750427 3:0.77580004 4:-1.149643 
-0.1 1:-0.72261614 2:1.4750427 3:0.77580004 4:-1.149643 
-0.1 1:-0.19610257 2:1.4750427 3:0.77580004 4:-1.149643 
0.1 1:-0.98587293 2:-1.0100174 3:0.47018543 4:-0.053076098 
0.1 1:-0.45935936 2:-1.0100174 3:0.47018543 4:-0.053076098 
0.1 1:0.067154218 2:-1.0100174 3:0.47018543 4:-0.053076098 
0.1 1:0.59366779 2:-1.0100174 3:0.47018543 4:-0.053076098 
0.1 1:1.1201814 2:-1.0100174 3:0.47018543 4:-0.053076098 
0.1 1:0.85692458 2:1.0616386 3:1.9982585 4:0.49520735 
0.006128576098461734 1:1.6466949 2:1.0616386 3:1.9982585 4:0.49520735 
-0.1 1:-0.19610257 2:0.43966919 3:0.77580004 4:-1.149643 
-0.1 1:0.85692458 2:0.46695021 3:0.16457083 4:1.2001432 
-0.1 1:1.6466949 2:0.46695021 3:0.16457083 4:1.2001432 
0.001618699968800087 1:-0.72261614 2:-0.96350309 3:0.16457083 4:-1.149643 
0.1 1:-0.45935936 2:-0.96350309 3:0.16457083 4:-1.149643 
0.1 1:-0.19610257 2:-0.96350309 3:0.16457083 4:-1.149643 
-0.1 1:-1.2491297 2:-0.019769635 3:-1.3635022 4:-1.149643 
0.1 1:0.59366779 2:1.3499782 3:1.0814146 4:-0.18208397 
-0.1 1:0.85692458 2:-1.7084115 3:-0.14104378 4:1.380896 
-0.1 1:1.6466949 2:-1.7084115 3:-0.14104378 4:1.380896 
-0.1 1:2.4364653 2:-1.7084115 3:-0.14104378 4:1.380896 
0.1 1:-0.98587293 2:1.7151327 3:-0.75227299 4:0.3456755 
0.1 1:-0.45935936 2:1.7151327 3:-0.75227299 4:0.3456755 
0.1 1:0.59366779 2:1.7151327 3:-0.75227299 4:0.3456755 
0.1 1:1.1201814 2:1.7151327 3:-0.75227299 4:0.3456755 
-0.05053136577447674 1:1.1201814 2:-1.6584431 3:0.16457083 4:0.02525011 
0.1 1:-0.45935936 2:1.5053879 3:1.0814146 4:-0.18208397 
-0.1 1:-0.45935936 2:-1.3844313 3:-1.0578876 4:-1.149643 
-0.07015340648371388 1:-0.98587293 2:-0.43761072 3:-1.0578876 4:0.49520735 
0.1 1:-0.45935936 2:-0.43761072 3:-1.0578876 4:0.49520735 
-0.1 1:-0.98587293 2:1.3137608 3:-0.14104378 4:0.1156265 
-0.1 1:-0.45935936 2:1.3137608 3:-0.14104378 4:0.1156265 
-0.1 1:0.067154218 2:1.3137608 3:-0.14104378 4:0.1156265 
-0.1 1:0.59366779 2:1.3137608 3:-0.14104378 4:0.1156265 
-0.1 1:1.1201814 2:1.3137608 3:-0.14104378 4:0.1156265 
-0.0579002645998046 1:-1.2491297 2:-1.3757365 3:-1.0578876 4:-1.149643 
-0.1 1:-0.72261614 2:-1.3931044 3:-0.44665838 4:1.5917743 
-0.1 1:0.85692458 2:-1.3931044 3:-0.44665838 4:1.5917743 
-0.1 1:1.6466949 2:-1.3931044 3:-0.44665838 4:1.5917743 
-0.1 1:2.4364653 2:-1.3931044 3:-0.44665838 4:1.5917743 
-0.1 1:-0.45935936 2:-0.007588392 3:-0.44665838 4:0.22106563 
-0.1 1:-0.72261614 2:-0.93367033 3:-0.44665838 4:1.5917743 
-0.1 1:0.067154218 2:-0.93367033 3:-0.44665838 4:1.5917743 
-0.1 1:0.85692458 2:-0.93367033 3:-0.44665838 4:1.5917743 
-0.1 1:1.6466949 2:-0.93367033 3:-0.44665838 4:1.5917743 
-0.1 1:2.4364653 2:-0.93367033 3:-0.44665838 4:1.5917743 
0.1 1:-0.72261614 2:-1.183037 3:1.0814146 4:0.78547506 
0.1 1:0.067154218 2:-1.183037 3:1.0814146 4:0.78547506 
0.1 1:0.85692458 2:-1.183037 3:1.0814146 4:0.78547506 
0.1 1:1.6466949 2:-1.183037 3:1.0814146 4:0.78547506 
0.1 1:2.4364653 2:-1.183037 3:1.0814146 4:0.78547506 
-0.1 1:0.59366779 2:-0.059382606 3:-1.0578876 4:0.49520735 
-0.1 1:1.1201814 2:-0.059382606 3:-1.0578876 4:0.49520735 
0.1 1:-0.45935936 2:1.7880982 3:1.3870293 4:-0.23583725 
0.009792551998926521 1:-0.98587293 2:-2.048745 3:3.2207169 4:-0.46428869 
-0.07240604430417587 1:-0.45935936 2:1.6568016 3:1.3870293 4:-0.23583725 
-0.1 1:-0.45935936 2:-0.095148499 3:-0.14104378 4:0.1156265 
-0.1 1:0.067154218 2:-0.095148499 3:-0.14104378 4:0.1156265 
-0.1 1:-0.98587293 2:0.62676407 3:-1.0578876 4:0.49520735 
-0.1 1:-0.45935936 2:0.62676407 3:-1.0578876 4:0.49520735 
0.1 1:0.59366779 2:0.62676407 3:-1.0578876 4:0.49520735 
0.1 1:1.1201814 2:0.62676407 3:-1.0578876 4:0.49520735 
-0.1 1:0.067154218 2:-0.46773619 3:-0.75227299 4:0.3456755 
-0.1 1:-0.45935936 2:0.10621621 3:1.0814146 4:-0.18208397 
-0.1 1:1.1201814 2:0.10621621 3:1.0814146 4:-0.18208397 
0.1 1:-1.2491297 2:0.75090103 3:2.3038731 4:-1.149643 
0.1 1:-0.98587293 2:0.75090103 3:2.3038731 4:-1.149643 
0.1 1:-0.72261614 2:0.75090103 3:2.3038731 4:-1.149643 
0.1 1:-0.45935936 2:0.75090103 3:2.3038731 4:-1.149643 
-0.1 1:-0.72261614 2:-1.6550494 3:-0.44665838 4:-1.149643 
-0.1 1:-0.45935936 2:-1.6550494 3:-0.44665838 4:-1.149643 
0.1 1:0.067154218 2:1.5168191 3:2.6094877 4:-0.40198375 
-0.1 1:1.1201814 2:1.3844919 3:0.47018543 4:-0.053076098 
-0.1 1:-0.98587293 2:0.22484223 3:-0.44665838 4:0.22106563 
0.1 1:0.067154218 2:0.22484223 3:-0.44665838 4:0.22106563 
-0.0770232074784987 1:-1.2491297 2:0.7210718 3:1.6926439 4:-1.149643 
-0.1 1:-0.98587293 2:0.7210718 3:1.6926439 4:-1.149643 
-0.1 1:-0.72261614 2:0.7210718 3:1.6926439 4:-1.149643 
-0.1 1:-0.45935936 2:0.7210718 3:1.6926439 4:-1.149643 
-0.1 1:-0.19610257 2:0.7210718 3:1.6926439 4:-1.149643 
0.1 1:-0.98587293 2:-0.76863961 3:-0.75227299 4:0.3456755 
0.1 1:-0.45935936 2:-0.76863961 3:-0.75227299 4:0.3456755 
0.1 1:-0.45935936 2:1.0394451 3:4.1375607 4:-0.54043916 
0.1 1:0.59366779 2:1.0394451 3:4.1375607 4:-0.54043916 
0.1 1:-0.72261614 2:-1.624587 3:0.47018543 4:-1.149643 
0.1 1:-0.45935936 2:-1.624587 3:0.47018543 4:-1.149643 
-0.1 1:2.4364653 2:-0.70288393 3:0.16457083 4:1.2001432 
-0.1 1:0.067154218 2:-1.6975056 3:0.47018543 4:1.0434908 
-0.004545025103849801 1:1.6466949 2:-1.6975056 3:0.47018543 4:1.0434908 
-0.1 1:0.59366779 2:-1.1154008 3:0.77580004 4:-0.12161153 
-0.001030774382044241 1:1.1201814 2:-1.1154008 3:0.77580004 4:-0.12161153 
0.1 1:-0.72261614 2:0.14477428 3:-0.75227299 4:1.840994 
0.1 1:0.067154218 2:0.14477428 3:-0.75227299 4:1.840994 
0.1 1:0.85692458 2:0.14477428 3:-0.75227299 4:1.840994 
0.1 1:1.6466949 2:0.14477428 3:-0.75227299 4:1.840994 
0.1 1:2.4364653 2:0.14477428 3:-0.75227299 4:1.840994 
0.1 1:-1.2491297 2:0.23019368 3:-0.44665838 4:-1.149643 
0.1 1:-0.98587293 2:0.23019368 3:-0.44665838 4:-1.149643 
0.1 1:-0.72261614 2:0.23019368 3:-0.44665838 4:-1.149643 
0.1 1:-0.45935936 2:0.23019368 3:-0.44665838 4:-1.149643 
0.1 1:-0.19610257 2:0.23019368 3:-0.44665838 4:-1.149643 
0.1 1:0.067154218 2:1.2646955 3:-0.44665838 4:1.5917743 
0.1 1:2.4364653 2:1.2646955 3:-0.44665838 4:1.5917743 
0.1 1:0.85692458 2:0.89301727 3:-0.44665838 4:1.5917743 
0.1 1:1.6466949 2:0.89301727 3:-0.44665838 4:1.5917743 
0.1 1:2.4364653 2:0.89301727 3:-0.44665838 4:1.5917743 
-0.1 1:-0.72261614 2:-0.5816972 3:-0.44665838 4:-1.149643 
-0.1 1:-0.45935936 2:-0.76518517 3:-0.14104378 4:0.1156265 
-0.1 1:-0.98587293 2:-0.81182975 3:0.47018543 4:-0.053076098 
-0.1 1:-0.45935936 2:-0.81182975 3:0.47018543 4:-0.053076098 
-0.1 1:0.067154218 2:-0.81182975 3:0.47018543 4:-0.053076098 
-0.1 1:0.59366779 2:-0.81182975 3:0.47018543 4:-0.053076098 
-0.1 1:1.1201814 2:-0.81182975 3:0.47018543 4:-0.053076098 
0.1 1:0.067154218 2:-0.48609503 3:-0.75227299 4:0.3456755 
0.1 1:0.59366779 2:-0.48609503 3:-0.75227299 4:0.3456755 
0.1 1:1.1201814 2:-0.48609503 3:-0.75227299 4:0.3456755 
0.01574430646538646 1:0.067154218 2:-1.0501195 3:0.47018543 4:-0.053076098 
0.1 1:-0.45935936 2:-0.88515501 3:-1.0578876 4:0.49520735 
0.1 1:0.59366779 2:-0.88515501 3:-1.0578876 4:0.49520735 
0.1 1:1.1201814 2:-0.88515501 3:-1.0578876 4:0.49520735 
0.1 1:-0.98587293 2:0.97648561 3:-0.14104378 4:-1.149643 
0.1 1:-0.19610257 2:0.97648561 3:-0.14104378 4:-1.149643 
0.1 1:-0.98587293 2:-1.1047571 3:-1.3635022 4:0.6779685 
0.1 1:0.067154218 2:-0.72789642 3:1.0814146 4:-0.18208397 
0.1 1:0.59366779 2:-0.72789642 3:1.0814146 4:-0.18208397 
0.1 1:1.1201814 2:-0.72789642 3:1.0814146 4:-0.18208397 
0.1 1:0.067154218 2:0.049115173 3:-0.75227299 4:0.3456755 
0.1 1:0.59366779 2:0.049115173 3:-0.75227299 4:0.3456755 
0.1 1:1.1201814 2:0.049115173 3:-0.75227299 4:0.3456755 
-0.05706006652018667 1:-0.98587293 2:-0.02079919 3:-0.44665838 4:0.22106563 
-0.1 1:-0.45935936 2:-0.02079919 3:-0.44665838 4:0.22106563 
0.008930425936119001 1:-0.45935936 2:1.1142759 3:0.77580004 4:-1.149643 
0.1 1:-0.72261614 2:0.42096719 3:-0.75227299 4:1.840994 
0.1 1:0.067154218 2:0.42096719 3:-0.75227299 4:1.840994 
0.1 1:0.85692458 2:0.42096719 3:-0.75227299 4:1.840994 
0.1 1:1.6466949 2:0.42096719 3:-0.75227299 4:1.840994 
0.1 1:2.4364653 2:0.42096719 3:-0.75227299 4:1.840994 
-0.1 1:-1.2491297 2:0.46833288 3:-1.0578876 4:-1.149643 
-0.1 1:-0.98587293 2:0.46833288 3:-1.0578876 4:-1.149643 
-0.1 1:-0.72261614 2:0.46833288 3:-1.0578876 4:-1.149643 
-0.001663287572977318 1:-0.45935936 2:0.46833288 3:-1.0578876 4:-1.149643 
-0.05281075647652808 1:-0.19610257 2:-1.6219 3:-0.44665838 4:4.3331915 
-0.06687062316366363 1:5.0690332 2:-1.6219 3:-0.44665838 4:4.3331915 
0.1 1:0.59366779 2:-0.1922946 3:-1.3635022 4:0.6779685 
-0.1 1:0.59366779 2:-0.49037217 3:-1.3635022 4:0.6779685 
-0.1 1:-0.98587293 2:0.62387273 3:0.77580004 4:-1.149643 
0.1 1:-1.2491297 2:-0.45973337 3:-0.75227299 4:-1.149643 
0.1 1:-0.72261614 2:-0.45973337 3:-0.75227299 4:-1.149643 
0.1 1:-0.19610257 2:-0.45973337 3:-0.75227299 4:-1.149643 
-0.1 1:1.1201814 2:-0.096462365 3:0.77580004 4:-0.12161153 
0.1 1:0.067154218 2:-1.3530431 3:0.77580004 4:-0.12161153 
0.1 1:1.1201814 2:-1.3530431 3:0.77580004 4:-0.12161153 
0.1 1:0.067154218 2:-0.10942111 3:-1.3635022 4:0.6779685 
0.07537651588616313 1:0.59366779 2:-0.10942111 3:-1.3635022 4:0.6779685 
0.1 1:1.1201814 2:-0.10942111 3:-1.3635022 4:0.6779685 
-0.05735879838428736 1:0.85692458 2:-1.4198135 3:-1.0578876 4:2.1400577 
-0.01263916613042612 1:1.6466949 2:-1.4198135 3:-1.0578876 4:2.1400577 
-0.03421387746345875 1:2.4364653 2:-1.4198135 3:-1.0578876 4:2.1400577 
0.1 1:2.4364653 2:-1.0408424 3:-0.14104378 4:1.380896 
0.1 1:-0.19610257 2:-0.053002821 3:-0.14104378 4:-1.149643 
-0.1 1:0.59366779 2:-1.0588255 3:-0.14104378 4:0.1156265 
-0.1 1:1.1201814 2:-1.0588255 3:-0.14104378 4:0.1156265 
-0.1 1:-0.45935936 2:0.044154351 3:-0.75227299 4:0.3456755 
-0.1 1:0.067154218 2:0.044154351 3:-0.75227299 4:0.3456755 
-0.1 1:1.1201814 2:0.044154351 3:-0.75227299 4:0.3456755 
-0.1 1:-1.2491297 2:-0.046543103 3:0.16457083 4:-1.149643 
-0.1 1:0.067154218 2:-0.73117878 3:-0.44665838 4:1.5917743 
-0.1 1:0.85692458 2:-0.73117878 3:-0.44665838 4:1.5917743 
-0.1 1:1.6466949 2:-0.73117878 3:-0.44665838 4:1.5917743 
-0.1 1:2.4364653 2:-0.73117878 3:-0.44665838 4:1.5917743 
-0.1 1:0.067154218 2:0.55286075 3:-0.44665838 4:1.5917743 
-0.1 1:0.85692458 2:0.55286075 3:-0.44665838 4:1.5917743 
-0.1 1:1.6466949 2:0.55286075 3:-0.44665838 4:1.5917743 
-0.1 1:2.4364653 2:0.55286075 3:-0.44665838 4:1.5917743 
0.05521778609608678 1:0.067154218 2:0.81523744 3:-0.14104378 4:0.1156265 
0.002649717938884852 1:1.1201814 2:0.81523744 3:-0.14104378 4:0.1156265 
0.1 1:-1.2491297 2:0.93425889 3:0.16457083 4:-1.149643 
0.1 1:-0.98587293 2:0.93425889 3:0.16457083 4:-1.149643 
0.1 1:-0.72261614 2:0.93425889 3:0.16457083 4:-1.149643 
0.1 1:-0.45935936 2:0.93425889 3:0.16457083 4:-1.149643 
-0.1 1:-1.2491297 2:0.35556385 3:0.16457083 4:-1.149643 
-0.1 1:-0.98587293 2:0.35556385 3:0.16457083 4:-1.149643 
-0.1 1:-0.45935936 2:0.35556385 3:0.16457083 4:-1.149643 
-0.1 1:-0.19610257 2:0.35556385 3:0.16457083 4:-1.149643 
-0.1 1:0.067154218 2:-0.61703731 3:0.47018543 4:-0.053076098 
-0.1 1:0.59366779 2:-0.61703731 3:0.47018543 4:-0.053076098 
0.05975446496447985 1:3.7527492 2:-1.1535046 3:-0.44665838 4:2.9624829 
-0.1 1:0.067154218 2:0.64049767 3:1.0814146 4:0.78547506 
-0.1 1:1.6466949 2:0.64049767 3:1.0814146 4:0.78547506 
-0.1 1:2.4364653 2:0.64049767 3:1.0814146 4:0.78547506 
-0.1 1:1.1201814 2:-1.3834549 3:0.16457083 4:0.02525011 
0.03839107910196153 1:-0.45935936 2:1.6041409 3:-1.3635022 4:0.6779685 
0.1 1:0.067154218 2:-0.96281057 3:-0.14104378 4:0.1156265 
0.1 1:1.1201814 2:-0.96281057 3:-0.14104378 4:0.1156265 
0.1 1:-0.45935936 2:-1.5585555 3:-0.75227299 4:0.3456755 
-0.1 1:-0.45935936 2:-0.91775894 3:-0.14104378 4:0.1156265 
-0.1 1:0.59366779 2:-0.91775894 3:-0.14104378 4:0.1156265 
-0.1 1:1.1201814 2:-0.91775894 3:-0.14104378 4:0.1156265 
0.1 1:-0.45935936 2:1.3949706 3:-0.44665838 4:0.22106563 
0.1 1:1.1201814 2:1.3949706 3:-0.44665838 4:0.22106563 
0.1 1:-0.98587293 2:0.73572604 3:-0.44665838 4:0.22106563 
0.1 1:-0.45935936 2:0.73572604 3:-0.44665838 4:0.22106563 
0.1 1:0.067154218 2:0.73572604 3:-0.44665838 4:0.22106563 
-0.1 1:1.1201814 2:-0.15457546 3:-1.0578876 4:0.49520735 
0.1 1:-0.98587293 2:-1.6543903 3:0.16457083 4:0.02525011 
0.1 1:-0.45935936 2:-1.6543903 3:0.16457083 4:0.02525011 
0.1 1:0.067154218 2:-1.6543903 3:0.16457083 4:0.02525011 
0.1 1:0.59366779 2:-1.6543903 3:0.16457083 4:0.02525011 
0.1 1:1.1201814 2:-1.6543903 3:0.16457083 4:0.02525011 
-0.01409742581900954 1:-0.98587293 2:-0.77895162 3:0.77580004 4:-0.12161153 
-0.1 1:-0.45935936 2:-0.77895162 3:0.77580004 4:-0.12161153 
0.1 1:1.1201814 2:0.37797979 3:-0.44665838 4:0.22106563 
0.1 1:0.85692458 2:-0.55496328 3:-0.14104378 4:1.380896 
0.1 1:1.6466949 2:-0.55496328 3:-0.14104378 4:1.380896 
0.1 1:2.4364653 2:-0.55496328 3:-0.14104378 4:1.380896 
0.1 1:-0.45935936 2:1.5117686 3:-0.14104378 4:0.1156265 
0.1 1:0.59366779 2:0.13045988 3:-0.44665838 4:0.22106563 
0.1 1:-1.2491297 2:-0.037700199 3:0.47018543 4:-1.149643 
0.1 1:-0.98587293 2:-0.037700199 3:0.47018543 4:-1.149643 
0.1 1:-0.72261614 2:-0.037700199 3:0.47018543 4:-1.149643 
0.1 1:-0.45935936 2:-0.037700199 3:0.47018543 4:-1.149643 
0.1 1:-0.19610257 2:-0.037700199 3:0.47018543 4:-1.149643 
0.1 1:-0.45935936 2:0.68509007 3:-0.14104378 4:0.1156265 
0.1 1:-0.19610257 2:-0.94100201 3:0.16457083 4:-1.149643 
0.1 1:1.6466949 2:0.83003464 3:1.6926439 4:0.58177842 
0.1 1:2.4364653 2:0.83003464 3:1.6926439 4:0.58177842 
-0.1 1:-0.98587293 2:-0.85719744 3:0.16457083 4:0.02525011 
-0.1 1:-0.45935936 2:-0.85719744 3:0.16457083 4:0.02525011 
-0.1 1:0.59366779 2:-0.85719744 3:0.16457083 4:0.02525011 
-0.1 1:1.1201814 2:-0.85719744 3:0.16457083 4:0.02525011 
0.1 1:-0.45935936 2:1.7999032 3:-0.75227299 4:0.3456755 
-0.1 1:0.067154218 2:0.19752262 3:-0.44665838 4:1.5917743 
-0.1 1:0.85692458 2:0.19752262 3:-0.44665838 4:1.5917743 
-0.1 1:1.6466949 2:0.19752262 3:-0.44665838 4:1.5917743 
-0.1 1:2.4364653 2:0.19752262 3:-0.44665838 4:1.5917743 
-0.1 1:-0.45935936 2:-1.0027855 3:4.1375607 4:-1.149643 
-0.1 1:-0.98587293 2:-1.4079098 3:-1.0578876 4:-1.149643 
-0.1 1:-1.2491297 2:-0.5474869 3:-1.0578876 4:-1.149643 
-0.1 1:-0.72261614 2:-0.5474869 3:-1.0578876 4:-1.149643 
-0.1 1:-0.45935936 2:-0.5474869 3:-1.0578876 4:-1.149643 
-0.1 1:-0.19610257 2:-0.5474869 3:-1.0578876 4:-1.149643 
-0.1 1:0.067154218 2:0.13652047 3:-0.44665838 4:1.5917743 
-0.1 1:0.85692458 2:0.13652047 3:-0.44665838 4:1.5917743 
-0.04285202447389042 1:-0.98587293 2:-0.38730922 3:-0.14104378 4:-1.149643 
-0.1 1:-0.72261614 2:-0.38730922 3:-0.14104378 4:-1.149643 
-0.1 1:-0.45935936 2:-0.38730922 3:-0.14104378 4:-1.149643 
-0.1 1:-0.19610257 2:-0.38730922 3:-0.14104378 4:-1.149643 
0.1 1:-0.98587293 2:-0.67772396 3:0.47018543 4:-0.053076098 
0.1 1:-0.45935936 2:-0.67772396 3:0.47018543 4:-0.053076098 
0.1 1:0.59366779 2:-0.67772396 3:0.47018543 4:-0.053076098 
0.1 1:1.1201814 2:-0.67772396 3:0.47018543 4:-0.053076098 
-0.1 1:0.59366779 2:0.64942744 3:-0.44665838 4:0.22106563 
-0.1 1:1.1201814 2:0.64942744 3:-0.44665838 4:0.22106563 
-0.1 1:-0.45935936 2:0.54187168 3:0.47018543 4:-0.053076098 
-0.1 1:0.067154218 2:0.54187168 3:0.47018543 4:-0.053076098 
0.1 1:0.59366779 2:0.54187168 3:0.47018543 4:-0.053076098 
0.1 1:1.1201814 2:0.54187168 3:0.47018543 4:-0.053076098 
0.1 1:-0.72261614 2:-0.5293365 3:-0.14104378 4:1.380896 
0.1 1:0.067154218 2:-0.5293365 3:-0.14104378 4:1.380896 
0.1 1:1.6466949 2:-0.5293365 3:-0.14104378 4:1.380896 
0.1 1:2.4364653 2:-0.5293365 3:-0.14104378 4:1.380896 
-0.1 1:-0.98587293 2:-1.40847 3:-1.3635022 4:-1.149643 
-0.1 1:-0.19610257 2:-1.40847 3:-1.3635022 4:-1.149643 
0.1 1:-0.72261614 2:-1.1802272 3:-0.14104378 4:1.380896 
0.1 1:0.067154218 2:-1.1802272 3:-0.14104378 4:1.380896 
0.1 1:1.6466949 2:-1.1802272 3:-0.14104378 4:1.380896 
0.1 1:2.4364653 2:-1.1802272 3:-0.14104378 4:1.380896 
0.1 1:-0.72261614 2:-0.14582521 3:-1.0578876 4:2.1400577 
0.1 1:0.067154218 2:-0.14582521 3:-1.0578876 4:2.1400577 
0.1 1:0.85692458 2:-0.14582521 3:-1.0578876 4:2.1400577 
0.1 1:1.6466949 2:-0.14582521 3:-1.0578876 4:2.1400577 
0.1 1:2.4364653 2:-0.14582521 3:-1.0578876 4:2.1400577 
0.1 1:-0.98587293 2:0.15546778 3:-0.44665838 4:-1.149643 
0.1 1:-0.72261614 2:0.15546778 3:-0.44665838 4:-1.149643 
0.1 1:-0.45935936 2:0.15546778 3:-0.44665838 4:-1.149643 
0.1 1:-0.19610257 2:0.15546778 3:-0.44665838 4:-1.149643 
0.1 1:0.59366779 2:-0.38461741 3:-0.14104378 4:0.1156265 
-0.1 1:-0.45935936 2:0.78598145 3:-0.44665838 4:0.22106563 
0.1 1:-0.45935936 2:1.6377457 3:-0.75227299 4:0.3456755 
0.1 1:0.067154218 2:1.6377457 3:-0.75227299 4:0.3456755 
0.1 1:0.59366779 2:1.6377457 3:-0.75227299 4:0.3456755 
0.1 1:1.1201814 2:1.6377457 3:-0.75227299 4:0.3456755 
0.003856978071845019 1:-1.2491297 2:0.34054443 3:-0.75227299 4:-1.149643 
0.1 1:-0.98587293 2:0.34054443 3:-0.75227299 4:-1.149643 
-0.1 1:-0.45935936 2:-0.75495732 3:0.47018543 4:-0.053076098 
-0.1 1:0.59366779 2:-0.75495732 3:0.47018543 4:-0.053076098 
-0.1 1:1.1201814 2:-0.75495732 3:0.47018543 4:-0.053076098 
0.1 1:-0.98587293 2:-0.91075156 3:0.77580004 4:-1.149643 
0.1 1:-0.72261614 2:-0.91075156 3:0.77580004 4:-1.149643 
0.1 1:-0.45935936 2:-0.91075156 3:0.77580004 4:-1.149643 
0.1 1:0.59366779 2:1.9975581 3:0.77580004 4:-0.12161153 
0.1 1:1.1201814 2:1.9975581 3:0.77580004 4:-0.12161153 
0.1 1:1.6466949 2:-0.59590561 3:-1.0578876 4:2.1400577 
-0.1 1:-1.2491297 2:-0.056473793 3:-0.14104378 4:-1.149643 
-0.1 1:-0.98587293 2:-0.056473793 3:-0.14104378 4:-1.149643 
-0.1 1:-0.72261614 2:-0.056473793 3:-0.14104378 4:-1.149643 
-0.1 1:-0.45935936 2:-0.056473793 3:-0.14104378 4:-1.149643 
-0.1 1:-0.45935936 2:1.7873519 3:0.47018543 4:-0.053076098 
-0.1 1:0.59366779 2:1.7873519 3:0.47018543 4:-0.053076098 
-0.1 1:1.1201814 2:1.7873519 3:0.47018543 4:-0.053076098 
-0.1 1:-0.98587293 2:-1.2184553 3:-0.44665838 4:-1.149643 
-0.1 1:-0.72261614 2:-1.2184553 3:-0.44665838 4:-1.149643 
-0.1 1:-0.45935936 2:-1.2184553 3:-0.44665838 4:-1.149643 
-0.1 1:-0.19610257 2:-1.2184553 3:-0.44665838 4:-1.149643 
-0.1 1:-0.98587293 2:0.62865817 3:0.16457083 4:0.02525011 
-0.1 1:-0.72261614 2:-0.98394238 3:0.47018543 4:1.0434908 
-0.1 1:0.85692458 2:-0.98394238 3:0.47018543 4:1.0434908 
-0.1 1:1.6466949 2:-0.98394238 3:0.47018543 4:1.0434908 
-0.02112180609943903 1:2.4364653 2:-0.98394238 3:0.47018543 4:1.0434908 
0.1 1:-0.45935936 2:-0.54196876 3:-1.0578876 4:0.49520735 
0.1 1:0.067154218 2:-0.54196876 3:-1.0578876 4:0.49520735 
0.1 1:0.59366779 2:-0.54196876 3:-1.0578876 4:0.49520735 
0.1 1:1.1201814 2:-0.54196876 3:-1.0578876 4:0.49520735 
0.1 1:-0.19610257 2:0.72248768 3:-0.75227299 4:-1.149643 
0.1 1:-0.98587293 2:-0.6402274 3:-0.44665838 4:0.22106563 
0.1 1:-0.45935936 2:-0.6402274 3:-0.44665838 4:0.22106563 
0.1 1:0.067154218 2:-0.6402274 3:-0.44665838 4:0.22106563 
0.1 1:0.59366779 2:-0.6402274 3:-0.44665838 4:0.22106563 
0.1 1:1.1201814 2:-0.6402274 3:-0.44665838 4:0.22106563 
-0.0994571718257983 1:-0.72261614 2:1.5808008 3:2.3038731 4:-1.149643 
-0.1 1:-0.45935936 2:1.5808008 3:2.3038731 4:-1.149643 
-0.1 1:0.067154218 2:1.0160816 3:1.0814146 4:0.78547506 
-0.1 1:0.85692458 2:1.0160816 3:1.0814146 4:0.78547506 
-0.1 1:2.4364653 2:1.0160816 3:1.0814146 4:0.78547506 
-0.1 1:-1.2491297 2:-0.54330811 3:-0.75227299 4:-1.149643 
-0.1 1:-0.98587293 2:-0.54330811 3:-0.75227299 4:-1.149643 
-0.1 1:1.1201814 2:-1.7751551 3:-1.0578876 4:0.49520735 
-0.1 1:-0.45935936 2:-0.1942831 3:-1.3635022 4:0.6779685 
-0.1 1:0.59366779 2:-0.1942831 3:-1.3635022 4:0.6779685 
-0.1 1:1.6466949 2:-1.3691924 3:-0.75227299 4:1.840994 
0.1 1:1.1201814 2:0.16617771 3:-0.75227299 4:0.3456755 
0.1 1:-0.45935936 2:-1.1724103 3:0.77580004 4:-0.12161153 
0.0941807228043718 1:0.067154218 2:-1.1724103 3:0.77580004 4:-0.12161153 
0.1 1:0.59366779 2:-1.1724103 3:0.77580004 4:-0.12161153 
0.1 1:1.1201814 2:-1.1724103 3:0.77580004 4:-0.12161153 
-0.1 1:-0.98587293 2:1.2692396 3:-1.0578876 4:0.49520735 
-0.1 1:0.067154218 2:1.2692396 3:-1.0578876 4:0.49520735 
-0.1 1:0.59366779 2:1.2692396 3:-1.0578876 4:0.49520735 
-0.1 1:1.1201814 2:1.2692396 3:-1.0578876 4:0.49520735 
-0.1 1:1.6466949 2:-0.45031715 3:-0.75227299 4:1.840994 
0.1 1:-0.72261614 2:1.7885007 3:0.77580004 4:0.90641994 
0.1 1:0.067154218 2:1.7885007 3:0.77580004 4:0.90641994 
0.1 1:0.85692458 2:1.7885007 3:0.77580004 4:0.90641994 
0.1 1:1.6466949 2:1.7885007 3:0.77580004 4:0.90641994 
0.1 1:-0.45935936 2:-1.424678 3:-0.44665838 4:0.22106563 
0.1 1:0.59366779 2:-1.424678 3:-0.44665838 4:0.22106563 
0.1 1:-0.98587293 2:-0.055440392 3:-0.44665838 4:0.22106563 
0.1 1:-0.45935936 2:-0.055440392 3:-0.44665838 4:0.22106563 
0.1 1:0.067154218 2:-0.055440392 3:-0.44665838 4:0.22106563 
0.1 1:0.59366779 2:-0.055440392 3:-0.44665838 4:0.22106563 
0.1 1:1.1201814 2:-0.055440392 3:-0.44665838 4:0.22106563 
-0.1 1:-1.2491297 2:-0.67163596 3:-1.0578876 4:-1.149643 
-0.09945402767770925 1:-0.72261614 2:-0.67163596 3:-1.0578876 4:-1.149643 
-0.1 1:-0.45935936 2:-0.67163596 3:-1.0578876 4:-1.149643 
-0.1 1:-0.19610257 2:-0.67163596 3:-1.0578876 4:-1.149643 
0.1 1:-0.45935936 2:0.45904948 3:-0.75227299 4:0.3456755 
0.1 1:0.067154218 2:0.45904948 3:-0.75227299 4:0.3456755 
0.1 1:0.59366779 2:0.45904948 3:-0.75227299 4:0.3456755 
0.1 1:1.1201814 2:0.45904948 3:-0.75227299 4:0.3456755 
0.1 1:0.067154218 2:-1.5822174 3:-0.14104378 4:0.1156265 
-0.1 1:-0.45935936 2:-1.0713934 3:-0.75227299 4:0.3456755 
-0.1 1:0.59366779 2:-1.0713934 3:-0.75227299 4:0.3456755 
0.1 1:-0.72261614 2:0.9411905 3:1.0814146 4:0.78547506 
0.1 1:0.067154218 2:0.9411905 3:1.0814146 4:0.78547506 
0.1 1:-0.45935936 2:-0.11470745 3:-1.3635022 4:0.6779685 
0.1 1:0.067154218 2:-0.11470745 3:-1.3635022 4:0.6779685 
0.1 1:0.59366779 2:-0.11470745 3:-1.3635022 4:0.6779685 
0.1 1:1.1201814 2:-0.11470745 3:-1.3635022 4:0.6779685 
0.1 1:1.6466949 2:0.24180138 3:0.16457083 4:1.2001432 
0.1 1:2.4364653 2:0.24180138 3:0.16457083 4:1.2001432 
0.01617769167232084 1:-0.72261614 2:1.5565443 3:4.4431753 4:0.02525011 
0.1 1:0.067154218 2:1.5565443 3:4.4431753 4:0.02525011 
0.001883841716962776 1:0.85692458 2:1.5565443 3:4.4431753 4:0.02525011 
0.1 1:1.6466949 2:1.5565443 3:4.4431753 4:0.02525011 
0.1 1:2.4364653 2:1.5565443 3:4.4431753 4:0.02525011 
0.1 1:-0.98587293 2:1.4309242 3:0.47018543 4:-0.053076098 
0.1 1:-0.45935936 2:1.4309242 3:0.47018543 4:-0.053076098 
0.1 1:0.067154218 2:1.4309242 3:0.47018543 4:-0.053076098 
0.1 1:0.59366779 2:1.4309242 3:0.47018543 4:-0.053076098 
0.1 1:1.1201814 2:1.4309242 3:0.47018543 4:-0.053076098 
0.1 1:0.85692458 2:-0.21955581 3:0.16457083 4:1.2001432 
0.1 1:1.6466949 2:-0.21955581 3:0.16457083 4:1.2001432 
0.1 1:0.067154218 2:-0.87595503 3:-0.44665838 4:0.22106563 
-0.1 1:-0.45935936 2:1.8044301 3:0.16457083 4:0.02525011 
-0.1 1:0.59366779 2:1.8044301 3:0.16457083 4:0.02525011 
-0.1 1:1.1201814 2:1.8044301 3:0.16457083 4:0.02525011 
0.1 1:-0.98587293 2:1.5786536 3:-0.14104378 4:0.1156265 
0.1 1:-0.45935936 2:1.5786536 3:-0.14104378 4:0.1156265 
0.1 1:0.067154218 2:1.5786536 3:-0.14104378 4:0.1156265 
0.1 1:0.59366779 2:1.5786536 3:-0.14104378 4:0.1156265 
0.1 1:1.1201814 2:1.5786536 3:-0.14104378 4:0.1156265 
-0.08982878092818905 1:0.067154218 2:1.5381551 3:4.7487899 4:-0.015263446 
-0.1 1:0.85692458 2:1.5381551 3:4.7487899 4:-0.015263446 
-0.1 1:1.6466949 2:1.5381551 3:4.7487899 4:-0.015263446 
-0.1 1:2.4364653 2:1.5381551 3:4.7487899 4:-0.015263446 
0.1 1:0.067154218 2:-0.65028036 3:-0.14104378 4:1.380896 
0.1 1:0.85692458 2:-0.65028036 3:-0.14104378 4:1.380896 
0.1 1:1.6466949 2:-0.65028036 3:-0.14104378 4:1.380896 
0.1 1:2.4364653 2:-0.65028036 3:-0.14104378 4:1.380896 
0.1 1:1.1201814 2:1.7077307 3:1.3870293 4:-0.23583725 
0.1 1:-1.2491297 2:1.6790864 3:-1.0578876 4:-1.149643 
0.1 1:-0.98587293 2:1.6790864 3:-1.0578876 4:-1.149643 
0.1 1:-0.72261614 2:1.6790864 3:-1.0578876 4:-1.149643 
0.1 1:-0.45935936 2:1.6790864 3:-1.0578876 4:-1.149643 
0.1 1:-0.19610257 2:1.6790864 3:-1.0578876 4:-1.149643 
0.1 1:1.6466949 2:-0.94838928 3:1.6926439 4:0.58177842 
0.1 1:-1.2491297 2:-1.4128921 3:-1.3635022 4:-1.149643 
0.1 1:-0.98587293 2:-1.4128921 3:-1.3635022 4:-1.149643 
0.1 1:-0.72261614 2:-1.4128921 3:-1.3635022 4:-1.149643 
0.1 1:-0.45935936 2:-1.4128921 3:-1.3635022 4:-1.149643 
0.1 1:-0.19610257 2:-1.4128921 3:-1.3635022 4:-1.149643 
-0.1 1:0.067154218 2:1.0318427 3:0.47018543 4:-0.053076098 
-0.1 1:0.59366779 2:1.0318427 3:0.47018543 4:-0.053076098 
-0.1 1:1.1201814 2:1.0318427 3:0.47018543 4:-0.053076098 
0.1 1:0.067154218 2:0.134651 3:0.16457083 4:0.02525011 
0.1 1:0.59366779 2:0.134651 3:0.16457083 4:0.02525011 
0.1 1:1.1201814 2:0.134651 3:0.16457083 4:0.02525011 
-0.1 1:0.067154218 2:-1.3640297 3:-1.0578876 4:0.49520735 
0.1 1:0.85692458 2:-0.71760505 3:0.16457083 4:1.2001432 
0.1 1:1.6466949 2:-0.71760505 3:0.16457083 4:1.2001432 
0.1 1:2.4364653 2:-0.71760505 3:0.16457083 4:1.2001432 
-0.1 1:-0.98587293 2:-0.35141779 3:-1.0578876 4:0.49520735 
-0.1 1:-0.45935936 2:-0.35141779 3:-1.0578876 4:0.49520735 
-0.1 1:0.067154218 2:-0.35141779 3:-1.0578876 4:0.49520735 
-0.1 1:0.59366779 2:-0.35141779 3:-1.0578876 4:0.49520735 
-0.1 1:1.1201814 2:-0.35141779 3:-1.0578876 4:0.49520735 
0.1 1:0.067154218 2:0.61451992 3:-0.14104378 4:0.1156265 
0.1 1:-0.98587293 2:0.36468731 3:-1.0578876 4:0.49520735 
0.1 1:-0.45935936 2:0.36468731 3:-1.0578876 4:0.49520735 
0.1 1:0.067154218 2:0.36468731 3:-1.0578876 4:0.49520735 
0.1 1:0.59366779 2:0.36468731 3:-1.0578876 4:0.49520735 
0.1 1:1.1201814 2:0.36468731 3:-1.0578876 4:0.49520735 
0.1 1:0.067154218 2:-0.001946885 3:0.47018543 4:-0.053076098 
0.1 1:0.59366779 2:-0.001946885 3:0.47018543 4:-0.053076098 
0.1 1:1.1201814 2:-0.001946885 3:0.47018543 4:-0.053076098 
-0.1 1:0.067154218 2:-1.2990299 3:-0.44665838 4:1.5917743 
-0.1 1:1.6466949 2:-1.2990299 3:-0.44665838 4:1.5917743 
0.1 1:-0.98587293 2:0.85098953 3:1.0814146 4:-0.18208397 
0.1 1:0.067154218 2:0.85098953 3:1.0814146 4:-0.18208397 
0.1 1:0.59366779 2:0.85098953 3:1.0814146 4:-0.18208397 
0.1 1:-0.98587293 2:-0.34367385 3:-0.75227299 4:0.3456755 
0.1 1:-0.45935936 2:-0.34367385 3:-0.75227299 4:0.3456755 
0.1 1:0.067154218 2:-0.34367385 3:-0.75227299 4:0.3456755 
0.1 1:0.59366779 2:-0.34367385 3:-0.75227299 4:0.3456755 
0.1 1:1.1201814 2:-0.34367385 3:-0.75227299 4:0.3456755 
-0.1 1:-0.45935936 2:0.20422222 3:1.3870293 4:-0.23583725 
-0.1 1:-1.2491297 2:0.097753506 3:0.16457083 4:-1.149643 
-0.1 1:-0.45935936 2:0.097753506 3:0.16457083 4:-1.149643 
0.1 1:0.59366779 2:-0.12643996 3:-1.0578876 4:0.49520735 
0.1 1:-1.2491297 2:0.52556519 3:-0.75227299 4:-1.149643 
0.1 1:-0.98587293 2:0.52556519 3:-0.75227299 4:-1.149643 
0.1 1:-0.45935936 2:0.52556519 3:-0.75227299 4:-1.149643 
-0.02105770232598762 1:0.59366779 2:1.5189377 3:-0.44665838 4:0.22106563 
0.1 1:0.59366779 2:0.098515142 3:0.47018543 4:-0.053076098 
-0.01377663512738613 1:-0.98587293 2:-1.7819033 3:-1.3635022 4:0.6779685 
-0.1 1:-0.45935936 2:-1.7819033 3:-1.3635022 4:0.6779685 
-0.1 1:0.067154218 2:-1.7819033 3:-1.3635022 4:0.6779685 
-0.1 1:0.59366779 2:-1.7819033 3:-1.3635022 4:0.6779685 
-0.1 1:1.1201814 2:-1.7819033 3:-1.3635022 4:0.6779685 
0.1 1:-0.45935936 2:0.79896237 3:-1.0578876 4:-1.149643 
0.1 1:-0.19610257 2:0.79896237 3:-1.0578876 4:-1.149643 
-0.1 1:0.85692458 2:-1.1997206 3:-1.0578876 4:2.1400577 
-0.1 1:2.4364653 2:-1.1997206 3:-1.0578876 4:2.1400577 
0.02428675629769277 1:-0.98587293 2:-0.79018686 3:0.77580004 4:-1.149643 
0.1 1:-0.72261614 2:-0.79018686 3:0.77580004 4:-1.149643 
0.1 1:-0.45935936 2:-0.79018686 3:0.77580004 4:-1.149643 
0.1 1:-0.19610257 2:-0.79018686 3:0.77580004 4:-1.149643 
-0.1 1:-0.45935936 2:-0.66549172 3:0.16457083 4:-1.149643 
-0.1 1:-0.19610257 2:-0.66549172 3:0.16457083 4:-1.149643 
0.1 1:-1.2491297 2:0.3282456 3:0.16457083 4:-1.149643 
0.1 1:-0.72261614 2:0.3282456 3:0.16457083 4:-1.149643 
0.1 1:-0.45935936 2:0.12139388 3:0.77580004 4:-0.12161153 
0.1 1:0.59366779 2:0.12139388 3:0.77580004 4:-0.12161153 
0.1 1:1.1201814 2:0.12139388 3:0.77580004 4:-0.12161153 
0.1 1:0.59366779 2:-1.7006784 3:-0.44665838 4:0.22106563 
0.1 1:1.1201814 2:-1.7006784 3:-0.44665838 4:0.22106563 
-0.1 1:0.59366779 2:-0.62001082 3:-0.75227299 4:0.3456755 
-0.1 1:1.1201814 2:-0.62001082 3:-0.75227299 4:0.3456755 
-0.1 1:-0.98587293 2:-0.17378475 3:-0.75227299 4:0.3456755 
-0.1 1:0.067154218 2:-0.17378475 3:-0.75227299 4:0.3456755 
0.1 1:-0.45935936 2:0.11458818 3:-0.14104378 4:0.1156265 
0.1 1:0.067154218 2:0.11458818 3:-0.14104378 4:0.1156265 
0.1 1:0.59366779 2:0.11458818 3:-0.14104378 4:0.1156265 
0.1 1:1.1201814 2:0.11458818 3:-0.14104378 4:0.1156265 
0.1 1:-1.2491297 2:-0.81886109 3:-0.14104378 4:-1.149643 
0.1 1:-0.98587293 2:-0.81886109 3:-0.14104378 4:-1.149643 
0.1 1:-0.72261614 2:-0.81886109 3:-0.14104378 4:-1.149643 
0.1 1:-0.45935936 2:-0.81886109 3:-0.14104378 4:-1.149643 
0.1 1:-0.19610257 2:-0.81886109 3:-0.14104378 4:-1.149643 
0.1 1:2.4364653 2:-1.3715003 3:1.0814146 4:0.78547506 
-0.1 1:1.1201814 2:-0.17878557 3:-0.75227299 4:0.3456755 
-0.1 1:-0.72261614 2:-0.91315276 3:0.77580004 4:-1.149643 
-0.1 1:-0.72261614 2:-0.20123761 3:-0.44665838 4:1.5917743 
-0.1 1:0.85692458 2:-0.20123761 3:-0.44665838 4:1.5917743 
-0.1 1:1.6466949 2:-0.20123761 3:-0.44665838 4:1.5917743 
-0.1 1:2.4364653 2:-0.20123761 3:-0.44665838 4:1.5917743 
0.1 1:-0.98587293 2:-1.4307173 3:0.47018543 4:-0.053076098 
0.1 1:-0.45935936 2:-1.4307173 3:0.47018543 4:-0.053076098 
0.1 1:0.067154218 2:-1.4307173 3:0.47018543 4:-0.053076098 
0.1 1:0.59366779 2:-1.4307173 3:0.47018543 4:-0.053076098 
0.1 1:1.1201814 2:-1.4307173 3:0.47018543 4:-0.053076098 
-0.1 1:-0.98587293 2:0.54927723 3:-0.75227299 4:-1.149643 
-0.01660063846116572 1:0.59366779 2:-1.3954312 3:4.1375607 4:-0.54043916 
-0.1 1:1.1201814 2:1.6297504 3:0.77580004 4:-0.12161153 
-0.1 1:0.59366779 2:-0.27356769 3:0.77580004 4:-0.12161153 
-0.0185316516282148 1:1.1201814 2:-0.27356769 3:0.77580004 4:-0.12161153 
0.1 1:-0.45935936 2:0.3363113 3:0.47018543 4:-1.149643 
0.1 1:-0.19610257 2:0.3363113 3:0.47018543 4:-1.149643 
-0.1 1:-0.98587293 2:0.91029286 3:-0.44665838 4:0.22106563 
-0.1 1:0.067154218 2:0.91029286 3:-0.44665838 4:0.22106563 
-0.1 1:0.59366779 2:0.91029286 3:-0.44665838 4:0.22106563 
-0.1 1:-1.2491297 2:-0.28322899 3:0.77580004 4:-1.149643 
0.1 1:-0.98587293 2:0.90789896 3:0.47018543 4:-1.149643 
0.05856893371876815 1:-0.19610257 2:0.90789896 3:0.47018543 4:-1.149643 
-0.1 1:-0.98587293 2:-1.7256109 3:-0.75227299 4:0.3456755 
-0.1 1:0.067154218 2:-1.7256109 3:-0.75227299 4:0.3456755 
-0.1 1:0.59366779 2:-1.7256109 3:-0.75227299 4:0.3456755 
0.1 1:-1.2491297 2:-0.52027398 3:0.16457083 4:-1.149643 
0.1 1:-0.98587293 2:-0.52027398 3:0.16457083 4:-1.149643 
0.1 1:-0.72261614 2:-0.52027398 3:0.16457083 4:-1.149643 
0.1 1:-0.45935936 2:-0.52027398 3:0.16457083 4:-1.149643 
0.1 1:-0.19610257 2:-0.52027398 3:0.16457083 4:-1.149643 
0.1 1:-0.45935936 2:0.18005307 3:-0.14104378 4:-1.149643 
-0.1 1:-1.2491297 2:-0.41052963 3:-0.44665838 4:-1.149643 
-0.1 1:-0.98587293 2:-0.41052963 3:-0.44665838 4:-1.149643 
-0.1 1:-0.19610257 2:-0.41052963 3:-0.44665838 4:-1.149643 
0.1 1:-0.72261614 2:-0.51028749 3:-0.44665838 4:1.5917743 
0.1 1:0.067154218 2:-0.51028749 3:-0.44665838 4:1.5917743 
0.1 1:0.85692458 2:-0.51028749 3:-0.44665838 4:1.5917743 
0.1 1:1.6466949 2:-0.51028749 3:-0.44665838 4:1.5917743 
0.1 1:2.4364653 2:-0.51028749 3:-0.44665838 4:1.5917743 
-0.1 1:-0.98587293 2:1.9996622 3:1.0814146 4:-1.149643 
-0.1 1:-0.72261614 2:1.9996622 3:1.0814146 4:-1.149643 
-0.1 1:-0.45935936 2:1.9996622 3:1.0814146 4:-1.149643 
-0.1 1:-0.19610257 2:1.9996622 3:1.0814146 4:-1.149643 
-0.1 1:-0.98587293 2:1.6644956 3:-0.75227299 4:-1.149643 
-0.1 1:-0.45935936 2:1.6644956 3:-0.75227299 4:-1.149643 
-0.1 1:-0.19610257 2:1.6644956 3:-0.75227299 4:-1.149643 
-0.1 1:-0.72261614 2:-1.0028427 3:0.47018543 4:1.0434908 
0.1 1:0.067154218 2:-1.0028427 3:0.47018543 4:1.0434908 
0.1 1:0.85692458 2:-1.0028427 3:0.47018543 4:1.0434908 
0.1 1:1.6466949 2:-1.0028427 3:0.47018543 4:1.0434908 
0.1 1:2.4364653 2:-1.0028427 3:0.47018543 4:1.0434908 
0.1 1:-0.45935936 2:-0.0061018356 3:1.0814146 4:-0.18208397 
0.1 1:0.067154218 2:-0.0061018356 3:1.0814146 4:-0.18208397 
0.1 1:0.59366779 2:-0.0061018356 3:1.0814146 4:-0.18208397 
0.1 1:1.1201814 2:-0.0061018356 3:1.0814146 4:-0.18208397 
-0.04322307446641575 1:-0.98587293 2:-1.590027 3:0.77580004 4:-0.12161153 
0.1 1:1.1201814 2:-1.590027 3:0.77580004 4:-0.12161153 
-0.1 1:-0.98587293 2:0.033628995 3:-1.0578876 4:0.49520735 
-0.01631168426880782 1:-0.98587293 2:-1.6230115 3:2.6094877 4:-1.149643 
-0.03087877832892692 1:-0.45935936 2:-1.6230115 3:2.6094877 4:-1.149643 
-0.1 1:0.067154218 2:-0.90313939 3:0.16457083 4:1.2001432 
-0.1 1:0.85692458 2:-0.90313939 3:0.16457083 4:1.2001432 
-0.1 1:1.6466949 2:-0.90313939 3:0.16457083 4:1.2001432 
-0.1 1:2.4364653 2:-0.90313939 3:0.16457083 4:1.2001432 
0.1 1:-0.45935936 2:-0.49929842 3:-0.14104378 4:0.1156265 
0.1 1:0.067154218 2:0.43272963 3:-0.75227299 4:1.840994 
0.1 1:1.6466949 2:0.43272963 3:-0.75227299 4:1.840994 
0.1 1:2.4364653 2:0.43272963 3:-0.75227299 4:1.840994 
0.1 1:0.067154218 2:0.88237943 3:1.3870293 4:0.6779685 
0.1 1:0.85692458 2:0.88237943 3:1.3870293 4:0.6779685 
-0.1 1:-0.72261614 2:-0.4796991 3:-0.14104378 4:-1.149643 
-0.1 1:-0.19610257 2:-0.4796991 3:-0.14104378 4:-1.149643 
-0.1 1:2.4364653 2:0.49714638 3:0.16457083 4:1.2001432 
-0.1 1:0.59366779 2:-0.3839344 3:-1.0578876 4:0.49520735 
-0.1 1:1.1201814 2:-0.3839344 3:-1.0578876 4:0.49520735 
-0.1 1:-0.45935936 2:1.6055731 3:1.3870293 4:-0.23583725 
-0.1 1:0.067154218 2:1.6055731 3:1.3870293 4:-0.23583725 
-0.1 1:0.59366779 2:1.6055731 3:1.3870293 4:-0.23583725 
-0.1 1:1.1201814 2:1.6055731 3:1.3870293 4:-0.23583725 
0.1 1:-0.45935936 2:1.2097274 3:0.47018543 4:-1.149643 
0.1 1:-0.19610257 2:1.2097274 3:0.47018543 4:-1.149643 
-0.1 1:-0.45935936 2:1.6148374 3:0.77580004 4:-0.12161153 
-0.1 1:1.1201814 2:1.6148374 3:0.77580004 4:-0.12161153 
0.1 1:0.59366779 2:-0.33639697 3:0.16457083 4:0.02525011 
-0.1 1:0.85692458 2:-0.74392294 3:0.16457083 4:1.2001432 
-0.1 1:1.6466949 2:-0.74392294 3:0.16457083 4:1.2001432 
-0.1 1:2.4364653 2:-0.74392294 3:0.16457083 4:1.2001432 
0.1 1:-0.98587293 2:-0.095334782 3:-0.75227299 4:0.3456755 
0.1 1:-0.45935936 2:-0.095334782 3:-0.75227299 4:0.3456755 
0.1 1:0.067154218 2:-0.095334782 3:-0.75227299 4:0.3456755 
0.1 1:0.59366779 2:-0.095334782 3:-0.75227299 4:0.3456755 
0.1 1:1.1201814 2:-0.095334782 3:-0.75227299 4:0.3456755 
0.1 1:-0.98587293 2:-1.5739252 3:-0.44665838 4:0.22106563 
0.1 1:-0.45935936 2:-1.5739252 3:-0.44665838 4:0.22106563 
0.1 1:0.067154218 2:-1.5739252 3:-0.44665838 4:0.22106563 
0.1 1:0.59366779 2:-1.5739252 3:-0.44665838 4:0.22106563 
0.1 1:1.1201814 2:-1.5739252 3:-0.44665838 4:0.22106563 
-0.1 1:0.067154218 2:-1.5263638 3:0.16457083 4:1.2001432 
-0.1 1:0.85692458 2:-1.5263638 3:0.16457083 4:1.2001432 
-0.1 1:1.6466949 2:-1.5263638 3:0.16457083 4:1.2001432 
-0.1 1:2.4364653 2:-1.5263638 3:0.16457083 4:1.2001432 
0.1 1:-1.2491297 2:-0.22333593 3:-0.14104378 4:-1.149643 
0.1 1:-0.98587293 2:0.8858395 3:0.77580004 4:-0.12161153 
0.1 1:0.067154218 2:0.8858395 3:0.77580004 4:-0.12161153 
-0.1 1:-0.98587293 2:-0.61356818 3:0.47018543 4:-0.053076098 
-0.1 1:-0.45935936 2:-0.61356818 3:0.47018543 4:-0.053076098 
-0.1 1:0.067154218 2:-0.61356818 3:0.47018543 4:-0.053076098 
-0.1 1:0.59366779 2:-0.61356818 3:0.47018543 4:-0.053076098 
-0.1 1:1.1201814 2:-0.61356818 3:0.47018543 4:-0.053076098 
0.1 1:0.067154218 2:-0.71620047 3:-0.44665838 4:0.22106563 
0.1 1:0.59366779 2:-0.71620047 3:-0.44665838 4:0.22106563 
0.1 1:1.1201814 2:-0.71620047 3:-0.44665838 4:0.22106563 
-0.1 1:0.067154218 2:0.34700479 3:-0.44665838 4:0.22106563 
-0.1 1:0.59366779 2:0.34700479 3:-0.44665838 4:0.22106563 
0.1 1:0.067154218 2:-0.90796443 3:-1.0578876 4:0.49520735 
0.1 1:0.59366779 2:-0.90796443 3:-1.0578876 4:0.49520735 
0.1 1:1.1201814 2:-0.90796443 3:-1.0578876 4:0.49520735 
-0.1 1:-0.98587293 2:0.51587824 3:-0.44665838 4:0.22106563 
-0.1 1:-0.45935936 2:0.51587824 3:-0.44665838 4:0.22106563 
-0.1 1:0.59366779 2:0.51587824 3:-0.44665838 4:0.22106563 
-0.1 1:1.1201814 2:0.51587824 3:-0.44665838 4:0.22106563 
-0.06523712676664144 1:0.59366779 2:-0.7876974 3:-1.0578876 4:3.7849081 
0.1 1:3.7527492 2:-0.7876974 3:-1.0578876 4:3.7849081 
-0.1 1:0.067154218 2:-0.6059082 3:-1.0578876 4:2.1400577 
0.1 1:-0.45935936 2:-0.97572129 3:-0.44665838 4:2.9624829 
0.1 1:1.6466949 2:-0.97572129 3:-0.44665838 4:2.9624829 
0.1 1:2.6997221 2:-0.97572129 3:-0.44665838 4:2.9624829 
0.1 1:3.7527492 2:-0.97572129 3:-0.44665838 4:2.9624829 
0.1 1:-0.98587293 2:1.3018661 3:-0.44665838 4:0.22106563 
0.1 1:-0.45935936 2:1.3018661 3:-0.44665838 4:0.22106563 
0.1 1:0.067154218 2:1.3018661 3:-0.44665838 4:0.22106563 
0.1 1:0.59366779 2:1.3018661 3:-0.44665838 4:0.22106563 
0.1 1:1.1201814 2:1.3018661 3:-0.44665838 4:0.22106563 
0.1 1:-0.19610257 2:-0.41434531 3:-0.75227299 4:-1.149643 
-0.1 1:-0.98587293 2:1.4196498 3:1.0814146 4:-0.18208397 
-0.1 1:0.59366779 2:1.4196498 3:1.0814146 4:-0.18208397 
0.1 1:-0.98587293 2:-0.69072704 3:-1.0578876 4:0.49520735 
0.1 1:-0.45935936 2:-0.69072704 3:-1.0578876 4:0.49520735 
0.1 1:0.067154218 2:-0.69072704 3:-1.0578876 4:0.49520735 
0.1 1:0.59366779 2:-0.69072704 3:-1.0578876 4:0.49520735 
0.1 1:1.1201814 2:-0.69072704 3:-1.0578876 4:0.49520735 
-0.1 1:0.85692458 2:0.51096902 3:0.77580004 4:0.90641994 
-0.1 1:1.6466949 2:0.51096902 3:0.77580004 4:0.90641994 
0.1 1:1.1201814 2:0.13097225 3:-0.75227299 4:0.3456755 
0.1 1:-0.98587293 2:-0.85075183 3:0.16457083 4:-1.149643 
0.1 1:-0.72261614 2:-0.85075183 3:0.16457083 4:-1.149643 
0.1 1:-0.45935936 2:-0.85075183 3:0.16457083 4:-1.149643 
0.1 1:-0.19610257 2:-0.85075183 3:0.16457083 4:-1.149643 
0.1 1:2.6997221 2:-0.68593877 3:1.3870293 4:1.5917743 
0.05859609648887226 1:3.7527492 2:-0.68593877 3:1.3870293 4:1.5917743 
-0.1 1:0.067154218 2:-0.30641239 3:-0.44665838 4:0.22106563 
-0.1 1:0.59366779 2:-0.30641239 3:-0.44665838 4:0.22106563 
-0.1 1:1.1201814 2:-0.30641239 3:-0.44665838 4:0.22106563 
0.07137799120131742 1:-0.98587293 2:-1.173215 3:-0.44665838 4:0.22106563 
0.1 1:-0.45935936 2:-1.173215 3:-0.44665838 4:0.22106563 
0.1 1:0.067154218 2:-1.173215 3:-0.44665838 4:0.22106563 
0.1 1:0.59366779 2:-1.173215 3:-0.44665838 4:0.22106563 
0.1 1:1.1201814 2:-1.173215 3:-0.44665838 4:0.22106563 
0.1 1:-0.72261614 2:-0.30536074 3:-1.3635022 4:-1.149643 
-0.1 1:-0.72261614 2:-0.62245849 3:0.77580004 4:0.90641994 
-0.1 1:0.85692458 2:-0.62245849 3:0.77580004 4:0.90641994 
-0.1 1:1.6466949 2:-0.62245849 3:0.77580004 4:0.90641994 
-0.1 1:2.4364653 2:-0.62245849 3:0.77580004 4:0.90641994 
-0.1 1:0.067154218 2:-0.52476185 3:-0.44665838 4:1.5917743 
0.1 1:-0.45935936 2:0.91861945 3:-1.0578876 4:0.49520735 
0.1 1:0.067154218 2:0.91861945 3:-1.0578876 4:0.49520735 
0.1 1:0.59366779 2:0.91861945 3:-1.0578876 4:0.49520735 
0.1 1:1.1201814 2:0.91861945 3:-1.0578876 4:0.49520735 
-0.1 1:-0.45935936 2:0.92128012 3:0.77580004 4:-1.149643 
-0.1 1:-0.19610257 2:0.92128012 3:0.77580004 4:-1.149643 
0.04794471830042518 1:-1.2491297 2:1.5172166 3:2.3038731 4:-1.149643 
0.1 1:-0.98587293 2:1.5172166 3:2.3038731 4:-1.149643 
0.1 1:-0.72261614 2:1.5172166 3:2.3038731 4:-1.149643 
0.1 1:-1.2491297 2:-1.1116233 3:-0.44665838 4:-1.149643 
0.1 1:-0.72261614 2:-1.1116233 3:-0.44665838 4:-1.149643 
0.1 1:-0.45935936 2:-1.1116233 3:-0.44665838 4:-1.149643 
0.1 1:-0.19610257 2:-1.1116233 3:-0.44665838 4:-1.149643 
-0.1 1:-1.2491297 2:0.93043678 3:0.47018543 4:-1.149643 
0.07473258024968703 1:0.59366779 2:1.1399337 3:-1.0578876 4:0.49520735 
0.1 1:-0.98587293 2:0.6887841 3:-1.0578876 4:0.49520735 
0.1 1:-0.45935936 2:0.6887841 3:-1.0578876 4:0.49520735 
0.1 1:0.067154218 2:0.6887841 3:-1.0578876 4:0.49520735 
0.1 1:0.59366779 2:0.6887841 3:-1.0578876 4:0.49520735 
0.1 1:1.1201814 2:0.6887841 3:-1.0578876 4:0.49520735 
-0.1 1:-0.98587293 2:-0.87869374 3:0.16457083 4:-1.149643 
0.1 1:0.067154218 2:-0.062669292 3:0.77580004 4:-0.12161153 
0.1 1:0.59366779 2:-0.062669292 3:0.77580004 4:-0.12161153 
0.1 1:1.1201814 2:-0.062669292 3:0.77580004 4:-0.12161153 
-0.1 1:-1.2491297 2:1.2298533 3:0.16457083 4:-1.149643 
-0.1 1:-0.98587293 2:1.2298533 3:0.16457083 4:-1.149643 
-0.1 1:-0.72261614 2:1.2298533 3:0.16457083 4:-1.149643 
-0.1 1:-0.45935936 2:1.2298533 3:0.16457083 4:-1.149643 
-0.1 1:-0.19610257 2:1.2298533 3:0.16457083 4:-1.149643 
0.009431691845290174 1:-0.98587293 2:-0.85765079 3:4.4431753 4:-1.149643 
0.1 1:-1.2491297 2:-1.4108399 3:-1.3635022 4:-1.149643 
0.1 1:-0.98587293 2:-1.4108399 3:-1.3635022 4:-1.149643 
0.1 1:-0.72261614 2:-1.4108399 3:-1.3635022 4:-1.149643 
0.1 1:-0.45935936 2:-1.4108399 3:-1.3635022 4:-1.149643 
0.1 1:-0.19610257 2:-1.4108399 3:-1.3635022 4:-1.149643 
-0.08827051035751246 1:-0.45935936 2:-0.12762442 3:-1.0578876 4:0.49520735 
-0.1 1:1.6466949 2:0.19517269 3:0.16457083 4:1.2001432 
-0.1 1:2.4364653 2:0.19517269 3:0.16457083 4:1.2001432 
-0.1 1:0.85692458 2:0.61359636 3:-0.75227299 4:1.840994 
0.04497562359741832 1:2.4364653 2:0.61359636 3:-0.75227299 4:1.840994 
-0.06190337197053779 1:-0.98587293 2:-0.0066177532 3:1.9982585 4:-0.32721782 
-0.1 1:-0.45935936 2:-0.0066177532 3:1.9982585 4:-0.32721782 
-0.1 1:0.067154218 2:-0.0066177532 3:1.9982585 4:-0.32721782 
-0.1 1:0.59366779 2:-0.0066177532 3:1.9982585 4:-0.32721782 
-0.1 1:1.1201814 2:-0.0066177532 3:1.9982585 4:-0.32721782 
0.1 1:-0.45935936 2:1.6859067 3:-0.44665838 4:0.22106563 
0.1 1:0.59366779 2:1.6859067 3:-0.44665838 4:0.22106563 
0.1 1:1.1201814 2:1.6859067 3:-0.44665838 4:0.22106563 
-0.1 1:-0.72261614 2:0.15756818 3:0.77580004 4:0.90641994 
-0.1 1:0.067154218 2:0.42167992 3:0.77580004 4:-0.12161153 
-0.1 1:0.59366779 2:0.42167992 3:0.77580004 4:-0.12161153 
-0.1 1:1.1201814 2:0.42167992 3:0.77580004 4:-0.12161153 
0.009938753572110264 1:-0.45935936 2:-0.31389402 3:-1.0578876 4:0.49520735 
0.1 1:0.067154218 2:-0.31389402 3:-1.0578876 4:0.49520735 
0.1 1:0.59366779 2:-0.31389402 3:-1.0578876 4:0.49520735 
0.1 1:1.1201814 2:-0.31389402 3:-1.0578876 4:0.49520735 
0.1 1:0.59366779 2:-0.79584304 3:-0.44665838 4:0.22106563 
0.1 1:1.1201814 2:-0.79584304 3:-0.44665838 4:0.22106563 
-0.02513803677665638 1:-0.72261614 2:0.64966357 3:-0.14104378 4:1.380896 
-0.1 1:0.067154218 2:0.64966357 3:-0.14104378 4:1.380896 
-0.1 1:0.85692458 2:0.64966357 3:-0.14104378 4:1.380896 
-0.1 1:1.6466949 2:0.64966357 3:-0.14104378 4:1.380896 
-0.1 1:2.4364653 2:0.64966357 3:-0.14104378 4:1.380896 
-0.06539607629485503 1:2.4364653 2:-1.4809124 3:-0.44665838 4:1.5917743 
0.1 1:0.85692458 2:0.32111482 3:-1.0578876 4:2.1400577 
0.1 1:1.6466949 2:0.32111482 3:-1.0578876 4:2.1400577 
0.1 1:2.4364653 2:0.32111482 3:-1.0578876 4:2.1400577 
-0.1 1:0.067154218 2:-0.46555202 3:1.3870293 4:-0.23583725 
-0.0008452672956149095 1:1.1201814 2:1.50383 3:4.4431753 4:-0.56219644 
-0.1 1:0.59366779 2:-0.043454618 3:-0.75227299 4:0.3456755 
-0.1 1:1.1201814 2:-0.043454618 3:-0.75227299 4:0.3456755 
0.1 1:-0.19610257 2:1.3948707 3:0.47018543 4:-1.149643 
0.1 1:-1.2491297 2:-1.0491892 3:1.3870293 4:-1.149643 
0.1 1:-0.98587293 2:-1.0491892 3:1.3870293 4:-1.149643 
0.1 1:-0.72261614 2:-1.0491892 3:1.3870293 4:-1.149643 
0.1 1:-0.45935936 2:-1.0491892 3:1.3870293 4:-1.149643 
-0.1 1:-0.72261614 2:-0.29779119 3:0.47018543 4:1.0434908 
-0.1 1:0.85692458 2:-0.29779119 3:0.47018543 4:1.0434908 
-0.1 1:1.6466949 2:-0.29779119 3:0.47018543 4:1.0434908 
-0.04835291328397728 1:-0.45935936 2:1.0299784 3:-1.0578876 4:0.49520735 
-0.1 1:0.59366779 2:1.0299784 3:-1.0578876 4:0.49520735 
-0.1 1:1.1201814 2:1.0299784 3:-1.0578876 4:0.49520735 
-0.1 1:-1.2491297 2:0.11464461 3:-1.0578876 4:-1.149643 
-0.1 1:-0.45935936 2:0.11464461 3:-1.0578876 4:-1.149643 
-0.1 1:-0.19610257 2:0.11464461 3:-1.0578876 4:-1.149643 
-0.1 1:-0.98587293 2:1.216505 3:0.16457083 4:0.02525011 
-0.1 1:0.067154218 2:1.216505 3:0.16457083 4:0.02525011 
0.1 1:-0.72261614 2:-1.2670868 3:-0.44665838 4:-1.149643 
0.1 1:-0.45935936 2:-1.2670868 3:-0.44665838 4:-1.149643 
0.1 1:-0.19610257 2:-1.2670868 3:-0.44665838 4:-1.149643 
0.1 1:-0.98587293 2:1.1784216 3:0.77580004 4:-0.12161153 
0.1 1:-0.45935936 2:1.1784216 3:0.77580004 4:-0.12161153 
0.1 1:0.067154218 2:1.1784216 3:0.77580004 4:-0.12161153 
0.1 1:1.1201814 2:1.1784216 3:0.77580004 4:-0.12161153 
0.1 1:-0.45935936 2:0.23640336 3:-1.0578876 4:0.49520735 
0.1 1:1.1201814 2:0.23640336 3:-1.0578876 4:0.49520735 
0.1 1:-0.72261614 2:-1.2502624 3:-0.44665838 4:-1.149643 
0.1 1:-0.45935936 2:-1.2502624 3:-0.44665838 4:-1.149643 
0.1 1:-0.19610257 2:-1.2502624 3:-0.44665838 4:-1.149643 
-0.1 1:-0.45935936 2:-0.56699061 3:-1.3635022 4:-1.149643 
-0.1 1:-0.19610257 2:-0.56699061 3:-1.3635022 4:-1.149643 
0.1 1:0.067154218 2:0.68456631 3:-1.3635022 4:0.6779685 
0.1 1:0.59366779 2:0.68456631 3:-1.3635022 4:0.6779685 
0.1 1:1.1201814 2:0.68456631 3:-1.3635022 4:0.6779685 
-0.1 1:0.067154218 2:-0.92411317 3:-1.0578876 4:0.49520735 
-0.1 1:0.067154218 2:-0.62981409 3:0.77580004 4:0.90641994 
-0.07831235373768806 1:0.85692458 2:-0.62981409 3:0.77580004 4:0.90641994 
-0.1 1:1.6466949 2:-0.62981409 3:0.77580004 4:0.90641994 
-0.1 1:2.4364653 2:-0.62981409 3:0.77580004 4:0.90641994 
-0.1 1:0.59366779 2:0.60087521 3:-1.3635022 4:0.6779685 
-0.05298199307724864 1:1.1201814 2:0.60087521 3:-1.3635022 4:0.6779685 
-0.1 1:-0.98587293 2:-0.36552556 3:-1.0578876 4:0.49520735 
-0.1 1:-0.45935936 2:-0.36552556 3:-1.0578876 4:0.49520735 
-0.1 1:0.067154218 2:-0.36552556 3:-1.0578876 4:0.49520735 
-0.1 1:0.59366779 2:-0.36552556 3:-1.0578876 4:0.49520735 
-0.1 1:1.1201814 2:-0.36552556 3:-1.0578876 4:0.49520735 
-0.1 1:-0.45935936 2:-0.5748097 3:-0.44665838 4:0.22106563 
-0.1 1:0.067154218 2:-0.5748097 3:-0.44665838 4:0.22106563 
-0.1 1:0.59366779 2:-0.5748097 3:-0.44665838 4:0.22106563 
-0.1 1:1.1201814 2:-0.5748097 3:-0.44665838 4:0.22106563 
-0.1 1:-1.2491297 2:-0.88617422 3:-0.75227299 4:-1.149643 
-0.1 1:-0.98587293 2:-0.88617422 3:-0.75227299 4:-1.149643 
-0.1 1:-0.72261614 2:-0.88617422 3:-0.75227299 4:-1.149643 
-0.1 1:-0.45935936 2:-0.88617422 3:-0.75227299 4:-1.149643 
-0.1 1:0.067154218 2:-0.48851868 3:0.16457083 4:0.02525011 
-0.1 1:0.59366779 2:-0.48851868 3:0.16457083 4:0.02525011 
-0.1 1:1.1201814 2:-0.48851868 3:0.16457083 4:0.02525011 
0.09616587602947493 1:-0.72261614 2:1.7402157 3:1.3870293 4:-1.149643 
0.1 1:-0.45935936 2:1.7402157 3:1.3870293 4:-1.149643 
-0.1 1:-0.98587293 2:0.58860666 3:-0.44665838 4:0.22106563 
-0.1 1:-0.45935936 2:0.58860666 3:-0.44665838 4:0.22106563 
-0.1 1:0.067154218 2:0.58860666 3:-0.44665838 4:0.22106563 
-0.1 1:0.59366779 2:-0.81422158 3:-1.0578876 4:0.49520735 
-0.1 1:1.1201814 2:-0.81422158 3:-1.0578876 4:0.49520735 
-0.1 1:0.067154218 2:-1.5272907 3:-0.75227299 4:0.3456755 
-0.1 1:1.1201814 2:-1.5272907 3:-0.75227299 4:0.3456755 
0.1 1:0.067154218 2:-0.12734506 3:-0.14104378 4:0.1156265 
0.1 1:0.59366779 2:-0.12734506 3:-0.14104378 4:0.1156265 
-0.1 1:-1.2491297 2:0.18647031 3:-0.14104378 4:-1.149643 
-0.1 1:-0.98587293 2:0.18647031 3:-0.14104378 4:-1.149643 
-0.1 1:-0.72261614 2:0.18647031 3:-0.14104378 4:-1.149643 
-0.1 1:-0.45935936 2:0.18647031 3:-0.14104378 4:-1.149643 
-0.1 1:-0.19610257 2:0.18647031 3:-0.14104378 4:-1.149643 
-0.1 1:0.067154218 2:1.0435204 3:0.16457083 4:1.2001432 
-0.1 1:0.85692458 2:1.0435204 3:0.16457083 4:1.2001432 
-0.1 1:1.6466949 2:1.0435204 3:0.16457083 4:1.2001432 
-0.1 1:2.4364653 2:1.0435204 3:0.16457083 4:1.2001432 
0.1 1:-0.98587293 2:0.40597173 3:0.77580004 4:-0.12161153 
-0.1 1:0.067154218 2:0.2855634 3:-0.44665838 4:0.22106563 
0.1 1:0.59366779 2:-0.56039422 3:-0.75227299 4:0.3456755 
0.1 1:1.1201814 2:-0.56039422 3:-0.75227299 4:0.3456755 
-0.1 1:-1.2491297 2:1.7279652 3:1.6926439 4:-1.149643 
-0.1 1:-0.98587293 2:1.7279652 3:1.6926439 4:-1.149643 
-0.1 1:-0.72261614 2:1.7279652 3:1.6926439 4:-1.149643 
-0.1 1:-0.45935936 2:1.7279652 3:1.6926439 4:-1.149643 
-0.1 1:-0.19610257 2:1.7279652 3:1.6926439 4:-1.149643 
-0.1 1:-0.98587293 2:0.1451377 3:-1.0578876 4:0.49520735 
-0.1 1:0.59366779 2:0.1451377 3:-1.0578876 4:0.49520735 
-0.1 1:0.067154218 2:0.29247585 3:0.47018543 4:-0.053076098 
-0.1 1:1.1201814 2:0.29247585 3:0.47018543 4:-0.053076098 
-0.1 1:1.1201814 2:1.0778696 3:-0.75227299 4:0.3456755 
-0.02487713991234786 1:2.4364653 2:1.5823178 3:2.6094877 4:0.3456755 
0.1 1:-0.98587293 2:0.82643473 3:-1.0578876 4:0.49520735 
0.1 1:-0.45935936 2:0.82643473 3:-1.0578876 4:0.49520735 
0.1 1:0.067154218 2:0.82643473 3:-1.0578876 4:0.49520735 
0.1 1:0.59366779 2:0.82643473 3:-1.0578876 4:0.49520735 
0.1 1:1.1201814 2:0.82643473 3:-1.0578876 4:0.49520735 
-0.1 1:-0.45935936 2:-0.36022589 3:0.77580004 4:-0.12161153 
-0.1 1:0.067154218 2:-0.36022589 3:0.77580004 4:-0.12161153 
-0.1 1:0.59366779 2:-0.36022589 3:0.77580004 4:-0.12161153 
-0.1 1:1.1201814 2:-0.36022589 3:0.77580004 4:-0.12161153 
-0.1 1:2.4364653 2:1.0224954 3:-0.75227299 4:1.840994 
-0.1 1:-1.2491297 2:0.25659984 3:-0.44665838 4:-1.149643 
0.1 1:-0.45935936 2:0.25659984 3:-0.44665838 4:-1.149643 
-0.04738574122425505 1:-0.72261614 2:0.50217301 3:-1.0578876 4:2.1400577 
-0.008461017846730697 1:0.067154218 2:0.50217301 3:-1.0578876 4:2.1400577 
0.1 1:1.6466949 2:0.50217301 3:-1.0578876 4:2.1400577 
0.05156733378953463 1:2.4364653 2:0.50217301 3:-1.0578876 4:2.1400577 
0.1 1:-0.98587293 2:-0.51180266 3:-1.0578876 4:0.49520735 
0.1 1:-0.45935936 2:-0.51180266 3:-1.0578876 4:0.49520735 
0.1 1:0.59366779 2:-0.51180266 3:-1.0578876 4:0.49520735 
0.1 1:1.1201814 2:-0.51180266 3:-1.0578876 4:0.49520735 
0.1 1:-0.45935936 2:0.51033452 3:-0.75227299 4:0.3456755 
0.1 1:0.067154218 2:0.51033452 3:-0.75227299 4:0.3456755 
0.1 1:0.59366779 2:0.51033452 3:-0.75227299 4:0.3456755 
0.04761532623280459 1:1.1201814 2:0.51033452 3:-0.75227299 4:0.3456755 
0.1 1:-0.98587293 2:-1.7423003 3:-0.14104378 4:-1.149643 
0.1 1:-0.72261614 2:-1.7423003 3:-0.14104378 4:-1.149643 
0.1 1:-0.45935936 2:-1.7423003 3:-0.14104378 4:-1.149643 
0.1 1:-0.19610257 2:-1.7423003 3:-0.14104378 4:-1.149643 
-0.1 1:-0.98587293 2:-1.3198922 3:0.47018543 4:-1.149643 
-0.1 1:-0.45935936 2:-1.3198922 3:0.47018543 4:-1.149643 
-0.1 1:-0.19610257 2:-1.3198922 3:0.47018543 4:-1.149643 
0.1 1:-0.45935936 2:1.4908789 3:-0.14104378 4:0.1156265 
-0.03374534498701758 1:-0.98587293 2:1.5046437 3:-0.14104378 4:0.1156265 
-0.1 1:-0.45935936 2:1.5046437 3:-0.14104378 4:0.1156265 
-0.1 1:0.067154218 2:1.5046437 3:-0.14104378 4:0.1156265 
-0.1 1:0.59366779 2:1.5046437 3:-0.14104378 4:0.1156265 
-0.1 1:1.1201814 2:1.5046437 3:-0.14104378 4:0.1156265 
0.1 1:-0.98587293 2:-0.064929326 3:0.47018543 4:-1.149643 
0.1 1:-0.19610257 2:-0.064929326 3:0.47018543 4:-1.149643 
-0.1 1:0.59366779 2:1.4549935 3:2.6094877 4:-0.40198375 
-0.1 1:-1.2491297 2:-1.0869247 3:-1.3635022 4:-1.149643 
-0.1 1:-0.19610257 2:-1.0869247 3:-1.3635022 4:-1.149643 
-0.1 1:-0.98587293 2:-0.34444687 3:0.47018543 4:-1.149643 
-0.1 1:-0.72261614 2:-0.34444687 3:0.47018543 4:-1.149643 
-0.1 1:-0.45935936 2:-0.34444687 3:0.47018543 4:-1.149643 
-0.1 1:-0.19610257 2:-0.34444687 3:0.47018543 4:-1.149643 
-0.1 1:-0.45935936 2:0.38457623 3:0.47018543 4:-0.053076098 
-0.1 1:0.067154218 2:0.38457623 3:0.47018543 4:-0.053076098 
-0.1 1:0.59366779 2:0.38457623 3:0.47018543 4:-0.053076098 
-0.1 1:1.1201814 2:0.38457623 3:0.47018543 4:-0.053076098 
-0.001187606153079186 1:0.59366779 2:0.97650137 3:0.16457083 4:0.02525011 
-0.1 1:1.1201814 2:0.97650137 3:0.16457083 4:0.02525011 
0.1 1:-0.98587293 2:-0.50343508 3:-0.44665838 4:-1.149643 
0.000332930758174904 1:-0.19610257 2:-0.50343508 3:-0.44665838 4:-1.149643 
-0.1 1:-0.72261614 2:-0.57769577 3:-1.0578876 4:2.1400577 
-0.1 1:0.067154218 2:-0.57769577 3:-1.0578876 4:2.1400577 
-0.1 1:0.85692458 2:-0.57769577 3:-1.0578876 4:2.1400577 
-0.1 1:1.6466949 2:-0.57769577 3:-1.0578876 4:2.1400577 
-0.1 1:2.4364653 2:-0.57769577 3:-1.0578876 4:2.1400577 
-0.1 1:-0.45935936 2:-0.50184752 3:-0.75227299 4:0.3456755 
-0.1 1:0.067154218 2:-0.50184752 3:-0.75227299 4:0.3456755 
-0.1 1:0.59366779 2:-0.50184752 3:-0.75227299 4:0.3456755 
-0.1 1:1.1201814 2:-0.50184752 3:-0.75227299 4:0.3456755 
-0.1 1:-0.45935936 2:0.85335465 3:-0.14104378 4:0.1156265 
-0.00844429670049833 1:-0.98587293 2:-1.3118618 3:-0.44665838 4:0.22106563 
-0.1 1:0.067154218 2:1.6558032 3:-0.44665838 4:0.22106563 
-0.1 1:-1.2491297 2:-1.5620712 3:0.16457083 4:-1.149643 
-0.1 1:-0.45935936 2:-1.5620712 3:0.16457083 4:-1.149643 
-0.1 1:-0.98587293 2:-0.52967285 3:-0.14104378 4:-1.149643 
-0.1 1:0.067154218 2:-0.12895848 3:0.16457083 4:0.02525011 
-0.1 1:0.59366779 2:-0.12895848 3:0.16457083 4:0.02525011 
-0.01403845083300562 1:-1.2491297 2:1.8151168 3:3.8319461 4:-1.149643 
-0.02763345312779925 1:-0.45935936 2:1.8151168 3:3.8319461 4:-1.149643 
-0.1 1:0.067154218 2:-0.50332164 3:-0.44665838 4:0.22106563 
-0.1 1:0.59366779 2:-0.50332164 3:-0.44665838 4:0.22106563 
-0.1 1:1.1201814 2:-0.50332164 3:-0.44665838 4:0.22106563 
0.1 1:-1.2491297 2:-0.23573389 3:-0.44665838 4:-1.149643 
0.1 1:-0.98587293 2:-0.23573389 3:-0.44665838 4:-1.149643 
0.08453075557755456 1:-0.72261614 2:-0.23573389 3:-0.44665838 4:-1.149643 
0.1 1:-0.45935936 2:-0.23573389 3:-0.44665838 4:-1.149643 
0.1 1:-0.19610257 2:-0.23573389 3:-0.44665838 4:-1.149643 
0.1 1:-0.98587293 2:1.2719265 3:-0.14104378 4:0.1156265 
0.1 1:-0.45935936 2:1.2719265 3:-0.14104378 4:0.1156265 
0.1 1:0.067154218 2:1.2719265 3:-0.14104378 4:0.1156265 
0.1 1:0.59366779 2:1.2719265 3:-0.14104378 4:0.1156265 
0.1 1:1.1201814 2:1.2719265 3:-0.14104378 4:0.1156265 
-0.1 1:-0.98587293 2:0.89090061 3:0.47018543 4:-0.053076098 
-0.1 1:-0.45935936 2:0.89090061 3:0.47018543 4:-0.053076098 
-0.1 1:0.59366779 2:0.89090061 3:0.47018543 4:-0.053076098 
-0.1 1:-0.72261614 2:1.1792651 3:0.47018543 4:1.0434908 
-0.1 1:0.067154218 2:1.1792651 3:0.47018543 4:1.0434908 
-0.1 1:2.4364653 2:1.1792651 3:0.47018543 4:1.0434908 
-0.1 1:1.1201814 2:0.73522393 3:0.47018543 4:-0.053076098 
-0.1 1:-0.98587293 2:0.8702312 3:-0.14104378 4:-1.149643 
-0.1 1:-0.72261614 2:0.8702312 3:-0.14104378 4:-1.149643 
-0.1 1:-0.45935936 2:0.8702312 3:-0.14104378 4:-1.149643 
-0.1 1:-0.19610257 2:0.8702312 3:-0.14104378 4:-1.149643 
0.1 1:-1.2491297 2:-1.3572152 3:-0.44665838 4:-1.149643 
0.1 1:-0.98587293 2:-1.3572152 3:-0.44665838 4:-1.149643 
0.1 1:-0.45935936 2:-1.3572152 3:-0.44665838 4:-1.149643 
0.1 1:-0.19610257 2:-1.3572152 3:-0.44665838 4:-1.149643 
-0.1 1:0.59366779 2:0.54209875 3:-0.44665838 4:0.22106563 
0.1 1:-1.2491297 2:-1.1660784 3:-1.3635022 4:-1.149643 
-0.1 1:-0.98587293 2:-1.1660784 3:-1.3635022 4:-1.149643 
0.1 1:-0.72261614 2:-1.1660784 3:-1.3635022 4:-1.149643 
0.1 1:-0.45935936 2:-1.1660784 3:-1.3635022 4:-1.149643 
-0.1 1:-0.45935936 2:0.99620144 3:-1.0578876 4:0.49520735 
0.1 1:-0.98587293 2:0.21591677 3:-0.44665838 4:0.22106563 
0.1 1:-0.45935936 2:0.21591677 3:-0.44665838 4:0.22106563 
0.1 1:0.067154218 2:0.21591677 3:-0.44665838 4:0.22106563 
0.1 1:0.59366779 2:0.21591677 3:-0.44665838 4:0.22106563 
0.1 1:1.1201814 2:0.21591677 3:-0.44665838 4:0.22106563 
-0.1 1:1.1201814 2:0.2933494 3:0.16457083 4:0.02525011 
0.1 1:0.59366779 2:-0.0052221281 3:0.77580004 4:-0.12161153 
0.1 1:1.1201814 2:-0.0052221281 3:0.77580004 4:-0.12161153 
-0.1 1:0.067154218 2:0.50981545 3:0.16457083 4:0.02525011 
-0.1 1:1.1201814 2:0.50981545 3:0.16457083 4:0.02525011 
-0.1 1:0.067154218 2:-0.17225761 3:0.47018543 4:-0.053076098 
-0.1 1:0.067154218 2:0.47485779 3:0.47018543 4:-0.053076098 
-0.1 1:0.59366779 2:0.47485779 3:0.47018543 4:-0.053076098 
-0.1 1:1.1201814 2:0.47485779 3:0.47018543 4:-0.053076098 
-0.1 1:1.6466949 2:-0.85987058 3:-0.14104378 4:1.380896 
-0.1 1:2.4364653 2:-0.85987058 3:-0.14104378 4:1.380896 
-0.1 1:-0.72261614 2:-0.37510424 3:-1.0578876 4:-1.149643 
-0.1 1:-0.45935936 2:0.44764365 3:2.3038731 4:-0.36638093 
-0.1 1:1.1201814 2:0.44764365 3:2.3038731 4:-0.36638093 
0.1 1:-0.72261614 2:1.172358 3:0.47018543 4:1.0434908 
-0.1 1:-0.72261614 2:-0.15719209 3:-1.0578876 4:2.1400577 
0.1 1:-0.45935936 2:-0.59573964 3:-0.14104378 4:0.1156265 
-0.05873813926511987 1:3.7527492 2:-0.74336062 3:-1.3635022 4:4.3331915 
0.1 1:-0.45935936 2:0.77764998 3:0.16457083 4:0.02525011 
0.1 1:0.067154218 2:0.77764998 3:0.16457083 4:0.02525011 
0.1 1:0.59366779 2:0.77764998 3:0.16457083 4:0.02525011 
0.1 1:1.1201814 2:0.77764998 3:0.16457083 4:0.02525011 
-0.1 1:0.067154218 2:0.13494205 3:-0.75227299 4:0.3456755 
-0.1 1:-0.72261614 2:-1.4062119 3:-0.75227299 4:-1.149643 
-0.1 1:-0.45935936 2:-1.4062119 3:-0.75227299 4:-1.149643 
-0.1 1:-0.45935936 2:1.2816614 3:0.47018543 4:-0.053076098 
-0.1 1:0.067154218 2:1.2816614 3:0.47018543 4:-0.053076098 
-0.1 1:-0.19610257 2:-0.60064769 3:1.6926439 4:2.3131998 
-0.1 1:-0.19610257 2:-0.60409039 3:1.6926439 4:-1.149643 
-0.1 1:-0.45935936 2:1.5519619 3:-0.75227299 4:0.3456755 
-0.1 1:0.067154218 2:1.5519619 3:-0.75227299 4:0.3456755 
-0.1 1:0.59366779 2:1.5519619 3:-0.75227299 4:0.3456755 
-0.1 1:1.1201814 2:1.5519619 3:-0.75227299 4:0.3456755 
-0.1 1:-0.72261614 2:-1.7328215 3:1.3870293 4:-1.149643 
-0.1 1:0.067154218 2:-0.23756616 3:-0.44665838 4:0.22106563 
-0.1 1:0.59366779 2:-0.23756616 3:-0.44665838 4:0.22106563 
-0.1 1:1.1201814 2:-0.23756616 3:-0.44665838 4:0.22106563 
-0.1 1:-0.45935936 2:1.5682728 3:0.47018543 4:-0.053076098 
-0.1 1:0.59366779 2:1.5682728 3:0.47018543 4:-0.053076098 
-0.1 1:-0.98587293 2:-0.40475469 3:-0.75227299 4:-1.149643 
-0.1 1:-0.72261614 2:-0.40475469 3:-0.75227299 4:-1.149643 
-0.1 1:-0.45935936 2:-0.40475469 3:-0.75227299 4:-1.149643 
-0.1 1:-0.19610257 2:-0.40475469 3:-0.75227299 4:-1.149643 
-0.001696821056756588 1:2.4364653 2:0.96576622 3:-0.44665838 4:1.5917743 
-0.09282701551366951 1:-0.98587293 2:1.293266 3:-0.14104378 4:0.1156265 
-0.1 1:-0.45935936 2:1.293266 3:-0.14104378 4:0.1156265 
-0.1 1:0.067154218 2:1.293266 3:-0.14104378 4:0.1156265 
-0.1 1:0.59366779 2:1.293266 3:-0.14104378 4:0.1156265 
-0.1 1:-0.98587293 2:-1.445999 3:0.47018543 4:-1.149643 
-0.0877522584499219 1:-0.72261614 2:-1.445999 3:0.47018543 4:-1.149643 
-0.1 1:-0.45935936 2:-1.445999 3:0.47018543 4:-1.149643 
-0.1 1:-0.19610257 2:-1.445999 3:0.47018543 4:-1.149643 
-0.1 1:0.067154218 2:1.1107685 3:2.3038731 4:-0.36638093 
-0.1 1:0.067154218 2:-0.25248629 3:-0.75227299 4:0.3456755 
-0.1 1:0.59366779 2:-0.25248629 3:-0.75227299 4:0.3456755 
-0.1 1:1.1201814 2:-0.25248629 3:-0.75227299 4:0.3456755 
-0.1 1:-0.45935936 2:-1.3787063 3:-1.3635022 4:-1.149643 
-0.1 1:-0.19610257 2:-1.3787063 3:-1.3635022 4:-1.149643 
-0.1 1:-0.45935936 2:-0.96178655 3:-1.0578876 4:0.49520735 
-0.1 1:-0.72261614 2:0.56199275 3:-0.75227299 4:1.840994 
-0.1 1:0.067154218 2:0.56199275 3:-0.75227299 4:1.840994 
-0.1 1:0.85692458 2:0.56199275 3:-0.75227299 4:1.840994 
-0.1 1:1.6466949 2:0.56199275 3:-0.75227299 4:1.840994 
-0.1 1:2.4364653 2:0.56199275 3:-0.75227299 4:1.840994 
-0.1 1:-1.2491297 2:0.49582155 3:-0.75227299 4:-1.149643 
-0.1 1:-0.45935936 2:0.49582155 3:-0.75227299 4:-1.149643 
-0.1 1:-0.19610257 2:0.49582155 3:-0.75227299 4:-1.149643 
-0.1 1:-0.45935936 2:-1.1985733 3:0.16457083 4:-1.149643 
0.1 1:-0.45935936 2:-0.13601358 3:-0.44665838 4:0.22106563 
0.1 1:0.067154218 2:-0.13601358 3:-0.44665838 4:0.22106563 
-0.1 1:0.067154218 2:0.58926679 3:1.9982585 4:0.49520735 
-0.1 1:0.85692458 2:0.58926679 3:1.9982585 4:0.49520735 
-0.1 1:1.6466949 2:0.58926679 3:1.9982585 4:0.49520735 
0.1 1:-0.72261614 2:0.55237743 3:-0.44665838 4:1.5917743 
0.1 1:0.067154218 2:0.55237743 3:-0.44665838 4:1.5917743 
0.1 1:0.85692458 2:0.55237743 3:-0.44665838 4:1.5917743 
0.1 1:1.6466949 2:0.55237743 3:-0.44665838 4:1.5917743 
0.1 1:2.4364653 2:0.55237743 3:-0.44665838 4:1.5917743 
-0.07891892644273131 1:-0.45935936 2:-0.65030188 3:-1.6691168 4:0.90641994 
-0.07083300492506502 1:1.1201814 2:-0.65030188 3:-1.6691168 4:0.90641994 
-0.1 1:-0.45935936 2:0.74034408 3:0.77580004 4:-0.12161153 
-0.1 1:0.59366779 2:0.74034408 3:0.77580004 4:-0.12161153 
-0.1 1:-0.45935936 2:1.1568568 3:-0.44665838 4:-1.149643 
-0.1 1:0.067154218 2:-0.35844974 3:-0.14104378 4:0.1156265 
-0.1 1:0.85692458 2:0.066865525 3:-0.75227299 4:1.840994 
-0.1 1:1.6466949 2:0.066865525 3:-0.75227299 4:1.840994 
0.1 1:-0.45935936 2:-0.92634014 3:-0.75227299 4:0.3456755 
0.1 1:-0.45935936 2:-0.65170155 3:-0.14104378 4:0.1156265 
0.1 1:0.59366779 2:-0.65170155 3:-0.14104378 4:0.1156265 
0.1 1:1.1201814 2:-0.65170155 3:-0.14104378 4:0.1156265 
-0.1 1:-0.98587293 2:0.072873785 3:-0.44665838 4:0.22106563 
0.1 1:0.067154218 2:-0.94776752 3:-0.44665838 4:1.5917743 
0.1 1:-0.98587293 2:0.71565099 3:-0.75227299 4:-1.149643 
0.1 1:-0.72261614 2:0.71565099 3:-0.75227299 4:-1.149643 
0.1 1:-0.45935936 2:0.71565099 3:-0.75227299 4:-1.149643 
0.1 1:-0.19610257 2:0.71565099 3:-0.75227299 4:-1.149643 
-0.1 1:0.067154218 2:1.0093635 3:1.0814146 4:0.78547506 
-0.1 1:-0.98587293 2:1.1658466 3:-0.44665838 4:0.22106563 
0.1 1:-0.98587293 2:1.2497385 3:-0.14104378 4:0.1156265 
0.1 1:-0.45935936 2:1.2497385 3:-0.14104378 4:0.1156265 
0.1 1:0.067154218 2:1.2497385 3:-0.14104378 4:0.1156265 
0.1 1:0.59366779 2:1.2497385 3:-0.14104378 4:0.1156265 
0.1 1:1.1201814 2:1.2497385 3:-0.14104378 4:0.1156265 
0.1 1:-0.98587293 2:0.67340179 3:1.3870293 4:-0.23583725 
0.1 1:-0.45935936 2:0.67340179 3:1.3870293 4:-0.23583725 
0.1 1:0.067154218 2:0.67340179 3:1.3870293 4:-0.23583725 
0.1 1:0.59366779 2:0.67340179 3:1.3870293 4:-0.23583725 
-0.1 1:0.067154218 2:0.4164676 3:-0.75227299 4:0.3456755 
-0.1 1:-0.98587293 2:-0.59233312 3:0.47018543 4:-0.053076098 
-0.09914634573127223 1:-0.45935936 2:-0.12319324 3:-0.75227299 4:0.3456755 
0.1 1:0.067154218 2:-0.12319324 3:-0.75227299 4:0.3456755 
0.1 1:0.59366779 2:-0.12319324 3:-0.75227299 4:0.3456755 
0.1 1:1.1201814 2:-0.12319324 3:-0.75227299 4:0.3456755 
0.1 1:-0.45935936 2:1.7078896 3:2.6094877 4:-1.149643 
0.0206286105257028 1:-0.19610257 2:1.7078896 3:2.6094877 4:-1.149643 
-0.09976424455313657 1:-0.98587293 2:1.5444709 3:0.16457083 4:0.02525011 
-0.1 1:-0.45935936 2:1.5444709 3:0.16457083 4:0.02525011 
-0.1 1:0.59366779 2:1.5444709 3:0.16457083 4:0.02525011 
-0.1 1:1.1201814 2:1.5444709 3:0.16457083 4:0.02525011 
0.1 1:1.1201814 2:0.66132476 3:0.77580004 4:-0.12161153 
-0.01312519900789755 1:-0.98587293 2:-1.290027 3:1.3870293 4:-1.149643 
-0.1 1:-0.72261614 2:1.5145183 3:0.16457083 4:1.2001432 
-0.1 1:2.4364653 2:1.5145183 3:0.16457083 4:1.2001432 
0.1 1:-0.98587293 2:0.78987576 3:-0.14104378 4:0.1156265 
0.1 1:-0.98587293 2:1.3991807 3:0.16457083 4:0.02525011 
0.1 1:-0.45935936 2:1.3991807 3:0.16457083 4:0.02525011 
0.1 1:0.067154218 2:1.3991807 3:0.16457083 4:0.02525011 
0.1 1:0.59366779 2:1.3991807 3:0.16457083 4:0.02525011 
0.1 1:1.1201814 2:1.3991807 3:0.16457083 4:0.02525011 
0.09324306022481429 1:-0.19610257 2:-1.2992634 3:-1.0578876 4:-1.149643 
0.1 1:0.59366779 2:-0.80615434 3:1.0814146 4:-0.18208397 
0.1 1:1.1201814 2:-0.80615434 3:1.0814146 4:-0.18208397 
-0.1 1:-0.98587293 2:1.4142434 3:-1.0578876 4:0.49520735 
-0.1 1:-0.45935936 2:1.4142434 3:-1.0578876 4:0.49520735 
-0.1 1:0.59366779 2:1.4142434 3:-1.0578876 4:0.49520735 
-0.1 1:1.1201814 2:1.4142434 3:-1.0578876 4:0.49520735 
0.09348721384869299 1:-0.45935936 2:-1.0166248 3:-0.75227299 4:0.3456755 
0.1 1:0.59366779 2:-1.0166248 3:-0.75227299 4:0.3456755 
0.1 1:1.1201814 2:-1.0166248 3:-0.75227299 4:0.3456755 
-0.02372406038702987 1:-0.72261614 2:1.7226618 3:4.1375607 4:0.068764669 
-0.04680687301108698 1:2.4364653 2:1.7226618 3:4.1375607 4:0.068764669 
-0.1 1:-0.45935936 2:-0.33893729 3:-0.14104378 4:0.1156265 
-0.1 1:1.1201814 2:-0.33893729 3:-0.14104378 4:0.1156265 
0.1 1:0.85692458 2:0.072245843 3:0.47018543 4:1.0434908 
0.1 1:1.6466949 2:0.072245843 3:0.47018543 4:1.0434908 
0.1 1:2.4364653 2:0.072245843 3:0.47018543 4:1.0434908 
0.1 1:-0.45935936 2:-0.38779013 3:-1.0578876 4:0.49520735 
0.1 1:1.1201814 2:-0.38779013 3:-1.0578876 4:0.49520735 
0.1 1:-0.72261614 2:0.55462641 3:0.47018543 4:1.0434908 
-0.1 1:2.4364653 2:0.55462641 3:0.47018543 4:1.0434908 
-0.1 1:-0.98587293 2:-0.26267722 3:-0.75227299 4:0.3456755 
-0.1 1:0.067154218 2:-0.26267722 3:-0.75227299 4:0.3456755 
-0.1 1:0.59366779 2:-0.26267722 3:-0.75227299 4:0.3456755 
-0.1 1:1.1201814 2:-0.26267722 3:-0.75227299 4:0.3456755 
-0.1 1:-0.98587293 2:1.0835222 3:-0.14104378 4:-1.149643 
-0.1 1:-0.72261614 2:1.0835222 3:-0.14104378 4:-1.149643 
-0.1 1:-0.45935936 2:1.0835222 3:-0.14104378 4:-1.149643 
-0.1 1:0.59366779 2:-0.87823691 3:-0.44665838 4:0.22106563 
-0.1 1:1.1201814 2:-0.87823691 3:-0.44665838 4:0.22106563 
-0.1 1:-1.2491297 2:1.0536642 3:0.16457083 4:-1.149643 
-0.1 1:-0.98587293 2:1.0536642 3:0.16457083 4:-1.149643 
-0.1 1:-0.45935936 2:1.0536642 3:0.16457083 4:-1.149643 
-0.1 1:-0.19610257 2:1.0536642 3:0.16457083 4:-1.149643 
-0.1 1:-0.72261614 2:1.5008553 3:1.0814146 4:0.78547506 
-0.1 1:0.067154218 2:1.5008553 3:1.0814146 4:0.78547506 
-0.1 1:0.85692458 2:1.5008553 3:1.0814146 4:0.78547506 
-0.1 1:1.6466949 2:1.5008553 3:1.0814146 4:0.78547506 
-0.1 1:2.4364653 2:1.5008553 3:1.0814146 4:0.78547506 
-0.1 1:-0.72261614 2:-0.066145772 3:-0.44665838 4:1.5917743 
-0.1 1:0.067154218 2:-0.066145772 3:-0.44665838 4:1.5917743 
-0.1 1:0.85692458 2:-0.066145772 3:-0.44665838 4:1.5917743 
-0.1 1:1.6466949 2:-0.066145772 3:-0.44665838 4:1.5917743 
-0.1 1:2.4364653 2:-0.066145772 3:-0.44665838 4:1.5917743 
-0.1 1:-0.19610257 2:-0.67290505 3:-0.14104378 4:-1.149643 
0.1 1:-0.45935936 2:-0.48824412 3:0.16457083 4:2.3750363 
0.1 1:0.59366779 2:-0.48824412 3:0.16457083 4:2.3750363 
0.1 1:1.6466949 2:-0.48824412 3:0.16457083 4:2.3750363 
0.1 1:2.6997221 2:-0.48824412 3:0.16457083 4:2.3750363 
0.1 1:3.7527492 2:-0.48824412 3:0.16457083 4:2.3750363 
0.1 1:-1.2491297 2:0.22986386 3:1.0814146 4:-1.149643 
0.1 1:-0.72261614 2:0.22986386 3:1.0814146 4:-1.149643 
0.1 1:-0.45935936 2:0.22986386 3:1.0814146 4:-1.149643 
0.1 1:-0.98587293 2:0.2065014 3:0.77580004 4:-1.149643 
-0.1 1:-0.19610257 2:-1.7555309 3:0.16457083 4:-1.149643 
-0.1 1:0.59366779 2:0.52299109 3:-0.14104378 4:0.1156265 
-0.1 1:1.1201814 2:0.52299109 3:-0.14104378 4:0.1156265 
-0.1 1:-0.98587293 2:0.25239482 3:-0.75227299 4:0.3456755 
-0.1 1:1.1201814 2:0.25239482 3:-0.75227299 4:0.3456755 
0.004927512593781818 1:-0.98587293 2:-1.4977847 3:5.3600191 4:-0.61904611 
0.0007897550891268048 1:0.067154218 2:-1.4977847 3:5.3600191 4:-0.61904611 
0.01051743430953619 1:0.59366779 2:-1.4977847 3:5.3600191 4:-0.61904611 
0.1 1:-0.45935936 2:-0.30024989 3:0.16457083 4:2.3750363 
0.1 1:0.59366779 2:-0.30024989 3:0.16457083 4:2.3750363 
0.1 1:1.6466949 2:-0.30024989 3:0.16457083 4:2.3750363 
0.1 1:2.6997221 2:-0.30024989 3:0.16457083 4:2.3750363 
0.1 1:3.7527492 2:-0.30024989 3:0.16457083 4:2.3750363 
-0.1 1:-0.45935936 2:-1.399039 3:1.0814146 4:-1.149643 
-0.1 1:-0.19610257 2:-1.399039 3:1.0814146 4:-1.149643 
-0.1 1:-1.2491297 2:0.2190224 3:0.16457083 4:-1.149643 
0.1 1:0.067154218 2:0.44826529 3:1.0814146 4:0.78547506 
0.1 1:2.4364653 2:0.44826529 3:1.0814146 4:0.78547506 
-0.1 1:0.067154218 2:-1.2515442 3:-0.44665838 4:1.5917743 
-0.1 1:-0.45935936 2:-1.0720699 3:0.47018543 4:-0.053076098 
-0.1 1:0.067154218 2:-1.0720699 3:0.47018543 4:-0.053076098 
-0.1 1:0.59366779 2:-1.0720699 3:0.47018543 4:-0.053076098 
-0.1 1:1.1201814 2:-1.0720699 3:0.47018543 4:-0.053076098 
0.1 1:-0.45935936 2:-0.96190245 3:0.47018543 4:-0.053076098 
0.1 1:1.1201814 2:-0.96190245 3:0.47018543 4:-0.053076098 
-0.1 1:1.1201814 2:-1.7230477 3:-1.0578876 4:0.49520735 
-0.1 1:-0.72261614 2:0.74003594 3:-0.75227299 4:1.840994 
-0.1 1:0.067154218 2:0.74003594 3:-0.75227299 4:1.840994 
-0.1 1:0.85692458 2:0.74003594 3:-0.75227299 4:1.840994 
-0.1 1:1.6466949 2:0.74003594 3:-0.75227299 4:1.840994 
-0.1 1:2.4364653 2:0.74003594 3:-0.75227299 4:1.840994 
0.1 1:0.85692458 2:-1.1158404 3:0.47018543 4:1.0434908 
0.1 1:2.4364653 2:-1.1158404 3:0.47018543 4:1.0434908 
-0.1 1:1.6466949 2:-1.1455612 3:1.0814146 4:0.78547506 
-0.1 1:2.4364653 2:-1.1455612 3:1.0814146 4:0.78547506 
0.1 1:-0.45935936 2:-0.53227943 3:-1.0578876 4:0.49520735 
0.1 1:0.59366779 2:-0.53227943 3:-1.0578876 4:0.49520735 
0.1 1:1.1201814 2:-0.53227943 3:-1.0578876 4:0.49520735 
0.1 1:-0.98587293 2:0.57036798 3:-0.14104378 4:-1.149643 
0.1 1:-0.72261614 2:0.57036798 3:-0.14104378 4:-1.149643 
0.1 1:-0.45935936 2:0.57036798 3:-0.14104378 4:-1.149643 
0.1 1:-0.19610257 2:0.57036798 3:-0.14104378 4:-1.149643 
0.1 1:-0.72261614 2:0.39947768 3:-0.14104378 4:1.380896 
0.1 1:0.067154218 2:0.39947768 3:-0.14104378 4:1.380896 
0.1 1:0.85692458 2:0.39947768 3:-0.14104378 4:1.380896 
0.1 1:1.6466949 2:0.39947768 3:-0.14104378 4:1.380896 
0.1 1:2.4364653 2:0.39947768 3:-0.14104378 4:1.380896 
-0.1 1:0.067154218 2:0.50285182 3:-1.3635022 4:0.6779685 
-0.1 1:0.59366779 2:0.50285182 3:-1.3635022 4:0.6779685 
-0.1 1:1.1201814 2:0.50285182 3:-1.3635022 4:0.6779685 
-0.0118801003617034 1:-0.19610257 2:-1.2762806 3:-0.75227299 4:-1.149643 
0.05321455968882841 1:0.59366779 2:-1.0291876 3:-0.75227299 4:3.3363125 
0.04691973753219728 1:2.6997221 2:-1.0291876 3:-0.75227299 4:3.3363125 
0.07981114737440825 1:3.7527492 2:-1.0291876 3:-0.75227299 4:3.3363125 
0.1 1:-0.72261614 2:-0.92352319 3:-0.44665838 4:-1.149643 
0.1 1:-0.45935936 2:-0.92352319 3:-0.44665838 4:-1.149643 
0.1 1:-0.19610257 2:-0.92352319 3:-0.44665838 4:-1.149643 
0.1 1:-0.72261614 2:-0.87811807 3:0.77580004 4:0.90641994 
0.1 1:0.067154218 2:-0.87811807 3:0.77580004 4:0.90641994 
0.1 1:0.85692458 2:-0.87811807 3:0.77580004 4:0.90641994 
0.1 1:1.6466949 2:-0.87811807 3:0.77580004 4:0.90641994 
0.1 1:2.4364653 2:-0.87811807 3:0.77580004 4:0.90641994 
-0.1 1:0.067154218 2:-1.2604123 3:-0.44665838 4:1.5917743 
-0.1 1:1.6466949 2:-1.2604123 3:-0.44665838 4:1.5917743 
-0.1 1:2.4364653 2:-1.2604123 3:-0.44665838 4:1.5917743 
0.1 1:-0.98587293 2:0.15398584 3:-1.3635022 4:0.6779685 
0.1 1:0.59366779 2:0.15398584 3:-1.3635022 4:0.6779685 
0.1 1:1.1201814 2:0.15398584 3:-1.3635022 4:0.6779685 
0.1 1:-1.2491297 2:-0.3567783 3:-0.14104378 4:-1.149643 
0.1 1:-0.98587293 2:-0.3567783 3:-0.14104378 4:-1.149643 
0.1 1:-0.72261614 2:-0.3567783 3:-0.14104378 4:-1.149643 
0.1 1:-0.45935936 2:-0.3567783 3:-0.14104378 4:-1.149643 
0.1 1:-0.19610257 2:-0.3567783 3:-0.14104378 4:-1.149643 
-0.1 1:-0.98587293 2:1.0713402 3:-0.44665838 4:0.22106563 
-0.1 1:-0.45935936 2:1.0713402 3:-0.44665838 4:0.22106563 
-0.1 1:0.067154218 2:1.0713402 3:-0.44665838 4:0.22106563 
-0.1 1:0.59366779 2:1.0713402 3:-0.44665838 4:0.22106563 
-0.1 1:1.1201814 2:1.0713402 3:-0.44665838 4:0.22106563 
0.1 1:0.067154218 2:-0.66202753 3:-1.0578876 4:0.49520735 
0.1 1:-0.98587293 2:0.4083672 3:0.47018543 4:-0.053076098 
0.1 1:-0.45935936 2:0.4083672 3:0.47018543 4:-0.053076098 
0.1 1:0.067154218 2:0.4083672 3:0.47018543 4:-0.053076098 
0.1 1:0.59366779 2:0.4083672 3:0.47018543 4:-0.053076098 
0.1 1:1.1201814 2:0.4083672 3:0.47018543 4:-0.053076098 
0.009869045365848731 1:3.7527492 2:-1.4530512 3:3.5263315 4:0.82417742 
-0.1 1:-0.72261614 2:-0.91728748 3:-0.14104378 4:-1.149643 
-0.1 1:-0.45935936 2:-0.91728748 3:-0.14104378 4:-1.149643 
-0.1 1:-0.19610257 2:-0.91728748 3:-0.14104378 4:-1.149643 
-0.1 1:-0.45935936 2:0.798608 3:-0.14104378 4:0.1156265 
-0.1 1:-0.98587293 2:0.7017309 3:-0.14104378 4:-1.149643 
-0.1 1:-0.72261614 2:0.7017309 3:-0.14104378 4:-1.149643 
-0.1 1:-0.45935936 2:0.7017309 3:-0.14104378 4:-1.149643 
-0.1 1:-0.19610257 2:0.7017309 3:-0.14104378 4:-1.149643 
-0.1 1:-0.98587293 2:-1.6072515 3:-0.75227299 4:-1.149643 
-0.1 1:-0.45935936 2:-1.6072515 3:-0.75227299 4:-1.149643 
-0.1 1:0.59366779 2:-0.29679577 3:-0.44665838 4:0.22106563 
0.01168691986982574 1:3.7527492 2:0.32977535 3:2.9151023 4:0.99581398 
0.1 1:0.85692458 2:0.31814584 3:-0.75227299 4:1.840994 
0.1 1:1.6466949 2:0.31814584 3:-0.75227299 4:1.840994 
0.1 1:2.4364653 2:0.31814584 3:-0.75227299 4:1.840994 
0.0850810434654399 1:-0.98587293 2:-0.094197083 3:0.16457083 4:0.02525011 
-0.1 1:-0.45935936 2:-0.094197083 3:0.16457083 4:0.02525011 
0.1 1:1.6466949 2:-0.62815617 3:-0.75227299 4:1.840994 
0.1 1:2.4364653 2:-0.62815617 3:-0.75227299 4:1.840994 
0.1 1:-0.72261614 2:-0.1340342 3:-0.14104378 4:1.380896 
0.1 1:0.067154218 2:-0.1340342 3:-0.14104378 4:1.380896 
0.1 1:0.85692458 2:-0.1340342 3:-0.14104378 4:1.380896 
0.1 1:1.6466949 2:-0.1340342 3:-0.14104378 4:1.380896 
0.1 1:2.4364653 2:-0.1340342 3:-0.14104378 4:1.380896 
-0.1 1:0.59366779 2:0.19593775 3:0.77580004 4:-0.12161153 
-0.1 1:1.1201814 2:0.19593775 3:0.77580004 4:-0.12161153 
-0.1 1:2.6997221 2:0.18067082 3:1.0814146 4:1.7530341 
-0.1 1:-0.98587293 2:1.135743 3:-0.14104378 4:0.1156265 
-0.1 1:-1.2491297 2:0.17959101 3:-0.75227299 4:-1.149643 
-0.1 1:-0.98587293 2:0.17959101 3:-0.75227299 4:-1.149643 
-0.1 1:-0.72261614 2:0.17959101 3:-0.75227299 4:-1.149643 
-0.1 1:-0.45935936 2:0.17959101 3:-0.75227299 4:-1.149643 
-0.1 1:-0.19610257 2:0.17959101 3:-0.75227299 4:-1.149643 
-0.1 1:-0.45935936 2:0.89897138 3:-1.0578876 4:0.49520735 
-0.1 1:0.067154218 2:0.89897138 3:-1.0578876 4:0.49520735 
-0.1 1:0.59366779 2:0.89897138 3:-1.0578876 4:0.49520735 
0.01708574900565969 1:-0.45935936 2:-1.2848814 3:3.5263315 4:-1.149643 
0.08133078092385398 1:-0.98587293 2:-0.16312387 3:-1.0578876 4:0.49520735 
0.1 1:0.067154218 2:-0.16312387 3:-1.0578876 4:0.49520735 
0.1 1:0.59366779 2:-0.16312387 3:-1.0578876 4:0.49520735 
0.1 1:1.1201814 2:-0.16312387 3:-1.0578876 4:0.49520735 
-0.1 1:-0.72261614 2:-0.90206874 3:-0.44665838 4:-1.149643 
-0.1 1:-0.45935936 2:-0.90206874 3:-0.44665838 4:-1.149643 
-0.1 1:-0.19610257 2:-0.90206874 3:-0.44665838 4:-1.149643 
-0.1 1:0.59366779 2:0.64401483 3:0.47018543 4:-0.053076098 
0.1 1:0.85692458 2:-0.82645878 3:0.16457083 4:1.2001432 
-0.1 1:0.067154218 2:-0.61996038 3:1.0814146 4:0.78547506 
-0.1 1:1.6466949 2:-0.61996038 3:1.0814146 4:0.78547506 
0.1 1:-0.72261614 2:0.21288894 3:-1.0578876 4:-1.149643 
0.1 1:-0.45935936 2:0.21288894 3:-1.0578876 4:-1.149643 
0.1 1:-0.19610257 2:0.21288894 3:-1.0578876 4:-1.149643 
-0.00583181078263085 1:-0.45935936 2:-1.586552 3:6.276863 4:-0.66586348 
-0.1 1:-0.45935936 2:0.17279122 3:0.77580004 4:-1.149643 
-0.1 1:-0.98587293 2:-1.007398 3:-1.0578876 4:-1.149643 
-0.1 1:-0.45935936 2:-1.007398 3:-1.0578876 4:-1.149643 
-0.1 1:-0.19610257 2:-1.007398 3:-1.0578876 4:-1.149643 
-0.1 1:0.067154218 2:-1.2699412 3:-0.44665838 4:0.22106563 
-0.1 1:-0.98587293 2:-0.59815478 3:0.16457083 4:-1.149643 
0.02870854545652456 1:-0.98587293 2:1.5107307 3:0.47018543 4:-0.053076098 
-0.1 1:-0.45935936 2:-1.6527578 3:-0.14104378 4:0.1156265 
-0.1 1:0.067154218 2:-1.6527578 3:-0.14104378 4:0.1156265 
-0.1 1:0.59366779 2:-1.6527578 3:-0.14104378 4:0.1156265 
-0.1 1:1.1201814 2:-1.6527578 3:-0.14104378 4:0.1156265 
-0.1 1:-0.45935936 2:-0.42210789 3:-0.75227299 4:0.3456755 
-0.1 1:0.067154218 2:-0.42210789 3:-0.75227299 4:0.3456755 
-0.1 1:1.1201814 2:-0.42210789 3:-0.75227299 4:0.3456755 
-0.1 1:0.59366779 2:-0.48653486 3:-0.75227299 4:0.3456755 
-0.1 1:1.1201814 2:-0.48653486 3:-0.75227299 4:0.3456755 
-0.1 1:-0.45935936 2:0.3059335 3:-0.14104378 4:0.1156265 
-0.1 1:0.59366779 2:0.3059335 3:-0.14104378 4:0.1156265 
-0.1 1:1.1201814 2:0.3059335 3:-0.14104378 4:0.1156265 
-0.1 1:-0.98587293 2:-0.061711792 3:0.77580004 4:-0.12161153 
0.1 1:0.59366779 2:-0.061711792 3:0.77580004 4:-0.12161153 
-0.1 1:-0.72261614 2:1.2489403 3:-0.75227299 4:1.840994 
-0.1 1:0.067154218 2:1.2489403 3:-0.75227299 4:1.840994 
-0.1 1:0.85692458 2:1.2489403 3:-0.75227299 4:1.840994 
-0.1 1:1.6466949 2:1.2489403 3:-0.75227299 4:1.840994 
-0.1 1:2.4364653 2:1.2489403 3:-0.75227299 4:1.840994 
-0.1 1:-0.45935936 2:0.68991886 3:1.0814146 4:-1.149643 
-0.1 1:-0.19610257 2:0.68991886 3:1.0814146 4:-1.149643 
-0.1 1:-0.45935936 2:0.18859011 3:0.47018543 4:-0.053076098 
-0.1 1:0.59366779 2:0.18859011 3:0.47018543 4:-0.053076098 
-0.1 1:1.1201814 2:0.18859011 3:0.47018543 4:-0.053076098 
0.1 1:0.067154218 2:0.096781156 3:0.16457083 4:0.02525011 
0.1 1:0.59366779 2:0.096781156 3:0.16457083 4:0.02525011 
0.1 1:1.1201814 2:0.096781156 3:0.16457083 4:0.02525011 
-0.1 1:-0.72261614 2:0.14432854 3:-0.14104378 4:1.380896 
-0.1 1:0.067154218 2:0.14432854 3:-0.14104378 4:1.380896 
-0.1 1:2.4364653 2:0.14432854 3:-0.14104378 4:1.380896 
0.1 1:0.067154218 2:1.3032503 3:-0.14104378 4:0.1156265 
0.1 1:0.59366779 2:1.3032503 3:-0.14104378 4:0.1156265 
0.1 1:1.1201814 2:1.3032503 3:-0.14104378 4:0.1156265 
-0.1 1:0.85692458 2:-0.85085345 3:0.47018543 4:1.0434908 
0.1 1:-0.98587293 2:1.2320422 3:-0.14104378 4:-1.149643 
0.1 1:-0.45935936 2:1.2320422 3:-0.14104378 4:-1.149643 
0.1 1:-0.19610257 2:1.2320422 3:-0.14104378 4:-1.149643 
-0.1 1:1.6466949 2:-0.068539374 3:-0.75227299 4:1.840994 
0.1 1:-0.98587293 2:0.40137996 3:-1.0578876 4:0.49520735 
0.1 1:1.1201814 2:0.40137996 3:-1.0578876 4:0.49520735 
0.1 1:-0.98587293 2:-0.52227925 3:-0.75227299 4:-1.149643 
0.1 1:-0.72261614 2:-0.52227925 3:-0.75227299 4:-1.149643 
0.1 1:-0.45935936 2:-0.52227925 3:-0.75227299 4:-1.149643 
0.1 1:-0.19610257 2:-0.52227925 3:-0.75227299 4:-1.149643 
0.1 1:-1.2491297 2:-0.25199972 3:0.47018543 4:-1.149643 
0.1 1:-0.45935936 2:-0.60965296 3:0.16457083 4:0.02525011 
0.1 1:1.1201814 2:-0.60965296 3:0.16457083 4:0.02525011 
0.1 1:-1.2491297 2:0.81713792 3:0.16457083 4:-1.149643 
0.1 1:-0.98587293 2:0.81713792 3:0.16457083 4:-1.149643 
0.1 1:-0.72261614 2:0.81713792 3:0.16457083 4:-1.149643 
0.1 1:-0.45935936 2:0.81713792 3:0.16457083 4:-1.149643 
0.1 1:-0.19610257 2:0.81713792 3:0.16457083 4:-1.149643 
-0.1 1:-0.45935936 2:-1.5206437 3:0.47018543 4:-0.053076098 
-0.1 1:0.59366779 2:-1.5206437 3:0.47018543 4:-0.053076098 
0.1 1:2.4364653 2:0.56971155 3:-0.14104378 4:1.380896 
0.1 1:-0.98587293 2:-1.4918179 3:-0.44665838 4:0.22106563 
0.1 1:0.067154218 2:-1.4918179 3:-0.44665838 4:0.22106563 
0.1 1:0.59366779 2:-1.4918179 3:-0.44665838 4:0.22106563 
0.1 1:1.1201814 2:-1.4918179 3:-0.44665838 4:0.22106563 
-0.1 1:0.067154218 2:0.35771802 3:1.0814146 4:-0.18208397 
-0.1 1:0.59366779 2:0.35771802 3:1.0814146 4:-0.18208397 
-0.1 1:1.1201814 2:0.35771802 3:1.0814146 4:-0.18208397 
-0.1 1:-0.19610257 2:-1.4198205 3:0.16457083 4:-1.149643 
0.1 1:-0.72261614 2:0.62209954 3:-0.14104378 4:1.380896 
0.1 1:0.067154218 2:0.62209954 3:-0.14104378 4:1.380896 
0.1 1:0.85692458 2:0.62209954 3:-0.14104378 4:1.380896 
0.1 1:2.4364653 2:0.62209954 3:-0.14104378 4:1.380896 
0.1 1:0.067154218 2:1.2928253 3:1.3870293 4:-0.23583725 
0.1 1:0.59366779 2:1.2928253 3:1.3870293 4:-0.23583725 
0.1 1:1.1201814 2:1.2928253 3:1.3870293 4:-0.23583725 
-0.1 1:1.1201814 2:-1.2701016 3:0.47018543 4:-0.053076098 
-0.1 1:2.4364653 2:0.78236289 3:1.0814146 4:0.78547506 
-0.1 1:-0.45935936 2:-0.6706226 3:-0.44665838 4:-1.149643 
-0.1 1:-0.19610257 2:-0.6706226 3:-0.44665838 4:-1.149643 
-0.1 1:0.067154218 2:0.25637414 3:-0.44665838 4:1.5917743 
-0.02944508098926188 1:1.6466949 2:0.25637414 3:-0.44665838 4:1.5917743 
-0.1 1:2.4364653 2:0.25637414 3:-0.44665838 4:1.5917743 
-0.1 1:-0.98587293 2:-0.8286349 3:0.77580004 4:-0.12161153 
-0.03798317084022122 1:-0.45935936 2:-0.8286349 3:0.77580004 4:-0.12161153 
0.1 1:0.067154218 2:-0.55226273 3:-0.14104378 4:0.1156265 
0.1 1:0.59366779 2:-0.55226273 3:-0.14104378 4:0.1156265 
0.1 1:1.1201814 2:-0.55226273 3:-0.14104378 4:0.1156265 
-0.1 1:1.1201814 2:-0.38194079 3:0.47018543 4:-0.053076098 
0.1 1:1.1201814 2:0.8540069 3:-0.14104378 4:0.1156265 
0.1 1:0.067154218 2:-1.0582142 3:0.47018543 4:-0.053076098 
0.1 1:0.59366779 2:-1.0582142 3:0.47018543 4:-0.053076098 
0.1 1:1.1201814 2:-1.0582142 3:0.47018543 4:-0.053076098 
0.1 1:-0.98587293 2:-0.020701207 3:-0.44665838 4:0.22106563 
0.1 1:-0.45935936 2:-0.020701207 3:-0.44665838 4:0.22106563 
0.1 1:0.067154218 2:-0.020701207 3:-0.44665838 4:0.22106563 
0.1 1:0.59366779 2:-0.020701207 3:-0.44665838 4:0.22106563 
0.1 1:1.1201814 2:-0.020701207 3:-0.44665838 4:0.22106563 
-0.007769107492372213 1:0.59366779 2:1.3199885 3:2.3038731 4:-0.36638093 
0.1 1:-0.98587293 2:-0.047970598 3:-0.75227299 4:0.3456755 
0.1 1:-0.45935936 2:-0.047970598 3:-0.75227299 4:0.3456755 
0.1 1:0.067154218 2:-0.047970598 3:-0.75227299 4:0.3456755 
0.1 1:0.59366779 2:-0.047970598 3:-0.75227299 4:0.3456755 
0.1 1:1.1201814 2:-0.047970598 3:-0.75227299 4:0.3456755 
0.1 1:-1.2491297 2:0.1927794 3:2.9151023 4:-1.149643 
0.1 1:-0.98587293 2:0.1927794 3:2.9151023 4:-1.149643 
-0.1 1:0.85692458 2:-0.7277302 3:-1.0578876 4:2.1400577 
-0.1 1:1.6466949 2:-0.7277302 3:-1.0578876 4:2.1400577 
-0.1 1:2.4364653 2:-0.7277302 3:-1.0578876 4:2.1400577 
0.1 1:-0.45935936 2:0.14263249 3:-0.44665838 4:0.22106563 
0.1 1:0.067154218 2:0.14263249 3:-0.44665838 4:0.22106563 
0.1 1:0.59366779 2:0.14263249 3:-0.44665838 4:0.22106563 
0.1 1:1.1201814 2:0.14263249 3:-0.44665838 4:0.22106563 
0.1 1:1.6466949 2:1.5280413 3:0.47018543 4:1.0434908 
0.1 1:2.4364653 2:1.5280413 3:0.47018543 4:1.0434908 
0.1 1:-0.72261614 2:0.13806659 3:2.6094877 4:-1.149643 
0.01328364915902607 1:-0.45935936 2:0.13806659 3:2.6094877 4:-1.149643 
0.1 1:-1.2491297 2:0.45652556 3:-0.44665838 4:-1.149643 
0.1 1:-0.98587293 2:0.45652556 3:-0.44665838 4:-1.149643 
0.1 1:-0.45935936 2:0.45652556 3:-0.44665838 4:-1.149643 
0.1 1:0.59366779 2:1.1739036 3:0.16457083 4:0.02525011 
0.1 1:1.1201814 2:1.1739036 3:0.16457083 4:0.02525011 
0.1 1:0.067154218 2:-1.1287232 3:-0.75227299 4:0.3456755 
0.1 1:1.1201814 2:-1.1287232 3:-0.75227299 4:0.3456755 
0.03452542142499701 1:0.067154218 2:1.4331763 3:1.3870293 4:0.6779685 
0.1 1:0.85692458 2:1.4331763 3:1.3870293 4:0.6779685 
0.1 1:1.6466949 2:1.4331763 3:1.3870293 4:0.6779685 
0.1 1:2.4364653 2:1.4331763 3:1.3870293 4:0.6779685 
-0.1 1:1.1201814 2:-0.44623122 3:-1.3635022 4:0.6779685 
0.1 1:-0.45935936 2:0.63442791 3:-1.0578876 4:0.49520735 
0.1 1:1.1201814 2:0.63442791 3:-1.0578876 4:0.49520735 
-0.1 1:0.067154218 2:0.25489079 3:0.77580004 4:-0.12161153 
-0.1 1:1.1201814 2:0.25489079 3:0.77580004 4:-0.12161153 
-0.1 1:2.4364653 2:-0.087879517 3:0.16457083 4:1.2001432 
-0.1 1:-0.72261614 2:-0.90496056 3:-0.44665838 4:-1.149643 
-0.1 1:-0.45935936 2:-0.90496056 3:-0.44665838 4:-1.149643 
-0.1 1:-0.19610257 2:-0.90496056 3:-0.44665838 4:-1.149643 
-0.1 1:-0.45935936 2:0.37787389 3:-0.75227299 4:0.3456755 
0.1 1:-0.72261614 2:-0.15721517 3:-1.0578876 4:-1.149643 
0.1 1:-0.45935936 2:-0.15721517 3:-1.0578876 4:-1.149643 
0.1 1:-0.19610257 2:-0.15721517 3:-1.0578876 4:-1.149643 
-0.1 1:-0.98587293 2:-1.5078637 3:-0.75227299 4:-1.149643 
-0.1 1:-0.72261614 2:-1.5078637 3:-0.75227299 4:-1.149643 
-0.1 1:-0.45935936 2:-1.5078637 3:-0.75227299 4:-1.149643 
-0.1 1:-0.19610257 2:-1.5078637 3:-0.75227299 4:-1.149643 
-0.1 1:0.59366779 2:1.8058013 3:-0.14104378 4:0.1156265 
-0.1 1:1.1201814 2:1.8058013 3:-0.14104378 4:0.1156265 
-0.1 1:1.1201814 2:0.46971633 3:0.47018543 4:-0.053076098 
-0.1 1:0.067154218 2:1.6973153 3:0.77580004 4:-0.12161153 
-0.08070986096950608 1:0.59366779 2:1.6973153 3:0.77580004 4:-0.12161153 
-0.1 1:1.1201814 2:1.6973153 3:0.77580004 4:-0.12161153 
0.01657677464897114 1:-0.19610257 2:-0.62701383 3:0.77580004 4:2.9624829 
-0.07017584988364454 1:1.1201814 2:-0.62701383 3:0.77580004 4:2.9624829 
-0.01806843346916012 1:2.4364653 2:-0.62701383 3:0.77580004 4:2.9624829 
-0.06000131383346385 1:3.7527492 2:-0.62701383 3:0.77580004 4:2.9624829 
-0.02417292135336936 1:5.0690332 2:-0.62701383 3:0.77580004 4:2.9624829 
0.1 1:0.067154218 2:0.24557762 3:-1.0578876 4:2.1400577 
0.1 1:1.6466949 2:0.24557762 3:-1.0578876 4:2.1400577 
0.1 1:2.4364653 2:0.24557762 3:-1.0578876 4:2.1400577 
-0.1 1:0.59366779 2:-1.5896432 3:-0.44665838 4:0.22106563 
-0.1 1:1.1201814 2:-1.5896432 3:-0.44665838 4:0.22106563 
-0.1 1:0.85692458 2:0.79321518 3:1.3870293 4:0.6779685 
-0.1 1:2.4364653 2:0.79321518 3:1.3870293 4:0.6779685 
0.1 1:-0.98587293 2:-0.2351122 3:0.16457083 4:-1.149643 
-0.1 1:-0.72261614 2:-1.1299451 3:-0.44665838 4:1.5917743 
-0.1 1:0.067154218 2:-1.1299451 3:-0.44665838 4:1.5917743 
-0.1 1:1.6466949 2:-1.1299451 3:-0.44665838 4:1.5917743 
-0.1 1:2.4364653 2:-1.1299451 3:-0.44665838 4:1.5917743 
-0.1 1:-0.98587293 2:-0.50923226 3:0.47018543 4:-0.053076098 
-0.1 1:-0.45935936 2:-0.50923226 3:0.47018543 4:-0.053076098 
0.1 1:0.85692458 2:-1.2121743 3:0.16457083 4:1.2001432 
0.1 1:1.6466949 2:-1.2121743 3:0.16457083 4:1.2001432 
0.1 1:2.4364653 2:-1.2121743 3:0.16457083 4:1.2001432 
0.1 1:-0.72261614 2:0.27326497 3:-0.75227299 4:1.840994 
0.1 1:0.067154218 2:0.27326497 3:-0.75227299 4:1.840994 
0.1 1:0.85692458 2:0.27326497 3:-0.75227299 4:1.840994 
0.1 1:1.6466949 2:0.27326497 3:-0.75227299 4:1.840994 
0.1 1:2.4364653 2:0.27326497 3:-0.75227299 4:1.840994 
0.1 1:-0.45935936 2:-1.0595648 3:-0.75227299 4:0.3456755 
0.1 1:0.067154218 2:-1.0595648 3:-0.75227299 4:0.3456755 
0.1 1:0.59366779 2:-1.0595648 3:-0.75227299 4:0.3456755 
-0.1 1:-0.45935936 2:0.044766032 3:0.77580004 4:-1.149643 
-0.1 1:-0.19610257 2:0.044766032 3:0.77580004 4:-1.149643 
-0.1 1:0.59366779 2:1.9878767 3:0.47018543 4:-0.053076098 
-0.1 1:-1.2491297 2:-0.2601821 3:-0.14104378 4:-1.149643 
-0.1 1:-0.98587293 2:-0.2601821 3:-0.14104378 4:-1.149643 
-0.1 1:-0.19610257 2:-0.2601821 3:-0.14104378 4:-1.149643 
-0.1 1:-0.98587293 2:0.60713439 3:-0.14104378 4:0.1156265 
0.0006379521775027723 1:0.59366779 2:0.84876386 3:0.47018543 4:2.1400577 
0.03795886136500969 1:1.6466949 2:0.84876386 3:0.47018543 4:2.1400577 
0.08677788498528551 1:2.6997221 2:0.84876386 3:0.47018543 4:2.1400577 
0.1 1:0.067154218 2:0.22463363 3:0.16457083 4:0.02525011 
0.1 1:0.067154218 2:-0.74150305 3:-0.14104378 4:0.1156265 
0.1 1:0.59366779 2:-0.74150305 3:-0.14104378 4:0.1156265 
0.1 1:1.1201814 2:-0.74150305 3:-0.14104378 4:0.1156265 
0.1 1:-0.98587293 2:0.40587047 3:0.47018543 4:-0.053076098 
0.1 1:-0.45935936 2:0.40587047 3:0.47018543 4:-0.053076098 
-0.1 1:0.59366779 2:0.64715458 3:-0.75227299 4:0.3456755 
-0.1 1:-0.98587293 2:-1.2693064 3:-0.44665838 4:0.22106563 
-0.1 1:0.067154218 2:-1.2693064 3:-0.44665838 4:0.22106563 
-0.1 1:0.59366779 2:-1.2693064 3:-0.44665838 4:0.22106563 
-0.1 1:1.1201814 2:-1.2693064 3:-0.44665838 4:0.22106563 
0.1 1:0.85692458 2:-0.4267476 3:-0.44665838 4:1.5917743 
0.1 1:2.4364653 2:-0.4267476 3:-0.44665838 4:1.5917743 
-0.0001460204073571906 1:-0.98587293 2:0.38010042 3:-0.44665838 4:-1.149643 
-0.1 1:-0.45935936 2:0.38010042 3:-0.44665838 4:-1.149643 
-0.1 1:-0.19610257 2:0.38010042 3:-0.44665838 4:-1.149643 
0.1 1:-0.19610257 2:-1.1209592 3:-0.75227299 4:-1.149643 
-0.0818884799020695 1:-0.98587293 2:0.6030478 3:1.6926439 4:-0.28393229 
-0.1 1:-0.45935936 2:0.6030478 3:1.6926439 4:-0.28393229 
-0.1 1:0.59366779 2:0.6030478 3:1.6926439 4:-0.28393229 
-0.1 1:-0.45935936 2:0.20237991 3:-0.44665838 4:0.22106563 
-0.1 1:0.067154218 2:0.20237991 3:-0.44665838 4:0.22106563 
-0.1 1:0.59366779 2:0.20237991 3:-0.44665838 4:0.22106563 
-0.1 1:1.1201814 2:0.20237991 3:-0.44665838 4:0.22106563 
0.06674522532568568 1:1.6466949 2:-0.41291521 3:-0.75227299 4:1.840994 
0.1 1:2.4364653 2:-0.41291521 3:-0.75227299 4:1.840994 
-0.1 1:-1.2491297 2:0.37370702 3:-0.44665838 4:-1.149643 
-0.1 1:-0.72261614 2:0.37370702 3:-0.44665838 4:-1.149643 
-0.1 1:-0.98587293 2:-0.82330997 3:-0.75227299 4:-1.149643 
-0.1 1:-0.72261614 2:-0.82330997 3:-0.75227299 4:-1.149643 
-0.1 1:-0.45935936 2:-0.82330997 3:-0.75227299 4:-1.149643 
-0.1 1:-0.19610257 2:-0.82330997 3:-0.75227299 4:-1.149643 
-0.03775816881454165 1:0.067154218 2:-1.0480106 3:-1.0578876 4:0.49520735 
0.1 1:-0.98587293 2:-0.61811752 3:-1.0578876 4:0.49520735 
0.1 1:0.067154218 2:-0.25882491 3:0.16457083 4:1.2001432 
0.1 1:1.6466949 2:-0.25882491 3:0.16457083 4:1.2001432 
0.1 1:2.4364653 2:-0.25882491 3:0.16457083 4:1.2001432 
-0.1 1:-0.45935936 2:1.7832224 3:-0.44665838 4:-1.149643 
-0.1 1:-0.45935936 2:-0.033957188 3:-1.0578876 4:-1.149643 
-0.1 1:-0.19610257 2:-0.033957188 3:-1.0578876 4:-1.149643 
0.1 1:-0.98587293 2:0.037434539 3:0.47018543 4:-0.053076098 
0.1 1:-0.45935936 2:0.037434539 3:0.47018543 4:-0.053076098 
0.1 1:0.067154218 2:0.037434539 3:0.47018543 4:-0.053076098 
0.1 1:0.59366779 2:0.037434539 3:0.47018543 4:-0.053076098 
0.1 1:1.1201814 2:0.037434539 3:0.47018543 4:-0.053076098 
-0.07048713560575244 1:-0.72261614 2:1.4884952 3:-0.75227299 4:1.840994 
-0.1 1:0.067154218 2:1.4884952 3:-0.75227299 4:1.840994 
-0.02637648573838305 1:1.6466949 2:1.4884952 3:-0.75227299 4:1.840994 
-0.1 1:-0.98587293 2:-0.0093053889 3:-1.0578876 4:0.49520735 
-0.1 1:0.067154218 2:-0.0093053889 3:-1.0578876 4:0.49520735 
-0.1 1:0.59366779 2:-0.0093053889 3:-1.0578876 4:0.49520735 
-0.1 1:1.1201814 2:-0.0093053889 3:-1.0578876 4:0.49520735 
0.1 1:0.067154218 2:-1.5953346 3:-0.14104378 4:0.1156265 
0.04315798832281186 1:0.59366779 2:-1.5953346 3:-0.14104378 4:0.1156265 
0.1 1:1.1201814 2:-1.5953346 3:-0.14104378 4:0.1156265 
0.1 1:0.59366779 2:1.4082061 3:0.47018543 4:-0.053076098 
0.1 1:1.1201814 2:1.4082061 3:0.47018543 4:-0.053076098 
-0.1 1:-1.2491297 2:1.42618 3:-0.75227299 4:-1.149643 
-0.1 1:-0.72261614 2:1.42618 3:-0.75227299 4:-1.149643 
-0.06164260676370902 1:-0.19610257 2:1.42618 3:-0.75227299 4:-1.149643 
0.1 1:-0.19610257 2:-0.86888786 3:-0.75227299 4:-1.149643 
0.1 1:-0.98587293 2:0.30664346 3:-0.44665838 4:-1.149643 
0.1 1:-0.72261614 2:0.30664346 3:-0.44665838 4:-1.149643 
0.1 1:-0.45935936 2:0.30664346 3:-0.44665838 4:-1.149643 
0.1 1:-0.19610257 2:0.30664346 3:-0.44665838 4:-1.149643 
0.1 1:0.067154218 2:0.91369103 3:0.47018543 4:1.0434908 
-0.03462596554503826 1:0.85692458 2:0.91369103 3:0.47018543 4:1.0434908 
0.1 1:1.6466949 2:0.91369103 3:0.47018543 4:1.0434908 
0.1 1:2.4364653 2:0.91369103 3:0.47018543 4:1.0434908 
-0.03422262380896746 1:-0.45935936 2:0.18707714 3:0.47018543 4:2.1400577 
-0.1 1:0.59366779 2:0.18707714 3:0.47018543 4:2.1400577 
-0.1 1:2.6997221 2:0.18707714 3:0.47018543 4:2.1400577 
-0.1 1:3.7527492 2:0.18707714 3:0.47018543 4:2.1400577 
0.1 1:0.067154218 2:0.93523783 3:0.77580004 4:0.90641994 
0.1 1:-0.72261614 2:1.2967573 3:0.47018543 4:-1.149643 
0.1 1:-0.45935936 2:1.2967573 3:0.47018543 4:-1.149643 
0.1 1:-0.19610257 2:1.2967573 3:0.47018543 4:-1.149643 
0.1 1:0.067154218 2:-0.23929381 3:0.77580004 4:-0.12161153 
0.1 1:0.59366779 2:-0.23929381 3:0.77580004 4:-0.12161153 
0.1 1:1.1201814 2:-0.23929381 3:0.77580004 4:-0.12161153 
0.1 1:-0.19610257 2:0.557267 3:1.0814146 4:-1.149643 
0.1 1:0.85692458 2:0.047120914 3:-0.14104378 4:1.380896 
0.04797180192972035 1:1.6466949 2:0.047120914 3:-0.14104378 4:1.380896 
0.1 1:2.4364653 2:0.047120914 3:-0.14104378 4:1.380896 
-0.1 1:-1.2491297 2:-0.32629516 3:-0.44665838 4:-1.149643 
-0.1 1:-0.45935936 2:-0.052587954 3:-0.14104378 4:0.1156265 
-0.1 1:1.1201814 2:-0.052587954 3:-0.14104378 4:0.1156265 
-0.04455257844478189 1:1.6466949 2:0.78867389 3:1.6926439 4:0.58177842 
0.1 1:0.85692458 2:0.87724951 3:0.77580004 4:0.90641994 
-0.1 1:-1.2491297 2:-1.7391721 3:0.16457083 4:-1.149643 
-0.1 1:-0.98587293 2:-1.7391721 3:0.16457083 4:-1.149643 
-0.1 1:-0.72261614 2:-1.7391721 3:0.16457083 4:-1.149643 
-0.1 1:-1.2491297 2:-0.080309686 3:-0.75227299 4:-1.149643 
-0.1 1:-0.98587293 2:-0.080309686 3:-0.75227299 4:-1.149643 
-0.1 1:-0.72261614 2:-1.4976488 3:0.47018543 4:-1.149643 
-0.1 1:-0.45935936 2:-1.4976488 3:0.47018543 4:-1.149643 
-0.1 1:-0.19610257 2:-1.4976488 3:0.47018543 4:-1.149643 
-0.1 1:-0.98587293 2:0.039703621 3:0.47018543 4:-1.149643 
-0.1 1:-0.72261614 2:0.039703621 3:0.47018543 4:-1.149643 
-0.1 1:-0.45935936 2:0.039703621 3:0.47018543 4:-1.149643 
-0.1 1:-0.19610257 2:0.039703621 3:0.47018543 4:-1.149643 
0.1 1:0.067154218 2:-0.16831389 3:-0.75227299 4:1.840994 
0.1 1:0.85692458 2:-0.16831389 3:-0.75227299 4:1.840994 
0.1 1:1.6466949 2:-0.16831389 3:-0.75227299 4:1.840994 
0.1 1:2.4364653 2:-0.16831389 3:-0.75227299 4:1.840994 
-0.1 1:-0.98587293 2:0.13538708 3:-0.44665838 4:-1.149643 
-0.1 1:-0.45935936 2:0.13538708 3:-0.44665838 4:-1.149643 
-0.1 1:-0.19610257 2:0.13538708 3:-0.44665838 4:-1.149643 
0.1 1:-0.98587293 2:0.88366982 3:0.16457083 4:0.02525011 
0.1 1:0.067154218 2:0.88366982 3:0.16457083 4:0.02525011 
0.1 1:1.6466949 2:-1.1901789 3:0.47018543 4:2.1400577 
-0.1 1:0.067154218 2:-1.133494 3:0.47018543 4:1.0434908 
-0.1 1:1.6466949 2:-1.133494 3:0.47018543 4:1.0434908 
-0.1 1:-0.45935936 2:0.40694353 3:-1.0578876 4:0.49520735 
-0.1 1:0.067154218 2:0.40694353 3:-1.0578876 4:0.49520735 
-0.1 1:0.59366779 2:0.40694353 3:-1.0578876 4:0.49520735 
-0.1 1:1.1201814 2:0.40694353 3:-1.0578876 4:0.49520735 
-0.07147653057464454 1:-0.45935936 2:-0.66963156 3:-0.14104378 4:2.6461655 
-0.1 1:1.6466949 2:-0.66963156 3:-0.14104378 4:2.6461655 
-0.1 1:-0.98587293 2:-1.0577169 3:-0.75227299 4:-1.149643 
-0.1 1:-0.45935936 2:-1.0577169 3:-0.75227299 4:-1.149643 
-0.1 1:-0.19610257 2:-1.0577169 3:-0.75227299 4:-1.149643 
-0.1 1:-0.72261614 2:1.2859736 3:0.77580004 4:-1.149643 
-0.1 1:-0.45935936 2:1.2859736 3:0.77580004 4:-1.149643 
-0.1 1:-0.19610257 2:1.2859736 3:0.77580004 4:-1.149643 
0.1 1:-0.98587293 2:-0.44258514 3:-0.14104378 4:0.1156265 
0.1 1:-0.45935936 2:-0.44258514 3:-0.14104378 4:0.1156265 
0.1 1:0.067154218 2:-0.44258514 3:-0.14104378 4:0.1156265 
0.1 1:0.59366779 2:-0.44258514 3:-0.14104378 4:0.1156265 
0.1 1:1.1201814 2:-0.44258514 3:-0.14104378 4:0.1156265 
-0.1 1:-0.45935936 2:0.84591086 3:-0.14104378 4:0.1156265 
-0.1 1:0.59366779 2:0.84591086 3:-0.14104378 4:0.1156265 
-0.1 1:0.59366779 2:1.6184144 3:-0.14104378 4:0.1156265 
0.1 1:0.59366779 2:1.2679989 3:1.0814146 4:-0.18208397 
-0.1 1:-0.72261614 2:-1.5063407 3:0.47018543 4:-1.149643 
-0.1 1:1.1201814 2:0.61165608 3:0.77580004 4:-0.12161153 
-0.1 1:-0.72261614 2:-0.73561719 3:0.77580004 4:0.90641994 
-0.1 1:0.067154218 2:-0.73561719 3:0.77580004 4:0.90641994 
-0.1 1:0.85692458 2:-0.73561719 3:0.77580004 4:0.90641994 
-0.1 1:1.6466949 2:-0.73561719 3:0.77580004 4:0.90641994 
-0.1 1:2.4364653 2:-0.73561719 3:0.77580004 4:0.90641994 
-0.1 1:-0.19610257 2:1.7423327 3:-0.44665838 4:-1.149643 
-0.1 1:-0.45935936 2:-0.82598962 3:-0.44665838 4:2.9624829 
-0.1 1:0.59366779 2:-0.82598962 3:-0.44665838 4:2.9624829 
-0.1 1:1.6466949 2:-0.82598962 3:-0.44665838 4:2.9624829 
-0.1 1:2.6997221 2:-0.82598962 3:-0.44665838 4:2.9624829 
-0.1 1:3.7527492 2:-0.82598962 3:-0.44665838 4:2.9624829 
0.1 1:1.6466949 2:-1.0634199 3:-0.75227299 4:1.840994 
0.1 1:2.4364653 2:-1.0634199 3:-0.75227299 4:1.840994 
-0.1 1:-0.45935936 2:-1.0076899 3:0.16457083 4:0.02525011 
-0.1 1:0.067154218 2:-1.0076899 3:0.16457083 4:0.02525011 
-0.1 1:0.59366779 2:-1.0076899 3:0.16457083 4:0.02525011 
0.1 1:0.067154218 2:0.26846734 3:1.0814146 4:-0.18208397 
0.1 1:0.59366779 2:0.26846734 3:1.0814146 4:-0.18208397 
0.1 1:1.1201814 2:0.26846734 3:1.0814146 4:-0.18208397 
0.03060221101738859 1:2.4364653 2:1.3504627 3:1.6926439 4:0.58177842 
-0.1 1:1.1201814 2:-1.490153 3:-0.75227299 4:0.3456755 
0.0008267678343314673 1:0.85692458 2:-0.65630264 3:1.9982585 4:0.49520735 
0.1 1:2.4364653 2:-0.65630264 3:1.9982585 4:0.49520735 
-0.1 1:1.1201814 2:-0.46039697 3:-1.3635022 4:0.6779685 
